
\data\
ngram 1=2992

\1-grams:
-2.666027	!
-4.150327	%
-4.150327	&
-2.883155	'
-3.974235	'Cause
-4.150327	'Penny
-3.673205	'cause
-4.150327	'cos
-2.817888	'd
-3.974235	'em
-4.150327	'hey
-4.150327	'it
-2.645177	'll
-2.252699	'm
-2.275265	're
-1.788599	's
-2.883155	've
-1.247508	,
-1.141939	.
-4.150327	100
-4.150327	11
-4.150327	12
-4.150327	13
-4.150327	1619
-4.150327	1930
-4.150327	1969
-3.974235	2
-4.150327	2,000-year-old
-4.150327	2.6
-4.150327	20
-4.150327	20-channel
-4.150327	200
-4.150327	29
-4.150327	3-D
-3.974235	30
-4.150327	360
-4.150327	6:30
-4.150327	7
-4.150327	7-Eleven
-4.150327	8
-4.150327	9,000
-4.150327	90
-4.150327	911
-4.150327	94
-3.172603	:
-4.150327	<
-1.167829	</s>
-99	<s>
-1.653397	?
-3.337413	A
-4.150327	Aagh
-4.150327	Aah
-3.974235	Abort
-4.150327	About
-4.150327	According
-3.849297	Actually
-4.150327	Afraid
-4.150327	Afrin
-3.974235	After
-4.150327	Again
-4.150327	Agency
-4.150327	Agreed
-3.548267	Ah
-4.150327	Air
-4.150327	Alabama
-4.150327	Alba
-3.974235	Alex
-4.150327	Alien
-3.337413	All
-4.150327	Almost
-4.150327	Alright
-3.974235	Although
-4.150327	Alvin
-4.150327	Always
-4.150327	Alzheimer
-3.974235	Am
-4.150327	Amazon
-3.337413	Amy
-4.150327	An
-2.838573	And
-4.150327	Angeles
-4.150327	Animals
-4.150327	Aniston
-3.974235	Another
-3.974235	Any
-4.150327	Anybody
-3.606258	Anyway
-4.150327	Ape-ist
-4.150327	Apollo
-4.150327	Apparently
-4.150327	Apple
-4.150327	Archimedes
-3.220908	Are
-4.150327	Ark
-3.974235	Armenian
-4.150327	Around
-4.150327	Arrow
-4.150327	Arthur
-4.150327	Ask
-4.150327	At
-4.150327	Attaboy
-4.150327	Aunt
-3.974235	Auto
-3.974235	Aw
-4.150327	Awesome
-4.150327	Baby
-3.974235	Back
-4.150327	Bam
-4.150327	Barnett
-3.974235	Batman
-4.150327	Be
-4.150327	Beats
-4.150327	Beauty
-3.497114	Because
-4.150327	Before
-4.150327	Benjamin
-3.409964	Bernadette
-3.974235	Bert
-4.150327	Besides
-4.150327	Blossom
-4.150327	Blu-ray
-4.150327	Booting
-4.150327	Borrowed
-4.150327	Bowl
-3.974235	Boy
-4.150327	Brewbacca
-4.150327	Bring
-3.849297	Buddy
-4.150327	Buffy
-4.150327	Building
-4.150327	Bullock
-3.036383	But
-4.150327	Butterfinger
-4.150327	By
-3.752387	Bye
-4.150327	Bye-bye
-4.150327	CERN
-4.150327	Ca
-4.150327	Calling
-3.548267	Can
-4.150327	Cavalry
-4.150327	Celebrate
-4.150327	Cello
-4.150327	Center
-4.150327	Chancellor
-4.150327	Channel
-4.150327	Cheers
-4.150327	Chewbacca
-4.150327	Chicken
-4.150327	Chinese
-4.150327	Chipmunks
-4.150327	Christmases
-4.150327	Chuckle
-3.974235	City
-4.150327	Clark
-4.150327	Clearly
-4.150327	Coast
-4.150327	Colossus
-2.988959	Come
-4.150327	Comforting
-4.150327	Comic
-4.150327	Coming
-4.150327	Computer
-4.150327	Context
-3.548267	Cooper
-4.150327	Cos
-4.150327	Costco
-4.150327	Counterpoint
-4.150327	County
-4.150327	Court
-3.974235	Crockett
-4.150327	Cuddles
-4.150327	Cut
-4.150327	Cylon
-3.974235	D
-4.150327	DMV
-3.974235	DVD
-3.752387	Damn
-3.974235	Darth
-4.150327	Darwin
-4.150327	Davy
-3.974235	Day
-3.849297	Dear
-4.150327	Delhi
-4.150327	Demon
-3.974235	Dennis
-3.220908	Did
-4.150327	Disney
-4.150327	Disneyland
-4.150327	Dissertation
-3.004199	Do
-4.150327	Doctor
-3.673205	Does
-4.150327	Doing
-4.150327	Done
-4.150327	Double
-3.497114	Dr.
-4.150327	Drug
-4.150327	Duh-duh-duh-duh-duh-duh
-4.150327	Dune
-4.150327	During
-4.150327	Earl
-3.974235	Earth
-4.150327	East
-4.150327	Edna
-4.150327	Einstein
-3.974235	Elizabeth
-4.150327	Ellison
-3.849297	Emily
-4.150327	Emotionally
-4.150327	En
-4.150327	Enforcement
-4.150327	English
-4.150327	Etruscan
-3.974235	Even
-4.150327	Every
-4.150327	Everyday
-4.150327	Everyone
-3.849297	Everything
-3.673205	Exactly
-3.849297	Except
-3.409964	Excuse
-4.150327	Extraterrestrial
-4.150327	FYI
-4.150327	Face
-4.150327	Facebook
-4.150327	Fantastic
-4.150327	Father
-4.150327	Federation
-4.150327	Feynman
-3.673205	Fine
-4.150327	Finkleday
-4.150327	Fiona
-3.849297	First
-4.150327	Five
-4.150327	Fondell
-4.150327	Food
-3.752387	For
-4.150327	Force
-4.150327	Foreplay
-4.150327	Forget
-4.150327	Forty
-4.150327	Four
-4.150327	Fourteen
-3.974235	Franklin
-4.150327	French
-3.974235	Friday
-4.150327	Frisbee
-4.150327	Funny
-3.974235	G
-4.150327	GPS
-4.150327	Galapagos
-4.150327	Gap
-4.150327	Gargamel
-4.150327	Gatorade
-4.150327	Gee
-4.150327	Geez
-4.150327	General
-4.150327	Genius
-4.150327	Gepetto
-4.150327	German
-4.150327	Ginny
-4.150327	Girl
-4.150327	Giselle
-3.849297	Give
-4.150327	Glaringly
-4.150327	Glass
-4.150327	Glendale
-4.150327	Glowing
-3.606258	Go
-4.150327	Go-Go-Go-Go
-3.247236	God
-4.150327	Gods
-4.150327	Godzilla
-4.150327	Golden
-4.150327	Goldfarb
-3.372175	Good
-4.150327	Goodnight
-4.150327	Google
-3.849297	Got
-4.150327	Gotham
-3.974235	Grand
-3.372175	Great
-4.150327	Green
-4.150327	Guaranteed
-3.974235	Guys
-4.150327	Ha
-4.150327	Had
-4.150327	Halo
-4.150327	Hammer
-4.150327	Hand
-3.974235	Hang
-4.150327	Happily
-4.150327	Hard
-4.150327	Harlan
-4.150327	Haroun
-3.974235	Harry
-3.849297	Have
-3.752387	Hawking
-2.895054	He
-4.150327	Heimlich
-3.673205	Hello
-3.673205	Here
-4.150327	Heroes
-2.718963	Hey
-3.497114	Hi
-4.150327	Hiking
-3.974235	His
-3.372175	Hmm
-3.974235	Hobbit
-3.752387	Hofstadter
-3.849297	Hold
-4.150327	Holy
-4.150327	Homeland
-4.150327	Honestly
-4.150327	Hook
-2.849297	How
-2.959995	Howard
-4.150327	Howard'
-4.150327	Hufflepuff
-3.606258	Huh
-4.150327	Hulk
-4.150327	Huntsville
-4.150327	Hut
-4.150327	Hysterical
-1.543945	I
-3.849297	I'
-4.150327	I'm-I
-4.150327	IQ
-3.129137	If
-4.150327	Ignore
-4.150327	Illinois
-4.150327	Imperial
-3.606258	In
-3.849297	India
-3.974235	Indian
-4.150327	Innovative
-4.150327	Intellectually
-4.150327	Intelligence
-3.849297	Interesting
-4.150327	Invisible
-4.150327	Iron
-3.172603	Is
-4.150327	Islands
-2.482874	It
-4.150327	J
-4.150327	Jackson
-4.150327	Jamba
-4.150327	James
-4.150327	Japanese
-4.150327	Jeffries
-4.150327	Jennifer
-4.150327	Jersey
-4.150327	Jessica
-4.150327	Jet
-4.150327	Jews
-3.974235	Jim
-4.150327	Jiminy
-4.150327	Jobs
-4.150327	Jones
-4.150327	Joyce
-4.150327	Juice
-3.275265	Just
-4.150327	Justin
-4.150327	Karaoke
-4.150327	Kazakhstan
-4.150327	Keep
-4.150327	Kidnap
-4.150327	Kill
-4.150327	Killer
-4.150327	Kind
-4.150327	Kindle
-3.974235	Kites
-4.150327	Knight
-3.752387	Koothrappali
-4.150327	Koreatown
-3.974235	Kripke
-4.150327	Kudos
-4.150327	Kung
-3.974235	Kurt
-3.974235	LA
-4.150327	Lactose
-4.150327	Lalita
-3.974235	Lantern
-4.150327	Last
-4.150327	Latham
-4.150327	Laxative
-4.150327	Lay
-4.150327	League
-4.150327	Leakey
-4.150327	Leo
-3.372175	Leonard
-4.150327	Lesley
-3.497114	Leslie
-3.372175	Let
-3.849297	Like
-4.150327	Limits
-4.150327	List
-3.849297	Listen
-3.974235	Little
-3.305228	Look
-4.150327	Los
-4.150327	Lost
-3.974235	Love
-4.150327	Lucas
-4.150327	Luckily
-4.150327	Lucky
-4.150327	Lysine
-4.150327	Magneto
-3.974235	Man
-4.150327	Mandy
-4.150327	Manhattan
-4.150327	Mark
-4.150327	Martha
-3.974235	Mary
-4.150327	Maxwell
-3.337413	Maybe
-4.150327	Me
-4.150327	Me-wow
-4.150327	Mimesis
-4.150327	Mine
-3.849297	Missy
-4.150327	Mitzy
-3.673205	Mm
-3.849297	Mm-hmm
-4.150327	Mmm
-4.150327	Mmmm
-3.752387	Mom
-3.974235	Monday
-3.974235	Monkey
-4.150327	Monopoly
-4.150327	Monty
-3.752387	Morning
-4.150327	Morse
-4.150327	Mr
-3.849297	Mr.
-3.849297	Mrs.
-4.150327	Mumbai
-4.150327	Mummies
-3.372175	My
-4.150327	My-my
-4.150327	NASA
-3.974235	Nary
-4.150327	Neutral
-3.974235	Never
-3.673205	New
-3.849297	Next
-3.974235	Nice
-4.150327	Night
-2.455721	No
-4.150327	No-no-no
-4.150327	Nobel
-3.974235	Nobody
-4.150327	None
-3.673205	Nope
-3.974235	North
-3.129137	Not
-3.752387	Nothing
-3.451357	Now
-4.150327	Nurse
-4.150327	Nuys
-4.150327	Obviously
-3.409964	Of
-2.330783	Oh
-2.779259	Okay
-4.150327	Okay-dokay
-3.606258	On
-3.752387	Once
-4.150327	One
-3.974235	Ooh
-3.673205	Or
-3.974235	Orcs
-3.849297	Our
-4.150327	Out-Of-The
-4.150327	Outer
-4.150327	Over
-3.974235	Ow
-4.150327	PS3
-4.150327	Palace
-4.150327	Palo
-4.150327	Pasadena
-4.150327	Pay
-2.673205	Penny
-4.150327	Penny'
-3.849297	People
-4.150327	Perfect
-3.974235	Peter
-4.150327	Pfff
-4.150327	Physics
-4.150327	Pie
-4.150327	Pizza
-4.150327	PlayStation
-3.673205	Please
-4.150327	Plus
-4.150327	Pole
-4.150327	Potter
-4.150327	Preach
-4.150327	Predator
-4.150327	President
-3.974235	Pretty
-4.150327	Princeton
-3.451357	Priya
-4.150327	Prize
-4.150327	Probably
-3.974235	Problem
-4.150327	Project
-3.974235	Psst
-4.150327	Psychics
-4.150327	Pukhpa
-4.150327	Putting
-4.150327	Python
-4.150327	Quidditch
-4.150327	Quinto
-4.150327	Raiders
-2.946207	Raj
-4.150327	Ramona
-4.150327	Read
-3.089629	Really
-4.150327	Reconstituted
-4.150327	Refresh
-4.150327	Relatively
-4.150327	Relativity
-3.974235	Relax
-3.849297	Remember
-4.150327	Richard
-4.150327	Rider
-3.372175	Right
-4.150327	Roger
-4.150327	Romulans
-4.150327	Russian
-4.150327	SETI
-4.150327	Sagittarius
-4.150327	Same
-4.150327	Sandra
-4.150327	Santa
-3.974235	Saturday
-4.150327	Says
-4.150327	Schindler
-4.150327	Schnapps
-4.150327	Science
-4.150327	Scree-scree
-4.150327	Screw
-4.150327	Scrimmage'
-4.150327	Sea
-4.150327	Search
-4.150327	Security
-3.752387	See
-4.150327	Seibert
-4.150327	Serial
-4.150327	Seriously
-4.150327	Services
-4.150327	Sex
-4.150327	Shadow
-3.974235	Shame
-3.129137	She
-2.354446	Sheldon
-3.849297	Shelly
-4.150327	Shepherd
-4.150327	Sherlock
-4.150327	Shirt
-4.150327	Short
-3.673205	Should
-4.150327	Shrew
-4.150327	Siebert
-4.150327	Simon
-4.150327	Sir
-3.974235	Sit
-4.150327	Six
-4.150327	Skippy
-4.150327	Skis
-4.150327	Slayer
-3.974235	Slim
-4.150327	Slurpee
-3.974235	Small
-4.150327	Smart
-4.150327	Smurfs
-4.150327	Snapchat
-4.150327	Snapple
-4.150327	Snipe
-4.150327	Snort
-2.625282	So
-4.150327	Solakian
-4.150327	Sold
-4.150327	Soldier
-4.150327	Some
-4.150327	Somebody
-4.150327	Someday
-3.752387	Sometimes
-3.409964	Sorry
-3.974235	Sounds
-4.150327	Soup
-3.974235	Speech
-4.150327	Spock
-4.150327	Spockumentary
-4.150327	Spoiler
-4.150327	SpongeBob
-4.150327	Stanford
-3.606258	Star
-4.150327	Starting
-4.150327	Stay
-4.150327	Step
-3.974235	Stephanie
-3.849297	Stephen
-3.974235	Steve
-4.150327	Stewart
-4.150327	Still
-4.150327	Stop
-3.409964	Stuart
-4.150327	Superior
-4.150327	Superman
-3.275265	Sure
-4.150327	Svaty
-4.150327	Sweet
-3.752387	Switzerland
-3.673205	TV
-4.150327	Ta-da
-3.974235	Take
-4.150327	Taming
-4.150327	Tanweer
-3.974235	Technically
-4.150327	Tell
-3.974235	Ten
-3.849297	Terrific
-4.150327	Texas
-4.150327	Th
-3.974235	Thai
-2.988959	Thank
-3.606258	Thanks
-4.150327	Thanksgiving
-2.631813	That
-2.907289	The
-3.974235	Theft
-3.673205	Then
-3.053416	There
-3.974235	These
-3.275265	They
-4.150327	Thing
-3.129137	This
-3.974235	Those
-4.150327	Three
-4.150327	Thursday
-4.150327	Tiffany
-3.974235	Time
-4.150327	Tina
-3.673205	To
-4.150327	Tonight
-4.150327	Trek
-4.150327	Troopers
-4.150327	Trophy
-4.150327	Trust
-4.150327	Try
-4.150327	Twitter
-3.974235	Two
-4.150327	U
-4.150327	UPS
-4.150327	UV
-3.974235	Ugh
-2.807904	Uh
-4.150327	Uh'
-3.974235	Uh-huh
-3.974235	Uh-uh
-3.451357	Um
-3.974235	Um'
-4.150327	Unabomber
-3.974235	Unbelievable
-4.150327	Unruh
-4.150327	Until
-4.150327	Usually
-4.150327	Vaclav
-3.974235	Vader
-3.974235	Valentine
-4.150327	Vampire
-4.150327	Van
-3.974235	Vegas
-4.150327	Venus
-4.150327	Vulcan
-4.150327	W-w-wuh
-4.150327	Wackadoodle
-3.409964	Wait
-4.150327	Wake
-4.150327	Walls
-3.974235	Want
-4.150327	Warcraft
-3.673205	Wars
-3.974235	Was
-3.974235	Watch
-4.150327	Waugh
-2.673205	We
-2.588034	Well
-4.150327	Well'
-3.974235	Were
-4.150327	Wh
-2.386899	What
-3.451357	When
-3.548267	Where
-3.974235	Which
-3.337413	Who
-3.974235	Whoa
-4.150327	Whose
-2.817888	Why
-4.150327	Wi-Fi
-3.974235	Will
-4.150327	Wine
-4.150327	Winkle
-4.150327	Wireless
-3.849297	With
-4.150327	Wolowitz
-4.150327	World
-3.849297	Would
-3.451357	Wow
-4.150327	Wozniak
-2.55373	Yeah
-4.150327	Year
-3.849297	Yep
-2.932842	Yes
-4.150327	Yippee
-4.150327	Yoda
-2.275265	You
-4.150327	YouTube
-3.752387	Your
-3.849297	Yup
-4.150327	Zachary
-3.673205	Zack
-4.150327	Zone
-1.871573	a
-4.150327	a.m
-3.974235	able
-2.527077	about
-4.150327	accent
-3.974235	accident
-4.150327	accidentally
-4.150327	accomplishments
-4.150327	according
-4.150327	account
-3.974235	accused
-4.150327	acelerador
-4.150327	acetylene
-4.150327	achieve
-3.974235	acknowledge
-3.752387	across
-4.150327	act
-3.752387	acting
-4.150327	action
-4.150327	actual
-3.673205	actually
-4.150327	add
-4.150327	addressed
-4.150327	adjusted
-4.150327	admired
-4.150327	admit
-4.150327	advancements
-4.150327	adventure-role-playing
-4.150327	advice
-4.150327	affection
-3.974235	afraid
-3.752387	after
-3.974235	afternoon
-3.196084	again
-4.150327	against
-3.974235	age
-4.150327	age-appropriate
-3.752387	ago
-4.150327	agree
-3.849297	agreed
-3.849297	agreement
-4.150327	ah
-4.150327	ahead
-4.150327	airflow
-4.150327	airport
-4.150327	alcohol
-4.150327	alert
-4.150327	alibi
-3.849297	alien
-2.658965	all
-4.150327	allergist
-3.974235	allow
-3.849297	allowed
-4.150327	almost
-3.673205	alone
-4.150327	along
-4.150327	alpha
-4.150327	alphabetically
-3.451357	already
-3.752387	alright
-3.673205	also
-3.305228	always
-3.108934	am
-3.752387	amazing
-4.150327	ambiguity
-2.849297	an
-4.150327	analogies
-4.150327	analyze
-2.1129	and
-4.150327	announcement
-4.150327	annoying
-4.150327	anonymous
-3.606258	another
-3.849297	answer
-4.150327	answering
-4.150327	anthropic
-4.150327	anthropologist
-4.150327	anxiety
-3.196084	any
-3.849297	anybody
-3.974235	anymore
-3.752387	anyone
-3.305228	anything
-3.849297	anyway
-4.150327	apart
-3.752387	apartment
-4.150327	apiece
-3.974235	apologise
-3.849297	apologize
-3.974235	app
-4.150327	appear
-4.150327	applicants
-3.974235	applied
-3.752387	apply
-4.150327	appointment
-3.752387	appreciate
-3.974235	approach
-4.150327	appropriate
-4.150327	apron
-4.150327	ard
-2.473633	are
-4.150327	argue
-3.974235	argument
-3.497114	around
-4.150327	aroused
-4.150327	arrangements
-4.150327	artificial
-2.895054	as
-4.150327	aside
-3.220908	ask
-3.849297	asked
-3.849297	asking
-4.150327	asleep
-3.849297	ass
-4.150327	assume
-3.974235	asthma
-4.150327	asthma-and-glasses
-4.150327	astronauts
-2.687928	at
-4.150327	atom
-4.150327	attended
-3.974235	attending
-3.974235	attention
-3.849297	attractive
-4.150327	audition
-4.150327	aunt
-4.150327	author
-4.150327	autumn
-4.150327	available
-4.150327	avoid
-3.974235	aw
-4.150327	awake
-3.974235	award
-4.150327	aware
-3.752387	away
-4.150327	awful
-4.150327	awfully
-3.673205	awkward
-4.150327	babe
-3.606258	baby
-3.071145	back
-4.150327	back-scratching
-4.150327	backsies
-4.150327	backup
-3.247236	bad
-4.150327	badasses
-4.150327	badgers
-4.150327	badly
-4.150327	bag
-4.150327	bagels
-4.150327	bald
-4.150327	ball
-4.150327	balloon
-4.150327	balls
-4.150327	banana
-4.150327	bandages
-3.974235	bar
-4.150327	barbershop
-4.150327	bargain
-4.150327	baseball
-3.974235	basically
-3.974235	basket
-4.150327	bastard
-4.150327	bat
-3.849297	bathroom
-4.150327	battery
-3.974235	battle
-2.451357	be
-3.974235	beat
-4.150327	beats
-3.752387	beautiful
-3.129137	because
-4.150327	become
-3.974235	becoming
-3.305228	bed
-4.150327	bedroom
-3.036383	been
-3.372175	before
-4.150327	behaviour
-3.974235	behind
-3.275265	being
-3.409964	believe
-4.150327	belly
-4.150327	belongs
-4.150327	bend
-4.150327	bending
-4.150327	benedryl
-3.974235	besides
-3.606258	best
-3.974235	bet
-4.150327	beta
-4.150327	betrayal
-3.974235	betrayed
-3.372175	better
-3.673205	between
-4.150327	bifocals
-3.305228	big
-4.150327	big-ass
-4.150327	big-balled
-4.150327	bind
-4.150327	bio-social
-4.150327	biological
-3.974235	bird
-4.150327	birds
-3.849297	birthday
-4.150327	bisexual
-3.673205	bit
-4.150327	biting
-3.974235	black
-4.150327	blackmailing
-4.150327	bladder
-4.150327	blank
-4.150327	blend
-4.150327	blind
-4.150327	blonde
-4.150327	blood
-4.150327	bloopers
-3.974235	blow
-4.150327	blows
-4.150327	blur
-3.849297	board
-3.974235	body
-4.150327	boldly
-4.150327	bone
-4.150327	bones
-3.548267	book
-4.150327	books
-3.974235	boots
-3.849297	bored
-3.752387	boring
-4.150327	born
-4.150327	borrow
-3.548267	both
-4.150327	bother
-4.150327	bottom
-3.849297	bought
-3.752387	bounce
-4.150327	bowl
-3.974235	box
-3.673205	boy
-3.849297	boyfriend
-4.150327	boys
-4.150327	braiding
-4.150327	braver
-3.606258	break
-3.974235	breakfast
-4.150327	breaks
-4.150327	breakup
-4.150327	breast-feeding
-4.150327	breed
-4.150327	bricks
-4.150327	bride
-3.752387	bring
-4.150327	brings
-4.150327	broccoli
-3.974235	broke
-3.752387	broken
-3.673205	brother
-3.849297	brought
-3.974235	bucks
-4.150327	buddies
-4.150327	buddy
-4.150327	budgets
-4.150327	buffering
-4.150327	bug
-3.673205	building
-4.150327	built
-4.150327	bullies
-4.150327	bully
-4.150327	bullying
-3.974235	bunch
-4.150327	bungee
-3.974235	burn
-4.150327	burned
-4.150327	burped
-3.974235	bus
-3.752387	business
-4.150327	bust
-2.606258	but
-4.150327	butterfly
-3.548267	buy
-4.150327	buying
-3.409964	by
-2.932842	ca
-4.150327	cabin
-4.150327	caddie
-3.974235	cake
-3.451357	call
-3.409964	called
-4.150327	calling
-3.974235	calls
-4.150327	calm
-4.150327	camaraderie
-3.497114	came
-4.150327	camera
-4.150327	campaign
-4.150327	camping
-2.718963	can
-3.974235	candle
-4.150327	candy
-3.673205	car
-4.150327	carbohydrate
-3.849297	card
-3.606258	care
-3.974235	career
-4.150327	cars
-3.752387	case
-4.150327	cash
-4.150327	cashew
-4.150327	casting
-4.150327	cat
-4.150327	catch
-4.150327	categorized
-4.150327	catheter
-4.150327	caught
-4.150327	causing
-4.150327	caution
-4.150327	celebrate
-3.849297	cello
-4.150327	centripetal
-4.150327	cereal
-4.150327	ceremony
-4.150327	certain
-4.150327	certainly
-4.150327	chafed
-4.150327	challenge
-4.150327	challenges
-3.548267	chance
-3.849297	change
-3.606258	changed
-4.150327	changing
-4.150327	channel
-4.150327	charges
-4.150327	chart
-3.974235	chase
-4.150327	chasing
-3.752387	check
-4.150327	check-plus
-3.974235	checking
-4.150327	cheers
-4.150327	cheese
-3.849297	chest
-4.150327	chew
-3.974235	chicken
-4.150327	child
-3.752387	childhood
-4.150327	children
-3.974235	chocolate
-3.752387	choice
-4.150327	choke
-4.150327	choking
-3.974235	choose
-4.150327	chore
-4.150327	church
-4.150327	churches
-4.150327	circle
-4.150327	claim
-4.150327	claimed
-4.150327	clarify
-4.150327	class
-3.974235	clean
-3.849297	clear
-4.150327	clearly
-4.150327	close
-4.150327	closer
-3.974235	clothes
-4.150327	club
-4.150327	clubs
-3.974235	clue
-4.150327	clues
-4.150327	co-dependently
-4.150327	co-workers
-4.150327	code
-4.150327	coded
-3.849297	coffee
-4.150327	cofounders
-4.150327	college
-4.150327	colour
-4.150327	combined
-4.150327	combing
-4.150327	combustion
-2.907289	come
-3.849297	comes
-4.150327	comfortable
-3.673205	comic
-3.606258	coming
-4.150327	commentary
-4.150327	common
-4.150327	communicating
-3.974235	community
-4.150327	competitive
-4.150327	complain
-3.974235	complete
-4.150327	completely
-4.150327	compliment
-4.150327	compromise
-3.974235	computer
-4.150327	computers
-4.150327	concept
-4.150327	concern
-3.974235	concerned
-4.150327	conclusions
-4.150327	conditioning
-4.150327	conducting
-4.150327	cones
-4.150327	confident
-4.150327	conflict
-3.974235	confrontation
-3.752387	confused
-4.150327	congratulate
-3.849297	congratulations
-4.150327	conically
-4.150327	connections
-4.150327	consider
-4.150327	considered
-3.974235	considering
-4.150327	consistency
-4.150327	consists
-4.150327	consumed
-3.974235	contacts
-4.150327	content
-4.150327	contest
-4.150327	continuing
-4.150327	contracts
-3.974235	control
-4.150327	controlling
-4.150327	convention
-3.849297	conversation
-4.150327	cookie
-4.150327	cookies
-4.150327	cooking
-3.752387	cool
-4.150327	cooler
-3.974235	coolest
-4.150327	cords
-4.150327	corrected
-3.849297	couch
-2.919878	could
-3.974235	count
-4.150327	counting
-3.497114	couple
-3.451357	course
-4.150327	crack
-3.974235	crap
-4.150327	crappy
-4.150327	crashed
-4.150327	crate
-4.150327	crazier
-3.451357	crazy
-3.974235	create
-4.150327	created
-4.150327	creationists
-3.974235	credit
-4.150327	creepy
-4.150327	crew
-4.150327	cricket
-4.150327	crossbow
-3.974235	crossed
-4.150327	crouching
-4.150327	cruel
-4.150327	cry
-4.150327	crying
-4.150327	cryptanalysis
-4.150327	crystals
-4.150327	cuddly
-3.974235	cup
-4.150327	cure
-4.150327	curiosity
-4.150327	currently
-4.150327	curry
-4.150327	cushion
-4.150327	customer
-4.150327	cut
-4.150327	cut-up
-4.150327	cutbacks
-3.673205	cute
-3.849297	dad
-4.150327	damper
-3.974235	dancer
-4.150327	dancing
-4.150327	dangerous
-3.974235	dark
-4.150327	darkness
-3.451357	date
-3.752387	dating
-3.409964	day
-4.150327	day-old
-3.974235	days
-4.150327	de
-4.150327	dead
-3.752387	deal
-3.497114	death
-4.150327	debate
-3.974235	debt
-4.150327	decide
-3.752387	decided
-4.150327	decides
-4.150327	decision
-4.150327	defecating
-4.150327	defend
-4.150327	defends
-4.150327	defile
-4.150327	deliberately
-4.150327	delicious
-3.974235	delightful
-4.150327	deliver
-4.150327	delivery
-4.150327	demonstration
-4.150327	dentist
-3.849297	department
-4.150327	derivative
-4.150327	dermatologist
-4.150327	descendents
-4.150327	deserve
-4.150327	dessert
-3.974235	destroy
-4.150327	determine
-3.974235	development
-4.150327	device
-4.150327	dictate'
-2.492315	did
-3.974235	die
-3.974235	died
-3.752387	difference
-4.150327	different
-4.150327	difficult
-4.150327	digital
-4.150327	digress
-3.337413	dinner
-4.150327	dipped
-4.150327	directors
-3.974235	dirty
-4.150327	disappoints
-4.150327	disaster
-4.150327	disclose
-4.150327	discomfort
-4.150327	discouraged
-4.150327	discover
-4.150327	discovered
-4.150327	discovering
-3.974235	discovery
-4.150327	disease
-4.150327	disgusting
-4.150327	distance
-4.150327	distinguished
-2.056905	do
-3.752387	doctor
-4.150327	doctors
-4.150327	documentary
-2.932842	does
-4.150327	dog
-3.974235	dogs
-2.959995	doing
-3.497114	dollars
-3.305228	done
-3.673205	door
-4.150327	doorbell
-4.150327	dorky
-3.974235	doubt
-3.305228	down
-4.150327	downtown
-4.150327	dragged
-4.150327	drawers
-4.150327	dream
-4.150327	dreaming
-4.150327	dress
-3.974235	dressed
-4.150327	drink
-3.974235	drive
-4.150327	driving
-4.150327	drone
-3.849297	drop
-4.150327	drug
-4.150327	drugged
-4.150327	drugs
-4.150327	dude
-3.974235	dumb
-4.150327	dumpling
-3.974235	dumplings
-3.752387	during
-3.974235	e-mail
-4.150327	eBay
-3.673205	each
-4.150327	early
-4.150327	earn
-4.150327	earworm
-3.974235	easy
-3.752387	eat
-3.849297	eating
-4.150327	eats
-4.150327	effort
-3.849297	eight
-4.150327	eighteen
-3.849297	either
-4.150327	el
-3.974235	electricity
-4.150327	electromagnets
-4.150327	electron
-4.150327	element
-4.150327	eleven
-4.150327	elite
-4.150327	eloping
-3.497114	else
-4.150327	email
-4.150327	emailing
-4.150327	emasculation
-4.150327	embarrassed
-4.150327	emergencies
-4.150327	emergency
-4.150327	emotional
-4.150327	empty
-4.150327	encountered
-3.849297	end
-4.150327	ended
-3.974235	ending
-4.150327	enforce
-4.150327	engagement
-4.150327	engine
-3.849297	enjoy
-4.150327	enjoyed
-3.497114	enough
-4.150327	enter
-4.150327	enthusiast
-3.974235	entire
-4.150327	environmental
-4.150327	episode
-3.974235	equations
-3.974235	equipment
-3.974235	equivalent
-4.150327	escaped
-4.150327	esteemed
-4.150327	evaluate
-3.275265	even
-3.849297	evening
-3.974235	eventually
-3.247236	ever
-3.548267	every
-4.150327	everybody
-3.849297	everyone
-3.497114	everything
-3.974235	evil
-4.150327	evolution
-3.974235	ex-boyfriend
-3.849297	exactly
-3.974235	example
-3.974235	except
-4.150327	exception
-3.974235	excited
-4.150327	exciting
-4.150327	excuse
-4.150327	excuses
-3.974235	exercise
-4.150327	exist
-3.974235	expect
-4.150327	expecting
-4.150327	experiment
-3.974235	experimental
-4.150327	experiments
-3.974235	expert
-4.150327	expertise
-3.974235	explain
-4.150327	exploration
-4.150327	express
-4.150327	expression
-4.150327	extended
-4.150327	eye
-4.150327	eyes
-3.752387	face
-4.150327	facebook
-4.150327	facilitate
-4.150327	facing
-3.673205	fact
-3.974235	fair
-3.974235	fairly
-4.150327	fake
-4.150327	fall
-3.974235	falling
-3.849297	familiar
-3.849297	family
-4.150327	famous
-4.150327	fan
-4.150327	fans
-4.150327	fantastic
-4.150327	fantasy'
-3.974235	fascinating
-3.673205	fast
-4.150327	fat
-4.150327	fate
-3.673205	father
-4.150327	father-son
-3.752387	fault
-3.752387	favour
-3.849297	favourite
-4.150327	feature
-4.150327	fed
-4.150327	fee
-3.548267	feel
-3.752387	feeling
-3.548267	feelings
-3.974235	feels
-4.150327	feet
-4.150327	fell
-3.974235	felt
-4.150327	female
-3.606258	few
-4.150327	fibre
-4.150327	field
-4.150327	fifteen
-4.150327	fifties
-4.150327	fifty
-4.150327	fight
-3.974235	fighting
-3.673205	figure
-3.974235	figured
-4.150327	figuring
-4.150327	film
-4.150327	filter
-3.849297	finally
-3.974235	finances
-4.150327	financial
-4.150327	finches
-3.372175	find
-3.220908	fine
-4.150327	finger
-4.150327	finished
-3.974235	fired
-4.150327	firms
-3.172603	first
-3.974235	fish
-4.150327	fishes
-4.150327	five
-3.974235	fix
-4.150327	flag
-4.150327	flesh
-4.150327	flexible
-4.150327	flight
-4.150327	flip
-4.150327	flirting
-4.150327	flirty
-4.150327	flooded
-3.849297	floor
-4.150327	flop
-4.150327	flossing
-3.974235	flowers
-4.150327	focus
-4.150327	folder
-4.150327	folk
-3.974235	follow
-4.150327	followed
-3.497114	food
-3.974235	football
-2.394452	for
-4.150327	forbidden
-3.849297	force
-4.150327	forest
-3.752387	forget
-3.974235	forgive
-3.849297	forgot
-4.150327	formula
-3.752387	found
-4.150327	foundational
-3.849297	four
-4.150327	frame
-4.150327	freaking
-3.974235	free
-4.150327	freedom
-4.150327	freeloader
-4.150327	freeze
-4.150327	freshener
-3.247236	friend
-4.150327	friend'
-3.372175	friends
-4.150327	friendship
-4.150327	fries
-4.150327	frisky
-3.004199	from
-3.752387	front
-4.150327	frosty
-4.150327	froze
-4.150327	fruit
-4.150327	fulcrum
-3.974235	full
-3.409964	fun
-4.150327	funeral
-3.548267	funny
-4.150327	furniture
-4.150327	furry
-4.150327	future
-4.150327	galactic
-4.150327	galleria
-3.409964	game
-4.150327	games
-3.974235	gaming
-3.974235	garage
-4.150327	garbage
-3.974235	gas
-3.974235	gave
-4.150327	gay
-4.150327	gazelle
-4.150327	general
-4.150327	generated
-4.150327	genetic
-4.150327	genius
-4.150327	geniuses
-4.150327	gentleman
-4.150327	gentlemen
-4.150327	germophobe
-2.618848	get
-3.849297	gets
-3.497114	getting
-3.974235	giant
-3.974235	gibbon
-4.150327	gif
-3.974235	gift
-4.150327	gifts
-4.150327	gig
-3.409964	girl
-3.548267	girlfriend
-3.974235	girls
-4.150327	girly
-3.172603	give
-3.974235	given
-4.150327	gives
-3.974235	giving
-3.849297	glad
-4.150327	glass
-3.849297	glasses
-4.150327	glow-in-the-dark-emergency-exit
-2.576295	go
-4.150327	go-go
-3.974235	goblin
-4.150327	goes
-4.150327	goggles
-2.618848	going
-2.849297	gon
-3.606258	gone
-2.735353	good
-3.974235	gorgeous
-4.150327	gorilla
-2.779259	got
-3.849297	gotten
-4.150327	grab
-4.150327	grad
-4.150327	grade
-4.150327	graduating
-4.150327	grandmother
-4.150327	grant
-4.150327	grants
-4.150327	graphene
-3.974235	graphics
-4.150327	grasp
-4.150327	grave
-3.849297	gravity
-2.974235	great
-4.150327	great'
-3.974235	greatest
-4.150327	green
-4.150327	grew
-4.150327	grind
-4.150327	groom
-4.150327	group
-4.150327	grow
-4.150327	growing
-4.150327	grown
-4.150327	guarantee
-3.172603	guess
-4.150327	guest
-4.150327	guidance
-3.974235	guilty
-4.150327	gum
-4.150327	gun
-3.220908	guy
-3.172603	guys
-3.974235	gym
-4.150327	gynaecologist
-3.849297	ha
-2.959995	had
-4.150327	hadn't'
-3.752387	hair
-4.150327	hairiest
-3.974235	half
-3.849297	hall
-3.974235	hand
-4.150327	hand'
-4.150327	hands
-3.752387	hang
-4.150327	hanging
-3.606258	happen
-3.372175	happened
-3.849297	happening
-3.673205	happens
-3.409964	happy
-3.451357	hard
-4.150327	harder
-3.974235	hardly
-4.150327	harem
-4.150327	harmless
-3.247236	has
-4.150327	hat
-3.606258	hate
-4.150327	hated
-4.150327	hates
-2.402138	have
-4.150327	have'
-3.275265	having
-2.527077	he
-4.150327	he'
-3.752387	head
-3.974235	headed
-3.974235	heads
-4.150327	health
-3.372175	hear
-3.752387	heard
-3.974235	hearing
-4.150327	heart
-4.150327	heavy
-4.150327	hedge
-3.974235	held
-3.974235	helium
-4.150327	helium-neon
-3.606258	hell
-4.150327	hello
-4.150327	helm
-3.974235	helmet
-3.372175	help
-4.150327	helped
-4.150327	helpful
-3.974235	helping
-4.150327	helps
-2.727081	her
-2.838573	here
-4.150327	hereditary
-4.150327	heroes
-3.451357	hey
-3.849297	hi
-4.150327	hid
-4.150327	hide
-4.150327	hiding
-3.849297	high
-3.974235	higher
-4.150327	highest
-4.150327	highly
-2.703168	him
-4.150327	himself
-2.807904	his
-3.849297	hit
-3.974235	ho
-4.150327	hobo
-4.150327	hogging
-3.974235	hold
-3.974235	holding
-4.150327	hole
-4.150327	hologram
-3.337413	home
-4.150327	homo-habilus
-4.150327	honest
-4.150327	honour
-4.150327	honourable
-4.150327	honours
-4.150327	hootenannies
-3.673205	hope
-4.150327	hopelessly
-4.150327	hopes
-3.849297	horrible
-4.150327	horror
-3.974235	hot
-4.150327	hotter
-4.150327	hour
-3.548267	hours
-3.606258	house
-2.895054	how
-4.150327	hug
-4.150327	hugs
-3.974235	huh
-4.150327	hum
-3.974235	human
-4.150327	humiliation
-4.150327	humming
-3.849297	hundred
-4.150327	hungry
-4.150327	hunting
-4.150327	hurry
-4.150327	hurt
-4.150327	husband
-4.150327	hydrodynamics
-4.150327	hydroelectric
-3.974235	hypothesis
-4.150327	hysterical
-4.150327	i
-4.150327	iPod
-4.150327	ice
-3.129137	idea
-4.150327	ideal
-3.974235	ideas
-2.645177	if
-4.150327	ignore
-4.150327	imagination
-4.150327	impersonation
-4.150327	important
-4.150327	importantly
-4.150327	impossibility
-4.150327	impressed
-4.150327	impression
-4.150327	impromptu
-2.308342	in
-4.150327	in-in-in-instead
-4.150327	inch
-4.150327	inches
-4.150327	inconvenience
-3.974235	incredible
-3.974235	incredibly
-4.150327	individually
-4.150327	indoors
-3.849297	information
-4.150327	ingredients
-3.849297	inhaler
-4.150327	inherent
-3.849297	insane
-4.150327	insomnia
-4.150327	instead
-4.150327	integrity
-3.974235	intellectual
-4.150327	intend
-4.150327	intense
-3.974235	interested
-3.974235	interesting
-3.974235	internal
-4.150327	international
-4.150327	interrupted
-4.150327	intimacy
-3.275265	into
-3.974235	introduce
-4.150327	introducing
-4.150327	invented
-4.150327	invention
-4.150327	investments
-4.150327	invisibility
-3.849297	invite
-4.150327	invited
-4.150327	inward
-4.150327	irrigator
-4.150327	irritating
-2.21836	is
-1.968483	it
-4.150327	it'
-3.849297	its
-4.150327	jack
-4.150327	jacket
-4.150327	jail
-4.150327	jam
-4.150327	jealous
-4.150327	jeans
-4.150327	jeez
-4.150327	jersey
-3.849297	job
-3.673205	join
-4.150327	joining
-3.849297	joke
-4.150327	jokes
-4.150327	joking
-4.150327	journal
-4.150327	journals
-4.150327	joy
-4.150327	judging
-4.150327	juice
-4.150327	jump
-4.150327	jumping
-2.357935	just
-4.150327	kabob
-3.451357	keep
-3.849297	keeping
-3.849297	kept
-3.974235	key
-3.974235	kick
-4.150327	kicked
-4.150327	kicking
-4.150327	kickstarter
-3.752387	kid
-3.372175	kidding
-3.673205	kids
-3.673205	kill
-3.974235	killed
-4.150327	killing
-3.196084	kind
-4.150327	kinda
-4.150327	kinda-sorta
-4.150327	king
-3.849297	kiss
-4.150327	kissed
-3.974235	kissing
-4.150327	kite
-4.150327	knee
-3.974235	knew
-4.150327	knock
-4.150327	knocked
-2.372175	know
-4.150327	know-it-all
-4.150327	known
-3.752387	knows
-4.150327	knuckle
-3.849297	lab
-4.150327	lackey
-3.752387	ladies
-3.974235	lady
-4.150327	lamb
-4.150327	lame
-4.150327	lamp
-4.150327	landlord
-4.150327	lantern
-4.150327	large
-4.150327	largest
-3.849297	laser
-4.150327	lash
-3.275265	last
-3.849297	late
-3.673205	later
-3.974235	laugh
-4.150327	laughed
-3.974235	laughs
-4.150327	lawful
-3.974235	lawyer
-3.974235	lead
-4.150327	league
-3.849297	learn
-4.150327	learning
-3.752387	least
-4.150327	leather
-3.849297	leave
-3.849297	leaving
-4.150327	led
-3.849297	left
-4.150327	leg
-4.150327	legally
-4.150327	lesson
-2.817888	let
-4.150327	lets
-3.974235	letter
-4.150327	letters
-3.849297	letting
-3.849297	level
-4.150327	lever
-4.150327	library
-3.497114	life
-4.150327	lifelike
-3.849297	light
-4.150327	lightning
-2.625282	like
-4.150327	liked
-4.150327	liking
-3.849297	line
-4.150327	lip
-3.752387	listen
-4.150327	lit
-4.150327	literally
-3.036383	little
-3.548267	live
-3.752387	lives
-3.752387	living
-3.974235	lock
-4.150327	logical
-4.150327	logs
-3.305228	long
-3.974235	longer
-3.036383	look
-3.974235	looked
-3.673205	looking
-3.752387	looks
-4.150327	lordly
-3.974235	lose
-3.673205	lost
-3.275265	lot
-4.150327	loud
-3.196084	love
-4.150327	lovebug
-3.849297	loved
-4.150327	loves
-4.150327	loving
-3.974235	luck
-3.974235	lucky
-3.974235	lunatic
-3.974235	lunch
-4.150327	lure
-3.752387	lying
-4.150327	ma'am
-3.548267	machine
-3.606258	mad
-3.337413	made
-4.150327	mag-lev
-4.150327	magazine
-3.849297	magic
-4.150327	mail
-3.071145	make
-3.673205	makes
-3.548267	making
-4.150327	males
-3.372175	man
-4.150327	manage
-4.150327	maniac
-4.150327	manor
-4.150327	mantis
-3.974235	many
-4.150327	map
-4.150327	marathon
-4.150327	market
-4.150327	marriage
-3.606258	married
-4.150327	marry
-3.974235	mask
-4.150327	mass
-4.150327	massive
-4.150327	mathematics
-3.497114	matter
-4.150327	mature
-3.548267	may
-3.305228	maybe
-2.344146	me
-3.974235	meal
-2.932842	mean
-4.150327	meaning
-3.752387	means
-3.974235	meant
-4.150327	measure
-4.150327	mechanics
-3.372175	meet
-4.150327	meets
-4.150327	member
-4.150327	memory
-3.849297	men
-4.150327	mention
-4.150327	menus
-4.150327	meow
-4.150327	mercy
-4.150327	merely
-4.150327	merrier
-4.150327	messages
-4.150327	messed
-3.673205	met
-4.150327	method
-4.150327	microscope
-3.849297	middle
-3.150326	might
-4.150327	miles
-3.451357	mind
-3.974235	mine
-4.150327	minestrone
-4.150327	miniature
-3.606258	minute
-4.150327	minutes
-3.974235	mirror
-4.150327	miserable
-3.849297	miss
-4.150327	misses
-4.150327	missing
-3.974235	mission
-3.849297	mistake
-4.150327	mistakes
-4.150327	misunderstanding
-4.150327	mitzvah
-4.150327	mobsters
-4.150327	model
-4.150327	modern
-4.150327	molecular
-3.849297	mom
-4.150327	moment
-3.337413	money
-4.150327	monster
-4.150327	month
-3.849297	months
-3.974235	mood
-3.974235	moon
-3.172603	more
-3.409964	morning
-3.673205	most
-3.247236	mother
-3.673205	mouth
-3.548267	move
-4.150327	moved
-4.150327	movements
-3.974235	moves
-3.451357	movie
-3.849297	movies
-3.673205	moving
-3.305228	much
-4.150327	muffins
-4.150327	murder
-3.974235	music
-4.150327	musicals
-3.849297	must
-4.150327	mustard
-2.41393	my
-3.548267	myself
-1.990459	n't
-2.849297	na
-4.150327	nag
-3.974235	naked
-3.305228	name
-3.974235	names
-4.150327	nana
-3.974235	nano
-4.150327	nap
-4.150327	narcissistic
-3.220908	nard
-4.150327	narrows
-3.974235	nature
-4.150327	necessary
-4.150327	neck
-3.108934	need
-3.752387	needed
-4.150327	needle
-4.150327	needlepoint
-3.849297	needs
-4.150327	negotiate
-3.974235	neighbour
-4.150327	neither
-4.150327	neon
-4.150327	nerd
-4.150327	nerds
-3.974235	nervous
-4.150327	net
-4.150327	network
-4.150327	neuro-chemical
-3.108934	never
-3.247236	new
-3.974235	news
-3.451357	next
-3.150326	nice
-3.071145	night
-4.150327	nightmare
-4.150327	nights
-4.150327	nine
-4.150327	ninja
-4.150327	nipples
-2.612507	no
-4.150327	no-no-no
-4.150327	no-one
-4.150327	none
-4.150327	nonsense
-4.150327	normally
-4.150327	north
-4.150327	nose
-2.269513	not
-3.606258	nothing
-3.673205	notice
-4.150327	noticed
-3.071145	now
-4.150327	numerically
-4.150327	o'clock
-3.974235	obnoxious
-4.150327	observation
-4.150327	obvious
-4.150327	obviously
-4.150327	odd
-2.181844	of
-3.071145	off
-4.150327	offered
-4.150327	offers
-3.673205	office
-4.150327	offspring
-3.673205	oh
-2.988959	okay
-3.606258	old
-4.150327	olive
-2.252699	on
-3.548267	once
-2.779259	one
-4.150327	one-on-one
-4.150327	onesie
-4.150327	online
-3.247236	only
-3.673205	open
-3.974235	opened
-4.150327	opera
-4.150327	operant
-4.150327	opinion
-4.150327	opposable
-4.150327	option
-4.150327	options
-4.150327	optometrist
-3.172603	or
-4.150327	orang-u-tan
-3.849297	order
-3.974235	ordered
-3.974235	orders
-3.409964	other
-3.004199	our
-4.150327	ours
-3.974235	ourselves
-2.559262	out
-4.150327	out-of-the-box
-3.849297	outside
-4.150327	oven
-3.172603	over
-4.150327	overcome
-4.150327	overlay
-3.974235	overreacting
-4.150327	overseas
-4.150327	oversell
-3.849297	owe
-3.409964	own
-4.150327	owner
-4.150327	p.m.
-4.150327	page
-4.150327	paid
-3.974235	pain
-4.150327	painkillers
-4.150327	paintball
-4.150327	painted
-4.150327	palm
-4.150327	panicked
-3.974235	pants
-3.673205	paper
-4.150327	paradigm
-4.150327	parents
-4.150327	park
-4.150327	parked
-3.974235	part
-4.150327	particle
-4.150327	particulares
-4.150327	parties
-4.150327	partners
-3.606258	party
-4.150327	passes'
-4.150327	passing
-4.150327	password
-4.150327	pathetic
-3.974235	pay
-4.150327	paying
-4.150327	peach
-4.150327	pee
-4.150327	pee-pee
-4.150327	peed
-4.150327	peer-reviewed
-3.196084	people
-4.150327	pepper
-3.849297	perfect
-4.150327	perfectly
-4.150327	perform
-3.849297	person
-4.150327	personality
-4.150327	persuasive
-3.974235	pet
-4.150327	petals
-3.752387	phone
-4.150327	phones
-4.150327	photomultiplier
-4.150327	photons
-4.150327	physic
-3.974235	physicist
-4.150327	physicists
-3.548267	physics
-3.673205	pick
-4.150327	picked
-3.974235	picture
-3.974235	pieces
-4.150327	pigeon
-4.150327	pile
-4.150327	pill
-4.150327	pillow
-4.150327	pinkeye
-4.150327	pit
-4.150327	pitcher
-3.337413	place
-3.849297	plan
-4.150327	planet
-3.974235	planned
-4.150327	planning
-4.150327	plans
-4.150327	plate
-3.548267	play
-3.974235	playa
-4.150327	played
-3.974235	playing
-3.497114	please
-4.150327	pleasure
-4.150327	plexiglass
-3.974235	plumbing
-4.150327	plunge
-4.150327	podiatrist
-3.451357	point
-4.150327	police
-4.150327	polish
-4.150327	polishing
-4.150327	polite
-4.150327	poodles
-4.150327	poop
-3.974235	poor
-3.974235	popular
-4.150327	positioned
-4.150327	positronium
-3.974235	possible
-4.150327	possibly
-4.150327	poster
-4.150327	posterity
-4.150327	potential
-4.150327	potion
-4.150327	pound
-4.150327	power
-4.150327	powerful
-4.150327	practice
-4.150327	practicing
-4.150327	prayed
-4.150327	praying
-4.150327	pre-adolescent
-4.150327	pre-nup
-4.150327	presence
-4.150327	president
-3.974235	pressure
-3.673205	pretend
-3.409964	pretty
-4.150327	price
-4.150327	primordial
-4.150327	principle
-4.150327	prison
-4.150327	pro-bed
-3.673205	probably
-3.337413	problem
-3.974235	problems
-4.150327	products
-4.150327	professor
-4.150327	proffer
-4.150327	programs
-4.150327	progress
-4.150327	projection
-3.974235	prom
-3.974235	promise
-4.150327	promised
-4.150327	promptly
-4.150327	prop
-4.150327	proposal
-3.849297	propose
-3.974235	proposed
-4.150327	prostitute
-4.150327	prostitutes
-4.150327	protect
-3.606258	proud
-3.974235	prove
-4.150327	psychiatrist
-4.150327	psychologists
-4.150327	public
-3.974235	published
-4.150327	pull
-4.150327	pulling
-4.150327	pummel
-3.974235	punishment
-4.150327	puppet
-4.150327	puppets
-4.150327	purely
-3.974235	purpose
-4.150327	pursuit
-3.849297	push
-3.305228	put
-4.150327	putting
-4.150327	puzzle
-4.150327	qualified
-4.150327	qualities
-4.150327	quartets
-4.150327	quest
-3.849297	question
-3.849297	questions
-4.150327	quick
-3.974235	quiet
-4.150327	quip
-4.150327	quirky
-3.974235	quit
-4.150327	quite
-3.849297	quote
-4.150327	raccoon
-4.150327	racist
-3.974235	radiation
-4.150327	rails
-4.150327	raining
-4.150327	random
-4.150327	ranking
-4.150327	rash
-3.974235	rat
-3.974235	rather
-4.150327	ray
-4.150327	re-evaluate
-3.752387	read
-3.849297	ready
-3.497114	real
-3.974235	realized
-2.743786	really
-3.497114	reason
-3.974235	reasonable
-4.150327	received
-4.150327	recognize
-4.150327	red
-4.150327	red-eye
-4.150327	reduction
-4.150327	refer
-4.150327	referring
-4.150327	refers
-4.150327	reflectors
-4.150327	regarded
-4.150327	regards
-4.150327	regular
-4.150327	reiterate
-3.606258	relationship
-4.150327	relativity
-3.849297	relax
-4.150327	relentless
-4.150327	relocate
-4.150327	remains
-3.305228	remember
-4.150327	reminds
-4.150327	reneged
-4.150327	rent
-4.150327	rented
-4.150327	renting
-4.150327	repentance
-4.150327	replica
-3.974235	report
-4.150327	research
-4.150327	reservations
-4.150327	resident
-4.150327	resources
-4.150327	respected
-4.150327	response
-3.849297	rest
-4.150327	restaurant
-3.974235	return
-4.150327	reversible
-4.150327	revolting
-4.150327	rid
-3.974235	ride
-3.752387	ridiculous
-2.798144	right
-4.150327	rightie
-3.673205	ring
-3.849297	ripped
-4.150327	roadblock
-3.974235	robot
-4.150327	robotic
-4.150327	rock
-3.974235	rocket
-4.150327	roll
-3.974235	romance
-3.849297	romantic
-3.451357	room
-3.673205	roommate
-4.150327	root
-4.150327	rose
-3.974235	rough
-3.974235	rub
-4.150327	rude
-3.974235	ruin
-4.150327	ruined
-4.150327	rule
-3.849297	rules
-4.150327	run
-3.974235	running
-3.974235	sabotage
-4.150327	sack
-3.974235	sad
-3.974235	safe
-4.150327	safety
-3.220908	said
-4.150327	sake
-3.849297	sale
-4.150327	salespeople
-3.752387	same
-4.150327	sandwiches
-4.150327	sarcasm
-4.150327	sarcastic
-4.150327	sat
-4.150327	sauna
-4.150327	savage
-4.150327	save
-4.150327	saved
-4.150327	savings
-3.673205	saw
-2.718963	say
-3.497114	saying
-3.849297	says
-4.150327	scale
-4.150327	scalped
-4.150327	scary
-4.150327	scent
-4.150327	scented
-4.150327	schedule
-3.548267	school
-4.150327	school'
-4.150327	schoolyard
-3.673205	science
-3.974235	science-fiction
-4.150327	scientific
-3.752387	scientist
-3.974235	scientists
-4.150327	score
-4.150327	screaming
-4.150327	screen
-4.150327	screening
-4.150327	screws
-4.150327	script
-3.974235	scrotum
-4.150327	search
-3.974235	seat
-3.752387	second
-4.150327	secondary
-3.849297	seconds
-3.752387	secret
-4.150327	secretly
-2.895054	see
-3.849297	seeing
-3.849297	seem
-3.752387	seen
-4.150327	self-criticism
-4.150327	self-explanatory
-4.150327	self-respect
-4.150327	selfishness
-3.974235	sell
-3.974235	selling
-4.150327	sells
-4.150327	semi-pro
-3.673205	send
-4.150327	sending
-4.150327	sends
-4.150327	sense
-4.150327	sent
-3.974235	series
-4.150327	serious
-4.150327	serve
-4.150327	service
-4.150327	session
-3.673205	set
-4.150327	sets
-4.150327	setting
-4.150327	settled
-3.849297	seven
-3.451357	sex
-4.150327	sex-is-off-the-table
-4.150327	sexier
-3.974235	sexy
-4.150327	shake
-3.849297	share
-4.150327	shave
-4.150327	shaved
-2.788599	she
-4.150327	sheet
-4.150327	shift
-4.150327	shine
-4.150327	ship
-4.150327	shipping
-4.150327	shirt
-4.150327	shirts
-4.150327	shoes
-3.974235	shoot
-4.150327	shop
-4.150327	shopping
-3.974235	short
-3.974235	shorts
-3.849297	shot
-3.004199	should
-4.150327	shoved
-3.372175	show
-4.150327	showcase
-4.150327	shower
-4.150327	shown
-3.974235	shows
-4.150327	shrimpers
-4.150327	shush
-3.752387	shut
-4.150327	shuttle
-4.150327	sick
-3.974235	side
-4.150327	sight
-3.849297	sign
-4.150327	sign-in
-4.150327	signal
-4.150327	signature
-3.849297	silly
-4.150327	silverware
-4.150327	similarities
-3.372175	since
-4.150327	sing
-4.150327	sing-a-longs
-3.974235	single
-4.150327	singles
-4.150327	sinus
-4.150327	sinuses
-4.150327	sir
-3.409964	sister
-3.451357	sit
-4.150327	sitting
-4.150327	situps
-4.150327	six
-4.150327	six-part
-4.150327	size
-4.150327	skeleton
-4.150327	ski
-4.150327	skiing
-4.150327	skin
-4.150327	sky
-4.150327	slavery
-3.606258	sleep
-3.974235	sleeping
-3.673205	slept
-4.150327	slices
-4.150327	slipped
-4.150327	slippers
-3.974235	slow
-4.150327	smallest
-3.673205	smart
-4.150327	smell
-4.150327	smoking
-4.150327	snail
-4.150327	sneeze
-2.752387	so
-3.849297	so'
-4.150327	socially
-4.150327	society
-4.150327	socks
-4.150327	soda
-3.974235	software
-4.150327	sold
-4.150327	solution
-3.974235	solve
-3.974235	solved
-4.150327	solving
-3.053416	some
-4.150327	somebody
-4.150327	someday
-4.150327	somehow
-3.372175	someone
-3.129137	something
-3.849297	sometimes
-3.974235	somewhere
-3.974235	song
-3.849297	soon
-2.871573	sorry
-3.974235	sort
-4.150327	soul
-4.150327	sound
-3.752387	sounds
-4.150327	soup
-4.150327	space
-3.974235	spaces
-4.150327	spam
-4.150327	speaking
-3.974235	spear
-4.150327	spear-fishing
-3.974235	special
-4.150327	specifically
-4.150327	speed
-4.150327	spell
-3.673205	spend
-3.849297	spending
-3.606258	spent
-4.150327	sperm
-4.150327	sphincter
-4.150327	spider
-4.150327	spill
-4.150327	spin
-4.150327	spits
-4.150327	splurging
-4.150327	spoil
-4.150327	sports
-3.974235	spot
-4.150327	squashed
-4.150327	stab
-4.150327	stable
-4.150327	stack
-3.752387	stand
-4.150327	standard
-3.849297	standing
-4.150327	stands
-4.150327	staring
-3.606258	start
-3.752387	started
-4.150327	starters
-3.849297	starting
-4.150327	stash
-4.150327	state-of-the-art
-4.150327	stately
-3.974235	station
-3.451357	stay
-3.974235	staying
-4.150327	steaks
-4.150327	stealing
-4.150327	steam
-4.150327	steamed
-4.150327	step
-3.275265	still
-4.150327	sting
-4.150327	stolen
-4.150327	stoned
-3.752387	stop
-3.673205	stopped
-4.150327	stopping
-4.150327	stops
-3.606258	store
-4.150327	storm
-3.849297	story
-4.150327	stove
-3.974235	straight
-3.974235	strange
-4.150327	straying
-4.150327	stream
-4.150327	street
-4.150327	strength
-3.849297	string
-3.849297	strong
-4.150327	struck
-4.150327	stuck
-3.974235	student
-4.150327	students
-3.974235	study
-3.372175	stuff
-4.150327	stuffed
-3.548267	stupid
-4.150327	subject
-4.150327	substitution
-4.150327	succeeding
-4.150327	successful
-3.673205	such
-4.150327	sucking
-4.150327	suddenly
-4.150327	sugar
-4.150327	suggest
-3.974235	suggesting
-3.974235	suit
-4.150327	summer
-4.150327	sunk
-4.150327	sunscreen
-4.150327	super
-4.150327	super-heavy
-4.150327	supercollider
-4.150327	superpowers
-4.150327	supper
-3.974235	support
-3.752387	supposed
-3.019993	sure
-4.150327	surface
-4.150327	surgery
-3.752387	surprise
-4.150327	surprised
-4.150327	surround
-4.150327	sushi
-4.150327	swap
-4.150327	swear
-4.150327	sweaty
-4.150327	sweetie
-4.150327	swelling
-4.150327	swept
-4.150327	swing
-4.150327	symposium
-4.150327	synonyms
-4.150327	synthesizing
-3.974235	system
-4.150327	ta
-3.974235	table
-4.150327	tableau
-4.150327	tag
-3.974235	tail
-3.071145	take
-4.150327	take-out
-3.974235	taken
-3.974235	takes
-3.606258	taking
-3.150326	talk
-3.974235	talked
-3.337413	talking
-4.150327	tall
-4.150327	tank
-4.150327	tape
-4.150327	tapestry
-3.974235	tea
-4.150327	teach
-3.673205	team
-3.974235	tearing
-4.150327	tears
-4.150327	teaspoon
-4.150327	technically
-3.974235	technology
-3.019993	tell
-3.974235	telling
-4.150327	temporary
-3.849297	ten
-3.849297	terrible
-4.150327	terrific
-4.150327	terrorizing
-4.150327	test
-4.150327	testicles
-4.150327	testing
-4.150327	testosterone
-4.150327	text
-4.150327	texting
-4.150327	texts
-4.150327	th-th-there
-3.451357	than
-3.673205	thank
-3.974235	thanks
-2.101109	that
-4.150327	that'
-1.836459	the
-3.548267	their
-2.974235	them
-4.150327	theme
-4.150327	themed
-3.172603	then
-3.974235	theoretical
-3.752387	theory
-4.150327	therapy
-2.658965	there
-4.150327	thermostat
-3.548267	these
-2.907289	they
-3.129137	thing
-3.071145	things
-2.527077	think
-3.497114	thinking
-3.974235	thinks
-4.150327	third
-3.849297	thirty
-2.321023	this
-3.337413	those
-3.275265	thought
-4.150327	thoughts
-3.974235	thousand
-4.150327	threaten
-3.409964	three
-4.150327	threesome
-3.974235	threw
-4.150327	thrives
-3.548267	through
-3.673205	throw
-3.974235	throwing
-4.150327	thumbs
-4.150327	thy
-4.150327	ticket
-3.849297	tickets
-4.150327	tickles
-4.150327	ties
-2.743786	time
-3.974235	times
-3.974235	timing
-3.974235	tired
-1.779259	to
-4.150327	toast
-4.150327	toaster
-3.974235	today
-3.275265	together
-3.451357	told
-4.150327	tomatoes
-3.752387	tomorrow
-4.150327	tongue
-3.372175	tonight
-3.053416	too
-3.752387	took
-4.150327	toothbrush
-4.150327	top
-3.974235	topic
-4.150327	torch
-4.150327	totally
-3.974235	tough
-4.150327	toughest
-4.150327	track
-4.150327	traffic
-3.974235	train
-4.150327	trapped
-4.150327	travel
-4.150327	tree
-4.150327	trial
-4.150327	trick
-3.548267	tried
-3.974235	trip
-4.150327	troll
-4.150327	trouble
-4.150327	truce
-4.150327	trucker
-3.409964	true
-4.150327	truly
-4.150327	trunk
-3.974235	trust
-3.409964	try
-3.497114	trying
-3.974235	tubes
-4.150327	tuckered
-3.606258	turn
-4.150327	turned
-4.150327	turning
-4.150327	twelve
-4.150327	twenty
-4.150327	twice
-4.150327	twin
-4.150327	twitching
-3.172603	two
-4.150327	two-stage
-4.150327	typical
-3.053416	uh
-4.150327	uh-oh
-3.548267	um
-4.150327	un-pause
-4.150327	unbelievable
-4.150327	uncles
-4.150327	uncomfortable
-3.606258	under
-4.150327	under'
-4.150327	underestimate
-4.150327	undergone
-4.150327	underpants
-3.606258	understand
-4.150327	understands
-4.150327	undertow
-4.150327	underwear
-4.150327	unfamiliar
-3.974235	unhappy
-4.150327	uniform
-3.974235	universe
-4.150327	unless
-3.752387	until
-4.150327	unusual
-2.588034	up
-4.150327	upgrade
-4.150327	upon
-3.974235	upset
-4.150327	upsets
-4.150327	upside
-4.150327	urinary
-4.150327	urologist
-2.919878	us
-3.497114	use
-3.409964	used
-4.150327	user
-3.849297	uses
-4.150327	using
-3.974235	usually
-3.974235	vacuum
-3.974235	valid
-4.150327	value
-4.150327	vampires
-3.974235	version
-3.337413	very
-3.974235	vet
-4.150327	vicious
-4.150327	victim
-4.150327	victory
-3.974235	video
-3.849297	village
-4.150327	villain
-4.150327	virtual
-4.150327	voodoo
-4.150327	vote
-4.150327	votes
-3.974235	vulnerable
-3.497114	wait
-4.150327	waited
-4.150327	waiter
-3.752387	wake
-4.150327	walk
-4.150327	walked
-4.150327	walking
-4.150327	wallets
-4.150327	walls
-4.150327	wandered
-2.600098	want
-3.451357	wanted
-4.150327	wanting
-3.752387	wants
-4.150327	warm
-4.150327	warning
-2.41393	was
-4.150327	was'
-4.150327	wasp
-4.150327	waste
-4.150327	wasted
-3.548267	watch
-4.150327	watching
-3.752387	water
-3.974235	wave
-3.129137	way
-2.184185	we
-4.150327	weaponised
-3.673205	wear
-3.548267	wearing
-4.150327	webcams
-3.974235	wedding
-3.974235	week
-3.752387	weekend
-3.849297	weeks
-3.409964	weird
-3.974235	welcome
-3.275265	well
-4.150327	well-being
-4.150327	well-known
-3.275265	went
-2.779259	were
-2.438519	what
-3.974235	whatever
-4.150327	wheel
-2.817888	when
-4.150327	whenever
-3.172603	where
-4.150327	wherever
-3.606258	which
-3.372175	while
-4.150327	whispering
-4.150327	white
-3.129137	who
-4.150327	whoa
-4.150327	whoever
-3.372175	whole
-3.036383	why
-3.196084	will
-4.150327	willing
-4.150327	wimping
-3.974235	win
-4.150327	window
-3.974235	wine
-4.150327	wing-man
-4.150327	winner
-3.974235	wins
-3.548267	wish
-2.386899	with
-3.752387	without
-3.606258	wo
-3.497114	woman
-3.337413	women
-3.974235	wonder
-4.150327	wonderful
-4.150327	wondering
-3.974235	wood
-3.548267	word
-3.849297	words
-3.089629	work
-4.150327	worked
-3.673205	working
-3.752387	works
-4.150327	world
-4.150327	worm
-3.606258	worried
-3.752387	worry
-3.974235	worse
-4.150327	worships
-3.974235	worst
-4.150327	worthwhile
-2.76116	would
-4.150327	wound
-4.150327	wounds
-3.974235	wow
-3.974235	wrapped
-4.150327	writing
-3.548267	wrong
-3.974235	wrote
-4.150327	y-yeah
-4.150327	yammering
-4.150327	yanked
-4.150327	yards
-4.150327	yea
-3.129137	yeah
-3.752387	year
-3.451357	years
-4.150327	yelling
-3.752387	yes
-3.849297	yesterday
-3.673205	yet
-3.974235	yoga
-4.150327	yoghurt
-1.62593	you
-4.150327	young
-2.497114	your
-3.974235	yours
-3.548267	yourself
-4.150327	yourselves
-3.849297	zero
-4.150327	zip
-4.150327	zoo

\end\
