
\data\
ngram 1=7027

\1-grams:
-2.756729	!
-4.622031	$
-4.400182	%
-4.497092	&
-2.895032	'
-4.798122	'Bye
-3.953024	'Cause
-4.798122	'Kay
-4.798122	'Penny
-4.798122	'Rocket
-4.798122	'S
-4.798122	'Sup
-4.798122	'Thank
-4.798122	'ah
-3.820399	'cause
-4.798122	'cos
-2.934799	'd
-4.798122	'damsel
-4.798122	'deal
-4.057759	'em
-4.798122	'get
-4.798122	'girlfriend
-4.798122	'has
-4.798122	'hey
-4.798122	'it
-2.648903	'll
-2.301885	'm
-2.294332	're
-1.847757	's
-2.923061	've
-4.798122	'who
-4.798122	'why
-4.798122	'you
-4.321001	(
-4.400182	)
-1.281851	,
-1.179499	.
-1.213452	/s
-4.798122	00:03:18,914
-4.622031	1
-4.497092	10
-4.798122	100
-4.798122	104
-4.254054	12
-4.798122	128
-4.622031	13
-4.400182	14
-4.622031	15
-4.798122	15,000
-4.798122	15-year-old
-4.798122	15th
-4.798122	16
-4.798122	1619
-4.798122	18th-century
-4.798122	1930
-4.798122	1940
-4.798122	1am
-4.400182	2
-4.798122	2,000-year-old
-4.798122	2.0
-4.798122	2.5
-4.798122	2.6
-4.400182	20
-4.798122	20-channel
-4.798122	21st
-4.798122	24
-4.798122	24/7
-4.798122	25
-4.798122	250
-4.798122	26
-4.798122	28
-4.798122	28.17
-4.622031	3-D
-4.798122	3.9
-4.400182	30
-4.798122	30-year-old
-4.798122	360
-4.798122	37
-4.798122	383
-4.798122	3:05
-4.622031	4
-4.622031	4,000
-4.798122	40-minute
-4.798122	45
-4.798122	48
-4.798122	4am
-4.400182	5
-4.798122	5.1
-4.798122	50
-4.798122	500
-4.798122	55
-4.798122	57
-4.798122	58
-4.798122	59
-4.798122	60
-4.798122	60,000
-4.798122	60/40
-4.798122	60th
-4.798122	63/37
-4.798122	65
-4.798122	699,999
-4.798122	6:30
-4.798122	7
-4.798122	7-Eleven
-4.798122	72
-4.798122	73
-4.798122	7:18am
-4.798122	7:20
-4.798122	7:40
-4.798122	8
-4.798122	80-year-old
-4.798122	84
-4.798122	8:00
-4.798122	8:10
-4.798122	8:20
-4.798122	8:45
-4.798122	9
-4.622031	9,000
-4.798122	90
-4.798122	911
-4.798122	93
-4.798122	94
-3.299812	:
-4.497092	;
-4.798122	<
-1.213452	</s>
-99	<s>
-1.701386	?
-3.383149	A
-4.798122	A-A
-4.622031	AA
-4.798122	Aaaa-aw
-4.798122	Aaah
-4.622031	Aaargh
-4.798122	Aagh
-4.622031	Aah
-4.400182	Abbott
-4.622031	About
-4.099152	Absolutely
-4.798122	According
-3.737424	Actually
-4.497092	Adam
-4.798122	Additional
-4.798122	Admit
-4.798122	Advantage
-4.798122	Afraid
-4.798122	Afrin
-4.321001	After
-4.144909	Again
-4.798122	Age
-3.701212	Ah
-4.798122	Aharonov-Bohm
-4.798122	Ahoy
-4.254054	Air
-4.798122	Alabama
-4.798122	Alba
-4.798122	Albert
-4.144909	Alex
-4.798122	Alfred
-4.622031	Alice
-4.400182	Alicia
-4.798122	Alien
-3.279608	All
-4.622031	Alliance
-4.497092	Almost
-4.798122	Alphas
-4.019971	Alright
-4.254054	Also
-4.254054	Although
-4.798122	Although'
-4.798122	Alvin
-4.622031	Always
-4.196062	Am
-4.622031	Amazon
-4.497092	America
-4.798122	American
-3.391582	Amy
-4.497092	An
-2.868703	And
-4.622031	Angeles
-4.798122	Angelo
-4.622031	Angie
-4.798122	Animals
-4.798122	Aniston
-4.798122	Anne
-4.798122	Annual
-4.798122	Answering
-4.798122	Ants
-4.254054	Any
-4.798122	Anybody
-4.321001	Anything
-3.798122	Anyway
-4.798122	Ape-ist
-4.400182	Apparently
-4.622031	Apple
-4.798122	Appreciate
-4.622031	Approaching
-4.798122	Aquaman
-4.798122	Aquasocks
-4.798122	Arcadia
-4.798122	Archimedes
-3.247894	Are
-4.798122	Arizona
-4.622031	Ark
-4.622031	Armageddon
-4.798122	Army
-4.798122	Arnold
-4.798122	Around
-4.497092	Arthur
-4.798122	Article
-4.254054	As
-4.798122	Asian
-4.798122	Ask
-4.622031	Assuming
-4.798122	Asthma
-4.144909	At
-4.622031	Aunt
-4.497092	Auto
-4.798122	Avengers
-3.868703	Aw
-4.798122	Award
-4.798122	Away
-4.798122	Awesome
-4.798122	Awkward
-4.798122	Ay
-4.798122	Aye
-4.400182	B
-4.798122	BLT
-4.798122	Ba-ba-ba-ba
-4.798122	Babe
-4.622031	Baby
-4.798122	Babylon
-4.400182	Back
-4.798122	Baggins
-4.798122	Bakersfield
-4.622031	Bale
-4.622031	Bam
-4.798122	Band
-4.622031	Band-Aid
-4.798122	Band-Aids
-4.622031	Bandits
-4.622031	Banner
-4.798122	Barbecue
-4.196062	Barry
-4.798122	Baseball
-4.798122	Bat
-4.798122	Bat-Man-Bat
-4.798122	Bat-signal
-3.868703	Batman
-4.798122	Batman-Man
-4.798122	Battlestar
-4.497092	Be
-4.497092	Beach
-4.622031	Beats
-4.798122	Beauty
-3.374876	Because
-4.798122	Beekeeper
-4.622031	Beer
-4.497092	Before
-4.798122	Befuddled
-4.798122	Begin
-4.400182	Believe
-4.798122	Benedict
-4.798122	Benihana
-4.798122	Benjamin
-4.798122	Berberick
-4.798122	Berkeley
-3.684179	Bernadette
-4.254054	Bert
-4.497092	Besides
-4.622031	Best
-4.798122	Bet
-4.497092	Better
-4.798122	Betty
-4.798122	Between
-4.798122	Bifurcated
-4.622031	Big
-4.798122	Bilbo
-4.622031	Bill
-4.798122	Billy
-4.798122	Bin
-4.622031	Bisexual
-4.798122	Bite
-4.622031	Black
-4.798122	Blinky
-4.798122	Blossom
-4.622031	Blossoms
-4.497092	Blu-ray
-4.798122	Bobby
-4.798122	Bold
-4.798122	Booting
-4.798122	Boots
-4.798122	Borrowed
-4.798122	Bottles
-4.798122	Boulder
-4.798122	Bowes-Einstein
-4.798122	Bowl
-4.099152	Boy
-4.798122	Bozeman
-4.798122	Bozites
-4.798122	Brainiac
-4.497092	Bran
-4.798122	Breathe
-4.497092	Brent
-4.798122	Brewbacca
-4.798122	Brilliant
-4.497092	Bring
-4.798122	Bro
-4.798122	Bros
-4.798122	Brothers
-4.798122	Brown
-4.798122	Brrrr
-4.400182	Bruce
-4.019971	Buddy
-4.798122	Buffy
-4.798122	Buh-buh-buh-buh
-4.622031	Building
-4.798122	Bullock
-4.798122	Bummer
-4.798122	Bunyan
-4.798122	Burbank
-4.798122	Burned
-4.798122	Burton
-3.218338	But
-4.798122	Butterfinger
-4.798122	Butterfly
-4.622031	Buy
-4.254054	By
-3.923061	Bye
-4.622031	Bye-bye
-4.798122	C
-4.622031	C'mon
-4.798122	C-3PO
-4.798122	C-minus
-4.622031	CERN
-4.798122	CPR
-4.798122	CSI
-4.254054	Ca
-4.798122	Ca'ada
-4.798122	Cage
-4.798122	Cal-Tech
-4.321001	Call
-4.798122	Callender
-4.798122	Calling
-4.622031	Calm
-4.798122	Cambridge
-3.383149	Can
-4.798122	Capital
-4.254054	Captain
-4.622031	Carl
-4.798122	Case
-4.798122	Casey
-4.622031	Casper
-4.798122	Cat
-4.798122	Catholics
-4.798122	Cats
-4.798122	Catwoman
-4.798122	Caught
-4.622031	Cause
-4.798122	Cavalry
-4.798122	Celebrate
-4.798122	Center
-4.798122	Chambourg
-4.798122	Chancellor
-4.798122	Channel
-4.798122	Character
-4.798122	Charlie
-4.099152	Check
-4.798122	Checkmate
-4.798122	Cheeks
-4.798122	Cheers
-4.798122	Cheeseburger
-4.497092	Cheesecake
-4.798122	Cherenkov
-4.798122	Chess
-4.622031	Chewbacca
-4.622031	Chicken
-4.497092	Chief
-4.798122	Chihuahua
-4.144909	Chinese
-4.798122	Chipmunks
-4.798122	Choice
-4.798122	Chosen
-4.798122	Chris
-4.622031	Christian
-4.798122	Christie
-4.321001	Christmas
-4.798122	Christmassy
-4.798122	Chu
-4.798122	Chuck
-4.798122	Chuckle
-4.798122	Chutes
-4.798122	Cinnabon
-4.400182	Cinnamon
-4.622031	City
-4.798122	Civil
-4.798122	Clarence
-4.798122	Clark
-4.798122	Claus
-4.798122	Clearly
-4.798122	Close
-4.798122	Coast
-4.798122	Coffee
-4.622031	Colonel
-4.798122	Colonial
-4.798122	Colossus
-4.798122	Columbus
-3.247894	Come
-4.798122	Comforting
-4.400182	Comic
-4.019971	Comic-Con
-4.400182	Coming
-4.798122	Compromise
-4.798122	Computer
-4.622031	Con
-4.798122	Conan
-4.798122	Confetti
-4.798122	Confidence
-4.798122	Confusion
-4.144909	Congratulations
-4.798122	Connor
-4.798122	Context
-4.254054	Cool
-3.953024	Cooper
-4.798122	Cooper-Hofstadter
-4.622031	Copenhagen
-4.798122	Cornell
-4.798122	Corvette
-4.622031	Cos
-4.798122	Costco
-4.798122	Could
-4.798122	Counterpoint
-4.798122	County
-4.622031	Couple
-4.798122	Couples
-4.798122	Court
-4.798122	Covenant
-4.798122	Cover
-4.798122	Crocker
-4.622031	Crockett
-4.798122	Crusher
-4.798122	Cuban
-4.798122	Cuddles
-4.798122	Cut
-4.798122	Cylon
-4.798122	Cylons
-4.622031	D
-4.798122	D-do
-4.798122	D.
-4.798122	DMV
-4.798122	DNA
-4.798122	DS
-4.622031	DTS
-4.254054	DVD
-4.622031	DVDs
-4.798122	DVR
-4.497092	Dad
-4.622031	Dammit
-4.144909	Damn
-4.622031	Dance
-4.798122	Dancing
-4.798122	Daredevil
-4.798122	Darrow
-4.622031	Darth
-4.622031	Darwin
-4.798122	Data
-4.622031	Dave
-4.622031	David
-4.798122	Davis
-4.798122	Davy
-4.144909	Day
-4.798122	Day-ted
-4.798122	Days
-4.798122	Dead
-4.798122	Deaf
-4.798122	Death
-4.798122	Decorate
-4.622031	Defcon
-4.798122	Define
-4.798122	Delhi
-4.798122	Delightful
-4.622031	Demon
-4.798122	Denmark
-4.497092	Dennis
-4.798122	Depot
-4.798122	Design
-4.798122	Diamond
-3.391582	Did
-4.400182	Diego
-4.798122	Differential
-4.798122	Dig
-4.798122	Dinner
-4.798122	Disagree
-4.798122	Disk
-4.798122	Disney
-4.622031	Disneyland
-4.798122	Dissertation
-3.077963	Do
-4.400182	Doctor
-3.684179	Does
-4.798122	Dogg
-4.798122	Doing
-4.798122	Dolby
-4.497092	Done
-4.798122	Door
-4.798122	Doppler
-4.798122	Dorn
-4.622031	Double
-4.798122	Doug
-4.798122	Dr
-3.895032	Dr.
-4.798122	Dragon
-4.622031	Dragons
-4.798122	Duh-duh-duh-duh-duh-duh
-4.622031	Duncan
-4.622031	Dungeons
-4.798122	During
-4.622031	Dyson
-4.798122	E.R
-4.798122	Each
-4.622031	Earl
-4.196062	Earth
-4.321001	East
-4.497092	Easter
-4.798122	Easy-peasy
-4.798122	Eat
-4.798122	Edison
-4.798122	Edna
-4.798122	Effect
-4.497092	Eh
-4.321001	Einstein
-4.798122	Elegant
-4.798122	Elevators
-4.798122	Elf
-4.497092	Elizabeth
-4.798122	Elliot
-4.798122	Ellison
-4.798122	Elves
-4.622031	Emily
-4.798122	Empathetic
-4.798122	En
-4.798122	Encouraging
-4.798122	End
-4.622031	England
-4.497092	English
-4.798122	Enterprise
-4.798122	Enterpriseand
-4.798122	Enters
-4.798122	Equation
-4.798122	Ergo
-4.798122	Ernie
-4.798122	Especially
-4.798122	Etruscan
-4.798122	Euler
-4.798122	Eve
-4.196062	Even
-4.798122	Ever
-4.497092	Every
-4.400182	Everybody
-4.798122	Everyday
-4.798122	Everyone
-4.144909	Everything
-4.798122	Everywhere
-4.144909	Exactly
-4.798122	Excalibur
-4.798122	Excellent
-4.798122	Excelsior
-4.321001	Except
-3.567673	Excuse
-4.798122	Executive
-4.798122	Experimental
-4.622031	Eyes
-4.798122	F
-4.798122	FBI
-4.622031	FYI
-4.622031	Face
-4.798122	FaceTime
-4.321001	Facebook
-4.497092	Factory
-4.798122	Falconry
-4.798122	Fancy
-4.798122	Fantastic
-4.798122	Father
-4.798122	February
-4.622031	FedEx
-4.798122	Federal
-4.798122	Federation
-4.798122	Feel
-4.798122	Fellas
-4.622031	Feynman
-4.798122	Fifth
-4.798122	Finally
-4.798122	Financial
-4.798122	Financially
-3.427054	Fine
-4.798122	Fines
-4.798122	Finkleday
-4.798122	Fiona
-4.196062	First
-4.798122	Fischer
-4.622031	Five
-4.798122	Flintstone
-4.798122	Florida
-4.798122	Focus
-4.798122	Folding
-4.798122	Fondell
-4.798122	Food
-4.622031	Football
-3.756729	For
-4.254054	Force
-4.798122	Foreplay
-4.196062	Forget
-4.798122	Forgive
-4.798122	Forty
-4.798122	Found
-4.798122	Foundation
-4.497092	Four
-4.798122	Fourier
-4.622031	Fourteen
-4.798122	Fourth
-4.798122	Frakes
-4.798122	Francisco
-4.622031	Frank
-4.622031	Franklin
-4.798122	Frappuccino
-4.798122	Freaky
-4.798122	Fred
-4.798122	Free
-4.622031	French
-4.400182	Friday
-4.798122	Fridays
-4.497092	Friends
-4.254054	Frodo
-4.400182	From
-4.798122	Frosty
-4.798122	Fu
-4.497092	Fun
-4.622031	Funny
-4.798122	Future
-4.798122	Fuzzyboots
-4.622031	GPS
-4.497092	Gablehauser
-4.798122	Gah
-4.798122	Galapagos
-4.798122	Gallo
-4.798122	Gals
-4.798122	Game
-4.798122	Gameboy
-4.798122	Gamgee
-4.798122	Gamma
-4.798122	Gap
-4.798122	Gas
-4.798122	Gas-X
-4.798122	Gates
-4.622031	Gay
-4.254054	Gee
-4.622031	General
-4.622031	Generation
-4.798122	Genius
-4.798122	Gentlemen
-4.798122	Geordi
-4.400182	George
-4.798122	German
-3.985209	Get
-4.798122	Gets
-4.622031	Ghostbusters
-4.622031	Giant
-4.798122	Girl
-4.622031	Girls
-4.798122	Giselle
-3.953024	Give
-4.798122	Given
-4.400182	Glad
-4.798122	Glaringly
-4.798122	Glass
-4.622031	Glendale
-4.798122	Glissinda
-4.798122	Glowing
-3.718941	Go
-4.798122	Go-Go-Go-Go
-3.417911	God
-4.798122	God-fearing
-4.798122	Gods
-4.798122	Godzilla
-4.497092	Golden
-4.798122	Gon
-4.798122	Gonzalez
-3.313822	Good
-4.798122	Good-Bye
-4.622031	Good-bye
-4.622031	Goodnight
-4.798122	Goofy
-4.798122	Google
-4.798122	Goonies
-4.798122	Gore/Lieberman
-4.798122	Gorn
-4.798122	Gosling
-3.868703	Got
-4.798122	Gotham
-4.798122	Graaf
-4.798122	Graduate
-4.497092	Grand
-4.497092	Grant
-3.436394	Great
-4.798122	Greek
-4.497092	Green
-4.798122	Greetings
-4.798122	Gremlins
-4.798122	Grenade
-4.798122	Guaranteed
-4.622031	Guess
-4.798122	Gunderson
-3.895032	Guys
-4.798122	H
-4.798122	H-h-h-hang
-4.798122	HBOs
-4.798122	Ha
-4.798122	Ha-ha
-4.798122	Hacking
-4.497092	Had
-4.798122	Half
-4.798122	Halfling
-4.622031	Halley
-4.798122	Halloween
-4.254054	Halo
-4.798122	Hammer
-4.497092	Hand
-3.622031	Hang
-4.798122	Hans
-4.497092	Happen
-4.798122	Happily
-4.622031	Happy
-4.798122	Hard
-4.798122	Hardly
-4.798122	Harlan
-4.798122	Harmony
-4.622031	Haroun
-4.798122	Harry
-4.497092	Has
-3.923061	Have
-4.798122	Hawaii
-4.057759	Hawking
-2.988562	He
-4.798122	Hear
-4.798122	Heard
-4.798122	Heartrate
-4.798122	Hee-hee
-4.622031	Heimlich
-4.622031	Hell
-3.756729	Hello
-4.798122	Helmet
-4.497092	Help
-4.798122	Helping
-4.798122	Her
-3.54285	Here
-4.622031	Heroes
-2.711762	Hey
-4.798122	Hey-hey-hey-hey-hey
-3.475903	Hi
-4.798122	Higgs
-4.798122	High
-4.798122	High-energy
-4.622031	Hiking
-4.798122	Hindus
-4.798122	Hippos
-4.798122	Hire
-4.497092	His
-4.798122	Hissy
-3.718941	Hmm
-4.798122	Hmmm
-4.400182	Hobbit
-3.953024	Hofstadter
-4.057759	Hold
-4.622031	Hollywood
-4.798122	Holmes
-4.622031	Holy
-4.798122	Home
-4.798122	Homeland
-4.798122	Homo
-4.497092	Honestly
-4.798122	Honey
-4.798122	Hook
-4.798122	Hope
-4.798122	Hope-hope
-4.798122	Horse
-4.798122	Hos
-4.798122	Hospitals
-4.622031	Hot
-4.798122	Hounds
-4.798122	Housewives
-2.985209	How
-4.798122	How'
-2.968818	Howard
-4.798122	However
-4.798122	Hugh
-3.895032	Huh
-4.144909	Hulk
-4.798122	Human
-4.798122	Huntsville
-4.798122	Hurry
-4.798122	Hut
-4.798122	Hutt
-4.798122	Huygens
-4.798122	Hypothetically
-1.597819	I
-4.497092	I'
-4.798122	I'm-I
-4.798122	I-I-I
-4.798122	I..
-4.798122	II
-4.622031	IQ
-3.180074	If
-4.497092	Ignore
-4.798122	Illinois
-4.798122	Imperial
-3.567673	In
-4.798122	Incredible
-4.798122	Indeed
-3.923061	India
-4.144909	Indian
-4.622031	Indiana
-4.622031	Indy
-4.798122	Infinite
-4.798122	Innovative
-4.798122	Install
-4.400182	Instead
-4.798122	Institute
-4.254054	Interesting
-4.622031	International
-4.622031	Internet
-4.798122	Interrupting
-4.798122	Invisible
-4.798122	Invite
-4.622031	Iron
-3.266643	Is
-4.622031	Isaac
-4.798122	Island
-4.798122	Islands
-2.551378	It
-4.798122	It-it-it
-4.622031	Italian
-4.798122	J
-4.798122	J-bombs
-4.622031	Jabba
-4.622031	Jackson
-4.798122	Jamba
-4.798122	James
-4.798122	January
-4.798122	Jaws
-4.798122	Jealousy
-4.400182	Jeffries
-4.798122	Jenga
-4.798122	Jennifer
-4.798122	Jerry
-4.254054	Jersey
-4.798122	Jessica
-4.622031	Jet
-4.798122	Jews
-4.321001	Jim
-4.798122	Jiminy
-4.144909	Jimmy
-4.798122	Jobs
-4.798122	John
-4.798122	Join
-4.798122	Joke
-4.798122	Joker
-4.798122	Jonathan
-4.400182	Jones
-4.798122	Journal
-4.798122	Joy
-4.622031	Joyce
-4.798122	Judas
-4.798122	Juice
-4.798122	June
-3.174873	Just
-4.798122	Justice
-4.798122	Justin
-4.622031	KBB
-4.622031	Ka
-4.798122	Kama
-4.622031	Kandor
-4.798122	Karaoke
-4.798122	Karen
-4.798122	Kazakhstan
-4.798122	Keaton
-4.196062	Keep
-4.798122	Kellogg
-4.400182	Kevin
-4.798122	Khoo-vakh
-4.798122	Kid
-4.798122	Kidding
-4.798122	Kidnap
-4.622031	Kill
-4.798122	Killer
-4.400182	Kim
-4.622031	Kind
-4.798122	Kindle
-4.798122	King
-4.400182	Kirk
-4.622031	Kites
-4.400182	Klingon
-4.622031	Knight
-4.057759	Koothrappali
-4.622031	Korea
-4.497092	Korean
-4.798122	Koreatown
-4.196062	Kripke
-4.622031	Krypton
-4.497092	Kryptonian
-4.798122	Kung
-4.321001	Kurt
-4.798122	L.A.
-4.622031	LA
-4.798122	La
-4.798122	LaForge
-4.798122	Lactaid
-4.622031	Lactose
-4.622031	Ladies
-4.798122	Lakers
-4.622031	Lalita
-4.622031	Lantern
-4.798122	Larry
-4.798122	Las
-4.622031	Laser
-4.497092	Last
-4.497092	Latham
-4.798122	Lawyers
-4.798122	Laxative
-4.798122	LeVar
-4.622031	League
-4.798122	Leakey
-4.798122	Learn
-4.798122	Leave
-4.798122	Leaving
-4.798122	Lebanon
-4.196062	Lee
-4.798122	Legoland
-4.798122	Leia
-4.798122	Leibniz
-4.798122	Len
-4.798122	Lenny
-4.798122	Lenwoloppali
-4.497092	Leo
-3.508088	Leonard
-4.497092	Leopold
-4.622031	Lesbian
-3.923061	Lesley
-3.895032	Leslie
-4.798122	Lesser
-3.366758	Let
-4.798122	Letterman
-4.798122	Lettuce
-4.798122	Licensed
-4.798122	Lieutenant
-4.798122	Lighten
-3.718941	Like
-4.798122	Limits
-4.622031	Lisa
-4.798122	Lisatronic
-4.798122	List
-3.701212	Listen
-4.497092	Little
-4.798122	Live
-4.622031	Lobster
-4.798122	Lobsters
-4.798122	Loch
-4.321001	Long
-3.321001	Look
-4.798122	Looks
-4.798122	Loony
-4.798122	Lorvis
-4.622031	Los
-4.798122	Lost
-4.798122	Lots
-4.622031	Love
-4.798122	Luau
-4.497092	Lucas
-4.798122	Lucky
-4.622031	Luke
-4.798122	Lysine
-4.798122	Lysol
-4.622031	M
-4.798122	M.
-4.798122	MC
-4.798122	MIT
-4.622031	MacArthur
-4.798122	Macy
-4.622031	Made
-4.798122	Maglev
-4.798122	Magneto
-4.798122	Magnets
-4.798122	Magnolias
-4.798122	Mahalo
-4.798122	Make
-4.798122	Making
-4.321001	Man
-4.622031	Man-Man
-4.622031	Mandy
-4.798122	Manookian
-4.798122	Marcie
-4.798122	Marie
-4.798122	Mario
-4.798122	Mark
-4.798122	Maroon
-4.798122	Marriage
-4.798122	Marry
-4.622031	Mars
-4.622031	Marshmallow
-4.798122	Martian
-4.497092	Mary
-4.798122	Matrix
-4.798122	Maxwell
-4.254054	May
-3.254054	Maybe
-4.798122	McFadden
-4.019971	Me
-4.798122	Me-wow
-4.798122	Meanwhile
-4.622031	Meemaw
-4.798122	Meesa
-4.622031	Meet
-4.798122	Meeting
-4.798122	Melts
-4.622031	Men
-4.798122	Merry
-4.798122	Message
-4.400182	Mexican
-4.798122	Mexico
-4.622031	Michael
-4.798122	Middle
-4.798122	Might
-4.798122	Migraines
-4.798122	Mike
-4.798122	Miles
-4.798122	Milky
-4.798122	Mimesis
-4.798122	Mine
-4.798122	Miserable
-4.798122	Miss
-4.622031	Mississippis
-4.196062	Missy
-4.798122	Mitzy
-3.895032	Mm
-4.057759	Mm-hmm
-4.057759	Mmm
-4.798122	Mmmm
-4.798122	Mode
-3.953024	Mom
-4.622031	Mommy
-4.798122	Mona
-4.400182	Monday
-4.622031	Monkey
-4.798122	Monopoly
-4.798122	Montana
-4.798122	Monte
-4.798122	Monty
-4.798122	Moo-shu
-4.622031	Moo-stache
-4.798122	Mordor
-4.497092	More
-3.985209	Morning
-4.622031	Morse
-4.497092	Most
-3.953024	Mother
-4.798122	Motion
-4.622031	Mouth
-4.798122	Mouth-to-Mouth
-4.798122	Move
-4.798122	Mr
-3.985209	Mr.
-4.798122	Mrs
-3.923061	Mrs.
-4.622031	Mulder
-4.798122	Mullins
-4.798122	Mum
-4.798122	Mumbai
-4.798122	Murdoch
-4.798122	Must
-3.60779	My
-4.798122	My-my
-4.798122	Mystique
-4.798122	N-dimensional
-4.798122	NASA
-4.798122	NEVER
-4.798122	NORAD
-4.798122	NPR
-4.622031	Nah
-4.798122	Nailed
-4.798122	Naked
-4.798122	Name
-4.497092	Nancy
-4.622031	National
-4.798122	Neat
-4.798122	Nebraska
-4.798122	Nemesis
-4.798122	Ness
-4.798122	Netflix
-4.622031	Neutral
-3.953024	Never
-4.798122	Nevertheless
-3.923061	New
-4.798122	Newcomb
-4.497092	Newton
-4.196062	Next
-4.144909	Nice
-4.798122	Nicely
-4.798122	Night
-4.798122	Nightcrawler
-4.798122	Nimoy
-4.798122	Nintendo
-2.48531	No
-4.798122	No-no-no
-4.798122	No-one
-4.622031	Nobel
-4.400182	Nobody
-4.798122	Non-alcoholic
-4.254054	None
-4.196062	Nope
-4.798122	Norris
-4.254054	North
-4.798122	Norton
-3.343277	Not
-3.820399	Nothing
-4.798122	Novus
-3.455699	Now
-4.798122	Nurse
-4.798122	Nursis
-4.497092	Nye
-4.798122	O-o-o-o-h
-4.798122	O-o-o-o-oh
-4.798122	O-o-o-oh
-4.798122	O-o-o-okay
-3.54285	Of
-4.798122	Off
-4.497092	Officer
-2.426131	Oh
-4.798122	Oh-oh
-2.692612	Okay
-4.798122	Okay'
-4.798122	Okay-dokay
-4.798122	Okeydoke
-4.798122	Oklahoma
-4.798122	Olsen
-3.953024	On
-4.321001	Once
-4.057759	One
-4.798122	One-day
-4.497092	Only
-4.798122	Oo-oo-oh
-4.144909	Ooh
-4.798122	Oop
-4.622031	Open
-4.798122	Operating
-3.776933	Or
-4.798122	Orcs
-4.622031	Order
-4.798122	Oreos
-4.798122	Original
-4.798122	Oshikuru
-4.622031	Other
-4.798122	Otherwise
-4.196062	Our
-4.798122	Our-Premise-Is-Intriguing
-4.798122	Out
-4.798122	Out-Of-The
-4.798122	Outer
-4.497092	Ow
-4.798122	P.E
-4.798122	PC
-4.798122	PS
-4.798122	PS3
-4.798122	PSP
-4.798122	Pad
-4.798122	Pagliacci
-4.622031	Palace
-4.798122	Palak
-4.798122	Palo
-4.798122	Papaya
-4.798122	Pardon
-4.798122	Parks
-4.400182	Pasadena
-4.622031	Pass
-4.798122	Patterson
-4.798122	Patty
-4.798122	Paul
-4.798122	Pay
-4.622031	Peeps
-2.684179	Penny
-4.798122	Penny'
-4.057759	People
-4.798122	Peppermint
-4.798122	Pepto
-4.622031	Perfect
-4.798122	Perfectly
-4.798122	Perpetual
-4.497092	Peter
-4.798122	Pfff
-4.400182	Physics
-4.798122	Picard
-4.622031	Pictionary
-4.798122	Pie
-4.798122	Pink
-4.798122	Pippin
-4.622031	Pizza
-4.798122	PlayStation
-3.923061	Please
-4.497092	Plimpton
-4.497092	Plus
-4.798122	Pluto
-4.622031	Pole
-4.798122	Polly
-4.798122	Poltergeist
-4.798122	Poor
-4.798122	Pop-Tart
-4.798122	Pope
-4.798122	Popsicles
-4.798122	Positive
-4.798122	Post
-4.798122	Potl
-4.798122	Potter
-4.798122	PowerPoint
-4.798122	Pray
-4.798122	Predator
-4.798122	Prejudice
-4.798122	Preliminary
-4.798122	Prescription
-4.622031	President
-4.144909	Pretty
-4.798122	Pride
-4.798122	Princess
-4.798122	Princeton
-3.756729	Priya
-4.798122	Prize
-4.321001	Probably
-4.321001	Problem
-4.099152	Professor
-4.798122	Proton
-4.798122	Prove
-4.798122	Proximity
-4.497092	Psst
-4.798122	Psychics
-4.798122	Public
-4.798122	Pukhpa
-4.798122	Purell
-4.798122	Purelling
-4.400182	Put
-4.798122	Putting
-4.798122	Python
-4.798122	Q
-4.798122	Qualities
-4.798122	Quick
-4.798122	Quidditch
-4.798122	Quinto
-4.622031	Quizznos
-4.798122	R2-D2
-4.798122	Raiders
-4.497092	Raisin
-3.107926	Raj
-4.798122	Ramen
-4.622031	Ramona
-4.798122	Randall
-4.497092	Read
-4.497092	Ready
-4.798122	Real
-3.22992	Really
-4.798122	Rebecca
-4.798122	Recall
-4.798122	Reconstituted
-4.798122	Record
-4.798122	Red
-4.798122	Redemption
-4.798122	Regardless
-4.798122	Relatively
-4.798122	Relativity
-4.254054	Relax
-4.144909	Remember
-4.798122	Rent
-4.798122	Resources
-4.798122	Revolution
-4.798122	Rhode
-4.798122	Richard
-4.622031	Rider
-3.455699	Right
-4.798122	Road
-4.798122	Rob'
-4.798122	Robin
-4.798122	Robot
-4.622031	Rock
-4.798122	Roger
-4.798122	Romance
-4.798122	Romans
-4.798122	Romulans
-4.798122	Roommate
-4.798122	Rosa
-4.798122	Rough
-4.798122	Round
-4.622031	Rover
-4.622031	Run
-4.798122	Rupert
-4.798122	Russia
-4.798122	Russians
-4.497092	Rutherford
-4.798122	Ryan
-4.798122	S'mores
-4.798122	S-Y-F-Y
-4.798122	S.
-4.798122	S.A.T.
-4.798122	SNIPE
-4.798122	Sacks
-4.798122	Sad
-4.798122	Safe
-4.798122	Sagan
-4.798122	Sagittarius
-4.798122	Said
-4.798122	Saloons
-4.798122	Sam
-4.798122	Samantha
-4.622031	Same
-4.798122	Samurai
-4.622031	Samwise
-4.321001	San
-4.798122	Sandra
-4.400182	Santa
-4.798122	Satan
-4.798122	Satisfied
-4.099152	Saturday
-4.798122	Sauce
-4.798122	Save
-4.400182	Say
-4.798122	Scanner
-4.798122	Scanners
-4.798122	Schindler
-4.798122	Schnapps
-4.798122	School
-4.497092	Schrodinger
-4.622031	Science
-4.622031	Scientists
-4.798122	Scree-scree
-4.622031	Screw
-4.798122	Scrimmage'
-4.798122	Scrotum
-4.622031	Scully
-4.400182	Sea
-4.798122	Season
-4.798122	Seconded
-4.798122	Secondly
-4.798122	Section
-4.798122	Security
-3.636754	See
-4.798122	Seedy
-4.798122	Seen
-4.798122	Segway
-4.798122	Seibert
-4.798122	Sergeant
-4.798122	Serial
-4.798122	Series
-3.953024	Seriously
-4.798122	Services
-4.622031	Seven
-4.798122	Sex
-4.798122	Shadow
-4.497092	Shamy
-4.798122	Sharpe
-4.798122	Shatner
-3.24182	She
-4.622031	She-Hulk
-4.798122	Sheld-off
-2.441141	Sheldon
-4.497092	Sheldon'
-4.622031	Sheldon-approved
-4.798122	Shelly
-4.798122	Shepherd
-4.622031	Sherlock
-4.798122	Sherpas
-4.798122	Shh-shh-shh
-4.798122	Shh-shh-shh-shh
-4.622031	Shire
-4.798122	Shoemaker
-4.798122	Shore
-4.622031	Short
-3.868703	Should
-4.798122	Show
-4.622031	Shrimp
-4.497092	Shut
-4.798122	Shyamalan
-4.622031	Siebert
-4.798122	Sign
-4.798122	Signal
-4.798122	Significant
-4.798122	Silence
-4.798122	Simpsons
-4.254054	Since
-4.798122	Sing
-4.321001	Sir
-4.622031	Sit
-4.400182	Six
-4.798122	Sixth
-4.798122	Skee-Ball
-4.622031	Skippy
-4.622031	Skis
-4.798122	Skittle
-4.497092	Skynet
-4.798122	Skype
-4.798122	Skywalker
-4.798122	Slayer
-4.400182	Slim
-4.798122	Slow
-4.798122	Slowly
-4.798122	Slurpee
-4.798122	Slurpie-Icee
-4.622031	Small
-4.798122	Smallville
-4.622031	Smart
-4.798122	Smile
-4.400182	Smith
-4.622031	Smoot
-4.622031	Smooth
-4.798122	Smother
-4.798122	Snapchat
-4.497092	Snipe
-4.798122	Snipes
-4.798122	Snoop
-4.798122	Snort
-4.798122	Snowman
-2.733664	So
-4.798122	So'
-4.798122	Sock
-4.798122	Sold
-4.798122	Soldier
-4.057759	Some
-4.798122	Somebody
-4.798122	Someday
-4.798122	Someone
-4.400182	Something
-4.144909	Sometimes
-4.798122	Son
-4.798122	Sophie
-3.436394	Sorry
-3.985209	Sounds
-4.798122	Soup
-4.798122	South
-4.622031	Space
-4.798122	Speaking
-4.622031	Speckerman
-4.622031	Speech
-4.798122	Speedy
-4.798122	Spell
-4.798122	Spider-Man
-4.497092	Spiner
-4.196062	Spock
-4.798122	Spockumentary
-4.798122	Spoiler
-4.798122	Squad
-4.798122	Squeeze
-4.400182	Stan
-4.798122	Stanford
-3.798122	Star
-4.798122	Stars
-4.798122	Starting
-4.622031	Station
-4.321001	Stay
-4.798122	Steel
-4.798122	Steelier
-4.798122	Step
-4.400182	Stephanie
-4.196062	Stephen
-4.497092	Steve
-4.798122	Stick
-4.144909	Still
-4.798122	Stitches
-4.798122	Stooges
-4.099152	Stop
-4.798122	Stretch
-3.555084	Stuart
-4.798122	Stupid
-4.798122	Suburu
-4.798122	Suffered
-4.798122	Sulfites
-4.400182	Sunday
-4.798122	Super
-4.798122	Superceded
-4.798122	Superior
-4.099152	Superman
-4.798122	Supervisor
-4.622031	Suppose
-3.343277	Sure
-4.798122	Surgical
-4.798122	Surprise
-4.798122	Sutra
-4.798122	Svaty
-4.798122	Swamp
-4.798122	Sweatpants
-4.622031	Swedish
-4.798122	Sweet
-4.622031	Swell
-4.400182	Swiss
-4.254054	Switzerland
-4.798122	SyFy
-4.798122	Szechuan
-4.622031	T
-4.798122	T-shirt
-4.798122	T1
-3.798122	TV
-4.798122	Tag
-4.254054	Take
-4.798122	Taking
-4.798122	Talk
-4.622031	Tanweer
-4.798122	Teasing
-4.798122	Technically
-4.798122	Teflon
-4.254054	Tell
-4.622031	Telling
-4.622031	Ten
-4.400182	Terminator
-4.798122	Terminators
-4.798122	Terrible
-4.144909	Terrific
-4.798122	Tex-Mex
-4.196062	Texas
-4.798122	Th
-4.019971	Thai
-3.149762	Thank
-4.798122	Thank-you
-4.798122	Thankfully
-3.54285	Thanks
-4.798122	Thanksgiving
-2.679196	That
-3.016367	The
-4.497092	Theft
-3.622031	Then
-4.798122	Then'
-4.798122	Theodore
-3.201525	There
-4.798122	Thermal
-4.400182	These
-3.343277	They
-4.798122	Thing
-4.400182	Think
-4.798122	Third
-4.798122	Thirty
-3.159633	This
-4.798122	Thor
-4.497092	Those
-4.798122	Thought
-4.798122	Thoughts
-4.400182	Three
-4.798122	Thrones
-4.798122	Thunderdome
-4.196062	Thursday
-4.798122	Thursdays
-4.798122	Tickets
-4.798122	Tiffany
-4.400182	Time
-4.798122	Times
-4.798122	Tiny
-4.798122	Titanic
-3.718941	To
-4.622031	Told
-4.798122	Tom
-4.622031	Tomorrow
-4.321001	Tonight
-4.497092	Too
-4.622031	Top
-4.798122	Total
-4.622031	Totally
-4.798122	Toucan
-4.798122	Town
-4.798122	Tranquility
-4.622031	Transgender
-4.798122	Travel
-4.144909	Trek
-4.798122	Trip
-4.798122	Triumphant
-4.798122	Troopers
-4.798122	Trophy
-4.798122	True
-4.321001	Trust
-4.622031	Try
-4.798122	Trying
-4.798122	Tuesday
-4.798122	Turned
-4.497092	Turns
-4.798122	Tushy
-4.798122	Twice
-4.622031	Twins
-4.798122	Twister
-4.400182	Twitter
-4.254054	Two
-4.798122	U
-4.798122	U-Haul
-4.798122	UCLA
-4.798122	USA
-4.798122	USC
-4.798122	UV
-4.497092	Ugh
-2.884308	Uh
-3.684179	Uh-huh
-4.622031	Uh-oh
-4.497092	Uh-uh
-4.798122	Uh..
-4.798122	Uhura
-3.54285	Um
-4.400182	Um'
-4.798122	Un-unravelable
-4.400182	Unbelievable
-4.798122	Uncle
-4.798122	Under
-4.622031	Underhill
-4.497092	University
-4.622031	Unless
-4.798122	Unruh
-4.400182	Until
-4.798122	Upon
-4.798122	Upsy-daisy
-4.798122	Us
-4.622031	Use
-4.798122	Usually
-4.798122	Vaclav
-4.622031	Vader
-4.254054	Valentine
-4.798122	Vampire
-4.798122	Van
-4.798122	Vartabedian
-4.497092	Vegas
-4.798122	Venus
-4.144909	Very
-4.798122	Video
-4.798122	Vienna
-4.798122	Village
-4.798122	Visualize
-4.798122	Vulcan
-4.798122	W-W-Wait
-4.798122	W-We
-4.798122	W-wait
-4.798122	Waah
-4.798122	Wackadoodle
-3.594002	Wait
-4.798122	Wake
-4.798122	Waking
-4.622031	Waldo
-4.798122	Walgreens
-4.798122	Wall
-4.798122	Walls
-4.798122	Walmart
-4.196062	Want
-4.497092	Warcraft
-4.622031	Warlord
-4.798122	Warriors
-4.057759	Wars
-4.057759	Was
-4.254054	Watch
-4.798122	Water
-4.622031	Waugh
-4.497092	Way
-4.798122	Wayne
-2.708217	We
-4.798122	We-We
-4.400182	Web
-4.798122	Weird
-4.622031	Welcome
-2.616279	Well
-4.400182	Well'
-4.400182	Were
-4.622031	Wesley
-4.497092	West
-4.798122	Wh
-4.798122	Wha
-4.798122	Wham
-2.408071	What
-4.622031	Whatcha
-4.196062	Whatever
-4.798122	Wheaton
-3.580638	When
-3.567673	Where
-4.622031	Whether
-4.057759	Which
-4.622031	While
-4.798122	Whistlers
-4.798122	White
-3.60779	Who
-4.144909	Whoa
-4.798122	Whoa-whoa-whoa-whoa-whoa
-2.889637	Why
-4.622031	Wi-Fi
-4.798122	Wikipedia
-4.144909	Wil
-4.798122	Wild
-3.985209	Will
-4.798122	Williams
-4.798122	Williamsburg
-4.798122	Wine
-4.798122	Winkle
-4.798122	Wireless
-4.622031	Wish
-4.798122	Witches
-4.019971	With
-4.622031	Without
-4.622031	Wo
-3.868703	Wolowitz
-4.798122	Women
-4.622031	Wonder
-4.798122	Wong
-4.798122	Woodstock
-4.798122	Wookiee
-4.798122	Working
-4.497092	World
-3.895032	Would
-3.718941	Wow
-4.798122	Wozniak
-4.798122	Wu-uh
-4.497092	Wuh
-4.798122	Wyatt
-4.798122	X
-4.798122	X-Box
-4.798122	X-Files
-4.798122	X-Men
-4.798122	X-ray
-4.798122	Xavier
-4.497092	Y
-2.591296	Yeah
-4.497092	Year
-4.798122	Yellow
-4.099152	Yep
-2.981881	Yes
-4.798122	Yet
-4.622031	Yippee
-4.798122	Yo
-4.798122	Yoda
-4.798122	Yorkshire
-2.293651	You
-4.798122	Young
-3.895032	Your
-4.798122	Yours
-4.196062	Yup
-4.798122	Zachary
-3.953024	Zack
-4.798122	Zealand
-4.798122	Zelda
-4.798122	Zod
-4.622031	Zone
-1.882459	a
-4.798122	a-a
-4.798122	a.m
-4.400182	a.m.
-4.798122	abandoned
-4.798122	abandoning
-4.099152	able
-4.798122	aboard
-2.541645	about
-4.622031	above
-4.622031	absolute
-4.622031	absolutely
-4.798122	absurd
-4.798122	abyss
-4.798122	academics
-4.798122	accelerator
-4.497092	accent
-4.798122	accepted
-4.798122	accepting
-4.400182	access
-4.321001	accident
-4.798122	accidentally
-4.798122	accolades
-4.400182	accomplished
-4.622031	accomplishment
-4.798122	accomplishments
-4.798122	according
-4.196062	account
-4.798122	accurate
-4.497092	accused
-4.798122	acelerador
-4.798122	acetal
-4.798122	acetylene
-4.497092	achievement
-4.798122	achievements
-4.798122	acidophilus
-4.798122	acknowledge
-4.798122	acoustic
-4.798122	acquiring
-3.985209	across
-4.798122	act
-4.196062	acting
-4.798122	actinoid
-4.254054	action
-4.798122	activated
-4.622031	active
-4.798122	activities
-4.798122	activity
-4.798122	actor
-4.798122	actors
-4.400182	actress
-4.798122	acts
-4.254054	actual
-4.798122	actuality
-3.408956	actually
-4.798122	ad-hoc
-4.622031	add
-4.798122	added
-4.622031	addicted
-4.798122	addiction
-4.798122	addition
-4.497092	address
-4.798122	addressed
-4.798122	adjoining
-4.622031	adjust
-4.622031	adjusted
-4.798122	administration
-4.798122	admired
-4.254054	admit
-4.798122	admitting
-4.798122	adult
-4.798122	adults
-4.798122	advance
-4.798122	advancements
-4.622031	advantage
-4.497092	adventure
-4.798122	adventure-role-playing
-4.400182	advice
-4.798122	aerial
-4.497092	affection
-4.798122	affectionate
-4.497092	afford
-4.019971	afraid
-3.651994	after
-4.798122	aftermath
-4.400182	afternoon
-4.622031	afterwards
-3.417911	again
-4.144909	against
-4.321001	age
-4.798122	age-appropriate
-4.798122	agenda
-4.798122	agent
-4.798122	aggravate
-3.737424	ago
-4.400182	agree
-4.196062	agreed
-4.099152	agreement
-4.798122	agrees
-4.622031	ah
-3.985209	ahead
-4.798122	ails
-4.321001	air
-4.622031	aircraft
-4.798122	airflow
-4.798122	airplane
-4.798122	airport
-4.798122	aisle
-4.400182	alcohol
-4.798122	alcoholic
-4.798122	alcoholism
-4.622031	alert
-4.798122	algebraically
-4.622031	algorithm
-4.622031	alibi
-4.497092	alien
-4.497092	aliens
-4.497092	alive
-2.720754	all
-4.798122	all-night
-4.798122	all-nighter
-4.798122	allergic
-4.798122	allergies
-4.798122	allergist
-4.798122	allergy
-4.798122	alliance
-4.497092	allow
-4.798122	allowance
-4.144909	allowed
-4.057759	almost
-3.923061	alone
-4.196062	along
-4.497092	alpha
-4.798122	alphabetically
-4.622031	alphas
-3.798122	already
-4.254054	alright
-3.737424	also
-4.798122	alternate
-4.798122	although
-4.798122	aluminium
-3.400182	always
-3.207057	am
-3.798122	amazing
-4.798122	ambiguity
-4.798122	ambulance
-4.622031	amount
-4.798122	ample
-2.871265	an
-4.798122	analogy
-4.798122	analysis
-4.798122	analyze
-4.798122	ancient
-2.143464	and
-4.321001	and'
-4.798122	androgynous
-4.798122	angel
-4.622031	anger
-4.400182	angry
-4.622031	angular
-4.622031	animalistic
-4.798122	animals
-4.798122	announce
-4.798122	announcement
-4.798122	annoy
-4.798122	annoyed
-4.400182	annoying
-4.798122	annual
-4.622031	annulment
-4.798122	anonymous
-3.636754	another
-4.019971	answer
-4.798122	answering
-4.622031	answers
-4.798122	ant
-4.798122	antagonize
-4.798122	anthropological
-4.798122	anthropologist
-4.798122	anticlimactic
-4.798122	ants
-4.798122	anxiety
-3.224091	any
-4.196062	anybody
-4.254054	anymore
-3.684179	anyone
-3.366758	anything
-3.953024	anyway
-4.497092	anywhere
-4.497092	apart
-3.567673	apartment
-4.622031	apiece
-4.798122	apnoea
-4.798122	apologies
-4.400182	apologise
-4.798122	apologised
-4.099152	apologize
-4.254054	apology
-4.400182	app
-4.798122	apparently
-4.798122	appear
-4.798122	appears
-4.798122	appellate
-4.798122	appendix
-4.798122	apple
-4.798122	appli'
-4.798122	applicants
-4.798122	application
-4.798122	applications
-4.798122	applies
-4.254054	apply
-4.497092	appointment
-4.099152	appreciate
-4.798122	appreciation
-4.622031	approach
-4.798122	approaches
-4.798122	approaching
-4.798122	appropriate
-4.798122	approved
-4.798122	apron
-4.798122	archery
-4.400182	ard
-2.487429	are
-4.196062	area
-4.497092	argue
-4.798122	arguing
-4.622031	argument
-4.798122	aria
-4.798122	ark
-4.798122	arm
-4.798122	arms
-4.798122	army
-3.436394	around
-4.798122	arrange
-4.400182	arrangements
-4.798122	array
-4.798122	arrested
-4.798122	arrived
-4.798122	arrogant
-4.798122	article
-4.622031	artificial
-4.798122	artist
-4.798122	artistic
-3.049934	as
-4.622031	ashamed
-4.798122	ashtray
-4.622031	aside
-4.798122	asinine
-3.358789	ask
-3.798122	asked
-3.84388	asking
-4.622031	asks
-4.254054	asleep
-4.798122	aspect
-4.321001	ass
-4.798122	assault
-4.798122	assemble
-4.798122	assert
-4.798122	assistant
-4.798122	assume
-4.798122	assumed
-4.622031	assumption
-4.798122	asteroid
-4.254054	asthma
-4.798122	asthma-and-glasses
-4.622031	astronaut
-4.622031	astronauts
-4.798122	astronomer
-2.745044	at
-4.497092	ate
-4.798122	athlete
-4.798122	athletes
-4.798122	athletic
-4.622031	atom
-4.622031	atoms
-4.798122	attached
-4.254054	attack
-4.798122	attempt
-4.798122	attend
-4.798122	attending
-4.196062	attention
-4.798122	attitude
-4.622031	attorney
-4.798122	attract
-4.497092	attracted
-4.798122	attractions
-4.254054	attractive
-4.798122	auctioning
-4.798122	audition
-4.798122	auditions
-4.798122	aunt
-4.798122	author
-4.798122	authority
-4.622031	autograph
-4.798122	autographed
-4.622031	available
-4.798122	avatar
-4.798122	average
-4.497092	avoid
-4.798122	avoided
-4.622031	awake
-4.798122	award
-4.798122	aware
-3.60779	away
-4.497092	awesome
-4.321001	awful
-4.798122	awfully
-4.497092	awkward
-4.798122	axis
-4.798122	aye
-4.798122	b-be
-4.798122	b..
-4.798122	babe
-4.497092	babies
-3.820399	baby
-4.400182	bachelor
-2.998782	back
-4.798122	back-scratching
-4.622031	backpack
-4.622031	backsies
-4.497092	backup
-4.622031	backwards
-4.622031	bacon
-4.798122	bacterial
-3.292972	bad
-4.497092	badass
-4.622031	badasses
-4.798122	badger
-4.798122	badgers
-4.798122	badly
-4.798122	baffles
-4.144909	bag
-4.798122	bagel
-4.622031	bagels
-4.798122	bags
-4.798122	bailed
-4.798122	bald
-4.497092	ball
-4.798122	baller
-4.798122	ballistic
-4.798122	balloon
-4.798122	balls
-4.622031	bam
-4.400182	banana
-4.798122	bananas
-4.622031	band
-4.798122	bandwidth
-4.798122	bang
-4.622031	bank
-4.798122	banned
-4.321001	bar
-4.798122	barbecue
-4.798122	barber
-4.798122	barefoot
-4.798122	barely
-4.798122	bargain
-4.798122	barge
-4.622031	bark
-4.798122	barriers
-4.497092	bars
-4.622031	base
-4.622031	based
-4.798122	basement
-4.622031	basic
-4.400182	basically
-4.622031	basis
-4.622031	basket
-4.622031	bass
-4.798122	bassinet
-4.622031	bastard
-4.321001	bat
-4.798122	bat'lething
-4.798122	batcrap
-4.798122	bathing
-4.099152	bathroom
-4.798122	bats
-4.798122	batter
-4.798122	battery
-4.622031	battle
-4.622031	battles
-4.798122	bayberry
-2.459666	be
-4.622031	beach
-4.622031	beak
-4.798122	beam
-4.798122	beams
-4.798122	bean
-4.798122	bear
-4.254054	beat
-4.622031	beaten
-4.321001	beats
-4.099152	beautiful
-4.622031	beauty
-4.798122	beaver
-4.798122	beavers
-4.798122	became
-3.149762	because
-4.400182	become
-4.798122	becomes
-4.497092	becoming
-3.497092	bed
-4.798122	bed-wetting
-4.144909	bedroom
-4.798122	bedrooms
-4.798122	bedsheets
-4.798122	bedtime
-4.798122	beef
-3.14491	been
-4.497092	beer
-3.358789	before
-4.622031	befuddled
-4.622031	beg
-4.798122	began
-4.798122	begged
-4.497092	begging
-4.798122	behaves
-4.798122	behaviour
-3.868703	behind
-3.350964	being
-4.798122	beliefs
-3.417911	believe
-4.798122	believed
-4.798122	believes
-4.798122	belly
-4.497092	belong
-4.622031	belongs
-4.497092	belt
-4.798122	bend
-4.798122	benedryl
-4.622031	benefit
-4.798122	benzene
-4.497092	besides
-3.718941	best
-4.099152	bet
-4.497092	beta
-4.622031	betas
-4.622031	betcha
-4.497092	betray
-4.497092	betrayed
-3.436394	better
-3.776933	between
-4.497092	beverage
-4.798122	beyond
-4.798122	bias
-4.622031	bid
-4.622031	bidding
-4.798122	bifocals
-3.374876	big
-4.798122	big-ass
-4.622031	bigger
-4.798122	biggie
-4.622031	bike
-4.622031	bikini
-4.798122	bill
-4.622031	billion
-4.622031	bills
-4.798122	bind
-4.798122	binge-watching
-4.798122	bio-social
-4.798122	biographer
-4.798122	biological
-4.798122	biologically
-4.622031	bird
-4.622031	birds
-4.798122	birth
-3.985209	birthday
-4.798122	biryani
-4.798122	bisexual
-4.798122	bishop
-3.756729	bit
-4.321001	bitch
-4.798122	bitches
-4.400182	bite
-4.622031	biting
-4.798122	bitten
-4.798122	bitter
-4.321001	black
-4.622031	black-tie
-4.798122	blackmail
-4.798122	blackmailing
-4.798122	blackout
-4.497092	bladder
-4.798122	blades
-4.497092	blame
-4.254054	blanket
-4.798122	bleeding
-4.622031	blend
-4.798122	blender
-4.798122	blessing
-4.798122	blew
-4.622031	blind
-4.798122	blinded
-4.798122	blister
-4.798122	block
-4.622031	blocks
-4.622031	blog
-4.622031	blonde
-4.798122	blondes
-4.497092	blood
-4.798122	bloodied
-4.798122	bloodthirsty
-4.798122	bloopers
-4.798122	blossoms
-4.144909	blow
-4.622031	blows
-4.400182	blue
-4.798122	bluffing
-4.798122	blunt
-4.798122	blur
-4.057759	board
-4.622031	boards
-4.497092	boat
-4.622031	bobcat
-4.798122	bodies
-4.099152	body
-4.798122	bodysnatchers
-4.798122	boggle
-4.798122	bold
-4.798122	boldly
-4.798122	bond
-4.798122	bone
-4.622031	bones
-4.798122	boo-hoo
-4.798122	boobies
-3.636754	book
-3.985209	books
-4.798122	bookstore
-4.798122	bookworm
-4.622031	boom-boom
-4.798122	boot
-4.497092	boots
-4.798122	bore
-4.400182	bored
-4.254054	boring
-4.622031	born
-4.622031	borrow
-4.798122	bot
-3.718941	both
-4.144909	bother
-4.497092	bothering
-4.400182	bottle
-4.798122	bottled
-4.400182	bottom
-4.057759	bought
-4.497092	bounce
-4.798122	bounced
-4.798122	bouncing
-4.798122	bout
-4.497092	bowl
-4.798122	bowls
-3.868703	box
-4.798122	boxes
-3.923061	boy
-3.895032	boyfriend
-4.196062	boys
-4.798122	braiding
-4.057759	brain
-4.622031	brains
-4.798122	brainteaser
-4.497092	bran
-4.798122	bratwurst
-4.798122	bread
-3.868703	break
-4.798122	break-ups
-4.798122	breakdown
-4.019971	breakfast
-4.400182	breaking
-4.622031	breaks
-4.321001	breakthrough
-4.622031	breakup
-4.798122	breast-feeding
-4.798122	breath
-4.622031	breathe
-4.798122	breed
-4.798122	breezy
-4.798122	bricks
-4.798122	bride
-4.622031	briefcase
-4.798122	briefly
-4.497092	bright
-4.400182	brilliant
-3.895032	bring
-4.400182	bringing
-4.400182	brings
-4.798122	brisket
-4.798122	bro
-4.798122	broad
-4.798122	broccoli
-3.985209	broke
-3.868703	broken
-4.099152	brother
-4.798122	brother-sister-Elliott-E.T
-4.798122	brothers
-3.953024	brought
-4.798122	brown
-4.798122	bruised
-4.622031	brushes
-4.497092	bubble
-4.798122	bubbles
-4.798122	buck
-4.798122	bucket
-4.798122	buckle
-4.254054	bucks
-4.798122	bud
-4.798122	buddies
-3.756729	buddy
-4.798122	buffering
-4.798122	buffet
-4.798122	buffets
-4.321001	bug
-4.798122	bugs
-4.622031	buh
-4.622031	build
-3.953024	building
-4.798122	builds
-4.144909	built
-4.622031	bulletin
-4.798122	bullies
-4.798122	bullying
-4.798122	bumped
-4.798122	bumper
-4.099152	bunch
-4.798122	bungee
-4.622031	bunny
-4.622031	burden
-4.798122	bureaucracy
-4.798122	burn
-4.622031	burned
-4.497092	burning
-4.798122	burp
-4.622031	burst
-4.254054	bus
-4.798122	bush
-4.400182	business
-4.497092	bust
-4.057759	busy
-2.619145	but
-4.254054	but'
-4.497092	butt
-4.798122	butter
-4.622031	butterflies
-4.798122	butterfly
-4.798122	butterscotch
-4.798122	buttload
-4.622031	button
-4.798122	buttons
-3.953024	buy
-4.622031	buying
-4.622031	buzz
-3.299812	by
-4.254054	bye
-4.798122	bye-bye
-2.934799	ca
-4.798122	cabinet
-4.798122	cacophonous
-4.798122	cactus
-4.798122	caddie
-4.798122	cafeteria
-4.622031	cake
-4.798122	calculating
-4.798122	calculations
-4.798122	calicos
-3.519368	call
-3.636754	called
-4.144909	calling
-4.497092	calls
-4.321001	calm
-4.798122	calorie
-3.701212	came
-4.400182	camera
-4.622031	cameras
-4.798122	camouflage
-4.798122	campaign
-2.689219	can
-4.798122	canal
-4.497092	candles
-4.497092	candy
-4.798122	canes
-4.798122	cannon
-4.622031	cap
-4.622031	capable
-4.798122	capital
-4.798122	capture
-3.594002	car
-4.798122	carbohydrate
-4.798122	carbon
-4.099152	card
-4.798122	card-shaped
-4.798122	cardio
-4.497092	cards
-3.567673	care
-4.622031	cared
-4.254054	career
-4.622031	careful
-4.798122	carefully
-4.196062	cares
-4.798122	cargo
-4.798122	carnal
-4.798122	carpet
-4.798122	carragenin
-4.622031	carried
-4.798122	carries
-4.798122	carrot
-4.798122	carrots
-4.497092	carry
-4.497092	carrying
-4.798122	cars
-4.798122	cart
-4.798122	carve
-4.798122	carved
-3.953024	case
-4.798122	cashew
-4.798122	casting
-4.798122	casts
-4.798122	casual
-4.798122	casually
-4.400182	cat
-4.254054	catch
-4.798122	catchy
-4.798122	categorize
-4.798122	categorized
-4.798122	catheter
-4.622031	cats
-4.099152	caught
-4.798122	cause
-4.798122	caused
-4.622031	causing
-4.798122	caution
-4.798122	cave
-4.798122	ceiling
-4.400182	celebrate
-4.798122	celebrated
-4.798122	celebrating
-4.622031	cell
-4.321001	cello
-4.798122	cells
-4.798122	centimetre
-4.798122	centimetres
-4.798122	centre
-4.622031	centrifugal
-4.622031	centrifuge
-4.798122	centripetal
-4.622031	century
-4.497092	cereal
-4.798122	ceremony
-4.622031	certain
-4.400182	certainly
-4.798122	chafed
-4.622031	chafing
-4.798122	chain
-4.798122	chained
-4.497092	chair
-4.798122	chairs
-4.622031	challenge
-4.798122	challenging
-4.497092	champagne
-3.756729	chance
-4.798122	chances
-3.798122	change
-3.923061	changed
-4.798122	changers
-4.798122	changes
-4.798122	changing
-4.622031	channel
-4.622031	chapel
-4.798122	chapter
-4.497092	character
-4.798122	characterise
-4.798122	characters
-4.798122	charcoal
-4.254054	charge
-4.798122	charges
-4.798122	chart
-4.798122	chase
-4.798122	chased
-4.798122	chasing
-4.798122	chasm
-4.798122	chat
-4.798122	chauffeur
-4.798122	cheap
-4.798122	cheaper
-4.622031	cheating
-4.099152	check
-4.798122	check-plus
-4.622031	checked
-4.798122	checkers
-4.622031	checking
-4.798122	checkmate
-4.497092	cheer
-4.798122	cheerleaders
-4.622031	cheers
-4.321001	cheese
-4.798122	cheeseburger
-4.798122	cheesecake
-4.798122	cheesy
-4.798122	cheetos
-4.798122	chem
-4.798122	cheque
-4.798122	cherry
-4.798122	chess
-4.321001	chest
-4.798122	chew
-4.057759	chicken
-4.622031	chickens
-4.798122	chided
-4.400182	child
-4.321001	childhood
-4.798122	childish
-4.798122	chili
-4.798122	chilli
-4.798122	chilly
-4.798122	chimp
-4.798122	chipped
-4.798122	chisel
-4.798122	chloroform
-4.497092	chocolate
-4.622031	chocolates
-4.057759	choice
-4.497092	choices
-4.798122	choking
-4.798122	cholera
-4.622031	choose
-4.798122	chooses
-4.622031	choosing
-4.798122	chopped
-4.798122	chose
-4.798122	chosen
-4.798122	chromosome
-4.798122	chrysanthemum
-4.798122	church
-4.798122	churches
-4.798122	chute
-4.798122	cider
-4.798122	cilantro
-4.400182	cinnamon
-4.798122	circumstance
-4.798122	circumstances
-4.321001	city
-4.798122	civil
-4.798122	civilization
-4.798122	claim
-4.798122	clams
-4.622031	clarify
-4.798122	clarinet
-4.400182	class
-4.400182	classic
-4.622031	classified
-4.400182	clause
-4.099152	clean
-4.798122	cleaner
-4.798122	cleaners
-4.497092	cleaning
-4.144909	clear
-4.057759	clearly
-4.798122	clever
-4.798122	climbed
-4.622031	climbing
-4.798122	clinging
-4.798122	clip-ons
-4.798122	cloak
-4.400182	clock
-4.254054	close
-4.622031	closed
-4.798122	closed-captioning
-4.622031	closer
-4.798122	closest
-4.400182	closet
-4.196062	clothes
-4.798122	cloud
-4.622031	clown
-4.798122	clowns
-4.254054	club
-4.622031	clubs
-4.144909	clue
-4.622031	clues
-4.798122	co-dependently
-4.798122	coach
-4.798122	coal
-4.798122	coat
-4.798122	cob
-4.798122	coccyx
-4.798122	cocktails
-4.497092	cocoa
-4.798122	cocoon
-4.254054	code
-4.798122	coded
-4.798122	coefficients
-3.985209	coffee
-4.798122	cofounders
-4.798122	coin
-4.798122	coincidence
-4.622031	coitus
-4.321001	cold
-4.798122	colleague/friendship
-4.798122	collectible
-4.622031	collection
-4.798122	collector
-4.798122	collects
-4.254054	college
-4.798122	collided
-4.798122	collider
-4.497092	colon
-4.798122	colonel
-4.622031	colonoscopy
-4.798122	colour
-4.798122	combined
-4.798122	combing
-4.798122	combustion
-3.034694	come
-4.622031	comedy
-4.099152	comes
-4.798122	comet
-4.497092	comfortable
-4.400182	comforting
-3.718941	comic
-4.798122	comic-book
-3.567673	coming
-4.798122	commencing
-4.622031	comment
-4.622031	commentary
-4.622031	comments
-4.798122	commercial
-4.798122	commercials
-4.798122	commitment
-4.798122	committed
-4.497092	committee
-4.400182	common
-4.622031	communicate
-4.798122	communicating
-4.798122	communication
-4.497092	community
-4.254054	company
-4.798122	compare
-4.798122	compared
-4.622031	compartment
-4.798122	compete
-4.798122	competed
-4.622031	competition
-4.798122	competitive
-4.321001	complain
-4.798122	complaining
-4.798122	complains
-4.798122	complaint
-4.497092	complete
-4.196062	completely
-4.798122	complexion
-4.321001	complicated
-4.622031	compliment
-4.622031	component
-4.798122	compressions
-4.400182	compromise
-4.798122	compromises
-4.798122	compulsive
-4.321001	computer
-4.798122	computers
-4.798122	conceive
-4.798122	concentrate
-4.798122	concept
-4.622031	concern
-4.321001	concerned
-4.798122	concerns
-4.798122	concisely
-4.622031	conclusion
-4.622031	conclusions
-4.798122	concussion
-4.798122	condensates
-4.622031	condescension
-4.622031	condition
-4.798122	conditional
-4.798122	conditioning
-4.798122	conditions
-4.798122	conducting
-4.798122	cones
-4.254054	conference
-4.798122	confided
-4.798122	confidence
-4.798122	confidentiality
-4.798122	confirm
-4.798122	confirmed
-4.798122	conflict
-4.798122	confront
-4.798122	confrontation
-4.196062	confused
-4.798122	confusing
-4.798122	congrats
-4.798122	congratulate
-4.400182	congratulations
-4.798122	conically
-4.798122	connect-the-dots
-4.798122	connected
-4.622031	connection
-4.798122	connections
-4.798122	conserve
-4.321001	consider
-4.622031	considered
-4.400182	considering
-4.798122	consist
-4.798122	consistency
-4.798122	consists
-4.798122	consolation
-4.798122	constant
-4.798122	constipated
-4.798122	consume
-4.798122	consumed
-4.400182	contact
-4.798122	contacting
-4.497092	contacts
-4.622031	contagious
-4.622031	container
-4.798122	containers
-4.798122	contains
-4.798122	contaminated
-4.798122	content
-4.798122	contest
-4.798122	contests
-4.622031	context
-4.798122	continuing
-4.798122	contract
-4.798122	contracts
-4.321001	control
-4.798122	controlling
-4.798122	controls
-4.798122	controversy
-4.622031	convention
-4.798122	conventions
-4.321001	conversation
-4.798122	conversations
-4.798122	conversion
-4.798122	converts
-4.622031	convince
-4.497092	convinced
-4.497092	cook
-4.497092	cookie
-4.622031	cookies
-4.798122	cooking
-4.798122	cooks
-3.497092	cool
-4.622031	cooler
-4.497092	coolest
-4.798122	cooling
-4.798122	cooperating
-4.622031	coordinate
-4.798122	cope
-4.798122	cops
-4.798122	copy
-4.798122	cord
-4.798122	cords
-4.798122	corduroy
-4.798122	core
-4.622031	corn
-4.497092	corner
-4.798122	corners
-4.497092	correct
-4.798122	corrected
-4.798122	corridor
-4.622031	cosmic
-4.622031	cost
-4.622031	costs
-4.400182	costume
-4.497092	costumes
-4.798122	cotillion
-4.099152	couch
-2.94079	could
-4.798122	counsellor
-4.321001	count
-4.798122	counter
-4.798122	counting
-4.622031	countries
-4.497092	country
-3.684179	couple
-4.497092	couples
-4.798122	coupling'
-3.427054	course
-4.798122	court
-4.400182	cousin
-4.798122	cousing
-4.497092	cover
-4.400182	covered
-4.798122	covers
-4.798122	cow
-4.798122	cowardly
-4.798122	cowboy
-4.798122	crackers
-4.798122	crackpot
-4.798122	cramps
-4.400182	cranky
-4.144909	crap
-4.321001	crappy
-4.622031	crashed
-4.798122	crate
-4.622031	crawl
-4.798122	crawling
-4.798122	craziness
-3.475903	crazy
-4.798122	crazy-big
-4.400182	cream
-4.254054	create
-4.400182	created
-4.798122	creation
-4.798122	creationists
-4.798122	creative
-4.798122	creature
-4.254054	credit
-4.798122	credit-worthiness
-4.622031	creep
-4.497092	creepy
-4.622031	crew
-4.798122	cricket
-4.798122	cried
-4.798122	cries
-4.622031	crime
-4.798122	criminal
-4.400182	crisis
-4.622031	critical
-4.798122	criticism
-4.798122	criticizes
-4.798122	cross
-4.798122	crossbar
-4.798122	crossbow
-4.497092	crossed
-4.798122	crossword
-4.622031	crotch
-4.798122	crouching
-4.497092	crowd
-4.497092	cruel
-4.622031	cruise
-4.798122	crunch
-4.798122	crunchy
-4.798122	crushes
-4.622031	crust
-4.321001	cry
-4.798122	crybaby
-4.798122	crying
-4.622031	cryogenic
-4.798122	cryptanalysis
-4.622031	crystals
-4.622031	cuckoo
-4.798122	cuddly
-4.798122	cultural
-4.798122	cultures
-4.196062	cup
-4.622031	cure
-4.622031	curiosity
-4.622031	current
-4.622031	currently
-4.622031	curry
-4.798122	curse
-4.798122	curtains
-4.622031	curve
-4.622031	cushion
-4.798122	custody
-4.798122	customer
-4.497092	cut
-4.798122	cut-up
-4.798122	cutbacks
-4.019971	cute
-4.798122	cutest
-4.798122	cutie
-4.798122	cutthroat
-4.798122	cutting
-4.798122	cyanoacrylate
-4.798122	d
-4.798122	d'oeuvres
-4.798122	d..
-4.057759	dad
-4.798122	dads
-4.798122	dam
-4.622031	damn
-4.798122	damned
-4.798122	damper
-4.798122	dams
-4.798122	damsel
-4.497092	dance
-4.497092	dancer
-4.400182	dancing
-4.798122	dangerous
-4.798122	dangle
-4.622031	dare
-4.196062	dark
-4.798122	darkness
-4.798122	dat
-4.321001	data
-3.508088	date
-4.798122	date-like
-4.497092	dated
-4.622031	dates
-3.820399	dating
-4.798122	daughter
-4.798122	dawn
-3.465684	day
-4.798122	day-old
-4.798122	daylight
-3.923061	days
-4.798122	de
-4.497092	dead
-4.798122	deadliest
-4.798122	deadline
-3.594002	deal
-4.622031	dealer
-4.622031	dealing
-4.099152	death
-4.622031	debate
-4.497092	debt
-4.798122	deceive
-4.798122	decelerates
-4.622031	decent
-4.400182	decide
-4.254054	decided
-4.622031	decides
-4.497092	decision
-4.798122	decisions
-4.798122	declares
-4.798122	decompress
-4.798122	decontamination
-4.798122	decorating
-4.497092	deep
-4.798122	default
-4.798122	defeat
-4.798122	defecating
-4.798122	defected
-4.497092	defence
-4.798122	defend
-4.798122	defends
-4.321001	definitely
-4.798122	definition
-4.798122	definitively
-4.798122	degree
-4.798122	degrees
-4.622031	deliberately
-4.798122	delicate
-4.497092	delicious
-4.622031	delightful
-4.798122	delineating
-4.622031	deliver
-4.622031	delivered
-4.798122	delivery
-4.798122	demand
-4.798122	demonstrate
-4.798122	demonstrates
-4.798122	demonstration
-4.798122	den
-4.798122	denial
-4.798122	denigrated
-4.622031	density
-4.254054	dentist
-4.321001	department
-4.798122	departments
-4.798122	depends
-4.798122	deploy
-4.798122	deported
-4.798122	depressing
-4.798122	der
-4.798122	deranged
-4.798122	derided
-4.798122	derivative
-4.798122	dermatologist
-4.798122	descendents
-4.798122	describe
-4.321001	deserve
-4.622031	deserves
-4.497092	design
-4.798122	designing
-4.798122	desires
-4.497092	desk
-4.798122	desperate
-4.798122	dessert
-4.254054	destroy
-4.798122	destroyed
-4.798122	detachment
-4.400182	details
-4.798122	detaining
-4.622031	detect
-4.798122	detection
-4.798122	detector
-4.798122	determine
-4.798122	determined
-4.798122	detoxing
-4.798122	devastated
-4.798122	develop
-4.622031	developed
-4.497092	development
-4.798122	deviated
-4.798122	device
-4.798122	devote
-4.798122	diabetes
-4.798122	dial
-4.798122	dials
-4.622031	dibs
-4.798122	dice
-2.571522	did
-4.196062	die
-4.196062	died
-4.798122	dies
-4.321001	difference
-3.54285	different
-4.798122	differential
-4.622031	difficult
-4.798122	diffraction
-4.622031	dig
-4.798122	diggers
-4.622031	digging
-4.497092	digital
-4.798122	digits
-4.798122	dilate
-4.798122	dim
-4.798122	dimension
-4.622031	dimensions
-4.798122	diminish
-4.798122	dining
-3.60779	dinner
-4.798122	dinosaur
-4.798122	dipped
-4.622031	direction
-4.798122	directly
-4.144909	dirty
-4.497092	disagree
-4.798122	disappear
-4.622031	disappointed
-4.798122	disaster
-4.798122	discarded
-4.798122	discernible
-4.798122	disclose
-4.798122	disconfirmed
-4.798122	discount
-4.622031	discouraged
-4.622031	discover
-4.622031	discovered
-4.497092	discoveries
-4.798122	discovering
-4.622031	discovers
-4.497092	discovery
-4.798122	discriminated
-4.798122	discuss
-4.798122	discussed
-4.497092	disease
-4.497092	disgusting
-4.798122	display
-4.798122	displeases
-4.798122	dispute
-4.798122	disrespectful
-4.798122	dissertation
-4.400182	distance
-4.798122	distinguished
-4.497092	distracted
-4.798122	distractions
-4.798122	distress
-4.798122	disturbed
-4.622031	ditch
-4.798122	ditched
-4.798122	divide
-4.798122	divider
-4.798122	divorce
-2.083792	do
-4.099152	doctor
-4.798122	doctorate
-4.798122	doctors
-4.497092	documentary
-4.798122	documented
-2.968818	does
-4.019971	dog
-4.144909	dogs
-4.622031	doin
-2.972047	doing
-4.798122	doll
-3.868703	dollars
-4.798122	dolls
-4.798122	dolphin
-4.798122	domain
-4.798122	domestic
-4.798122	dominance
-4.798122	don't
-4.798122	don't'
-4.798122	donating
-3.555084	done
-4.798122	donut
-4.798122	doodles
-3.798122	door
-4.798122	doorbell
-4.798122	doorknob
-4.798122	doorman
-4.798122	doormat
-4.798122	doors
-4.622031	dork
-4.798122	dorky
-4.798122	dosage
-4.400182	double
-4.798122	double-check
-4.196062	doubt
-4.798122	dowels
-3.254054	down
-4.622031	down-low
-4.798122	downside
-4.798122	downtown
-4.798122	dozens
-4.622031	draft
-4.798122	drag
-4.798122	dragged
-4.798122	draw
-4.622031	drawbridge
-4.798122	drawer
-4.798122	drawers
-4.798122	drawn
-4.196062	dream
-4.497092	dreams
-4.798122	dreamy
-4.798122	dredge
-4.497092	dress
-4.144909	dressed
-4.622031	dresses
-4.798122	dressing
-4.798122	dressmaker
-4.798122	drew
-4.798122	drift
-4.144909	drink
-4.321001	drinking
-4.622031	drinks
-4.798122	drip
-3.718941	drive
-4.798122	driven
-4.019971	driving
-4.798122	drone
-4.400182	drop
-4.798122	drop-off
-4.622031	dropped
-4.497092	dropping
-4.622031	drove
-4.196062	drug
-4.798122	drugged
-4.622031	drugs
-4.019971	drunk
-4.798122	dry
-4.798122	dryer
-4.622031	duct
-4.798122	dude
-4.798122	dudes
-4.622031	due
-4.798122	dug
-4.798122	duh
-4.321001	dumb
-4.798122	dumbbell
-4.321001	dump
-4.798122	dumpling
-4.497092	dumplings
-4.622031	dumps
-4.400182	dungeon
-4.144909	during
-4.622031	dust
-4.622031	duvet
-4.798122	dwarf
-4.798122	dwelling
-4.497092	dying
-4.798122	dysfunctional
-4.798122	e
-4.144909	e-mail
-4.798122	eBay
-3.651994	each
-4.798122	ear
-4.798122	earlier
-4.099152	early
-4.798122	earn
-4.798122	earned
-4.622031	ears
-4.622031	earth
-4.798122	ease
-4.497092	easier
-4.622031	easily
-3.923061	easy
-4.798122	easygoing
-3.636754	eat
-4.622031	eaten
-4.144909	eating
-4.622031	eats
-4.798122	eccentric
-4.798122	edge
-4.622031	edition
-4.400182	effect
-4.798122	effects
-4.497092	effort
-4.321001	egg
-4.798122	eggnog
-4.400182	eggs
-4.798122	ego
-4.798122	eh
-4.144909	eight
-4.622031	eighteen
-4.622031	eighth
-3.868703	either
-4.798122	el
-4.321001	electric
-4.622031	electricity
-4.798122	electrodes
-4.798122	electromagnets
-4.798122	electron
-4.798122	electrons
-4.798122	elegant
-4.497092	element
-4.798122	elephant
-4.321001	elevator
-4.497092	eleven
-4.622031	elf
-4.622031	elite
-3.555084	else
-4.798122	elsewhere
-4.622031	elves
-4.622031	email
-4.798122	emailing
-4.798122	emasculation
-4.622031	embarrass
-4.622031	embarrassed
-4.798122	embrace
-4.798122	emerge
-4.321001	emergency
-4.321001	emotional
-4.622031	emotionally
-4.798122	emotionless
-4.798122	empire
-4.321001	empty
-4.798122	enable
-4.798122	enchanted
-4.622031	encouraging
-3.737424	end
-4.321001	ended
-4.497092	ending
-4.497092	ends
-4.400182	energy
-4.798122	enforce
-4.798122	engage
-4.321001	engaged
-4.798122	engagement
-4.798122	engine
-4.400182	engineer
-4.798122	engineering
-4.798122	enigma
-4.099152	enjoy
-4.622031	enjoyed
-4.400182	enjoying
-4.798122	enjoys
-4.798122	enlighten
-3.701212	enough
-4.798122	enraged
-4.798122	enrages
-4.497092	enter
-4.798122	entering
-4.798122	enterprise
-4.798122	entertaining
-4.798122	enthusiast
-3.985209	entire
-4.622031	entirely
-4.798122	entitled
-4.798122	entrees
-4.798122	environmental
-4.798122	epilepsy
-4.798122	episode
-4.798122	episodes
-4.798122	equal
-4.622031	equation
-4.321001	equations
-4.798122	equatorial
-4.321001	equipment
-4.798122	equivalency
-4.798122	equivalent
-4.798122	ergonomic
-4.798122	error
-4.798122	escaped
-4.798122	escorting
-4.798122	essay
-4.798122	essentials
-4.798122	establish
-4.798122	esteem
-4.798122	esteemed
-4.798122	estimate
-4.798122	etc
-4.798122	eucalyptus
-4.798122	euphemism
-4.798122	evaluate
-3.260303	even
-4.321001	evening
-4.798122	events
-4.497092	eventually
-3.408956	ever
-3.737424	every
-4.400182	everybody
-3.737424	everyone
-3.594002	everything
-4.497092	everywhere
-4.400182	evil
-4.798122	evolution
-4.798122	evolutionary
-4.622031	evolve
-4.798122	ex
-4.057759	ex-boyfriend
-4.622031	ex-girlfriend
-4.622031	exact
-3.776933	exactly
-4.622031	exam
-4.798122	examines
-4.400182	example
-4.798122	excellent
-4.497092	except
-4.622031	exception
-4.019971	excited
-4.196062	exciting
-4.798122	exclusive
-4.254054	excuse
-4.798122	excuses
-4.798122	execution
-4.400182	exercise
-4.798122	exhaust
-4.622031	exhausted
-4.798122	exhausting
-4.798122	exhibits
-4.798122	exist
-4.798122	existed
-4.798122	existence
-4.798122	exists
-4.798122	exiting
-4.798122	exoskeleton
-4.798122	expander
-4.798122	expands
-4.798122	expansion
-4.400182	expect
-4.321001	expecting
-4.622031	expedition
-4.798122	expelled
-4.798122	expensive
-4.400182	experience
-4.798122	experiencing
-4.019971	experiment
-4.254054	experimental
-4.798122	experimenting
-4.497092	experiments
-4.400182	expert
-4.798122	expertise
-4.798122	expiration
-4.057759	explain
-4.622031	explaining
-4.798122	explains
-4.622031	explanation
-4.798122	explode
-4.798122	exploded
-4.798122	explodes
-4.798122	exploration
-4.798122	explore
-4.798122	exposed
-4.622031	express
-4.798122	expressing
-4.622031	expression
-4.798122	extended
-4.798122	extending
-4.798122	extension
-4.798122	extenuating
-4.254054	extra
-4.798122	extras
-4.622031	extremely
-4.622031	exude
-4.798122	exuding
-4.144909	eye
-4.798122	eyeball
-4.798122	eyebrows
-4.400182	eyes
-4.798122	fabric
-3.737424	face
-4.622031	facebook
-4.798122	facilitate
-4.798122	facilities
-3.718941	fact
-4.798122	facts
-4.798122	fail
-4.798122	failing
-4.798122	failure
-4.144909	fair
-4.622031	fairly
-4.622031	fairness
-4.798122	faith
-4.798122	faithful
-4.622031	fake
-4.622031	fall
-4.622031	falling
-4.497092	falls
-4.622031	false
-4.196062	familiar
-4.144909	family
-4.622031	famous
-4.497092	fan
-4.497092	fancy
-4.497092	fans
-4.798122	fantastic
-4.798122	fantasy'
-4.400182	far
-4.798122	farm
-4.798122	farmer
-4.798122	farting
-4.798122	farts
-4.798122	fascinating
-4.798122	fashionable
-4.057759	fast
-4.798122	fasten
-4.321001	fat
-4.798122	fat-free
-4.798122	fate
-3.985209	father
-4.798122	father-son
-3.868703	fault
-4.798122	favorite
-3.953024	favour
-4.798122	favoured
-4.400182	favourite
-4.798122	favourites
-4.622031	fear
-4.798122	feat
-4.798122	featuring
-4.798122	fed
-4.798122	fee
-4.622031	feed
-3.335724	feel
-4.798122	feel'
-3.895032	feeling
-3.84388	feelings
-4.196062	feels
-4.400182	feet
-4.798122	feline
-4.254054	fell
-4.798122	fellas
-4.798122	fellowship
-4.321001	felt
-4.400182	female
-4.798122	fencing
-4.622031	fever
-3.923061	few
-4.798122	fianc
-4.798122	fiancee
-4.798122	fibre
-4.798122	fiction
-4.798122	fictional
-4.321001	field
-4.798122	fields
-4.400182	fifteen
-4.622031	fifth
-4.798122	fifty
-4.057759	fight
-4.254054	fighting
-3.84388	figure
-4.144909	figured
-4.321001	figures
-4.497092	figuring
-4.622031	file
-4.798122	filibuster
-4.622031	fill
-4.798122	filled
-4.798122	filling
-4.798122	fills
-4.622031	film
-4.798122	filter
-4.622031	final
-3.985209	finally
-4.622031	finances
-4.622031	financial
-4.622031	financially
-4.622031	finches
-3.486368	find
-4.497092	finding
-4.622031	findings
-4.798122	finds
-3.22992	fine
-4.622031	finger
-4.798122	fingerprints
-4.798122	fingers
-4.321001	finish
-4.497092	finished
-4.400182	fire
-4.622031	fired
-4.798122	fireplace
-4.798122	firms
-3.350964	first
-4.057759	fish
-4.798122	fished
-4.798122	fists
-4.497092	fit
-4.622031	fits
-3.985209	five
-4.798122	five-foot-six
-4.798122	five-pound
-4.798122	five-ten
-4.798122	five-week
-4.798122	five-year
-4.057759	fix
-4.798122	fixate
-4.798122	fixated
-4.497092	fixed
-4.798122	fixing
-4.321001	flag
-4.798122	flair
-4.798122	flamed
-4.798122	flammable
-4.798122	flank
-4.798122	flanking
-4.497092	flash
-4.798122	flashlights
-4.798122	flask
-4.798122	flat
-4.798122	flatmate
-4.798122	flats
-4.798122	flatter
-4.798122	flattered
-4.622031	flavour
-4.798122	flaw
-4.798122	flermin
-4.798122	flesh
-4.798122	flexible
-4.798122	flier
-4.400182	flight
-4.497092	flip
-4.798122	flipped
-4.798122	flirting
-4.798122	flirty
-4.622031	float
-4.798122	floating
-4.798122	flooded
-3.895032	floor
-4.798122	floss
-4.798122	flossing
-4.798122	flower
-4.497092	flowers
-4.798122	flu
-4.798122	fluid
-4.622031	flush
-4.400182	fly
-4.497092	flying
-4.144909	focus
-4.798122	focussed
-4.798122	fold
-4.622031	folder
-4.798122	folk
-4.497092	follow
-4.798122	follow-up
-4.798122	follow-ups
-4.622031	followed
-4.622031	following
-4.798122	fond
-4.798122	fondle
-4.798122	fondness
-3.594002	food
-4.798122	fool
-4.798122	fooled
-4.798122	fooling
-4.798122	foot
-4.144909	football
-4.798122	footsteps
-2.444014	for
-4.798122	forbade
-4.798122	forbid
-4.622031	forbidden
-4.321001	force
-4.798122	forced
-4.798122	foreever
-4.798122	forehead
-4.798122	foreign
-4.798122	forest
-4.400182	forever
-3.953024	forget
-4.798122	forgetting
-4.622031	forgive
-4.400182	forgot
-4.798122	forgotten
-4.798122	fork
-4.798122	forks
-4.497092	form
-4.798122	formation
-4.798122	formed
-4.798122	former
-4.798122	formidable
-4.798122	forming
-4.798122	formula
-4.798122	fort
-4.798122	fortunate
-4.798122	fortune
-4.798122	forty
-4.798122	forty-five
-4.254054	forward
-4.622031	fought
-4.798122	foul
-3.895032	found
-3.84388	four
-4.798122	fourteen
-4.400182	fourth
-4.798122	fractional
-4.798122	frame
-4.798122	franchise
-4.622031	frankly
-4.798122	frauds
-4.196062	free
-4.497092	free-electron
-4.798122	freeing
-4.798122	freeloader
-4.798122	freestyle
-4.798122	freeway
-4.622031	freeze
-4.400182	fresh
-4.798122	freshener
-4.497092	fridge
-4.798122	fried
-3.44594	friend
-4.798122	friend'
-4.798122	friended
-3.475903	friends
-4.497092	friendship
-4.622031	fries
-4.798122	frisky
-4.798122	frog
-3.065728	from
-4.798122	from'
-4.019971	front
-4.798122	frosty
-4.798122	froze
-4.622031	frozen
-4.622031	fruit
-4.798122	fu
-4.622031	fuel
-4.798122	fulcrum
-4.099152	full
-3.273077	fun
-4.798122	functioning
-4.798122	fund-raisers
-4.622031	funding
-4.622031	funeral
-4.798122	funnier
-3.667788	funny
-4.798122	funtime
-4.798122	fur
-4.798122	furnace
-4.622031	furniture
-4.798122	furry
-4.019971	future
-4.798122	g-g-g-ghost
-4.798122	g-g-ghost
-4.798122	galactic
-4.798122	gall
-4.798122	galleria
-3.567673	game
-4.798122	game'
-4.196062	games
-4.400182	gaming
-4.798122	gang
-4.622031	garage
-4.400182	garbage
-4.798122	garlic
-4.321001	gas
-4.798122	gas-filled
-4.798122	gat
-4.798122	gate
-3.820399	gave
-4.254054	gay
-4.622031	gazelle
-4.497092	gee
-4.798122	geeky
-4.798122	geez
-4.798122	gender-neutral
-4.622031	general
-4.798122	generally
-4.798122	generated
-4.798122	generator
-4.622031	generic
-4.798122	genetic
-4.798122	geneticist
-4.622031	genital
-4.497092	genitals
-4.400182	genius
-4.622031	geniuses
-4.622031	gentleman
-4.798122	gentlemen
-4.798122	geographically
-4.798122	geology
-4.798122	germophobe
-4.622031	gesture
-2.598093	get
-3.820399	gets
-3.417911	getting
-4.798122	ghobe
-4.798122	ghost
-4.254054	giant
-4.622031	gibbon
-4.321001	gift
-4.798122	gig
-3.497092	girl
-4.798122	girl'
-3.465684	girlfriend
-4.798122	girlfriend'
-4.497092	girlfriends
-3.895032	girls
-4.798122	girly
-4.798122	girth
-3.343277	give
-4.196062	given
-4.400182	gives
-4.321001	giving
-4.798122	glacial
-3.953024	glad
-4.798122	glamorous
-4.400182	glass
-4.254054	glasses
-4.798122	glitter
-4.798122	glorified
-4.798122	glorious
-4.622031	glove
-4.497092	gloves
-4.798122	glow
-4.622031	glow-in-the-dark
-4.798122	glow-in-the-dark-emergency-exit
-4.798122	glowing
-4.798122	glue
-2.651994	go
-4.798122	go-go
-4.798122	goat
-4.622031	goblin
-4.254054	god
-3.923061	goes
-4.798122	goggles
-4.798122	goin
-2.687532	going
-4.798122	going-away
-4.798122	gold
-4.622031	golf
-2.876436	gon
-3.737424	gone
-2.83198	good
-4.622031	good-bye
-4.798122	goodness
-4.798122	goodnight
-4.798122	goods
-4.798122	goof
-4.798122	goofin
-4.798122	google
-4.798122	googled
-4.622031	gorgeous
-4.798122	gorilla
-4.798122	gorillas
-4.798122	gossip
-2.800299	got
-4.798122	gots
-4.144909	gotten
-4.497092	government
-4.622031	gown
-4.321001	grab
-4.400182	grad
-4.254054	grade
-4.798122	graded
-4.798122	graduate
-4.798122	graduating
-4.798122	graft
-4.798122	graham
-4.798122	grand
-4.798122	grandchildren
-4.798122	grandfather
-4.622031	grandma
-4.798122	grandmothers
-4.622031	grant
-4.798122	granted
-4.798122	grants
-4.798122	grapes
-4.798122	graphene
-4.798122	graphics
-4.622031	grasp
-4.798122	grave
-4.400182	gravity
-4.798122	gravy
-4.798122	grease
-3.169733	great
-4.798122	great'
-4.622031	greatest
-4.321001	green
-4.798122	grenades
-4.400182	grew
-4.798122	grey
-4.622031	grid
-4.798122	griffin
-4.798122	grind
-4.798122	grinding
-4.798122	groceries
-4.798122	groin
-4.798122	groom
-4.798122	groomer
-4.798122	gross
-4.798122	ground
-4.798122	groundbreaking
-4.798122	grounds
-4.321001	group
-4.798122	groups
-4.798122	grow
-4.497092	growing
-4.400182	grown
-4.798122	grown-up
-4.622031	grown-ups
-4.622031	grows
-4.798122	growth
-4.798122	grrrrr
-4.622031	guacamole
-4.622031	guarantee
-4.497092	guard
-3.335724	guess
-4.497092	guessing
-4.622031	guest
-4.798122	guests
-4.321001	guidance
-4.622031	guilt
-4.798122	guilt-ridden
-4.497092	guilty
-4.798122	gum
-4.622031	gun
-4.798122	gunshot
-4.798122	guts
-3.24182	guy
-3.126024	guys
-4.622031	gym
-4.798122	gyroscope
-4.798122	gyroscopic
-4.622031	ha
-4.497092	hacked
-4.798122	hacking
-3.038454	had
-4.798122	hadn't'
-4.019971	hair
-4.622031	haircut
-4.798122	hairiest
-4.798122	hairless
-4.057759	half
-4.798122	half-hippo
-4.798122	half-hour
-4.798122	half-human
-4.144909	hall
-4.798122	hallway
-4.622031	hamburger
-4.798122	hamburgers
-3.985209	hand
-4.798122	handed
-4.622031	handful
-4.622031	handle
-4.798122	handlebar
-4.798122	handled
-4.321001	hands
-3.737424	hang
-4.321001	hanging
-4.798122	hangnail
-3.868703	happen
-3.486368	happened
-4.099152	happening
-4.144909	happens
-4.798122	happiest
-4.798122	happily
-4.622031	happiness
-3.408956	happy
-3.651994	hard
-4.400182	harder
-4.622031	hardly
-4.798122	hardware
-4.798122	harem
-4.798122	harmless
-3.22992	has
-4.254054	hat
-3.953024	hate
-4.798122	hated
-4.798122	hates
-4.798122	hating
-2.395861	have
-4.798122	have'
-3.383149	having
-2.583278	he
-4.798122	he'
-3.651994	head
-4.497092	headed
-4.798122	heading
-4.622031	headphones
-4.798122	headquarters
-4.400182	heads
-4.622031	heads-up
-4.497092	health
-4.798122	healthy
-3.651994	hear
-3.737424	heard
-4.497092	hearing
-4.144909	heart
-4.798122	hearted
-4.798122	hearts
-4.497092	heat
-4.798122	heated
-4.622031	heavy
-4.798122	hedge
-4.798122	height
-4.798122	held
-4.798122	helically
-4.196062	helium
-4.798122	helium-neon
-3.651994	hell
-4.400182	hello
-4.798122	helm
-4.798122	helmet
-4.798122	helmets
-3.343277	help
-4.497092	helped
-4.196062	helpful
-4.057759	helping
-4.497092	helps
-4.798122	hemmed
-2.768738	her
-2.770772	here
-4.798122	hereditary
-4.622031	hero
-4.798122	heroes
-4.798122	hers
-4.798122	herself
-4.798122	heterosexual
-3.53095	hey
-4.019971	hi
-4.622031	hid
-4.622031	hide
-4.321001	hiding
-4.099152	high
-4.798122	high-fibre
-4.798122	high-powered
-4.798122	high-resolution
-4.798122	high-school
-4.497092	higher
-4.798122	highest
-4.622031	highly
-4.798122	hike
-2.748904	him
-4.321001	himself
-4.798122	hippocampus
-4.798122	hips
-4.798122	hire
-4.798122	hired
-4.798122	hiring
-2.975301	his
-4.798122	hissy
-4.798122	historian
-4.622031	history
-3.756729	hit
-4.798122	hitch
-4.497092	hitting
-4.196062	ho
-4.798122	ho-hold
-4.798122	hobbit
-4.798122	hobby
-4.622031	hobo
-4.622031	hogging
-3.868703	hold
-4.057759	holding
-4.798122	holds
-4.400182	hole
-4.497092	holiday
-4.622031	holidays
-4.798122	hologram
-4.798122	holographic
-3.417911	home
-4.798122	homeless
-4.798122	homeopathic
-4.497092	homework
-4.798122	homo-habilus
-4.321001	honest
-4.254054	honestly
-4.622031	honesty
-4.400182	honey
-4.798122	honeymoon
-4.622031	honorary
-4.497092	honour
-4.798122	honourable
-4.798122	honoured
-4.497092	hook
-4.798122	hooked
-4.622031	hooker
-4.798122	hooking
-3.798122	hope
-4.798122	hoped
-4.798122	hopelessly
-4.798122	hopes
-4.144909	hoping
-4.798122	horizontal
-4.622031	hormones
-4.321001	horrible
-4.798122	hors
-4.798122	horse
-4.622031	horses
-4.798122	horsey
-4.497092	hospital
-4.798122	host
-4.019971	hot
-4.400182	hotel
-4.622031	hotter
-3.953024	hour
-3.798122	hours
-4.099152	house
-4.798122	houses
-4.798122	hover
-2.858603	how
-4.400182	hug
-4.254054	huge
-4.798122	hugging
-4.798122	hugs
-3.868703	huh
-4.798122	hum
-3.985209	human
-4.798122	humans
-4.798122	humiliated
-4.798122	humiliating
-4.798122	humiliation
-4.798122	humming
-4.798122	humour
-4.057759	hundred
-4.798122	hundreds
-4.196062	hungry
-4.798122	hunt
-4.798122	hunting
-4.798122	hunts
-4.622031	hurry
-4.400182	hurt
-4.497092	husband
-4.798122	husbands
-4.798122	hut
-4.798122	hydrocarbons
-4.798122	hydrodynamics
-4.798122	hydroelectric
-4.622031	hydrogen
-4.798122	hygienist
-4.798122	hypo-allergenic
-4.798122	hypocrite
-4.254054	hypothesis
-4.798122	hypothetical
-4.798122	hypotheticals
-4.798122	hysterical
-4.622031	i
-4.798122	i-i-i-it
-4.798122	iPad
-4.798122	iPhone
-4.798122	iPhones
-4.798122	iPod
-4.798122	iPods
-4.798122	ibuprofen
-4.321001	ice
-4.798122	ice-cream
-4.798122	iceberg
-4.798122	iced
-4.798122	icy
-3.383149	idea
-4.400182	ideas
-4.798122	identify
-4.400182	idiot
-4.798122	idiotic
-4.798122	idiots
-4.798122	idolizing
-2.708217	if
-4.497092	ignore
-4.798122	illness
-4.798122	illogical
-4.798122	imagination
-4.622031	imagine
-4.798122	imagined
-4.798122	imagining
-4.798122	immortal
-4.798122	immortality
-4.798122	immune
-4.798122	impact
-4.798122	impaired
-4.798122	impasse
-4.798122	impersonation
-4.798122	implementing
-4.798122	implications
-4.798122	implied
-3.84388	important
-4.622031	importantly
-4.798122	impossibility
-4.497092	impossible
-4.798122	impressed
-4.798122	impression
-4.622031	impressive
-4.798122	imprinted
-4.798122	impromptu
-4.622031	improvement
-4.798122	impulse
-2.274376	in
-4.798122	in'
-4.798122	in-box
-4.798122	in-in-in-instead
-4.798122	inadvertently
-4.497092	inappropriate
-4.798122	inarguable
-4.798122	incapable
-4.798122	incapacitated
-4.622031	inch
-4.798122	inches
-4.798122	inclined
-4.497092	include
-4.798122	incoming
-4.798122	incomplete
-4.622031	inconvenience
-4.497092	incredible
-4.400182	incredibly
-4.798122	indefinitely
-4.798122	indelible
-4.798122	independent
-4.622031	indicating
-4.798122	indication
-4.798122	individual
-4.798122	individually
-4.622031	indoor
-4.798122	indoorsy
-4.622031	inefficient
-4.798122	inertia
-4.798122	inevitable
-4.798122	infection
-4.622031	infections
-4.622031	infinite
-4.798122	inflate
-4.196062	information
-4.798122	informing
-4.798122	infrared
-4.798122	inhabitant
-4.321001	inhaler
-4.622031	inherent
-4.798122	initial
-4.622031	initialed
-4.798122	injury
-4.798122	ink
-4.798122	innocent
-4.798122	innovative
-4.196062	insane
-4.497092	insecure
-4.798122	insecurities
-4.798122	insecurity
-4.798122	insensitive
-4.321001	inside
-4.798122	insight
-4.798122	insights
-4.798122	insist
-4.622031	insomnia
-4.798122	inspection
-4.798122	inspiration
-4.400182	inspired
-4.798122	install
-4.798122	instant
-3.868703	instead
-4.798122	instrument
-4.497092	insult
-4.798122	insulting
-4.798122	insults
-4.798122	insurance
-4.798122	integrated
-4.622031	integrity
-4.321001	intellectual
-4.798122	intelligence
-4.798122	intelligent
-4.798122	intend
-4.798122	intense
-4.798122	intentionally
-4.798122	intercourse
-4.400182	interest
-3.923061	interested
-4.144909	interesting
-4.622031	interface
-4.798122	interference
-4.622031	internal
-4.798122	internally
-4.622031	international
-4.622031	internet
-4.622031	interrupt
-4.798122	interrupted
-4.798122	interruptions
-4.622031	intervention
-4.798122	interview
-4.798122	intestinal
-4.798122	intimacy
-4.798122	intimidate
-3.212662	into
-4.798122	intolerance
-4.497092	intolerant
-4.798122	intriguing
-4.497092	introduce
-4.622031	introduced
-4.798122	introducing
-4.798122	invading
-4.798122	invent
-4.497092	invented
-4.622031	invention
-4.798122	inventions
-4.798122	inventive
-4.798122	investing
-4.798122	investments
-4.798122	invisibility
-4.798122	invitation
-4.254054	invite
-4.254054	invited
-4.798122	invoke
-4.798122	invoked
-4.622031	involve
-4.321001	involved
-4.798122	involves
-4.798122	inward
-4.798122	ion
-4.798122	iron
-4.798122	irony
-4.798122	irrigator
-4.798122	irritating
-2.273726	is
-4.798122	isotopically
-4.497092	issue
-4.497092	issues
-1.996376	it
-4.798122	it'
-4.798122	it-it
-4.497092	itchy
-4.144909	its
-4.400182	itself
-4.798122	jack
-4.798122	jacket
-4.497092	jail
-4.798122	jam
-4.798122	jar
-4.798122	jazz
-4.144909	jealous
-4.798122	jeans
-4.622031	jeez
-4.798122	jell-o
-4.254054	jerk
-4.798122	jersey
-4.798122	jewellery
-4.798122	jiggling
-3.895032	job
-4.798122	jockey
-4.798122	jogging
-4.019971	join
-4.622031	joining
-4.798122	joint
-4.099152	joke
-4.798122	jokes
-4.400182	joking
-4.622031	journal
-4.798122	journals
-4.622031	judgement
-4.622031	judging
-4.798122	judgmental
-4.622031	juice
-4.798122	juicy
-4.497092	jump
-4.622031	jumping
-4.321001	junk
-4.798122	jury
-2.411623	just
-4.798122	just'
-4.798122	k
-4.798122	kabob
-4.798122	karaoke
-4.798122	kay
-3.580638	keep
-4.497092	keeping
-4.622031	keeps
-4.400182	kept
-4.798122	ketchup
-4.400182	key
-4.798122	keynote
-4.622031	keys
-4.254054	kick
-4.622031	kicked
-4.798122	kickstarter
-3.895032	kid
-3.580638	kidding
-3.895032	kids
-3.868703	kill
-4.497092	killed
-4.622031	killer
-4.321001	killing
-4.622031	kills
-4.497092	kin
-3.126024	kind
-4.321001	kinda
-4.798122	kinda-sorta
-4.798122	kindness
-4.798122	kinetic
-4.622031	king
-4.798122	kinky
-4.321001	kiss
-4.497092	kissed
-4.798122	kisses
-4.099152	kissing
-4.798122	kit
-4.497092	kitchen
-4.622031	kite
-4.798122	kites
-4.798122	klatch
-4.798122	knee
-4.798122	kneel
-4.798122	knees
-4.099152	knew
-4.798122	knife
-4.622031	knight
-4.400182	knock
-4.798122	knocked
-4.798122	knot
-2.395861	know
-4.400182	know'
-4.622031	know-it-all
-4.798122	knowing
-4.622031	knowledge
-4.400182	known
-3.84388	knows
-4.798122	knuckle
-4.798122	knuckling
-4.798122	koalas
-4.798122	kung
-4.019971	lab
-4.497092	label
-4.798122	lack
-4.400182	lactose
-4.798122	lactose-intolerant
-4.798122	ladders
-4.622031	ladies
-4.019971	lady
-4.622031	laid
-4.798122	lamb
-4.798122	lame
-4.622031	land
-4.798122	landing
-4.798122	landlord
-4.798122	lantern
-4.798122	lapses
-4.497092	laptop
-4.798122	laptops
-4.400182	large
-4.798122	larger
-4.798122	largest
-4.798122	larval
-4.798122	lasagna
-4.057759	laser
-4.497092	lasers
-4.798122	lash
-3.374876	last
-3.820399	late
-4.798122	late-night
-4.622031	lately
-3.820399	later
-4.798122	later'
-4.798122	latest
-4.798122	latex
-4.254054	laugh
-4.400182	laughed
-4.622031	laughing
-4.622031	laughs
-4.798122	launch
-4.798122	launcher
-4.798122	laundry
-4.622031	law
-4.798122	lawful
-4.622031	lawn
-4.497092	lawyer
-4.798122	laxative
-4.497092	lay
-4.400182	lead
-4.622031	leadership
-4.798122	leading
-4.622031	league
-4.622031	lean
-3.953024	learn
-4.497092	learned
-4.321001	learning
-3.718941	least
-4.798122	leather
-3.756729	leave
-4.497092	leaves
-4.057759	leaving
-4.321001	lecture
-4.321001	led
-3.667788	left
-4.798122	leftovers
-4.254054	leg
-4.798122	legally
-4.798122	lemon
-4.798122	length
-4.196062	less
-4.798122	lesson
-2.959273	let
-4.497092	lets
-4.400182	letter
-4.497092	letters
-4.099152	letting
-4.144909	level
-4.798122	levels
-4.400182	lever
-4.798122	liberate
-4.798122	library
-4.798122	lick
-4.196062	lie
-4.497092	lied
-3.417911	life
-4.798122	life-forms
-4.798122	lifelike
-4.798122	lifetime
-4.798122	lift
-4.019971	light
-4.497092	lighten
-4.798122	lighting
-4.798122	lightly
-4.798122	lightning
-4.798122	lights
-2.623481	like
-4.798122	like'
-4.196062	liked
-4.144909	likes
-4.622031	liking
-4.798122	lima
-4.798122	limbs
-4.798122	lime
-4.798122	limited
-3.895032	line
-4.798122	linen
-4.798122	lingerie
-4.798122	lingering
-4.798122	lining
-4.798122	lion
-4.622031	lip
-4.254054	liquid
-4.321001	list
-4.798122	listed
-3.701212	listen
-4.798122	listen'
-4.400182	listening
-4.798122	lit
-4.622031	literally
-2.943816	little
-3.465684	live
-4.400182	lived
-4.622031	liver
-4.798122	liverwurst
-3.895032	lives
-3.684179	living
-4.798122	loaded
-4.622031	loading
-4.798122	lobster
-4.798122	locales
-4.622031	location
-4.497092	lock
-4.622031	locked
-4.798122	locksmith
-4.798122	logic
-4.798122	logical
-4.798122	logs
-4.622031	loneliness
-4.622031	lonely
-3.391582	long
-4.798122	long-term
-4.144909	longer
-3.185338	look
-4.321001	looked
-3.60779	looking
-4.019971	looks
-4.622031	loop
-4.798122	loopy
-4.622031	loose
-4.798122	lopsided
-4.798122	lordly
-3.923061	lose
-4.622031	loser
-4.798122	losers
-4.798122	loses
-4.497092	losing
-4.622031	loss
-4.019971	lost
-3.279608	lot
-4.622031	lots
-4.497092	loud
-4.798122	lousy
-3.218338	love
-4.798122	lovebug
-4.321001	loved
-4.400182	lovely
-4.798122	lover
-4.798122	loves
-4.497092	loving
-4.622031	low
-4.798122	low-key
-4.497092	lower
-4.622031	lowering
-4.798122	lox
-4.798122	loyal
-4.798122	lubricant
-4.099152	luck
-4.196062	lucky
-4.798122	lug
-4.798122	luminous
-4.798122	lumps
-4.622031	lunatic
-4.321001	lunch
-4.798122	lure
-4.400182	lying
-4.798122	m
-4.622031	ma'am
-4.798122	ma'tre
-3.953024	machine
-4.798122	machines
-3.84388	mad
-3.465684	made
-4.798122	mag-lev
-4.622031	magazines
-4.400182	magic
-4.798122	magical
-4.321001	mail
-4.622031	main
-4.798122	maintain
-4.798122	maintained
-3.023605	make
-4.798122	make-up
-4.497092	maker
-3.820399	makes
-4.798122	makeup
-3.567673	making
-4.622031	malaria
-4.622031	male
-4.622031	males
-4.798122	mall
-3.567673	man
-4.798122	man-made
-4.622031	manage
-4.798122	manager
-4.798122	mani-pedi
-4.798122	manipulate
-4.798122	mannequin
-4.798122	manor
-4.798122	mantis
-4.798122	manual
-4.798122	manufacturing
-3.84388	many
-4.622031	map
-4.497092	marathon
-4.798122	marble
-4.622031	march
-4.622031	marital
-4.798122	maritime
-4.798122	market
-4.400182	marriage
-3.684179	married
-4.321001	marry
-4.622031	mask
-4.798122	mass
-4.798122	massive
-4.798122	master
-4.798122	matches
-4.497092	matching
-4.497092	mate
-4.798122	mates
-4.798122	matey
-4.099152	math
-4.798122	mathematics
-3.60779	matter
-4.497092	matters
-4.622031	mature
-4.798122	maturity
-3.718941	may
-3.321001	maybe
-2.349416	me
-4.400182	meal
-3.038454	mean
-4.497092	meaning
-4.622031	meaningless
-3.923061	means
-4.019971	meant
-4.798122	meantime
-4.622031	measure
-4.798122	measures
-4.798122	mechanic
-4.798122	mechanics
-4.622031	medal
-4.622031	medallion
-4.798122	medically
-4.798122	medication
-4.497092	medicine
-3.718941	meet
-4.196062	meeting
-4.497092	meets
-4.798122	melanoma
-4.497092	melon
-4.798122	melons
-4.497092	melted
-4.798122	melting
-4.400182	member
-4.798122	membership
-4.497092	memory
-4.400182	men
-4.798122	mend
-4.497092	mention
-4.622031	mentioned
-4.798122	menu
-4.798122	meow
-4.798122	merely
-4.798122	merit
-4.798122	merrier
-4.798122	message
-4.798122	messages
-4.497092	messed
-4.622031	messing
-4.798122	messy
-3.868703	met
-4.400182	metal
-4.798122	meteor
-4.798122	meters
-4.798122	method
-4.622031	mic
-4.798122	micro-porous
-4.019971	middle
-4.798122	midnight
-3.24182	might
-4.196062	miles
-4.321001	military
-4.321001	milk
-4.798122	millimetres
-4.497092	million
-4.622031	millions
-3.475903	mind
-4.622031	minds
-4.321001	mine
-4.798122	mines
-4.798122	minestrone
-4.497092	miniature
-4.798122	miniaturised
-4.622031	minor
-4.497092	mint
-3.718941	minute
-3.923061	minutes
-4.622031	mirror
-4.321001	miserable
-4.798122	misfiring
-4.798122	misguided
-3.953024	miss
-4.497092	missed
-4.798122	missiles
-4.497092	missing
-4.321001	mission
-4.798122	missy
-4.099152	mistake
-4.622031	mistakes
-4.798122	mister
-4.622031	misunderstanding
-4.798122	mittens
-4.798122	mitts
-4.497092	mix
-4.798122	mixed
-4.798122	mixed-race
-4.798122	mm-hmm
-4.798122	mobile
-4.622031	mock
-4.798122	mocking
-4.622031	model
-4.798122	modern
-4.798122	modification
-4.798122	moist
-4.798122	molecular
-3.756729	mom
-4.099152	moment
-4.622031	momentum
-4.798122	moms
-3.475903	money
-4.497092	monkey
-4.798122	monkeys
-4.798122	monogamous
-4.798122	monomers
-4.622031	monster
-4.254054	month
-4.019971	months
-4.099152	mood
-4.798122	moody
-4.321001	moon
-4.798122	moons
-4.798122	moose
-4.798122	moral
-3.121428	more
-3.60779	morning
-4.798122	mornings
-4.798122	mortadella
-4.798122	mortal
-4.798122	mosey
-3.868703	most
-4.622031	mostly
-4.798122	moth
-3.54285	mother
-4.622031	mothers
-4.622031	motion
-4.798122	motives
-4.622031	motorcycle
-4.798122	motorcycles
-4.798122	mount
-4.099152	mouth
-4.798122	mouthwash
-3.776933	move
-4.400182	moved
-4.798122	movements
-4.497092	moves
-3.53095	movie
-4.254054	movies
-3.895032	moving
-4.798122	mu-shu
-3.266643	much
-4.497092	muffin
-4.798122	muffins
-4.798122	mug
-4.798122	multi-wire
-4.798122	multidimensional
-4.798122	mummies
-4.497092	murder
-4.798122	murdered
-4.798122	murderer
-4.798122	murdering
-4.798122	muscle
-4.497092	muscles
-4.622031	museum
-4.798122	mush
-4.400182	music
-4.798122	musicals
-4.798122	musician
-3.868703	must
-4.798122	mustard
-4.798122	mutual
-4.622031	mutually
-2.496008	my
-4.798122	my'
-3.895032	myself
-4.798122	mythological
-2.033572	n't
-4.798122	n-no
-2.868703	na
-4.798122	nag
-4.798122	nail
-4.622031	nailed
-4.622031	naive
-4.057759	naked
-3.756729	name
-4.196062	names
-4.622031	naming
-4.798122	nana
-4.622031	nano
-4.497092	nap
-4.622031	napkin
-4.798122	napped
-4.798122	narcissistic
-3.408956	nard
-4.798122	narrow
-4.798122	narrows
-4.622031	natural
-4.497092	nature
-4.622031	naughty
-4.798122	navigational
-4.497092	near
-4.798122	nearby
-4.798122	nearsighted
-4.400182	neat
-4.497092	necessary
-4.622031	neck
-3.042247	need
-4.321001	needed
-4.622031	needle
-4.798122	needlepoint
-4.019971	needs
-4.798122	negative
-4.798122	negative-energy
-4.798122	negotiate
-4.144909	neighbour
-4.254054	neighbours
-4.622031	neither
-4.321001	nerd
-4.622031	nerds
-4.400182	nervous
-4.798122	net
-4.798122	neuro-chemical
-4.798122	neurons
-4.798122	neutral
-4.798122	neutrino
-4.622031	neutrinos
-3.201525	never
-3.366758	new
-3.985209	news
-3.594002	next
-4.798122	nibbling
-3.286239	nice
-4.798122	nicely
-4.622031	nicer
-3.038454	night
-4.622031	nightmare
-4.798122	nightmares
-4.196062	nights
-4.798122	nightstand
-4.400182	nine
-4.497092	ninja
-4.798122	nip
-4.798122	nipple
-4.798122	nitpicking
-4.798122	nitrogen
-2.697752	no
-4.798122	no'
-4.798122	no-no-no
-4.798122	no-oh
-4.622031	no-one
-4.798122	noble
-4.622031	nobody
-4.798122	nod
-4.798122	nods
-4.798122	noise
-4.798122	non
-4.798122	non-fat
-4.798122	non-lethal
-4.798122	non-precedential
-4.798122	non-related
-4.798122	non-stop
-4.798122	none
-4.798122	nonprescription
-4.400182	nonsense
-4.798122	nonstop
-4.798122	normally
-4.798122	north
-4.497092	nose
-4.798122	nosebleed
-4.798122	noses
-2.352518	not
-4.622031	notebooks
-4.622031	notes
-3.54285	nothing
-4.196062	notice
-4.400182	noticed
-4.798122	notify
-2.991942	now
-4.798122	now'
-4.798122	nowhere
-4.798122	nudity
-4.497092	nuggets
-4.057759	number
-4.622031	numbers
-4.798122	numerically
-4.798122	nurse
-4.798122	nursing
-4.798122	nut
-4.798122	nutbag
-4.798122	nutcase
-4.798122	nutritional
-4.798122	nuts
-4.798122	nymph
-4.196062	o'clock
-4.798122	oatmeal
-4.798122	object
-4.798122	objective
-4.798122	objects
-4.497092	obnoxious
-4.798122	obscure
-4.798122	observation
-4.798122	observed
-4.798122	obsess
-4.798122	obsession
-4.798122	obvious
-4.400182	obviously
-4.622031	occasion
-4.798122	occasionally
-4.798122	occupied
-4.798122	occupies
-4.798122	occur
-4.622031	ocean
-4.622031	odd
-4.497092	odds
-2.185868	of
-4.622031	of'
-3.218338	off
-4.798122	off/
-4.400182	offence
-4.798122	offense
-4.622031	offer
-4.497092	offered
-4.622031	offering
-4.622031	offers
-3.84388	office
-4.622031	officer
-4.798122	officially
-4.798122	offspring
-4.400182	often
-4.622031	ogre
-3.718941	oh
-3.030966	okay
-4.798122	ol
-3.701212	old
-4.622031	older
-4.622031	olive
-4.798122	omegas
-2.347104	on
-4.798122	on'
-3.756729	once
-2.804686	one
-4.798122	one-day
-4.798122	one-on-one
-4.798122	one-time
-4.400182	ones
-4.798122	onesie
-4.196062	online
-3.358789	only
-4.798122	onset
-4.400182	onto
-4.497092	ooh
-4.798122	ooh-ya
-3.84388	open
-4.798122	opened
-4.798122	opening
-4.622031	opera
-4.798122	operant
-4.622031	operate
-4.798122	operating
-4.798122	opiates
-4.798122	opinion
-4.321001	opportunity
-4.798122	opposable
-4.798122	option
-4.798122	optional
-4.798122	options
-4.798122	optometrist
-3.201525	or
-4.798122	oral
-4.798122	orang-u-tan
-4.798122	orange
-4.798122	orbiting
-3.923061	order
-4.497092	ordered
-4.622031	orders
-4.798122	organ
-4.798122	organise
-4.798122	orgasms
-4.798122	origin
-4.196062	original
-4.798122	osmosis
-3.335724	other
-4.798122	otters
-4.798122	ought
-3.042247	our
-4.622031	ours
-4.254054	ourselves
-2.638254	out
-4.798122	out-of-the-box
-4.798122	outdoor
-4.798122	outdoors
-4.798122	outrun
-4.099152	outside
-4.798122	outsider
-4.798122	ovaries
-4.497092	oven
-3.201525	over
-4.798122	over-tired
-4.798122	overanalyze
-4.798122	overcome
-4.798122	overdressed
-4.798122	overexposed-to-gamma-rays
-4.798122	overflow
-4.798122	overhear
-4.798122	overlay
-4.798122	overlook
-4.798122	overly
-4.798122	overnight
-4.798122	overreacted
-4.400182	overreacting
-4.622031	overreaction
-4.798122	overseas
-4.798122	oversell
-4.798122	overthink
-4.798122	overthinking
-4.798122	overuse
-3.985209	owe
-4.798122	owed
-4.798122	owes
-3.594002	own
-4.798122	owned
-4.321001	owner
-4.798122	owners
-4.798122	owns
-4.798122	oxygen
-4.798122	p.m.
-4.622031	pack
-4.798122	package
-4.798122	packaging
-4.798122	packed
-4.798122	packing
-4.798122	packs
-4.321001	pact
-4.622031	page
-4.497092	pages
-4.196062	paid
-4.497092	pain
-4.798122	painkillers
-4.497092	paint
-4.497092	paintball
-4.622031	painted
-4.622031	paints
-4.622031	pair
-4.497092	pal
-4.798122	palm
-4.798122	pancake
-4.798122	pancakes
-4.798122	paneer
-4.798122	panellist
-4.798122	panels
-4.321001	panic
-4.798122	panicked
-4.798122	panties
-3.953024	pants
-3.868703	paper
-4.497092	papers
-4.798122	papi
-4.798122	parabolic
-4.497092	paradigm
-4.798122	paradigm-shifting
-4.798122	paradox
-4.798122	paradoxes
-4.798122	paralyzed
-4.798122	pardons
-4.798122	parent
-4.798122	parenting
-4.099152	parents
-4.798122	park
-4.798122	parked
-4.622031	parking
-4.622031	parks
-4.798122	parliamentary
-4.798122	parmesan
-3.798122	part
-4.798122	participate
-4.497092	particle
-4.497092	particles
-4.798122	particulares
-4.622031	particularly
-4.497092	parties
-4.798122	partner
-4.497092	partners
-4.798122	parts
-4.798122	partway
-3.622031	party
-4.400182	pass
-4.798122	passed
-4.798122	passes'
-4.622031	passing
-4.798122	passion
-4.400182	password
-4.144909	past
-4.798122	pasta
-4.798122	pat
-4.622031	patch
-4.497092	patent
-4.798122	path
-4.622031	pathetic
-4.622031	patience
-4.798122	pattern
-4.798122	pattern-matching
-4.798122	pause
-4.798122	pawn
-4.400182	pay
-4.798122	payday
-4.798122	paying
-4.798122	peaceful
-4.798122	peacefully
-4.798122	peachy
-4.798122	peanut
-4.622031	peanuts
-4.798122	peas
-4.622031	pedantic
-4.798122	pedestrians
-4.400182	pee
-4.622031	pee-pee
-4.798122	peeing
-4.798122	peephole
-4.798122	peer
-4.798122	peer-review
-4.798122	peer-reviewed
-4.798122	peers
-4.798122	pen
-4.798122	penalized
-4.622031	pencil
-4.798122	pending
-4.798122	penicillin
-4.798122	penis
-4.798122	penny
-3.185338	people
-4.798122	peppermint
-4.798122	per
-4.798122	perceive
-4.622031	percent
-4.196062	perfect
-4.196062	perfectly
-4.798122	perform
-4.798122	perhaps
-4.798122	permanently
-4.798122	permission
-4.798122	persistence
-3.737424	person
-4.400182	personal
-4.798122	personalised
-4.798122	personality
-4.798122	personally
-4.798122	perspective
-4.798122	perspiring
-4.497092	pet
-4.798122	petals
-4.798122	petty
-4.798122	pharmacy
-4.497092	phase
-4.798122	pheromones
-4.019971	phone
-4.798122	phones
-4.798122	photographic
-4.798122	photography
-4.798122	photons
-4.798122	phrase
-4.798122	physi'
-4.497092	physical
-4.622031	physically
-4.798122	physicals
-4.099152	physicist
-4.254054	physicists
-3.895032	physics
-3.737424	pick
-4.254054	picked
-4.798122	picking
-4.196062	picture
-4.497092	pictures
-4.400182	pie
-4.622031	piece
-4.622031	pieces
-4.798122	piercings
-4.798122	pig
-4.798122	pigeon
-4.798122	pigeons
-4.622031	pill
-4.497092	pillow
-4.798122	ping-pong
-4.798122	pinky
-4.798122	pinned
-4.798122	pins
-4.798122	pioneer
-4.798122	pistachios
-4.798122	pit
-4.622031	pitch
-4.798122	pitcher
-4.798122	pits
-4.798122	pity
-4.622031	pizza
-3.53095	place
-4.798122	placebo
-4.798122	placed
-4.400182	places
-3.953024	plan
-4.400182	plane
-4.497092	planet
-4.400182	planned
-4.321001	planning
-4.099152	plans
-4.798122	plant
-4.798122	plaque
-4.497092	plate
-4.798122	platitude
-4.798122	platonic
-4.798122	platter
-3.54285	play
-4.622031	playa
-4.400182	played
-4.622031	player
-4.798122	players
-3.895032	playing
-4.798122	plays
-3.44594	please
-4.798122	pleasure
-4.497092	plenty
-4.798122	plexiglass
-4.798122	plug
-4.622031	plumbing
-4.798122	plunge
-4.497092	plus
-4.497092	pocket
-4.798122	pod
-4.798122	podcast
-4.798122	podiatrist
-4.798122	poems
-3.667788	point
-4.798122	pointers
-4.798122	pointy-eared
-4.798122	poker
-4.798122	pokh
-4.798122	pole
-4.321001	police
-4.622031	polish
-4.798122	polishing
-4.798122	polite
-4.798122	politically
-4.798122	politics
-4.798122	poll
-4.798122	polymerize
-4.798122	polyps
-4.798122	polyvinyl
-4.622031	poodles
-4.400182	pool
-4.798122	poop
-4.196062	poor
-4.622031	pop
-4.798122	poppy
-4.400182	popular
-4.798122	pork
-4.798122	port
-4.798122	pose
-4.798122	position
-4.622031	positive
-4.622031	possess
-4.798122	possessed
-4.497092	possibility
-4.196062	possible
-4.497092	possibly
-4.497092	post
-4.798122	postdoc
-4.798122	posted
-4.798122	posterity
-4.798122	postpone
-4.798122	postponing
-4.798122	potato
-4.321001	potential
-4.798122	potion
-4.622031	pottery
-4.622031	potty
-4.798122	pound
-4.798122	powder
-4.497092	power
-4.798122	powerful
-4.622031	practically
-4.622031	practice
-4.622031	practicing
-4.798122	praying
-4.798122	pre-adolescent
-4.798122	pre-emptive
-4.798122	pre-nup
-4.798122	predicated
-4.622031	prefer
-4.798122	pregnancy
-4.798122	pregnant
-4.798122	prehensile
-4.798122	premise
-4.798122	premium
-4.622031	prepare
-4.798122	prepared
-4.798122	preschool
-4.798122	preschooler
-4.798122	prescription
-4.798122	presence
-4.321001	present
-4.622031	presentation
-4.798122	presenting
-4.798122	preserved
-4.798122	preserving
-4.798122	president
-4.400182	press
-4.798122	pressed
-4.622031	pressure
-4.798122	pressuring
-4.099152	pretend
-4.497092	pretending
-4.798122	pretends
-4.622031	prettiest
-3.273077	pretty
-4.798122	prevent
-4.798122	preventing
-4.798122	previously
-4.497092	price
-4.798122	prime
-4.798122	primordial
-4.622031	principle
-4.321001	print
-4.798122	printer
-4.497092	prison
-4.144909	privacy
-4.622031	private
-4.798122	privileges
-4.622031	prize
-4.798122	prizes
-4.798122	pro-bed
-3.651994	probably
-4.798122	probe
-3.436394	problem
-4.144909	problems
-4.798122	procedure
-4.798122	proceed
-4.622031	process
-4.798122	procrastinating
-4.798122	production
-4.798122	productive
-4.798122	products
-4.798122	professional
-4.497092	professor
-4.798122	proffer
-4.798122	proficiency
-4.798122	profits
-4.798122	programmes
-4.798122	progress
-3.985209	project
-4.798122	projection
-4.400182	prom
-4.798122	prominent
-4.019971	promise
-4.497092	promised
-4.798122	promptly
-4.497092	prop
-4.798122	propensity
-4.798122	properties
-4.798122	proportion
-4.798122	proposals
-4.057759	propose
-4.400182	proposed
-4.798122	props
-4.497092	prostate
-4.798122	prostitute
-4.798122	prostitutes
-4.798122	protagonist
-4.622031	protect
-4.798122	protecting
-4.798122	protocol
-4.622031	prototype
-3.84388	proud
-4.400182	prove
-4.622031	proven
-4.798122	provide
-4.400182	proving
-4.798122	proximate
-4.622031	psychiatrist
-4.622031	psychic
-4.798122	psychics
-4.622031	psychological
-4.798122	psychologists
-4.798122	psychology
-4.400182	public
-4.400182	publish
-4.622031	published
-4.497092	pudding
-4.798122	puffery
-4.798122	puking
-4.196062	pull
-4.321001	pulled
-4.798122	pulling
-4.798122	pummel
-4.622031	pump
-4.622031	punch
-4.497092	punched
-4.798122	punish
-4.622031	punishment
-4.798122	pupils
-4.798122	puppet
-4.798122	puppy
-4.798122	pups
-4.622031	pure
-4.798122	purely
-4.622031	purpose
-4.798122	purse
-4.497092	pursue
-4.798122	pursuit
-4.254054	push
-4.497092	pushed
-3.400182	put
-4.798122	puts
-4.144909	putting
-4.622031	puzzles
-4.798122	pyjama
-4.622031	pyjamas
-4.798122	quad
-4.798122	qualified
-4.622031	qualities
-4.798122	quality
-4.798122	quantified
-4.400182	quantum
-4.798122	quarks
-4.798122	queen
-4.400182	quest
-3.895032	question
-4.798122	questioned
-4.622031	questioning
-4.144909	questions
-4.798122	quibble
-4.622031	quick
-4.497092	quiet
-4.798122	quieter
-4.798122	quip
-4.798122	quirky
-4.400182	quit
-4.798122	quite
-4.622031	quiz
-4.497092	quote
-4.798122	rabbit
-4.798122	race
-4.798122	racially
-4.622031	racist
-4.400182	radiation
-4.798122	radio
-4.798122	radio-controlled
-4.798122	radon
-4.798122	raging
-4.798122	railroad
-4.798122	rails
-4.400182	rain
-4.798122	raining
-4.798122	raise
-4.798122	raised
-4.798122	raises
-4.622031	raising
-4.798122	rambling
-4.321001	ran
-4.622031	random
-4.798122	ranking
-4.622031	rap
-4.798122	rapper
-4.798122	rare
-4.497092	rash
-4.798122	rash'
-4.497092	rat
-4.254054	rather
-4.798122	ratio
-4.798122	rattled
-4.798122	rattlers
-4.798122	ray
-4.798122	rays
-4.798122	re-evaluate
-4.798122	reach
-4.798122	reached
-4.622031	reaction
-3.756729	read
-4.400182	reading
-3.923061	ready
-3.701212	real
-4.622031	realise
-4.798122	realistic
-4.798122	reality
-4.019971	realize
-4.798122	realizes
-2.884308	really
-4.798122	rear-ended
-3.756729	reason
-4.400182	reasonable
-4.798122	reasonableness
-4.622031	reasons
-4.798122	reassigned
-4.798122	rebel
-4.798122	rebound
-4.622031	received
-4.622031	recently
-4.798122	recipe
-4.798122	recipes
-4.798122	reciprocity
-4.798122	recognize
-4.798122	reconsider
-4.196062	record
-4.798122	records
-4.798122	recreational
-4.798122	recycled
-4.400182	red
-4.798122	red-blooded
-4.798122	redundant
-4.798122	reef
-4.798122	reel
-4.798122	reels
-4.622031	refer
-4.798122	reference
-4.798122	referred
-4.798122	referring
-4.622031	refers
-4.798122	refill
-4.622031	reflective
-4.798122	reflector
-4.622031	refuse
-4.798122	regard
-4.798122	regarded
-4.798122	regards
-4.400182	regret
-4.622031	regrets
-4.400182	regular
-4.798122	rehab
-4.798122	reinforcement
-4.798122	reinterpretation
-4.798122	reintroduce
-4.798122	reiterate
-4.622031	rejected
-4.798122	rekindles
-4.497092	related
-3.53095	relationship
-4.798122	relationship-beta-test
-4.497092	relationships
-4.798122	relatively
-4.622031	relativity
-4.144909	relax
-4.497092	release
-4.798122	released
-4.798122	relentless
-4.798122	relieved
-4.622031	relocate
-4.798122	rely
-4.622031	remains
-3.684179	remember
-4.497092	remind
-4.798122	reminding
-4.798122	reminds
-4.497092	remove
-4.798122	reneged
-4.622031	rent
-4.798122	rental
-4.798122	rented
-4.622031	repair
-4.798122	repentance
-4.798122	repetition
-4.798122	rephrase
-4.321001	replace
-4.798122	replaced
-4.798122	replica
-4.798122	replicas
-4.254054	report
-4.798122	reported
-4.622031	represents
-4.798122	reprogram
-4.798122	require
-4.622031	requires
-4.798122	rescue
-4.622031	rescued
-3.84388	research
-4.798122	reservation
-4.798122	reserve
-4.798122	reservoir
-4.798122	reset
-4.622031	resident
-4.798122	resin
-4.497092	resolved
-4.798122	resources
-4.798122	respawn
-4.400182	respect
-4.798122	respected
-4.798122	respectful
-4.798122	response
-4.798122	responses
-4.798122	responsibility
-4.622031	responsible
-3.84388	rest
-4.019971	restaurant
-4.798122	restock
-4.798122	restocking
-4.798122	restraining
-4.798122	restrictions
-4.622031	restroom
-4.622031	results
-4.798122	retaining
-4.798122	rethinking
-4.798122	retinal
-4.798122	retinas
-4.798122	retrospect
-4.144909	return
-4.798122	revenge
-4.622031	reverse
-4.798122	review
-4.798122	reviews
-4.798122	revolting
-4.798122	revolutions
-4.798122	rewarding
-4.144909	rid
-4.321001	ride
-3.737424	ridiculous
-4.798122	rig
-2.708217	right
-4.798122	rights
-4.798122	righty
-3.953024	ring
-4.798122	ringtone
-4.798122	rip
-4.497092	ripped
-4.622031	ripping
-4.798122	risk
-4.798122	risked
-4.798122	riskier
-4.622031	river
-4.497092	road
-4.798122	roadblock
-4.798122	robes
-4.196062	robot
-4.798122	robotic
-4.798122	robots
-4.196062	rock
-4.321001	rocket
-4.798122	rockets
-4.798122	rockin
-4.798122	rocks
-4.798122	rodents
-4.798122	rodeo
-4.099152	roll
-4.798122	rolling
-4.798122	rolls
-4.321001	romance
-4.099152	romantic
-4.798122	romantically
-4.400182	roof
-3.594002	room
-4.798122	roomie
-4.019971	roommate
-4.798122	roommates
-4.798122	root
-4.798122	roots
-4.798122	rosary
-4.798122	rose
-4.144909	rough
-4.622031	row
-4.622031	rub
-4.622031	rubbing
-4.400182	rude
-4.798122	ruffle
-4.321001	ruin
-4.622031	ruined
-4.798122	ruining
-4.798122	ruins
-4.798122	rule
-4.798122	ruled
-4.254054	rules
-4.798122	ruling
-3.820399	run
-4.497092	running
-4.622031	runs
-4.497092	rush
-1.213452	s
-4.798122	sabbatical
-4.497092	sabotage
-4.798122	sack
-4.798122	sacks
-4.798122	sacks'
-4.798122	sacrifice
-4.099152	sad
-4.798122	saddest
-4.622031	sadness
-4.254054	safe
-4.622031	safety
-4.798122	sagging
-3.22992	said
-4.798122	said'
-4.321001	sake
-4.622031	sakes
-4.622031	salad
-4.400182	sale
-4.798122	salespeople
-4.798122	salon
-4.798122	salt
-4.798122	salty
-4.798122	salvage
-3.667788	same
-4.798122	samples
-4.798122	sanctimonious
-4.798122	sanding
-4.622031	sandwich
-4.798122	sandwiches
-4.798122	sank
-4.798122	sarapes
-4.497092	sarcasm
-4.798122	sarcastic
-4.622031	sauce
-4.798122	sauna
-4.798122	sausage
-4.798122	savage
-4.400182	save
-4.497092	saved
-4.798122	saving
-4.622031	savings
-4.798122	savour
-3.776933	saw
-2.879044	say
-3.508088	saying
-3.953024	says
-4.622031	scale
-4.497092	scalped
-4.798122	scaly
-4.622031	scan
-4.798122	scanned
-4.798122	scanner
-4.798122	scanning
-4.144909	scared
