
\data\
ngram 1=6258
ngram 2=22451

\1-grams:
-2.669401	!	0.04039934
-4.108734	%	0.004378239
-4.409764	&	-0.0001134602
-3.710794	'	0.09954035
-4.409764	'Cause	0.02236007
-4.409764	'Penny	0.02236007
-4.409764	'Shamy	0.03004785
-4.409764	'Sup	0.005604494
-4.409764	'Very	-8.810018e-05
-3.932643	'cause	0.01749982
-4.409764	'check	-8.810018e-05
-2.829981	'd	0.02751695
-3.932643	'em	0.05395859
-4.409764	'er	0.0006395176
-2.771275	'll	0.006108523
-2.26519	'm	0.04009005
-2.352859	're	0.02520551
-4.409764	'round	0.03004785
-1.888626	's	0.1202077
-4.409764	'there	0.0009359901
-2.697957	've	-0.004532447
-4.233673	(	-0.0002438258
-4.233673	)	0.005919864
-1.296824	,	0.04753421
-1.172975	.	-0.1355561
-3.865696	1	0.06311744
-4.409764	1-2-3-4	0.003238412
-4.409764	10	0.01949419
-4.409764	10,000	0.03004785
-4.409764	10-year-old	0.0001994169
-4.233673	100	-0.0002269189
-4.233673	101	0.0008225928
-4.409764	104	-9.655368e-05
-4.011824	12	-0.0002762496
-4.409764	120	-0.0001134602
-4.409764	12th	-0.000105007
-4.233673	15	-0.0002269189
-4.409764	16	0.005604494
-4.409764	16th	0.03004785
-4.409764	17	-9.655368e-05
-4.409764	17th	-0.000105007
-4.409764	18	-0.000105007
-4.409764	1863	0.03004785
-4.409764	1908	0.03004785
-4.409764	1917	0.02236007
-4.409764	1936	-0.0001134602
-4.108734	1955	-0.0002353282
-4.409764	1970s	-7.119269e-05
-4.409764	1975	-0.0001219132
-4.409764	1982	0.02236007
-4.409764	1993	0.03004785
-4.409764	1995	0.02236007
-4.409764	1998	0.03004785
-3.932643	2	0.05504283
-4.233673	20	-0.0002184653
-4.409764	200	-0.0001219132
-4.409764	2001	0.0001486648
-4.409764	2003	0.02236007
-4.409764	2004	0.03004785
-4.233673	2015	0.02995434
-4.409764	209	-0.0001219132
-4.409764	23rd	-0.0001219132
-4.409764	27	0.0001148333
-4.233673	28	-5.781434e-05
-4.409764	29	-7.119269e-05
-4.409764	294	0.005604494
-4.108734	3	0.02222309
-4.409764	3,000	-0.0001219132
-4.409764	30s	0.02236007
-4.409764	30th	0.02236007
-4.409764	31	-0.0001219132
-4.409764	33-day	-0.0001219132
-4.409764	35	-0.0001219132
-4.233673	360	0.05407326
-4.409764	364	-7.964649e-05
-4.409764	4	0.02236007
-4.409764	40	-0.0001219132
-4.409764	45	-0.000105007
-4.409764	4K	-0.0001219132
-4.233673	5	0.02244386
-4.409764	50	-0.000105007
-4.409764	5027.3	0.02236007
-4.409764	52	0.02236007
-4.409764	600	-0.0001219132
-4.409764	61	0.004560804
-4.108734	72	0.005292598
-4.409764	8.2	-0.0001219132
-4.409764	82	-0.000105007
-4.409764	9	0.02236007
-4.233673	9.8	-0.000182853
-4.409764	93	0.03004785
-4.409764	95	0.001563485
-3.179315	:	0.04597427
-4.108734	;	0.01674741
-1.354577	</s>
-99	<s>	-0.1057411
-1.88149	?	0.007310428
-3.038696	A	0.06256046
-4.409764	A-flat	0.005604494
-4.409764	AMC	-9.655368e-05
-4.409764	Aaargh	0.0007919638
-4.409764	Aah	0.0007919638
-4.233673	About	0.0007988141
-4.409764	Absolutely	0.001699279
-4.409764	Academy	0.005510289
-4.011824	According	0.007818455
-4.409764	Acting	-0.0001219132
-4.409764	Action	0.03004785
-4.409764	Actor	-0.0001219132
-3.807704	Actually	0.02194388
-4.409764	Adam	-0.0001219132
-4.409764	Additionally	0.02236007
-4.409764	Adler's	0.01949419
-4.108734	After	0.0210155
-4.409764	Again	0.02236007
-4.409764	Age	0.004321623
-4.409764	Agreed	0.03004785
-4.233673	Agreement	0.05407326
-3.631613	Ah	0.05443481
-4.108734	Aha	0.03083751
-4.409764	Air	0.005510289
-4.409764	Airborne	-0.0001219132
-4.233673	Al-Ghazali	0.005902716
-4.409764	Alan	-0.0001219132
-4.233673	Albert	-0.0001743998
-4.409764	Alcohol	0.005604494
-4.108734	Alex	0.02216968
-4.409764	Alfred	0.02236007
-4.409764	Algorithm	0.03004785
-4.409764	Alka-Seltzer	-0.000105007
-3.048036	All	0.01907319
-4.409764	Allow	0.002497927
-4.409764	Alpha-Bits	0.03004785
-3.807704	Alright	0.06048042
-4.233673	Also	0.02478368
-4.409764	AltaVista	0.02236007
-3.669401	Although	0.04907147
-4.409764	Always	0.03004785
-4.233673	Am	0.01233741
-4.409764	America	0.005510289
-3.932643	American	0.03114481
-4.233673	Americans	0.002750472
-4.409764	Amtrak	-0.0001134602
-2.904614	Amy	0.08493159
-3.932643	An	-0.0004996408
-2.600204	And	0.1562998
-4.409764	Angeles	0.03004785
-4.409764	Angry	-0.0001219132
-4.409764	Animal	-0.0001134602
-4.409764	Anime	0.005604494
-4.409764	Another	-0.0001219132
-4.409764	Ants	0.03004785
-4.233673	Any	-0.0001000967
-4.409764	Anyhow	0.02236007
-3.756552	Anyway	0.02187456
-4.409764	Anyway'	0.01949419
-4.409764	Apologize	0.03004785
-4.108734	Apparently	0.0222213
-4.409764	Appendicitis	0.03004785
-4.409764	Apple	-0.0001219132
-4.409764	Aquaman	0.005604494
-4.233673	Archimedes	0.001730263
-4.409764	Arctic	-0.0001219132
-3.388575	Are	0.01146524
-4.409764	Aristotle	0.001563485
-4.409764	Armenia	0.0003094003
-4.409764	Army	-0.0001219132
-4.011824	Arthur	0.05388423
-4.409764	Article	-2.892101e-05
-3.480345	As	0.03430763
-4.409764	Ask	-0.0001219132
-4.409764	Assuming	0.003715714
-4.409764	Astro	-5.428454e-05
-3.756552	At	0.002126004
-4.409764	Attaboy	0.0007919638
-4.409764	Attacks	0.0007919638
-4.409764	Attar	0.004560804
-4.409764	Attention	0.02236007
-4.409764	Attitude	0.0001486648
-4.409764	August	-0.0001219132
-4.409764	Austria	0.001563485
-4.409764	Avengers	-6.273866e-05
-4.409764	Avenue	0.003238412
-4.409764	Awful	0.03004785
-4.409764	Azeroth	0.03004785
-4.409764	B	0.03004785
-4.409764	B-minus	0.03004785
-4.409764	BC	0.02236007
-4.409764	Ba-da-bum	0.03004785
-4.409764	Babbling	-0.0001219132
-4.409764	Babinski	0.0004955891
-4.409764	Baby	-9.655368e-05
-4.233673	Back	0.007957208
-4.233673	Band	0.02227467
-4.233673	Band-Aid	0.002776009
-4.409764	Band-Aids	0.002991443
-4.409764	Bar	0.02236007
-4.233673	Barn	0.03199808
-4.409764	Barnett	0.004321623
-4.108734	Barry	0.02819645
-4.233673	Batman	0.03606869
-4.409764	Batmobile	0.03004785
-4.233673	Bazinga	0.02997845
-4.409764	Be	0.000157123
-4.233673	Beach	0.02992715
-4.409764	Beautiful	-0.0001219132
-4.409764	Beavers	0.03004785
-3.480345	Because	0.04313192
-4.409764	Bedtime	0.03004785
-4.108734	Before	0.009198674
-4.409764	Being	-0.0001134602
-3.865696	Bernadette	0.02817801
-4.233673	Bert	0.05407326
-4.409764	Besides	0.02236007
-4.409764	Best	0.004321623
-4.409764	Bet	0.008155815
-4.108734	Better	0.03018722
-4.409764	Between	0.008155815
-4.409764	Beverley	0.02236007
-4.409764	Beverly	0.02236007
-4.409764	Bible	-0.0001219132
-4.011824	Biff	0.0308291
-4.409764	Bikaner	-0.0001219132
-4.409764	Bilurrrbe	0.03004785
-4.409764	Bin	0.02236007
-4.409764	Biologically	-0.000105007
-4.409764	Biology	0.003238412
-4.409764	Birds	0.003238412
-4.409764	Blonde	-2.892101e-05
-4.409764	Blossom	0.005604494
-4.409764	Blue	-8.810018e-05
-4.409764	Bluetooth	0.03004785
-4.409764	Board	0.02236007
-4.233673	Bob	-0.0002438258
-4.409764	Bobby	-0.0001219132
-4.409764	Boca	-0.0001219132
-4.409764	Boggle	0.005604494
-4.409764	Bond	0.02236007
-4.409764	Boo-boos	0.004321623
-4.409764	Borg	-0.0001219132
-4.409764	Bose	-0.0001219132
-4.409764	Both	0.004560804
-3.807704	Boy	0.02190116
-4.409764	Boys	0.03004785
-4.409764	Bozeman	0.000351709
-4.409764	Bozite	0.03004785
-4.409764	Brachistochrone	1.33547e-05
-4.409764	Bran	-5.428454e-05
-4.409764	Brann	0.03004785
-4.409764	Brian	-0.0001219132
-4.409764	Bridge	0.005604494
-4.233673	Brilliant	0.03000871
-4.409764	Bring	0.003963097
-4.409764	British	-7.119269e-05
-4.409764	Brobdingna	0.0002417148
-4.409764	Brobdingnagian	0.02236007
-4.409764	Brothers	0.02236007
-4.409764	Bruce	-0.0001219132
-4.409764	Building	0.001809643
-4.409764	Bull	0.005604494
-4.409764	Burning	-0.0001219132
-4.233673	Burton	0.03012655
-4.409764	Bus	0.008155815
-2.925464	But	0.09743966
-4.409764	But'	0.01949419
-4.409764	Buzz	0.005604494
-4.409764	Bwch-wch-wch-wch-wch-wch	0.02236007
-4.108734	By	0.01295649
-4.233673	Bye	0.02997845
-4.409764	Bye-bye	0.03004785
-4.409764	C	0.005604494
-4.409764	C-3P-wee	-0.0001134602
-4.409764	C-3PO	0.004321623
-4.409764	C-minus	0.001563485
-4.409764	C.	0.01949419
-4.409764	CERN	0.03004785
-4.409764	CSI	-7.964649e-05
-3.932643	Ca	0.002977945
-4.409764	California	-7.119269e-05
-4.011824	Call	0.006948755
-4.409764	Calm	5.563456e-05
-3.710794	Can	0.02172869
-4.011824	Captain	-0.0004538319
-4.233673	Careful	0.02229068
-4.409764	Caribbean	-0.0001219132
-4.233673	Carl	6.905737e-05
-4.409764	Cat	0.03004785
-4.409764	Catalina	0.001741724
-4.409764	Cathedra	-0.0001219132
-4.409764	Century	0.02236007
-4.409764	Certainly	0.03004785
-4.409764	Chair	0.03004785
-4.409764	Chairman	0.004560804
-4.409764	Chan	0.03004785
-4.409764	Change	-0.000105007
-4.409764	Channel	0.004321623
-4.409764	Chardonnay	0.02236007
-4.409764	Chat	0.005604494
-4.409764	Chattahoochee	-0.0001219132
-4.409764	Chaucer	0.005510289
-4.409764	Check	0.001869082
-4.108734	Cheesecake	-0.0002437815
-4.233673	Chicago	0.02997845
-4.409764	Chicken	0.003238412
-4.409764	Chief	-0.0001219132
-4.409764	China	0.03004785
-4.108734	Chinese	0.02220708
-4.409764	Christian	-0.0001134602
-3.807704	Christmas	0.05367862
-4.409764	Christmassy	0.000233255
-4.409764	Circle	0.03004785
-4.409764	Clarke-Maxwell	0.0003094003
-4.409764	Clause	-0.0001219132
-4.409764	Click	0.003963097
-4.409764	Cloud	0.03004785
-4.409764	Cocoa	-0.0001134602
-4.409764	Colleagues	0.02236007
-4.409764	Collective	0.03004785
-4.409764	Collider	0.03004785
-4.409764	Colorado	0.03004785
-4.409764	Comanches	-7.119269e-05
-3.756552	Come	0.004399089
-4.108734	Comic-Con	0.006424578
-4.409764	Coming	0.0007919638
-4.233673	Committee	0.02997845
-4.233673	Communist	-0.0001067685
-4.409764	Congratulations	0.03004785
-4.409764	Connelly	0.02236007
-4.409764	Consider	0.008914649
-4.409764	Contribute	0.008026601
-4.409764	Cookie	0.03004785
-4.409764	Coop	0.004321623
-3.534703	Cooper	0.06144601
-4.409764	Cooper'	0.01949419
-4.409764	Coping	0.001801153
-4.409764	Cornish	-1.201122e-05
-4.409764	Cornwall	0.03004785
-4.409764	Cosmopolitan	-0.0001219132
-4.233673	Could	0.01147698
-4.409764	Couples	-9.655368e-05
-4.409764	Course	0.02236007
-4.409764	Cousteau	0.008026601
-4.409764	Cozy	-0.0001219132
-4.409764	Craigslist	0.03004785
-4.409764	Crashing	-0.0001219132
-4.409764	Crawley	0.02236007
-4.409764	Crazy	-0.000105007
-4.409764	Crisis	0.004321623
-4.409764	Crowe	0.002991443
-4.409764	Crusher	0.005604494
-4.409764	Curiouser	0.004321623
-4.409764	Custer	0.002268377
-4.409764	Cylon	-0.000105007
-4.233673	D	0.02223906
-4.409764	D'Onofrio	0.03004785
-4.409764	DC	-0.0001219132
-4.108734	DNA	0.03483758
-4.409764	DVD	0.005604494
-4.409764	Damn	0.003963097
-4.409764	Dancing	0.005604494
-4.233673	Darth	-0.000182853
-3.865696	Day	0.03812213
-4.409764	Dead	0.005604494
-4.233673	Dear	-0.0002438258
-4.409764	Death	2.181035e-05
-4.409764	Deep	-0.0001134602
-4.409764	Dengue	-0.0001219132
-4.409764	Dent	0.002991443
-4.409764	Depending	0.001809643
-4.409764	Depot	-0.0001219132
-4.409764	Des	-0.0001219132
-4.409764	Despite	0.00254045
-4.409764	Detailed	-0.0001219132
-4.409764	Details	0.02236007
-4.409764	Diamonds	0.02236007
-4.409764	Dibs	0.000351709
-4.409764	Dickens	0.005604494
-3.349066	Did	0.02622075
-4.409764	Dinner	0.005510289
-4.409764	Dirac	0.005604494
-4.233673	Disneyland	0.05407326
-4.108734	Ditko	0.02217146
-4.409764	Dits	0.03004785
-4.409764	Dixie-Trek	-0.0001134602
-3.029553	Do	0.02599182
-4.233673	Doc	0.000130024
-4.011824	Doctor	-0.0004453773
-4.409764	Dodson	0.02236007
-3.710794	Does	0.01791821
-4.409764	Dolphins	-0.0001219132
-4.409764	Doodle	-0.0001219132
-4.409764	Doom	0.008026601
-4.409764	Doppler	-0.0001219132
-4.409764	Downey	0.03004785
-4.233673	Dr	-0.0002438258
-3.368371	Dr.	-1.921132e-05
-4.409764	Drat	0.03004785
-4.409764	Droll	0.03004785
-4.409764	Drop	-0.0001134602
-4.409764	Dud	0.03004785
-4.409764	Duly	-0.0001219132
-4.409764	Dumbledore	-0.0001134602
-4.108734	Duty	-0.0002727383
-4.409764	E.M.	-0.0001219132
-4.409764	Earl	-0.0001219132
-4.108734	Earlier	0.001226451
-3.865696	Earth	0.06739774
-4.108734	East	-0.0002015131
-4.409764	Edward	-0.0001219132
-4.409764	Eee	0.02236007
-4.409764	Effect	0.03004785
-4.409764	Eggs	0.0009359901
-4.409764	Eh	0.03004785
-4.108734	Einstein	0.004411354
-4.409764	Either	0.0003009389
-4.409764	Ekairidium	0.02236007
-4.409764	Elf	0.03004785
-4.409764	Elizabeth	0.02236007
-4.409764	Emily	0.004321623
-4.409764	Energy	-0.000105007
-4.233673	England	0.02992715
-4.409764	English	0.02236007
-4.233673	Enid	0.05407326
-4.409764	Enjoyed	0.007037229
-4.409764	Enrico	-0.0001219132
-4.233673	Enterprise	0.03596761
-4.409764	Equally	-8.810018e-05
-4.409764	Especially	0.0004617308
-4.409764	Essentially	0.02236007
-4.409764	Esteemed	-0.0001219132
-4.409764	Ethyl	-9.655368e-05
-4.409764	Eubanks	-3.737568e-05
-4.233673	Euclid	0.02223906
-4.409764	Europium	0.02236007
-3.596851	Even	0.03473807
-4.233673	Every	-4.935738e-05
-4.233673	Everybody	0.005405724
-4.233673	Everyone	0.005405724
-4.233673	Everything	0.01145961
-4.409764	Evidently	0.03004785
-4.409764	Evolution	0.003238412
-4.409764	Exactly	0.0008682068
-4.409764	Excalibur	0.03004785
-3.932643	Excellent	0.05488693
-4.108734	Except	0.004181746
-3.388575	Excuse	0.001181357
-4.409764	Explorer	0.008026601
-4.409764	Express	0.004321623
-4.409764	Extra	-0.0001219132
-4.233673	FBI	0.007345499
-4.233673	FYI	0.02229068
-4.108734	Factory	0.01106902
-4.409764	Fair	0.03004785
-4.233673	Fantastic	0.02993621
-4.409764	Fantasy	-7.964649e-05
-3.807704	Farrah	-0.0004789288
-4.233673	Fascinating	0.02997845
-4.409764	Fascism	0.03004785
-4.409764	Fermi	0.02236007
-4.409764	Ferris	-0.0001219132
-3.710794	Feynman	0.06208456
-4.409764	Fibonacci	-0.0001134602
-4.409764	Fiendishly	-8.810018e-05
-4.409764	Final	-0.0001219132
-4.409764	Finally	0.02236007
-4.409764	Financial	-0.0001219132
-3.669401	Fine	0.05351852
-4.409764	Fire	-0.0001219132
-4.409764	Firefly	0.03004785
-4.409764	Firefox	0.03004785
-4.409764	First	0.02236007
-4.409764	Fischer	0.02236007
-3.932643	Fish	0.02827446
-3.756552	Flags	0.0333264
-4.409764	Flash	0.0007919638
-4.409764	Flash-frozen	-0.0001219132
-4.409764	Flatow	0.03004785
-4.409764	Folger	0.005510289
-4.409764	Follow	0.002497927
-4.409764	Follows	-9.655368e-05
-4.409764	Fonda	-0.0001219132
-3.388575	For	0.0195143
-4.108734	Ford	0.02539771
-4.409764	Forest	0.002991443
-4.409764	Forever	0.03004785
-4.409764	Forget	3.026616e-05
-4.409764	Forgive	0.002497927
-3.932643	Fort	-0.0005485547
-4.409764	Fortress	0.004560804
-4.409764	Fortunately	0.02236007
-4.233673	Four	-0.0001761944
-3.756552	Fowler	0.05414367
-4.409764	Francisco	0.03004785
-4.409764	Freemont	-0.0001219132
-4.108734	French	-0.0002371215
-4.409764	Frenzy	-0.0001219132
-4.409764	Frequent	-5.428454e-05
-4.233673	Friday	2.676269e-05
-4.409764	Frisbee	0.03004785
-4.409764	Frisbee-sized	-0.0001219132
-4.409764	Frisch	0.02236007
-4.233673	Frodo	0.03192525
-3.932643	From	0.01051382
-4.409764	Fruit	-0.0001219132
-4.409764	Fuddruckers	0.03004785
-3.807704	Fun	0.001357991
-4.233673	Funyuns	0.0304621
-4.409764	Furnishing	-0.0001134602
-4.108734	Future	-0.0001712616
-4.409764	GPS	0.03004785
-4.409764	Gabby	-0.0001219132
-4.409764	Gablehauser	0.03004785
-4.409764	Gablehouser	0.0007411421
-4.409764	Gadget.	0.02236007
-3.932643	Galaxy	0.05386515
-4.409764	Galileo	0.02236007
-4.409764	Games	0.001563485
-4.409764	Ganesh	0.03004785
-4.409764	Garfield	0.0007665523
-4.409764	Gary	0.03004785
-4.409764	Gate	-0.0001219132
-4.409764	Gee	0.02236007
-4.233673	Gei	-5.301787e-06
-4.011824	General	-0.0004182008
-4.409764	Generation	-8.810018e-05
-4.409764	Genius	-0.0001219132
-3.865696	Gentlemen	0.02201322
-4.233673	George	0.02223906
-4.409764	Georgia	0.005604494
-4.409764	German	-0.0001219132
-4.409764	Gertie	0.03004785
-3.865696	Get	0.0007707838
-4.233673	Getting	0.007517579
-4.409764	Giuseppe	0.005604494
-4.108734	Given	0.01264255
-4.409764	Glad	0.03004785
-4.409764	Gladly	0.03004785
-4.409764	Glutamine	0.005604494
-3.932643	Go	0.02404968
-4.409764	Goblin	0.008026601
-3.807704	God	0.05519992
-4.233673	Gods	0.02229068
-4.409764	Gods'	0.01949419
-4.409764	Godzilla-like	-8.810018e-05
-4.409764	Gogh	0.004321623
-4.409764	Golden	-0.0001219132
-4.409764	Goldfarb	0.02236007
-4.409764	Gomorrah	0.001801153
-3.295821	Good	0.06451001
-4.409764	Good-bye	0.03004785
-4.409764	Goodbye	0.0004955891
-4.409764	Goodnight	0.03004785
-4.409764	Goody	0.03004785
-4.409764	Google	0.003963097
-4.409764	Gorilla	0.0001994169
-4.409764	Gorn	0.03004785
-4.108734	Got	0.007921258
-4.409764	Gotten	0.0001486648
-4.409764	Grant	0.005604494
-4.409764	Granted	0.02236007
-4.409764	Grape	-0.0001134602
-4.409764	Gravity	-0.0001219132
-3.807704	Great	0.05364506
-4.409764	Greece	0.03004785
-4.409764	Greek	-0.0001134602
-4.108734	Green	0.005266905
-4.233673	Greene	0.0281728
-4.409764	Grinch	0.008026601
-4.409764	Grumpy	0.02236007
-4.011824	Guide	0.007818455
-4.409764	Guilty	0.005604494
-4.409764	Gustaf	0.03004785
-4.409764	H	0.003238412
-4.409764	H-O	-0.0001134602
-4.409764	Ha	0.0007919638
-4.233673	Had	0.002376117
-4.409764	Hadron	-0.0001219132
-4.409764	Hah-hah	0.0007919638
-4.409764	Haiti	0.0003009389
-4.409764	Half	0.008914649
-4.409764	Halloween	0.03004785
-4.409764	Halloweenie	0.03004785
-4.011824	Halo	-0.0001409
-4.409764	Hamburgers	0.004321623
-4.409764	Hand	0.002497927
-3.932643	Hang	0.002304097
-4.409764	Happy	-0.0001219132
-4.409764	Haradwaith	-0.0001219132
-4.409764	Hard	0.0007665523
-4.409764	Harsh	-0.000105007
-4.233673	Harvey	0.02992715
-4.409764	Hatter	0.03004785
-4.108734	Have	0.01526321
-4.233673	Having	0.0003059837
-3.807704	Hawking	0.04179819
-3.077326	He	0.01316133
-4.409764	Head	0.004560804
-4.409764	Hearthstone	0.005604494
-4.409764	Heaven	0.000351709
-4.409764	Helen	0.004560804
-4.409764	Helium	0.03004785
-4.233673	Hell	0.004199884
-3.263636	Hello	0.05878736
-4.409764	Helping	-7.119269e-05
-4.233673	Henry	-0.0002184653
-4.108734	Her	2.330146e-05
-3.631613	Here	0.09183586
-4.233673	Herman	0.02997845
-3.756552	Hey	0.05365714
-4.233673	Hi	0.05407326
-4.409764	Hide	0.002497927
-4.409764	Higgs	0.03004785
-4.409764	High	-0.0001219132
-4.409764	Highly	0.03004785
-4.409764	Him	0.03004785
-4.409764	Hinduism	0.02236007
-4.011824	His	-0.0001493606
-4.011824	Hitchhiker	0.005302144
-4.409764	Hm	0.0007919638
-3.506674	Hmm	0.05961748
-4.409764	Hmmm	0.03004785
-3.865696	Hofstadter	0.0537958
-4.108734	Hold	0.001670869
-4.409764	Hollywood	0.03004785
-4.409764	Holy	-0.000105007
-4.409764	Home	-0.0001219132
-4.409764	Homo	-0.0001219132
-4.409764	Honey	-0.0001134602
-4.409764	Hot-darn	0.0007919638
-4.409764	Hoth	0.001563485
-3.057582	How	0.04017947
-3.295821	Howard	0.0761677
-4.409764	However	0.02236007
-4.409764	Hubba	0.02236007
-4.409764	Hubba-hubba	0.03004785
-4.108734	Huh	0.02990907
-4.233673	Hulk	0.03082516
-4.233673	Hunger	0.005482805
-4.233673	Hush	0.05407326
-4.409764	Hysterical	0.03004785
-1.54555	I	0.01448078
-4.409764	I'	0.01949419
-4.409764	II	0.001563485
-4.409764	III	-6.273866e-05
-4.108734	IQ	0.03340982
-4.011824	Icee	0.03002716
-3.087545	If	0.04270016
-4.409764	Illogical	0.03004785
-4.409764	Imperial	-0.0001134602
-4.409764	Implementing	-0.0001219132
-3.312854	In	0.02731199
-4.409764	Inconsiderate	0.02236007
-4.409764	Incredible	-0.0001134602
-4.409764	Indeed	0.03004785
-3.756552	Indian	0.0333521
-4.409764	Indigestion	0.02236007
-4.409764	Indonesia	0.0003432467
-4.233673	Infinite	-4.935733e-05
-4.409764	Initial	0.0006649211
-4.409764	Initiating	-0.0001219132
-4.409764	Inspector	-0.0001219132
-4.409764	Instead	0.02236007
-3.807704	Interesting	0.02963166
-4.409764	Interior	-9.655368e-05
-3.865696	Internet	0.02964074
-4.409764	Iowa	0.03004785
-4.233673	Ira	0.02229068
-4.409764	Irony	0.005510289
-4.409764	Irrelevant	0.03004785
-3.233673	Is	0.0205195
-4.233673	Isaac	-0.0001659465
-4.409764	Island	0.02236007
-4.409764	Isle	0.004560804
-2.467756	It	0.02640294
-4.233673	Italian	0.03038953
-4.409764	Its	-0.0001134602
-4.409764	Jack	0.03004785
-4.409764	Jackie	-0.0001219132
-4.409764	Jackson	0.02236007
-4.409764	Jacques	-0.0001219132
-4.233673	James	-0.0002438258
-4.409764	Jane	-0.0001219132
-4.409764	January	-0.0001219132
-4.409764	Japanese	-0.0001219132
-4.233673	Jealousy	0.003169019
-4.409764	Jean-Luc	-0.0001134602
-4.233673	Jedi	0.02246168
-4.409764	Jeeves	0.03004785
-4.409764	Jenga	0.005604494
-4.233673	Jennifer	-0.0002438258
-4.409764	Jenson	0.03004785
-4.409764	Jeopardy	0.03004785
-4.409764	Jesus	-2.892101e-05
-4.233673	Jewish	0.005799843
-4.409764	Joel	-1.201122e-05
-4.409764	Jones	0.02236007
-4.409764	Joss	-0.0001219132
-4.409764	Journal	0.004560804
-4.409764	Juice	0.02236007
-4.409764	Jump	0.003238412
-4.409764	Junction	0.03004785
-4.409764	June	-0.0001219132
-3.669401	Just	0.007665753
-4.409764	Justice	-0.0001219132
-4.108734	Keep	0.002339363
-4.409764	Keeping	0.002991443
-4.409764	Kenobi	0.004321623
-4.108734	Keys	0.0006531893
-4.409764	Kids	0.03004785
-4.409764	King	0.005510289
-4.011824	Kirk	0.03063833
-4.108734	Klingon	0.03045939
-4.409764	Klingons	0.02236007
-4.409764	Knight	0.008026601
-4.233673	Knox	0.02273788
-4.233673	Kobayashi	-0.000182853
-4.409764	Koo	0.0004109479
-4.409764	Koothrapali	-0.0001134602
-4.108734	Koothrappali	0.02885602
-4.108734	Korean	-0.000357284
-4.409764	Kringle	0.02236007
-3.865696	Kripke	0.05478138
-4.409764	Ladies	0.02236007
-4.409764	Lantern	-0.0001219132
-4.409764	Large	-0.0001219132
-4.409764	Larry	0.0003347848
-4.233673	Las	-0.0001743998
-4.233673	Last	0.0008649651
-4.409764	Lately	0.001266584
-4.409764	Later	0.0006649211
-4.108734	Latin	0.001602949
-4.409764	Lawlessness	0.004321623
-4.409764	Lawrence	0.005604494
-4.233673	LeVar	-0.000182853
-4.409764	League	0.03004785
-4.409764	Leap	0.03004785
-4.409764	Lebanon	0.03004785
-3.669401	Lee	0.06160589
-4.108734	Legend	0.00442203
-4.233673	Lego	-0.000125464
-4.233673	Leo	0.0157446
-4.409764	Leon	-0.0001219132
-2.549426	Leonard	0.08715665
-4.409764	Leopold	0.005510289
-4.409764	Lesley	0.00017404
-4.233673	Leslie	-0.000182853
-3.349066	Let	0.01581834
-4.409764	Lett	-0.0001219132
-4.409764	Liechtenstein	0.004321623
-4.409764	Lift	0.001801153
-3.669401	Like	0.04921725
-4.108734	Lincoln	-0.0003047541
-4.108734	Listen	0.05400388
-4.233673	Literally	0.01273806
-4.233673	Little	-0.0002269189
-4.409764	Localized	0.008026601
-4.233673	Logs	0.05407326
-4.409764	Longclaw	0.005604494
-3.43204	Look	0.03751297
-4.409764	Loony	-0.0001219132
-3.710794	Lord	0.05984702
-4.409764	Lori	-0.0001134602
-4.409764	Los	-0.0001219132
-4.409764	Lots	0.004560804
-4.409764	Love	0.001869082
-4.233673	Lovey-Dovey	0.05407326
-4.409764	Low	-0.000105007
-4.409764	Luckily	0.001741724
-4.233673	Lucky	0.001619884
-4.409764	Luigi	0.02236007
-4.409764	M	0.005510289
-4.409764	M-theory	-0.0001219132
-4.409764	M.	0.0002924779
-4.233673	MA	-0.0001743998
-4.233673	MG	0.005200238
-4.409764	MIT	0.02236007
-4.409764	MP3	-0.0001219132
-4.409764	MSN	-0.0001219132
-4.409764	Macy	0.005510289
-4.409764	Mad	-0.0001219132
-4.409764	Magnesium	0.02236007
-4.409764	Maharashtra	0.008026601
-4.409764	Mai	-0.0001219132
-4.233673	Make	0.003893705
-4.108734	Man	0.02569383
-4.409764	Mandelbrot	-7.119269e-05
-4.409764	Manga	0.02236007
-4.409764	Manganese	0.02236007
-4.233673	Manhattan	-0.0001659465
-4.108734	Mario	0.004112309
-4.409764	Mark	-0.0001219132
-3.756552	Mars	0.05471513
-4.409764	Martha	0.02236007
-3.932643	Martian	0.06407053
-4.409764	Martin	0.008914649
-4.233673	Marty	0.00425223
-4.233673	Maru	0.03055284
-4.233673	Marvel	0.02999059
-4.233673	Marvin	0.008845257
-4.409764	Mary	0.03004785
-4.233673	May	0.01233741
-3.807704	Maybe	0.02810186
-4.409764	McBlanket	0.03004785
-4.409764	McDonald	0.005510289
-4.233673	Me	0.02224796
-4.409764	Meaningless	-0.0001219132
-4.409764	Medical	-0.000105007
-4.409764	Mee	-0.0001134602
-4.409764	Meemaw	0.03004785
-4.409764	Mego	2.181035e-05
-4.409764	Meitnerium	0.0002586351
-4.409764	Melted	-0.0001219132
-4.409764	Memorial	0.03004785
-4.409764	Menace	0.001741724
-4.409764	Mendelevium	0.02236007
-4.409764	Menelaus	0.0004109479
-4.409764	Mercury	0.03004785
-4.409764	Mesopotamia	0.02236007
-4.233673	Mexican	-0.0002438258
-4.233673	Middle	-0.0002015574
-4.409764	Midol	0.02236007
-4.409764	Midwestern	0.02236007
-4.409764	Migraines	0.005604494
-4.409764	Milk	-0.0001219132
-4.409764	Mind	0.02236007
-4.409764	Minds	0.03004785
-4.409764	Mississippi	0.03004785
-4.233673	Missy	0.01119048
-3.932643	Mm	0.05386515
-4.108734	Mm-hmm	0.02990907
-4.233673	Mmhmm	0.02997845
-3.865696	Mmm	0.0537958
-4.409764	Mock	-0.0001219132
-4.409764	Modesto	0.005604494
-4.409764	Mohammed	0.003238412
-4.409764	Moines	0.02236007
-4.409764	Molybdenum	0.02236007
-4.011824	Mom	0.06037983
-4.409764	Mom.You	0.001792662
-4.409764	Mommy	0.005510289
-4.233673	Monday	0.005499937
-4.409764	Mondays	0.02236007
-4.409764	Monogrammed	-7.964649e-05
-4.409764	Monrovia	0.02236007
-4.409764	Monte	0.005510289
-4.233673	More	0.005491371
-4.409764	Morse	-9.655368e-05
-4.409764	Most	-0.000105007
-4.409764	Mostly	0.0004194114
-4.108734	Mother	0.0604492
-4.409764	Mount	-0.0001219132
-4.409764	Mountain	-0.0001219132
-4.409764	Moving	0.001809643
-4.011824	Mr	0.004094189
-3.756552	Mr.	-0.0007197403
-4.409764	Mrs	-0.0001219132
-4.409764	Mrs.	-0.0001219132
-4.233673	Ms.	-0.0002438258
-4.409764	Mufasa	0.03004785
-4.409764	Muppet	-0.0001219132
-4.409764	Mutant	-0.0001219132
-3.142592	My	-0.002813462
-4.409764	NIMH	0.03004785
-4.409764	Nailed	0.003963097
-4.409764	Name	0.007037229
-4.409764	National	-0.0001219132
-4.409764	Nebraska	0.005604494
-4.409764	Need	0.01240681
-4.409764	Needed	-0.000105007
-4.409764	Nelly	0.03004785
-4.409764	Neosporin	0.004321623
-4.409764	Neurobiology	0.005510289
-3.932643	Never	0.0247211
-4.409764	Nevis	0.03004785
-4.409764	New	-0.0001134602
-4.011824	Newton	0.01104305
-4.011824	Next	0.03029021
-4.233673	Nice	-0.0002015574
-4.409764	Nimoy	0.005510289
-4.409764	Nine	-8.810018e-05
-4.409764	Ninja	-0.0001219132
-4.409764	Nintendo	0.0007580821
-4.409764	Nishapur	0.02236007
-2.715159	No	0.05676712
-4.233673	No-one	0.0008310669
-4.409764	Noah	-0.0001219132
-3.865696	Nobel	0.008212355
-4.409764	Nobody	-2.892101e-05
-4.409764	Nodlehs	0.03004785
-4.409764	Norse	-0.0001219132
-4.011824	North	0.02976427
-4.409764	Nose	0.03004785
-3.248396	Not	0.02065326
-4.108734	Nothing	0.05400388
-4.409764	November	-0.0001219132
-4.409764	Novus	0.000351709
-3.003224	Now	0.06271255
-4.409764	Nowitzki	0.005510289
-4.409764	O	0.005510289
-4.409764	O-gauge	0.02236007
-4.409764	Oaks	0.03004785
-4.409764	Obi-Wan	-0.0001219132
-4.409764	Obviously	0.02236007
-4.409764	Ocarina	0.004560804
-4.409764	Occasionally	0.02236007
-4.409764	Octopus	0.008026601
-4.409764	Odd	0.02236007
-4.409764	Odyssey	0.005604494
-4.409764	Oecanthus	-0.0001219132
-3.43204	Of	-0.0003132503
-4.233673	Officer	0.05407326
-2.414129	Oh	0.05778781
-4.409764	Oh-ho-ho	0.02236007
-3.11973	Okay	0.0580278
-4.233673	Oklahoma	0.02997845
-4.233673	Olympics	0.03469231
-4.409764	Olympus	0.004321623
-3.807704	On	0.006516551
-4.409764	Once	0.008155815
-3.596851	One	0.06167139
-4.409764	Onion	-0.0001134602
-4.233673	Only	0.01070474
-4.409764	Oobius	-0.0001219132
-3.756552	Ooh	0.05464272
-4.409764	Ooo-ooo	0.03004785
-4.409764	Open	0.003963097
-4.409764	Opening	4.717823e-05
-4.409764	Oppenheimer	0.03004785
-3.631613	Or	0.05663591
-4.233673	Order	0.0006107936
-4.409764	Osiris	0.03004785
-4.409764	Otto	-0.0001219132
-4.409764	Ouchies	0.03004785
-3.932643	Our	-0.0003304802
-4.233673	Over	0.03469231
-4.409764	Overall	0.0001486648
-4.108734	Ow	0.0231322
-4.409764	Oxford	-0.0001134602
-4.409764	PBS	0.02236007
-4.409764	PS1	0.02236007
-4.409764	PS2	0.02236007
-4.409764	PS3	0.004321623
-4.233673	PS4	0.02997845
-4.409764	Pacman	0.03004785
-4.409764	Paint	0.007037229
-4.409764	Painters	0.0009953092
-4.108734	Palace	0.03599931
-4.409764	Parliamentary	-0.0001219132
-4.409764	Part	0.004560804
-4.011824	Pasadena	0.05392255
-4.409764	Patch	-0.0001219132
-4.409764	Patrick	-0.0001219132
-4.409764	Paul	0.008914649
-4.409764	Pay	0.0008851516
-4.011824	Pchew	0.0005838188
-4.409764	Peas	0.0007919638
-4.409764	Pee-wee	-0.0001134602
-2.835733	Penny	0.08005928
-4.233673	Penrose	-0.000182853
-3.932643	People	0.008031532
-4.409764	Perfect	0.02236007
-4.409764	Perform	0.008914649
-3.596851	Perhaps	0.07504205
-4.233673	Perlmutter	0.005551335
-4.409764	Persian	-0.0001219132
-4.409764	Pervert	0.03004785
-4.409764	Peter	-0.0001219132
-4.409764	PhD	0.03004785
-4.409764	Phantom	-0.0001219132
-4.409764	Photographic	0.003238412
-4.409764	Physically	0.02236007
-4.108734	Physics	0.02565792
-4.233673	Picard	0.005542768
-4.233673	Picasso	0.007922236
-4.409764	Pictionary	0.005604494
-4.409764	Pirates	0.004560804
-4.409764	Pizza	0.0001317487
-4.409764	Plane	-0.0001134602
-3.596851	Play	0.03149944
-4.409764	PlayStation	0.02236007
-4.409764	Playing	0.001809643
-3.865696	Please	0.02210768
-4.233673	Plenty	0.004491412
-4.409764	Pneumococcus	0.02236007
-4.409764	Poindexter	0.02236007
-4.409764	Pointing	0.0006987957
-4.233673	Pole	0.007371306
-4.409764	Pollock	0.02236007
-4.409764	Polynesian	-0.0001219132
-4.409764	Poor	-0.0001134602
-4.233673	Pop-Pop	0.001441639
-4.409764	Pope	-0.0001219132
-4.409764	Portland	0.03004785
-4.233673	Pottery	-0.000182853
-4.409764	Pouting	0.004321623
-4.233673	Power	-0.0002184653
-4.409764	Prawn	-0.0001219132
-4.409764	Prefect	-0.0001219132
-4.409764	Prepare	0.001741724
-4.409764	Prepares	0.02236007
-4.409764	Presents	-7.119269e-05
-4.108734	President	-0.0003488302
-4.409764	Pretty	-0.000105007
-4.233673	Princess	0.02223906
-4.409764	Principia	6.409103e-05
-4.409764	Pringles	0.03004785
-4.108734	Priya	0.02823257
-4.409764	Prize	0.03004785
-4.409764	Prize-winning	0.0002078761
-4.233673	Probably	0.0008056448
-4.409764	Probe	-0.0001219132
-4.409764	Proceed	0.03004785
-3.865696	Professor	0.02195448
-4.011824	Project	0.02974615
-3.932643	Proton	0.001536144
-4.409764	Providing	-0.0001219132
-4.233673	Puffs	0.0310613
-4.409764	Punchali	0.03004785
-4.409764	Pursuant	0.008026601
-4.233673	Q	0.009890614
-4.409764	QaQqu	-0.0001219132
-4.409764	Quantentheorie	-0.0001219132
-4.409764	Quantum	-0.0001219132
-4.409764	Queen	0.005510289
-4.409764	Quinto	0.02236007
-4.409764	Quonko	-7.964649e-05
-4.409764	REM	-6.273866e-05
-4.409764	Ra	0.03004785
-4.409764	Radiation	-0.0001134602
-4.409764	Radiohead	0.03004785
-4.409764	Railways	-0.000105007
-4.409764	Raisin	-0.0001219132
-4.409764	Raisinets	0.005604494
-3.43204	Raj	0.08107228
-3.932643	Rajesh	0.06537649
-4.409764	Ralph	0.005510289
-4.409764	Ranakpur	-0.0001219132
-4.409764	Ranch	0.02236007
-4.409764	Rangers	0.02236007
-4.409764	Raton	0.02236007
-4.233673	Rats	0.000722571
-4.409764	Readiness	0.0001486648
-3.710794	Really	0.0278436
-4.409764	Rebecca	0.03004785
-4.233673	Red	0.003150708
-4.409764	Regarding	0.0008682068
-4.233673	Relationship	-0.0001846489
-4.233673	Remarkable	0.02997845
-3.865696	Remember	0.03252966
-4.409764	Reseda	0.008155815
-4.011824	Richard	-0.0002624296
-4.409764	Ricky	0.03004785
-4.409764	Ride	0.005604494
-3.807704	Right	0.05628382
-4.409764	Riley	0.005510289
-4.409764	Rings	0.02236007
-4.409764	Road	-0.0001219132
-4.409764	Rob	-0.0001219132
-4.409764	Robert	-0.0001219132
-4.409764	Robin	-9.655368e-05
-4.233673	Rock	-0.000182853
-4.409764	Rocket	-0.000105007
-4.409764	Rolling	-0.0001219132
-4.409764	Roman	-0.0001134602
-4.409764	Romans	0.00017404
-4.409764	Romantic	9.791851e-05
-4.409764	Romulans	0.001809643
-4.409764	Roommate	-0.0001134602
-4.409764	Roommates	-9.655368e-05
-4.409764	Rosewater	-0.0001219132
-4.409764	Rostenkowski	0.02236007
-4.233673	Rothman	0.02997845
-4.233673	Rover	0.005482805
-4.409764	Roy	0.02236007
-4.409764	Ruffalo	0.003238412
-4.409764	Russell	-0.0001219132
-4.409764	Rut	0.005604494
-4.409764	S'the	7.254767e-05
-4.409764	STDs	-0.000105007
-4.409764	Sad	0.005604494
-4.409764	Sadly	0.02236007
-4.409764	Sagan	0.03004785
-4.409764	Said	0.008914649
-4.409764	San	-0.0001219132
-4.409764	Sanctum	0.004560804
-4.233673	Santa	0.006924192
-4.108734	Sarcasm	0.005465719
-4.409764	Saturday	0.0001317487
-4.409764	Saturdays	0.03004785
-4.409764	Saul	-0.0001134602
-4.409764	Sawyer	0.005510289
-4.011824	Say	0.01635196
-4.409764	Scholls	-0.0001219132
-4.011824	Schrodinger	0.04058728
-4.409764	Science	-0.0001134602
-4.108734	Scientific	-0.0002268747
-4.409764	Scissors	-0.0001134602
-4.409764	Scotch	-0.0001134602
-4.409764	Search	0.02236007
-4.233673	Secret	0.00444762
-4.011824	Section	-9.859467e-05
-3.710794	See	0.02825916
-4.409764	Seems	-8.810018e-05
-4.409764	Seibert	0.02236007
-4.409764	Seriously	0.005604494
-4.409764	Seth	0.02236007
-4.409764	Seuss	0.0006649211
-4.409764	Sex	0.001809643
-4.409764	Sexual	-0.0001219132
-4.409764	Shakespeare	0.005510289
-4.409764	Shame	0.03004785
-4.233673	Shatner	0.0349489
-3.09801	She	0.01669094
-4.409764	Shel-Mart	0.003238412
-3.312854	Sheldon	0.05755963
-4.409764	Sheldonopolis	0.02236007
-4.108734	Sheldor	0.03573692
-4.233673	Shelly	0.02827208
-4.409764	Sherman	-0.0001219132
-4.409764	Shhhhh	0.0007919638
-4.409764	Shining	0.005604494
-4.409764	Shopworn	-0.0001219132
-4.409764	Shoulda	0.02236007
-3.932643	Show	0.006879395
-4.409764	Siam	-0.000105007
-4.409764	Siebert	0.02236007
-4.409764	Sign	0.0006649211
-4.409764	Silence	0.0007919638
-4.409764	Silk	-0.0001219132
-4.409764	Silver	-0.0001219132
-4.233673	Since	0.01279903
-4.409764	Sir	-0.0001134602
-4.409764	Sit	8.100447e-05
-4.409764	Sitting	-0.0001219132
-4.409764	Sivana	0.008026601
-4.409764	Size	-0.0001219132
-4.233673	Skype	0.02654236
-4.409764	Skywalker	-0.0001219132
-4.409764	Slaves	0.0007919638
-4.409764	Sleepy	-0.000105007
-4.409764	Slide	0.03004785
-4.409764	Slip	-5.428454e-05
-4.409764	Slipper	0.02236007
-4.409764	Smeldor	0.005604494
-4.409764	Smoot	0.0009614117
-4.409764	Snickering	0.005510289
-3.003224	So	0.08799312
-4.409764	SoccerMom09	0.0004109479
-4.409764	Social	-0.0001219132
-4.409764	Sodom	0.004321623
-4.409764	Somebody	0.0003263233
-4.409764	Someone	-4.583019e-05
-4.409764	Something	0.005510289
-4.233673	Sometimes	0.01433488
-4.409764	Somewhere	-4.583019e-05
-4.409764	Son	0.004560804
-4.409764	Sonic	0.0009614117
-3.756552	Sorry	0.07751569
-4.409764	Souls	0.03004785
-4.409764	Sound	-7.119269e-05
-4.409764	Sour	-0.0001219132
-4.409764	Soviet	-0.0001219132
-4.409764	Soviet-style	-0.0001219132
-4.409764	Soy	-0.000105007
-4.233673	Space	-0.0002438258
-4.409764	Sparkletts	-8.810018e-05
-4.233673	Speaking	0.004491412
-4.409764	Spending	4.899193e-06
-4.409764	Spicy	-9.655368e-05
-3.865696	Spider-Man	0.05419138
-4.409764	Spider-man	-8.810018e-05
-4.409764	Spiderman	0.03004785
-3.669401	Spock	0.05607191
-4.409764	Spoiler	0.02236007
-4.409764	SpongeBob	0.02236007
-4.233673	Spy	0.007905006
-4.409764	Squeaky	-0.0001134602
-3.932643	Stan	-0.0003233347
-4.409764	Stanford	-0.0001134602
-4.409764	Stanislavski	0.005510289
-3.43204	Star	0.02890301
-4.409764	Starch	-0.0001219132
-4.409764	Stardate	-0.0001219132
-4.108734	Starfleet	-0.000331922
-4.409764	State	-0.0001219132
-4.409764	Stella	-0.0001219132
-4.409764	Stems	-0.0001219132
-4.108734	Step	0.0009380697
-4.233673	Stephanie	-0.0002438258
-3.807704	Stephen	0.0009490356
-4.108734	Steve	0.000236602
-4.409764	Stewart	0.03004785
-4.409764	Stone	-0.0001219132
-3.932643	Stop	0.012705
-4.409764	Stormtroopers	0.0009359901
-4.409764	Strahlung	0.02236007
-4.409764	Straightening	0.0004617308
-4.233673	String	-0.0001743998
-4.409764	Stripe	-0.0001219132
-3.756552	Stuart	0.07560731
-4.409764	Subject	0.0003263233
-4.409764	Substance	-0.0001219132
-4.409764	Subtextually	0.02236007
-4.409764	Suicide	0.02236007
-4.409764	Sumter	0.004321623
-4.409764	Sunday	0.03004785
-4.233673	Super	-0.0001743998
-4.409764	Superb	0.03004785
-4.108734	Sure	0.04315824
-4.409764	Surely	0.001088541
-4.409764	Surfer	-0.000105007
-4.409764	Sweatpants	0.02236007
-4.409764	Swedish	-7.964649e-05
-4.409764	Sweet	0.004321623
-4.409764	SyFy	-0.0001219132
-4.409764	Szechuan	-0.000105007
-4.108734	TV	0.0604492
-4.233673	Ta-da	0.02997845
-4.409764	Tacs	0.03004785
-4.409764	Tahecin	0.03004785
-4.233673	Take	0.006967837
-4.409764	Tall	-0.000105007
-4.409764	Tamagotchi	0.002991443
-4.409764	Tandoori	-0.000105007
-4.409764	Taser	0.03004785
-4.409764	Tatooine	0.001563485
-4.409764	Tea	0.003238412
-4.409764	Teenage	-0.0001219132
-3.932643	Tell	0.003120297
-4.409764	Teller	0.02236007
-4.233673	Ten	-7.472771e-05
-4.409764	Terran	-0.0001219132
-4.233673	Terrific	0.05407326
-4.409764	Territories	0.03004785
-4.409764	Tetris	0.004321623
-3.756552	Texas	0.0629494
-4.233673	Thai	-0.0001067685
-3.205644	Thank	0.006078841
-4.011824	Thanks	0.02406326
-4.011824	Thanksgiving	0.03338614
-2.747006	That	0.04910306
-2.824303	The	-0.004889352
-3.506674	Then	0.04065426
-4.409764	Theoretical	-0.000105007
-3.27943	There	0.04685503
-4.233673	Therefore	0.02229068
-4.233673	These	-0.0001931033
-3.312854	They	0.005746592
-4.409764	Thing	0.02236007
-4.409764	Things	0.0009359901
-4.233673	Think	0.004439075
-4.409764	Thinking	-0.0001219132
-2.970431	This	0.002159349
-4.108734	Those	0.001168638
-4.233673	Three	0.004490348
-4.409764	Three-headed	-0.0001134602
-4.409764	Thunder	0.0009359901
-4.233673	Thursday	0.03606869
-4.409764	Thursdays	0.02236007
-4.409764	Tiberius	-9.655368e-05
-4.409764	Tic	-0.0001219132
-4.409764	Ticket	0.008026601
-4.409764	Ticonderoga	0.02236007
-4.409764	Tijuana	-7.964649e-05
-4.108734	Time	0.05403024
-4.409764	Tin	-0.000105007
-3.865696	To	0.03387144
-4.409764	Tobacco	0.004321623
-4.409764	Toblerone	0.03004785
-4.233673	Tom	0.02223906
-4.409764	Too	-5.428454e-05
-4.409764	Tough	-7.119269e-05
-4.409764	Trebek	0.001351392
-3.596851	Trek	0.04275335
-4.409764	Tribble	0.03004785
-4.409764	Trick	2.181035e-05
-4.409764	Trip	-7.119269e-05
-4.233673	Trouble	0.03353037
-4.409764	Troy	0.03004785
-4.409764	Truthfully	0.02236007
-4.108734	Try	0.01006341
-4.409764	Trying	0.008026601
-4.233673	Tso	0.03596761
-4.233673	Tuesday	2.676269e-05
-4.409764	Turing	-0.0001219132
-4.409764	Turtles	0.02236007
-4.409764	Twilight	-0.0001134602
-4.409764	Twitter	-0.0001134602
-4.233673	Two	-0.0001931033
-4.409764	Typically	0.003715714
-4.409764	Uber	-8.810018e-05
-4.108734	Ugh	0.0231322
-3.233673	Uh	0.02042125
-4.409764	Uh-huh	0.03004785
-4.011824	Uh-oh	0.0298397
-3.596851	Um	0.02159736
-4.233673	Um'	0.0194248
-4.409764	Un-unravelable	0.03004785
-4.233673	Uncle	-0.0002269189
-4.409764	Under	-0.0001219132
-4.409764	Unfortunately	0.02236007
-4.409764	Uni	0.02236007
-4.409764	Union	0.03004785
-4.409764	Unit	-0.0001219132
-4.233673	University	0.05407326
-4.409764	Unless	0.008155815
-4.409764	Unlikely	0.03004785
-4.233673	Until	0.01233741
-4.233673	Up	-8.140404e-05
-4.409764	Uranium-235	0.001351392
-4.233673	Using	0.01082613
-4.409764	Usually	-0.000105007
-4.233673	V	0.02271114
-4.233673	VHS	0.001441639
-4.233673	Vader	0.02992715
-4.011824	Valentine	0.005302144
-4.409764	Van	-0.0001219132
-4.233673	VapoRub	0.001815189
-4.108734	Vegas	0.02885602
-3.807704	Very	-0.000357406
-4.409764	Virgin	-0.0001219132
-4.409764	Vitamin	-0.0001219132
-4.409764	Voil	-5.428454e-05
-4.409764	Voyager	-8.810018e-05
-4.409764	W	0.005510289
-3.596851	Wait	0.06326906
-4.409764	Walked	0.0006818582
-4.409764	Walking	-0.0001219132
-4.409764	Wallbanger	0.03004785
-4.233673	Warcraft	0.00312515
-3.932643	Wars	-0.0004301814
-3.932643	Was	0.008981546
-4.233673	Watch	0.001799689
-4.409764	Water	0.02236007
-4.233673	Waterfalls	0.03090689
-2.871945	We	0.009385714
-4.409764	Webster	0.008026601
-4.233673	Welcome	0.007957208
-2.610424	Well	0.08763191
-4.233673	Well'	0.0194248
-4.409764	Wesley	-0.0001219132
-4.409764	West	0.005604494
-4.233673	Wh	0.02229068
-2.710794	What	0.08749767
-3.807704	Wheaton	0.06392047
-4.409764	Whedon	0.005510289
-4.409764	Wheel	0.001801153
-4.409764	Wheels	0.03004785
-3.506674	When	0.03708626
-4.233673	Whenever	0.008086422
-3.756552	Where	0.01219176
-4.409764	Whereas	0.02236007
-4.409764	Whether	0.0003094003
-3.534703	Which	0.03856284
-4.011824	While	0.01220773
-4.409764	Whispering	0.002293877
-3.631613	Who	0.04111848
-4.409764	Whoa	0.02236007
-3.233673	Why	0.02273907
-4.409764	Wi-Fi	0.03004785
-4.409764	Wichita	0.03004785
-4.409764	Wii	-0.0001219132
-4.409764	Wikipedia	0.0006733899
-3.710794	Wil	0.006170978
-4.011824	Will	0.008447245
-4.233673	William	-0.000182853
-4.409764	Willis	0.001563485
-4.409764	Wilson	0.004560804
-4.409764	Windows	-0.0001219132
-4.409764	Wine	0.004321623
-4.233673	Winkle	0.03606869
-4.409764	Winter	-0.0001134602
-4.409764	Wishing	0.008155815
-4.011824	With	0.003495445
-4.409764	Without	-0.0001134602
-4.409764	Wizard	0.004560804
-4.233673	Wo	0.003186057
-3.534703	Wolowitz	0.0481148
-4.233673	Wolverine	0.005439981
-4.409764	Wonder	0.0008682068
-4.233673	Wonderful	0.02997845
-4.409764	Woo-woo	0.03004785
-4.409764	Words	0.0004194114
-4.233673	World	0.004491412
-3.534703	Would	0.01662834
-4.233673	Wow	0.05407326
-4.409764	Wrong	0.03004785
-4.233673	X-Men	0.02230138
-3.807704	Xbox	0.05372892
-4.409764	Y.	-6.273866e-05
-4.409764	Yay	0.03004785
-4.409764	Ye	0.0003432467
-2.954919	Yeah	0.05678774
-4.409764	Years	-3.737568e-05
-4.233673	Yep	0.05407326
-4.409764	Yerkes	0.004321623
-2.859536	Yes	0.05677727
-4.409764	Yoda	0.005510289
-4.409764	Yoo-hoo	0.02236007
-2.337882	You	0.07916331
-3.564666	Your	-0.001043246
-4.409764	Ytterbium	0.02236007
-4.409764	Z	-0.0001134602
-4.233673	Zack	0.05407326
-4.409764	Zandor	0.02236007
-4.409764	Zazzles	0.03004785
-4.108734	Zelda	0.02245465
-4.409764	Zur	-0.0001219132
-4.409764	``	0.01949419
-1.785482	a	-0.04606779
-4.233673	abandon	0.006280124
-4.409764	abandoning	0.002497927
-4.409764	abdomen	0.03004785
-4.409764	ability'	0.01949419
-3.932643	able	0.007749096
-4.409764	ablutions	0.03004785
-4.409764	aboard	0.03004785
-2.669401	about	0.1273186
-4.108734	above	-0.0002896487
-4.409764	abrupt	-0.0001219132
-4.409764	abruptly	0.02236007
-4.409764	absence	0.02236007
-4.011824	absolutely	0.05511961
-4.409764	absorb	0.0007242031
-4.409764	absorbs	-0.0001219132
-4.233673	absurd	0.02997845
-4.409764	abuse	0.003238412
-4.409764	academic	-0.0001219132
-4.011824	accept	0.006741099
-4.233673	acceptable	0.02997845
-4.233673	acceptance	-0.0001743998
-4.409764	accepted	0.008914649
-4.108734	access	0.007887826
-4.108734	accident	0.02990907
-4.409764	accidents	-6.273866e-05
-4.409764	acclimate	0.0001994169
-4.409764	accommodate	0.008155815
-4.409764	accomplished	0.03004785
-4.233673	accomplishment	0.00205307
-4.108734	according	0.007887826
-4.233673	account	0.008931209
-4.409764	accurate	0.03004785
-4.409764	accurately	0.03004785
-4.409764	accused	0.004560804
-4.409764	achieve	0.008914649
-4.409764	achievement	0.004560804
-4.409764	achieving	-0.0001219132
-4.409764	aching	-0.0001219132
-4.409764	acid	0.003238412
-4.409764	acknowledging	0.0004363386
-4.409764	across	0.008914649
-4.108734	act	0.003514837
-4.233673	acting	0.0299634
-3.631613	action	0.03641358
-4.409764	actions	0.02236007
-4.409764	actively	-0.0001219132
-4.409764	activities	0.02236007
-4.108734	activity	0.03680384
-4.233673	acts	0.001704788
-3.865696	actual	-0.0003593093
-3.865696	actually	0.02269793
-4.409764	acuity	0.005604494
-4.409764	ad	-0.0001219132
-4.409764	adaptable	0.03004785
-4.409764	adapting	0.007037229
-4.108734	add	0.03138607
-4.409764	addict	0.02236007
-4.011824	addiction	0.05769274
-4.409764	addictive	1.33547e-05
-4.409764	addition	0.01949419
-4.409764	additional	-0.0001219132
-4.108734	address	0.03950122
-4.409764	adhere	0.008026601
-4.409764	adherence	0.008026601
-4.409764	adjective	0.02236007
-4.409764	administration	0.02236007
-4.409764	admirable	0.03004785
-4.409764	admiration	0.03004785
-4.108734	admire	0.0099422
-4.409764	admission	0.004560804
-4.011824	admit	0.03565323
-4.409764	admittedly	0.02236007
-4.233673	adorable	0.02997845
-4.108734	advance	0.02214475
-4.409764	advanced	-0.0001219132
-4.409764	advancements	0.002991443
-4.409764	advancing	3.026616e-05
-4.233673	advantage	0.004491412
-4.409764	advice	0.005604494
-4.409764	aerial	-0.0001219132
-4.409764	aesthetically	-0.0001219132
-4.233673	affect	0.002428534
-4.409764	affirmative	-3.737568e-05
-4.409764	afford	0.008026601
-4.409764	affront	0.008026601
-3.807704	afraid	0.03070024
-3.455522	after	0.0423135
-4.108734	afternoon	0.03487952
-4.409764	afterward	0.02236007
-3.43204	again	0.06012747
-3.710794	against	0.01127876
-4.409764	age	0.02236007
-4.409764	agenda	0.03004785
-4.409764	agent	7.254767e-05
-4.409764	aggressive	-0.0001219132
-3.631613	ago	0.06816039
-4.409764	agora	0.02236007
-4.011824	agree	0.03619562
-4.108734	agreed	0.007887826
-3.807704	agreement	0.04448352
-4.108734	ahead	0.008861828
-4.409764	ai	0.00325545
-4.011824	air	0.02287934
-4.233673	airport	0.005482805
-4.409764	airports	0.03004785
-4.233673	aka	-0.0002438258
-4.409764	alarmed	0.03004785
-4.409764	albeit	-0.0001219132
-4.011824	alcohol	0.04071249
-4.409764	alcoholics	0.02236007
-4.409764	alert	0.03004785
-4.409764	algorithm	0.001741724
-4.409764	algorithm'	0.01949419
-4.409764	alibi	0.03004785
-4.409764	alien	-0.000105007
-4.409764	aliens	0.03004785
-4.409764	alive	0.03004785
-2.737666	all	0.1250395
-4.409764	all-time	-0.0001134602
-4.409764	allergic	0.008026601
-4.011824	allow	0.006054773
-4.233673	allowed	0.007957208
-4.233673	allowing	0.002428534
-4.409764	alma	-0.0001219132
-4.108734	almanac	0.04222478
-4.233673	almost	0.0005345711
-3.807704	alone	0.06233492
-4.108734	along	0.03191959
-4.409764	alongside	0.008155815
-4.409764	alpha	-8.810018e-05
-4.409764	alphabetized	-0.000105007
-3.756552	already	0.003401133
-3.388575	also	0.03921262
-4.233673	alternate	0.02239933
-4.233673	although	0.00473825
-3.43204	always	0.003477992
-2.994791	am	0.07491042
-4.409764	amalgamation	0.004560804
-4.108734	amazing	0.02990907
-4.409764	ambivalence	0.03004785
-4.409764	amino	-0.0001219132
-4.409764	ammonia	-7.964649e-05
-4.409764	amniotic	-0.0001219132
-4.108734	among	0.009008626
-4.409764	amorous	-0.0001219132
-4.233673	amount	0.013575
-4.409764	amounts	0.004560804
-4.409764	amusing	-0.0001134602
-2.60699	an	-0.01272384
-4.409764	anal	-0.0001219132
-4.409764	analysing	0.0004701953
-4.409764	analysis	-0.0001134602
-4.233673	anarchy	0.02997845
-4.409764	ancient	-0.0001219132
-1.990635	and	0.1064757
-4.409764	and/or	0.0003009389
-4.409764	anecdote	0.005604494
-4.409764	anger	0.0006141149
-4.011824	angle	0.0163976
-3.932643	angry	0.05410961
-4.409764	anguish	0.03004785
-4.233673	animal	0.001619884
-4.409764	animals	0.001809643
-4.409764	ankles	0.0009359901
-4.409764	annihilation	-0.0001219132
-4.409764	annihilations	0.02236007
-3.932643	annoying	0.06965832
-4.108734	annual	-0.0001458888
-3.534703	another	0.0004467327
-3.480345	answer	0.1073497
-4.409764	answering	0.003715714
-4.409764	answers	0.03004785
-4.409764	ante	0.005604494
-4.409764	anteater	0.0001994169
-4.409764	anthropic	-0.0001219132
-4.409764	anthropology	-6.273866e-05
-4.409764	anti-Aristotelian	0.005604494
-4.409764	anticipate	0.001869082
-4.409764	anticipation	0.004560804
-4.409764	antisocial	-0.0001219132
-4.409764	anxiety	0.03004785
-3.154492	any	0.004779353
-4.233673	anymore	0.02997845
-3.807704	anyone	0.03028182
-3.534703	anything	0.1055268
-4.409764	anyway	0.03004785
-4.108734	apart	0.005746751
-3.480345	apartment	0.07608655
-4.409764	apiece	0.02236007
-4.011824	apologies	0.0298397
-3.807704	apologize	0.03566165
-4.409764	apologized	0.03004785
-4.011824	apology	0.02976427
-4.108734	app	0.02417052
-4.409764	apparent	0.008026601
-4.011824	apparently	0.02421064
-4.409764	appealing	-0.0001219132
-4.409764	appeals	0.008026601
-4.108734	appear	0.004625085
-4.409764	appearance	-0.0001219132
-3.932643	appears	0.02766968
-4.409764	appetites	0.001741724
-4.409764	applause	0.02236007
-4.108734	apple	0.02981552
-4.409764	apples	0.02236007
-4.409764	applicable	0.03004785
-4.409764	application	0.02236007
-4.409764	applications	0.0001232909
-4.233673	applied	0.009804095
-4.233673	apply	0.0047468
-4.409764	appointment	0.001351392
-4.409764	appreciably	-0.000105007
-3.932643	appreciate	0.01076542
-4.233673	appreciated	0.05407326
-4.409764	approach	0.008026601
-4.409764	approaches	0.0006649211
-4.108734	approaching	0.04066106
-3.932643	appropriate	0.03212132
-4.409764	approved	0.0004617308
-4.409764	apropos	0.03004785
-4.409764	aquarium	-0.0001134602
-4.409764	archduchy	0.004321623
-2.60699	are	0.1130696
-4.233673	area	0.004491412
-4.233673	areas	0.006881224
-4.108734	argue	0.0115727
-4.409764	argument	0.001741724
-4.409764	argumentum	0.02236007
-4.409764	arise	0.0003432467
-4.409764	arm	-6.273866e-05
-4.409764	armadillo	0.03004785
-4.409764	armour	0.02236007
-4.409764	arms	-0.0001219132
-4.409764	army	0.0007242031
-3.564666	around	0.05479477
-4.409764	arranged	-0.0001134602
-4.409764	arrangement	0.001563485
-4.409764	arrival	0.02236007
-4.233673	arrive	0.001026018
-4.108734	arrived	0.03101918
-4.409764	art	-9.655368e-05
-4.409764	artery	0.003238412
-4.409764	artichoke	0.02236007
-4.233673	article	0.03173412
-4.409764	artifact	0.02236007
-4.233673	artistic	0.02229068
-4.409764	artwork	0.03004785
-2.68141	as	0.08379028
-4.409764	ascend	-0.0001219132
-4.409764	aside	0.02236007
-3.368371	ask	0.03454997
-3.669401	asked	0.04509467
-3.807704	asking	0.04255914
-4.409764	asparagus	0.003715714
-4.409764	aspect	0.004560804
-4.233673	aspects	0.02717219
-4.409764	assaults	-0.000105007
-4.409764	assembled	0.007037229
-4.233673	assembly	-0.0001067685
-4.409764	assign	0.007037229
-4.409764	assorted	-0.0001219132
-3.807704	assume	0.03256427
-4.011824	assumed	0.01536173
-4.409764	assuming	0.001266584
-4.233673	assumption	0.03404234
-4.409764	assure	0.008155815
-4.409764	assured	0.002497927
-4.233673	asteroid	0.02229068
-4.409764	asthma	-0.0001219132
-4.409764	astonishes	0.002497927
-4.409764	astronaut	0.03004785
-4.409764	astrophysical	-0.0001219132
-4.409764	asymptote	0.03004785
-2.596851	at	0.0476636
-4.409764	ate	0.007037229
-4.409764	athletes	0.0005633141
-4.409764	athletic	-0.000105007
-4.233673	atom	0.02997845
-4.233673	atomic	-0.0002353724
-4.011824	atoms	0.0297884
-4.233673	attached	0.007957208
-4.409764	attachment	0.02236007
-3.932643	attack	0.03639311
-4.233673	attacked	0.03055284
-4.409764	attempt	0.008026601
-4.409764	attempted	0.008026601
-4.011824	attempting	0.007818455
-4.233673	attend	0.0003567706
-4.409764	attendance	0.003238412
-3.807704	attention	0.0742984
-4.011824	attitude	0.04229115
-4.108734	attract	0.01652763
-4.409764	attractive	0.004321623
-4.409764	audacity	0.008026601
-4.233673	audience	0.009864657
-4.409764	auditory	-0.0001219132
-4.233673	aunt	0.008542865
-4.409764	authorities	0.0007242031
-4.409764	avail	0.03004785
-4.108734	available	0.03264297
-4.409764	average	0.001741724
-4.409764	aversions	0.008026601
-4.233673	avocado	0.03199808
-4.108734	avoid	0.01019331
-4.409764	awake	-6.273866e-05
-3.932643	aware	0.0042833
-3.480345	away	0.07707133
-4.011824	awful	0.03592994
-4.409764	awkward	-0.0001134602
-4.409764	awkwardly	0.002991443
-4.233673	axe	0.03087964
-4.409764	azure	0.03004785
-4.409764	bIr	-0.0001219132
-4.409764	ba-ack	0.0007919638
-4.409764	babble	0.008026601
-4.409764	babies	0.03004785
-4.233673	baby	0.03009029
-4.409764	baby-proof	0.008914649
-4.409764	bachelor	-3.737568e-05
-3.067341	back	0.08963013
-4.409764	back-scratching	-9.655368e-05
-4.233673	back-up	0.02993621
-4.409764	backed	0.0004617308
-4.409764	backfire	0.004321623
-4.409764	background	-7.119269e-05
-4.409764	backs	0.02236007
-4.409764	backseat	0.03004785
-4.409764	backstroke	0.002991443
-4.409764	backup	0.02236007
-4.409764	backwoods	0.004560804
-3.710794	bad	0.06287917
-4.409764	badger	3.026616e-05
-4.409764	badgering	0.002497927
-4.409764	badly	0.02236007
-4.233673	baffling	0.0001875045
-4.108734	bag	0.03487952
-4.409764	bagged	0.0002247952
-4.233673	balance	0.01520118
-4.409764	balances	0.02236007
-4.409764	bald	-0.0001219132
-4.108734	ball	0.00819707
-4.409764	ball-and-socket	-0.0001219132
-4.409764	balloon	0.02236007
-4.409764	balloons	0.0009359901
-4.409764	balls	0.03004785
-4.409764	banal	-0.0001134602
-4.409764	banality	0.004560804
-4.409764	banana	-0.0001134602
-4.409764	band	0.004321623
-4.233673	banging	0.002163559
-4.409764	bank	0.03004785
-4.409764	banner-related	-7.964649e-05
-4.011824	bar	0.06203499
-4.409764	barbeques	0.004321623
-4.409764	barber	0.02236007
-4.409764	bare	-0.0001219132
-4.409764	barely	0.03004785
-4.409764	bark	0.004560804
-4.409764	barn	-0.0001134602
-4.409764	barrel	0.004321623
-3.865696	bars	0.05385092
-4.409764	bartender	-0.000105007
-3.807704	based	0.001393453
-4.409764	basement	0.004560804
-4.233673	basic	-0.0002269189
-4.409764	basis	0.001741724
-4.409764	bath	0.004560804
-4.409764	bathing	0.02236007
-4.409764	bathrobe	0.005604494
-3.710794	bathroom	0.05528787
-4.409764	baths	-3.737568e-05
-4.409764	bathtub	0.004321623
-4.409764	battery-operated	-0.0001219132
-4.108734	battle	0.03855708
-2.388575	be	0.109155
-4.409764	beach	0.02236007
-4.409764	beam	2.181035e-05
-4.409764	bears	0.02236007
-4.409764	beat	0.008914649
-4.409764	beating	0.0001994169
-4.409764	beautiful	-0.0001134602
-4.409764	beauty	0.004560804
-4.233673	became	0.006915598
-2.986518	because	0.05092077
-4.011824	become	-0.0002508748
-4.409764	becoming	0.008914649
-3.756552	bed	0.04037986
-3.865696	bedroom	0.05381979
-4.409764	beef	0.001801153
-4.409764	beehives	0.008155815
-2.932643	been	0.04004027
-4.409764	beep	0.003238412
-4.409764	bees	0.02236007
-3.368371	before	0.09046388
-4.233673	befriend	0.009242136
-4.409764	befriends	0.007037229
-4.108734	began	0.01095621
-4.409764	begging	-3.556081e-06
-3.756552	begin	0.06454766
-4.409764	beginning	0.03004785
-4.409764	begun	-0.0001219132
-4.409764	behalf	0.02236007
-4.011824	behaviour	0.03473544
-4.409764	behavioural	-0.0001134602
-4.409764	beheaded	0.03004785
-3.865696	behind	0.03952977
-3.312854	being	0.02290215
-4.409764	believable	0.03004785
-3.205644	believe	0.07705863
-4.409764	believed	3.872211e-05
-4.409764	believes	0.003715714
-4.409764	believing	0.008155815
-4.409764	belly	-0.0001219132
-4.409764	bellyaching	0.03004785
-4.409764	belong	0.03004785
-4.409764	belongings	0.03004785
-4.011824	beloved	0.004050368
-4.108734	below	0.00872371
-4.409764	belt	-2.046622e-05
-4.233673	beneath	0.008241058
-4.409764	benefit'	0.01949419
-4.108734	benefits	0.03487952
-4.409764	bengay	0.02236007
-4.409764	bent	0.0001486648
-4.409764	berate	0.000157123
-3.312854	best	0.04946151
-4.409764	bested	0.002497927
-4.233673	bet	0.02080813
-4.233673	beta	-0.0002100114
-4.409764	betrayal	0.0006564534
-4.233673	betrayed	0.0006277337
-3.330583	better	0.05873028
-3.669401	between	0.01975082
-4.011824	beverage	0.03592484
-4.233673	beyond	0.01271193
-4.409764	bi	0.02236007
-4.409764	bidding	-0.0001219132
-4.409764	biddy	0.03004785
-3.710794	big	-0.0009534277
-4.108734	bigger	-0.0001374308
-4.409764	bill	0.004321623
-4.409764	binding	-0.0001134602
-4.409764	bingo	0.03004785
-4.233673	biochemical	0.004208424
-4.409764	biologists	0.03004785
-4.108734	biology	0.05399192
-4.409764	bioorganic	-0.0001219132
-4.108734	bird	0.01100827
-4.409764	bird-trapping	-8.810018e-05
-4.233673	birds	0.02692015
-4.409764	birth	0.0003094003
-3.932643	birthday	0.03065072
-4.409764	biscuit	0.03004785
-4.409764	bishop	0.008026601
-3.710794	bit	0.004993733
-4.409764	bitchin	-5.428454e-05
-4.409764	bite	0.002497927
-4.409764	biting	0.001869082
-4.409764	bitten	0.03004785
-4.409764	blackmailed	0.001801153
-4.409764	bladder	0.03004785
-4.409764	blades	0.02236007
-4.409764	blame	0.001809643
-4.409764	blankets	0.001741724
-4.409764	blast	0.03004785
-4.409764	blast-off	0.003963097
-4.409764	bleed	0.003715714
-4.409764	blend	0.002991443
-4.409764	bless	0.008914649
-4.409764	blessing	0.03004785
-4.409764	bleugh	0.03004785
-4.409764	blew	0.008914649
-4.233673	blind	0.05407326
-4.409764	blink	0.03004785
-4.409764	blinked	0.03004785
-4.409764	blinking	0.02236007
-4.409764	blister	0.03004785
-4.233673	block	0.003893705
-4.108734	blood	0.004086686
-3.932643	blow	0.05473327
-3.932643	blue	0.03328755
-4.409764	blues	0.03004785
-4.409764	blunder	0.03004785
-4.409764	blurry	0.02236007
-4.108734	board	0.02971282
-4.409764	boats	0.005604494
-4.409764	bobcat	0.0003263233
-4.409764	bodies	0.0004194114
-4.409764	bodily	-0.0001219132
-3.756552	body	0.0648217
-4.409764	bologna	0.0009614117
-4.409764	bomb	0.001563485
-4.409764	bones	0.03004785
-4.409764	bongo	-0.0001219132
-4.108734	bongos	0.03599931
-4.409764	boo-boo	0.02236007
-3.710794	book	0.02632791
-4.108734	books	0.03132241
-4.233673	bored	0.002503702
-4.011824	boring	0.02970389
-4.409764	born	0.0007919638
-4.409764	borrow	0.003963097
-4.409764	bortaS	-0.0001219132
-3.506674	both	0.05153425
-4.409764	bothering	0.008155815
-4.409764	bottle	0.004560804
-4.409764	bottle-blonde'	0.01949419
-4.108734	bottom	0.058993
-3.865696	bought	0.013902
-4.409764	bowel	0.03004785
-4.409764	bowels	0.005604494
-4.409764	bowing	0.008026601
-3.932643	bowl	0.02975529
-4.409764	bowling	0.0001317487
-3.710794	box	0.06619197
-4.409764	boxers	0.03004785
-3.807704	boy	0.03300078
-4.108734	boyfriend	0.05396318
-4.409764	boyfriend-girlfriend	5.563456e-05
-4.409764	boys	-0.0001219132
-3.564666	brain	0.07829083
-4.409764	brain'	0.01949419
-4.409764	brains	0.008155815
-4.409764	brake	0.03004785
-4.409764	brandy	0.005604494
-4.409764	brass	-0.0001219132
-4.409764	breach	0.004560804
-4.233673	bread	0.02997845
-4.011824	break	0.0005788529
-4.108734	breakfast	0.02999371
-4.409764	breaking	0.008914649
-4.108734	breaks	0.0004567211
-4.409764	breakup	0.03004785
-4.409764	breasts	0.03004785
-4.409764	breathing	0.0007242031
-4.108734	breeze	0.006141305
-4.409764	brides	0.03004785
-4.409764	bridge-of-nose	-0.0001219132
-4.409764	briefing	0.03004785
-4.409764	briefs	0.008026601
-4.233673	bright	0.004242587
-4.233673	brightest	0.02717219
-4.233673	brilliance	0.00425223
-4.011824	brilliant	0.02228202
-4.409764	brimstone	0.005604494
-3.710794	bring	0.01858582
-4.233673	brings	0.01634139
-4.409764	briquettes	0.003715714
-4.409764	brittle	0.002991443
-4.409764	broach	0.008914649
-4.233673	broke	0.01288615
-3.865696	broken	0.03051458
-4.409764	brooks	0.03004785
-3.932643	brother	0.0588236
-4.409764	brothers	0.03004785
-3.669401	brought	0.02917919
-4.409764	brown	-0.0001219132
-4.409764	browser	-0.000105007
-4.409764	brushes	0.0004617308
-4.409764	bubble	-0.0001219132
-4.409764	bubbly	0.03004785
-4.409764	buckets	0.03004785
-4.108734	buddy	0.02991214
-4.409764	budge	0.03004785
-4.409764	budget	0.004321623
-4.409764	buffer	3.026616e-05
-4.409764	buffet	0.0009614117
-4.409764	bugs	-9.655368e-05
-4.409764	buh	0.03004785
-4.011824	build	0.02108986
-4.409764	build-your-own	-9.655368e-05
-3.807704	building	0.02665049
-4.233673	built	0.01008102
-4.409764	built-in	-0.000105007
-4.409764	bulldozers	0.008026601
-4.409764	bullies	0.0009953092
-4.409764	bump	0.03004785
-4.233673	bumps	0.02229068
-4.409764	bungee	-0.0001219132
-4.409764	bunny	0.005604494
-4.409764	buoyed	0.0004617308
-4.108734	burn	0.008896364
-4.233673	burns	0.02997845
-4.409764	bury	0.0003178617
-4.409764	burying	0.008914649
-4.108734	bus	0.02246539
-4.409764	buses	-0.0001134602
-4.108734	business	0.03001184
-4.108734	busy	0.03001184
-2.534703	but	0.1045017
-4.409764	but'	0.01949419
-4.108734	butter	0.05692392
-4.409764	buttered	0.00254045
-4.409764	button	0.001809643
-3.865696	buy	0.01633008
-4.108734	buying	0.0005482103
-4.409764	bwch-wch-wch-wch-wch-wch	0.03004785
-2.859536	by	0.09677441
-2.939942	ca	-0.0006823472
-4.409764	cabbage	-8.810018e-05
-4.233673	cafeteria	0.03198897
-4.233673	caffeine	-0.0002438258
-4.409764	calcium	-0.0001219132
-4.409764	calculations	0.0003009389
-4.233673	calculus	0.0349489
-4.108734	calendar	0.03589823
-3.409764	call	0.03517296
-3.631613	called	0.01545946
-3.932643	calling	0.01302767
-4.409764	callous	-0.0001219132
-4.409764	calls	0.001741724
-4.409764	calm	5.563456e-05
-3.710794	came	0.01127849
-4.409764	camera	0.03004785
-4.409764	campaign	0.02236007
-4.409764	campus	-9.655368e-05
-2.685488	can	0.0965149
-4.409764	can't-miss	-0.0001219132
-4.409764	can-do	-9.655368e-05
-4.409764	cancer	0.03004785
-4.409764	candid	-0.0001219132
-4.233673	candidates	0.02997845
-4.409764	candy	0.004560804
-4.409764	canned	0.03004785
-4.409764	cans	0.0009359901
-4.108734	capable	0.00442203
-4.409764	capacity	0.03004785
-4.409764	caps	0.001809643
-4.409764	captain	0.03004785
-4.409764	captioning	0.00254045
-4.409764	captive	-0.0001134602
-4.409764	capture	0.008914649
-3.756552	car	0.04154001
-4.409764	carbohydrates	0.001741724
-3.932643	carbon	0.03506048
-4.409764	carcinogenic	0.03004785
-3.932643	card	0.03764236
-4.409764	cardamom	-0.0001219132
-4.409764	cardinal	-0.000105007
-3.807704	cards	0.04855881
-3.596851	care	0.06173326
-4.409764	cared	-3.556081e-06
-3.932643	career	0.02862071
-4.409764	carefully	0.0006649211
-4.409764	cares	0.005604494
-4.409764	carotid	-0.0001219132
-4.409764	carpal	-0.0001219132
-4.409764	carrier	0.03004785
-4.409764	carriers	0.004560804
-4.409764	carries	0.03004785
-4.409764	carrot	-0.0001219132
-4.409764	carrots	0.004321623
-4.108734	carry	0.006828345
-4.409764	carry-on	0.02236007
-4.409764	carrying	-6.273866e-05
-4.409764	cars	0.03004785
-4.233673	carving	0.007190686
-3.756552	case	0.05891772
-4.409764	castanets	0.008026601
-4.233673	casual	-0.0001846489
-4.011824	cat	0.05736423
-4.409764	catapult	-0.0001219132
-4.409764	catch	0.0004617308
-4.409764	cater	0.008026601
-4.409764	caterpillars	0.005604494
-4.409764	cats	0.03004785
-4.409764	cattle	0.0009359901
-4.409764	cattywampus	0.03004785
-4.409764	catwomen	0.03004785
-4.409764	caught	-4.583019e-05
-4.108734	cause	0.002543564
-4.409764	caused	0.0001994169
-4.233673	causes	0.007483157
-4.233673	cave	0.001458611
-4.233673	celebrate	0.003893705
-4.409764	celebrated	0.03004785
-4.409764	celebrity	0.03004785
-4.409764	cell	-0.000105007
-4.409764	cello	0.03004785
-4.409764	cells	0.03004785
-4.409764	cellular	-0.000105007
-4.409764	centre	-0.0001219132
-4.409764	centrifugal	-0.0001134602
-4.108734	century	0.0539536
-4.409764	cereal	0.03004785
-4.233673	ceremony	0.03326548
-4.011824	certain	-0.0004284675
-3.932643	certainly	0.001451205
-4.409764	certainty	0.03004785
-4.409764	chai	-5.428454e-05
-4.409764	chains	0.001801153
-4.011824	chair	0.06572145
-3.932643	challenge	0.04141519
-4.409764	challenging	0.008026601
-4.409764	chamomile	-5.428454e-05
-4.409764	champion	-0.0001219132
-4.233673	chance	0.01280774
-3.669401	change	0.05295341
-4.108734	changed	0.04242064
-4.409764	changes	0.002991443
-4.233673	chaos	0.02992715
-4.409764	chaps	0.0003347848
-4.233673	character	0.002869652
-4.409764	characteristic	0.004560804
-4.409764	characterized	0.003963097
-4.409764	characters	0.03004785
-4.409764	charcoal	-0.0001219132
-4.108734	charge	0.03178643
-4.233673	charged	0.001687806
-4.409764	charges	0.005604494
-4.409764	charm	0.02236007
-4.409764	charming	-0.0001219132
-4.409764	chart	0.03004785
-4.409764	chased	0.003963097
-4.409764	chasm	0.02236007
-4.233673	chat	0.05407326
-4.409764	chatter	0.001809643
-4.409764	cheating	0.03004785
-3.807704	check	0.04425458
-4.409764	checked	0.02236007
-4.233673	checking	0.006323033
-4.233673	cheer	0.01070474
-4.409764	cheerier	-0.000105007
-4.409764	cheers	0.03004785
-4.233673	cheese	0.02994527
-4.409764	cheeseburger	0.001809643
-4.409764	cheeseless	0.03004785
-4.233673	chemical	-0.0002438258
-4.233673	chemistry	0.03353037
-4.409764	cherries	0.02236007
-4.409764	cherry	-0.0001219132
-4.409764	chess	-0.0001219132
-4.233673	chest	0.02997845
-4.409764	chew	-7.964649e-05
-4.409764	chews	0.004321623
-3.710794	chicken	0.04439361
-3.865696	child	0.03024816
-4.233673	childhood	0.02992715
-4.233673	childish	0.02228357
-3.756552	children	0.07373681
-4.409764	chimney	0.03004785
-4.409764	chin	-0.0001219132
-4.409764	chips	-0.0001219132
-4.409764	chit-chat	0.03004785
-4.409764	chocolate	-8.810018e-05
-3.669401	choice	0.05946528
-4.409764	choke	0.001809643
-4.011824	choose	0.04783046
-4.409764	choosing	-3.556081e-06
-4.409764	chopped-up	-6.273866e-05
-4.108734	chose	0.01056593
-4.409764	chosen	0.0004617308
-4.409764	chunk	0.03004785
-4.409764	chunks	0.004321623
-4.409764	church	0.03004785
-4.409764	churn	0.0004701953
-4.409764	cider	0.001801153
-4.409764	cigarette	0.005604494
-4.409764	cinnamon	-0.0001134602
-4.409764	circa	-0.0001219132
-4.409764	circadian	-0.0001219132
-4.233673	circle	0.0006955009
-4.409764	circus	-0.0001219132
-4.233673	citrus	-0.000182853
-4.108734	city	0.03324538
-4.409764	clad	-0.0001219132
-4.409764	claim	0.001351392
-4.409764	claimed	0.003715714
-4.409764	claiming	0.008026601
-4.409764	claims	0.008026601
-4.409764	clairvoyance	0.004560804
-4.409764	clam	0.03004785
-4.409764	clap	0.001869082
-4.409764	clapped	0.0001402067
-4.409764	clarified	-0.0001219132
-4.233673	class	0.03199808
-4.233673	classic	7.75168e-05
-4.409764	clean	-0.0001134602
-4.409764	cleaned	0.03004785
-4.233673	cleaning	0.03596761
-4.011824	clear	0.06327757
-4.233673	clearance	0.02997845
-4.409764	cleared	0.008914649
-4.011824	clearly	0.02483749
-4.409764	clenching	0.002991443
-3.932643	clever	0.05485073
-4.108734	click	0.03599931
-4.409764	cliffhanger	0.03004785
-4.409764	climb	0.03004785
-4.409764	cloaking	-8.810018e-05
-4.409764	clock	0.02236007
-3.932643	close	0.01074799
-4.409764	closed	0.03004785
-3.932643	closer	0.007749096
-4.108734	closet	0.05400388
-4.409764	closing	-0.0001134602
-4.409764	closure	0.03004785
-4.409764	clot	0.02236007
-4.108734	clothes	0.03089523
-4.409764	clown	-0.0001219132
-4.233673	club	-0.0001254641
-4.233673	clue	0.03011748
-4.409764	cluster	0.004560804
-4.409764	co-conspirators	0.03004785
-4.409764	co-host	0.007037229
-4.409764	coal	0.002991443
-4.409764	coat	0.004321623
-4.409764	cocaine	0.02236007
-4.409764	coccuses	0.03004785
-4.409764	cockamamie	0.03004785
-4.108734	cocktail	0.02981552
-4.409764	cocoa	0.03004785
-4.409764	coconut	0.005604494
-4.011824	code	0.05393451
-4.409764	codifies	0.008914649
-4.108734	coeruleus	0.02214475
-3.932643	coffee	0.05571375
-4.409764	coincidence	0.02236007
-3.710794	coitus	0.05128796
-4.409764	colada	-6.273866e-05
-3.932643	cold	0.05376219
-4.409764	collaborate	0.001809643
-4.409764	collaboration	0.003238412
-4.409764	collar	0.02236007
-4.409764	colleagues	-8.810018e-05
-4.409764	collect	0.000157123
-4.409764	collecting	-0.0001219132
-4.011824	collection	0.03592994
-4.409764	collector	0.03004785
-4.409764	college	0.0003094003
-4.409764	collisions	0.002991443
-4.233673	colonoscopy	0.02997845
-4.409764	colony	0.001809643
-4.233673	colour	0.007905008
-4.409764	colours	0.002991443
-4.409764	comb	0.001869082
-4.233673	combination	0.004533079
-4.233673	combined	-0.0002015574
-3.43204	come	0.05940018
-4.233673	comedy	0.00312515
-3.807704	comes	0.03879309
-4.108734	comfort	0.01048791
-3.756552	comfortable	0.03413432
-3.865696	comic	-0.0004892722
-3.807704	coming	0.02444571
-4.233673	command	0.02993621
-4.409764	commands	0.03004785
-3.932643	comment	0.03013919
-4.409764	commentary	0.03004785
-4.108734	comments	0.005001504
-4.409764	commitment	0.008026601
-4.233673	committee	0.008241059
-4.409764	committing	-8.810018e-05
-3.932643	common	0.02991865
-4.409764	commoner	0.004321623
-4.409764	communicate	4.717823e-05
-4.409764	community	-0.0001219132
-4.409764	compact	-0.0001134602
-4.409764	compactification	0.004560804
-4.233673	companies	0.03249001
-4.409764	companionship	0.03004785
-3.932643	company	0.019619
-4.409764	comparatively	-0.0001219132
-4.409764	comparison	0.03004785
-4.409764	compartments	-0.0001219132
-4.409764	compassion	0.03004785
-4.409764	compatible	0.001801153
-4.409764	compensation	0.001741724
-4.409764	competed	-5.428454e-05
-4.233673	competition	0.005937012
-4.233673	complacent	0.02992715
-4.409764	complained	0.003963097
-4.409764	complaining	0.02236007
-4.409764	complaint	0.03004785
-3.865696	complete	0.003816573
-4.409764	completed	0.0004617308
-3.710794	completely	-0.0009515857
-4.409764	completion	0.02236007
-4.409764	complex	-0.000105007
-4.233673	compliment	0.0343077
-4.233673	component	0.00292205
-4.409764	composing	0.00254045
-4.409764	compounds	0.03004785
-4.409764	comprehensive	-0.0001219132
-4.409764	compromise	0.03004785
-4.409764	compromising	0.008914649
-4.409764	compulsion	0.008026601
-4.409764	computations	-0.000105007
-4.108734	computer	0.03854783
-4.409764	computer-savvy	-0.0001219132
-4.409764	concavity	0.004560804
-4.409764	conceal	0.003963097
-4.409764	concede	0.003715714
-4.409764	concentrated	0.008914649
-4.233673	concept	0.004491412
-4.011824	concern	0.03608526
-4.409764	conclusions	-7.119269e-05
-4.409764	conclusive	-9.655368e-05
-4.409764	condemnation	0.008155815
-4.409764	condensate	0.03004785
-4.409764	condensation	0.001809643
-4.409764	condition	0.03004785
-4.409764	condolences	0.03004785
-4.409764	condoms	0.02236007
-4.409764	conduct	0.008914649
-4.233673	conductor	0.004515986
-4.409764	conference	0.03004785
-4.409764	confidence	0.03004785
-4.409764	confident	-0.0001219132
-4.409764	confirm	0.0006395176
-4.409764	conflict	2.181035e-05
-4.409764	confront	0.0004363386
-4.409764	confrontation	0.02236007
-4.409764	confuse	0.004321623
-4.409764	confused	0.03004785
-4.409764	confusing	0.02236007
-4.233673	confusion	0.03087964
-4.409764	congenital	-0.000105007
-4.409764	congratulations	0.02236007
-4.233673	conjecture	0.02229068
-4.233673	conn.	0.01952343
-4.409764	connected	0.0004617308
-4.409764	connection	0.02236007
-4.409764	connectivity	0.02236007
-4.409764	connects	0.008026601
-4.409764	consciousness	-0.0001219132
-4.409764	consent	0.03004785
-4.409764	consider	-9.655368e-05
-4.409764	considerable	-5.428454e-05
-4.409764	considerate	1.33547e-05
-4.409764	consideration	0.02236007
-4.409764	considerations	4.717823e-05
-4.108734	considered	0.01187681
-4.409764	consistency	0.03004785
-4.233673	consolation	0.02229068
-4.108734	constant	-0.0003488302
-4.233673	constantly	-0.0002015574
-4.409764	constitute	0.007037229
-4.409764	construction	0.03004785
-4.409764	consumer	-0.0001219132
-4.108734	contact	0.05830544
-4.409764	contacted	0.001869082
-4.233673	contagious	0.03007216
-4.409764	container	0.02236007
-4.108734	contains	0.007120666
-4.409764	content	-1.201122e-05
-4.409764	contentious	-0.0001134602
-4.011824	contest	0.06037983
-4.409764	continuation	0.004560804
-4.011824	continue	0.0407081
-4.409764	contra-indicated	0.03004785
-4.108734	contract	0.0003026096
-4.409764	contracts	-9.655368e-05
-4.409764	contractual	-0.0001219132
-4.409764	contractually	-0.0001219132
-4.409764	contrary	0.03004785
-4.409764	contribute	0.008026601
-4.409764	contribution	0.008026601
-4.409764	contributions	0.0009359901
-4.011824	control	0.03700589
-4.409764	controlled	-0.0001219132
-4.409764	controlling	0.02236007
-4.409764	controls	0.008914649
-4.409764	controversial	-7.964649e-05
-4.409764	conundrum	0.02236007
-4.409764	convenience	0.02236007
-4.233673	convention	0.03024442
-3.710794	conversation	0.07191389
-4.409764	conversational	-0.0001134602
-4.409764	conversations	0.0007919638
-4.409764	converting	0.003963097
-4.108734	convinced	0.003489248
-4.409764	convincing	0.03004785
-4.409764	cooking	-0.0001134602
-4.011824	cool	0.05421007
-4.409764	coordinates	0.03004785
-4.409764	copious	-0.0001219132
-4.108734	copy	0.0331961
-4.409764	cords	0.03004785
-4.409764	core	1.33547e-05
-4.409764	corn	0.03004785
-4.011824	corner	0.02992434
-4.409764	corps	0.03004785
-4.233673	correct	0.02993621
-4.409764	correctly	0.02236007
-4.409764	corresponded	0.001801153
-4.409764	cortex	0.03004785
-4.409764	cosies	-0.0001219132
-4.409764	cosmology	0.03004785
-4.409764	cost	0.001741724
-4.233673	costume	-0.0001339195
-4.011824	costumes	0.03087129
-4.409764	costuming	0.02236007
-3.865696	couch	0.05755582
-4.409764	cough	-0.0001134602
-2.835733	could	0.09327321
-4.409764	coulda	0.02236007
-4.108734	count	0.008809659
-4.409764	counting	-0.0001219132
-4.409764	countless	-3.737568e-05
-4.233673	country	-0.000159285
-4.233673	counts	0.02317482
-3.932643	couple	0.03885313
-4.409764	couples	0.0009953092
-4.409764	coupling	0.03004785
-4.409764	coupons	0.01240681
-4.409764	courage	0.008026601
-3.205644	course	0.09008962
-4.233673	court	0.05407326
-4.233673	cousin	0.02992715
-4.233673	covenant	0.004994848
-4.409764	cover	-0.0001219132
-4.409764	covers	-7.964649e-05
-4.233673	cow	0.02997845
-4.409764	coziest	-0.0001219132
-4.409764	crack	-0.0001219132
-4.409764	cracking	0.03004785
-4.108734	craving	0.03951975
-4.409764	crawl	0.000233255
-4.011824	crazy	0.03947818
-4.233673	cream	0.05407326
-4.011824	create	0.01596557
-4.233673	created	0.0003821662
-4.409764	creative	0.03004785
-4.409764	creature	0.005604494
-4.409764	creatures	0.008026601
-3.865696	credit	0.02756066
-4.409764	crescent-shaped	-0.0001219132
-4.409764	crewman	0.002991443
-4.233673	cricket	0.02827208
-4.409764	cried	0.0006987957
-4.233673	cries	0.004875084
-4.108734	crime	0.002747862
-4.233673	criminal	-0.0001761945
-4.409764	crimson	-0.0001219132
-4.409764	critical	-9.655368e-05
-4.233673	cross	-0.0001743998
-4.409764	crossing	0.03004785
-4.409764	croutons	0.03004785
-4.409764	crow	-0.0001134602
-4.409764	crowd	0.03004785
-4.108734	crown	0.03639884
-4.409764	crucial	0.001741724
-4.409764	crud	0.03004785
-4.233673	crush	0.007440134
-4.233673	crushes	-0.0002015574
-3.807704	cry	0.03112107
-4.409764	crying	0.03004785
-4.409764	cryogenic	-0.0001219132
-4.409764	crystallized	-8.810018e-05
-4.409764	crystals	0.02236007
-4.409764	cuba	-0.0001219132
-4.409764	cuddly	-0.0001219132
-4.409764	cues	0.02236007
-4.409764	cul-de-sac	0.03004785
-4.409764	cultural	-0.0001219132
-4.409764	culture	0.0004617308
-4.233673	cultures	0.05407326
-4.409764	cum	-0.0001219132
-4.409764	cunning	0.000233255
-4.409764	cup	0.004560804
-4.409764	curiouser	0.03004785
-4.409764	curl	0.0004617308
-4.233673	current	-0.0001000966
-4.233673	currently	0.02551859
-4.409764	curriculum	0.03004785
-4.409764	customary	0.02236007
-4.409764	customs	-0.0001219132
-3.807704	cut	0.01110433
-4.409764	cut-up	0.03004785
-4.011824	cute	0.03415443
-4.233673	cuts	6.059813e-05
-4.409764	cutting	0.008914649
-4.233673	cycle	0.02692015
-4.409764	cycles	0.0009359901
-4.409764	cyclotron	0.004321623
-4.409764	da-da-da-da	0.0007919638
-4.409764	dad	2.181035e-05
-4.409764	dad-gum	-0.0001134602
-4.233673	daddy	0.005628443
-4.409764	dagger	-0.000105007
-4.409764	dalliance	0.001801153
-4.409764	damn	0.003963097
-4.409764	dampness	0.02236007
-4.233673	dance	0.02317482
-4.233673	dancing	0.02995434
-4.409764	danger	0.004560804
-4.409764	dangers	0.004560804
-3.756552	dark	0.02190666
-4.409764	darkened	-0.0001134602
-4.409764	darkness	0.02236007
-4.409764	darn	0.003963097
-4.409764	darnedest	5.563456e-05
-4.409764	dashing	0.02236007
-4.409764	dastardly	-0.0001219132
-4.409764	data	0.03004785
-3.669401	date	0.03543021
-4.409764	dates	0.03004785
-4.409764	dating	0.004321623
-4.233673	daughter	0.03596761
-4.409764	dawn	0.004560804
-3.368371	day	0.0719846
-4.409764	day-walkers	0.02236007
-3.865696	days	0.06238366
-4.409764	de	-0.0001219132
-3.756552	dead	0.04412515
-4.108734	deal	0.01601818
-3.710794	dear	0.02961103
-3.756552	death	0.03449336
-4.409764	debate	0.02236007
-4.409764	debt	0.02236007
-4.409764	decapitates	-9.655368e-05
-4.011824	decay	0.0299334
-4.233673	deceit	0.02997845
-4.409764	deceitful	-0.0001134602
-4.409764	decency	0.0007580821
-4.233673	deception	0.03326548
-4.233673	decide	0.03000871
-3.932643	decided	0.0128878
-3.807704	decision	0.06303924
-4.233673	decline	0.008344512
-4.409764	declined	0.03004785
-4.409764	decorating	0.007037229
-4.409764	deduct	0.0001655814
-4.409764	deemed	-0.0001219132
-4.409764	deep	-1.201122e-05
-4.233673	deeply	0.0001113561
-4.409764	defacing	0.00254045
-4.409764	defeat	0.03004785
-4.233673	defeated	0.009389039
-4.409764	defeats	0.0006564534
-4.409764	defence	-5.428454e-05
-4.409764	defence'	0.01949419
-4.409764	defends	0.008914649
-4.409764	defensive	0.03004785
-4.409764	defied	0.0003178617
-4.409764	defined	0.0009359901
-4.233673	definitely	0.000712444
-4.409764	definition	0.02236007
-4.233673	degrees	0.02997845
-4.409764	deity	0.03004785
-4.409764	deli	0.005604494
-4.409764	deliberation	0.02236007
-4.233673	delicious	0.02223906
-4.409764	delighted	0.0004617308
-4.108734	delightful	-5.284231e-05
-4.409764	delights	6.409103e-05
-4.409764	delivering	-5.428454e-05
-4.233673	delivery	0.003431945
-4.409764	delusional	0.03004785
-4.409764	demeaning	0.03004785
-4.409764	demolish	0.001869082
-4.409764	demon	0.03004785
-4.409764	demonstrate	0.008914649
-4.409764	denied	0.0001655814
-4.233673	dent	0.02997845
-4.409764	dentist	-7.964649e-05
-4.233673	department	1.387903e-06
-4.409764	departure	4.717823e-05
-4.409764	dependency	0.03004785
-4.409764	dependent	0.001809643
-4.011824	depends	0.001601498
-4.409764	depictions	0.004560804
-4.409764	deployability	-0.000105007
-4.233673	depressed	0.03038953
-4.409764	depressus	0.0003263233
-4.409764	depth	0.02236007
-4.409764	der	-0.0001219132
-4.409764	derisively	0.004321623
-4.233673	derivative	0.02992715
-4.233673	dermatitis	0.02997845
-4.409764	descend	0.0001486648
-4.409764	descended	0.0001486648
-4.409764	described	0.0004871245
-4.233673	describes	0.007001544
-4.233673	deserve	0.03760621
-4.233673	design	0.005268722
-4.233673	designated	0.001672331
-3.865696	designed	0.009526635
-4.409764	designing	0.0009359901
-4.409764	desire	-9.655368e-05
-4.108734	desk	-0.0001374308
-4.409764	desks	0.03004785
-4.233673	dessert	-4.090025e-05
-4.409764	destination	0.001741724
-4.409764	destined	0.008026601
-4.233673	details	0.02997845
-4.409764	detective	0.005604494
-4.409764	detector	0.03004785
-4.409764	detergent	0.03004785
-4.108734	determine	0.0001519707
-4.409764	determined	0.003715714
-4.409764	detour	0.03004785
-4.409764	devastates	-9.655368e-05
-4.409764	devastating	0.03004785
-3.932643	device	0.00562346
-4.409764	devices	0.02236007
-4.409764	devise	0.007037229
-4.409764	devoted	0.008914649
-4.409764	dewlap	-0.0001219132
-4.233673	di	-0.000182853
-4.233673	diagram	0.02997845
-4.409764	dials	0.005604494
-4.409764	diamond	-0.0001219132
-4.409764	diary	0.0003263233
-4.409764	dibs	0.03004785
-4.409764	dictate	0.0009614117
-4.409764	dictates	0.003715714
-2.756552	did	0.1352835
-4.108734	die	0.03933445
-4.233673	died	0.030807
-4.233673	dies	0.008637761
-4.409764	diet	-0.0001219132
-4.409764	dietary	-0.0001219132
-4.409764	dietician	0.0009614117
-4.409764	difference	0.004321623
-3.669401	different	0.03223358
-4.108734	difficult	0.02112208
-4.409764	difficult-to-evict	-7.964649e-05
-4.108734	difficulty	0.02980646
-4.409764	dig	0.0009614117
-4.409764	digestive	-0.0001219132
-4.409764	dignify	0.003715714
-4.233673	dilemma	0.02997845
-4.409764	dim	0.02236007
-4.233673	dimensions	0.04337182
-4.233673	dine	0.001687806
-4.233673	dinfast	0.001755739
-4.409764	dining	0.0006987957
-3.669401	dinner	0.03290069
-4.409764	dipoles	0.002991443
-4.233673	direct	0.02226577
-4.011824	direction	0.0541909
-4.233673	directly	0.00292205
-4.409764	dirt	0.03004785
-4.108734	dirty	-0.000331922
-4.409764	disagree	0.03004785
-4.409764	disappears	-8.810018e-05
-4.233673	disappointed	0.0047468
-4.233673	disappointing	-0.0001339195
-4.108734	disaster	0.02990907
-4.233673	discount	0.02997845
-4.409764	discounts	0.003715714
-4.409764	discouraged	0.0004109479
-4.409764	discouraging	-5.428454e-05
-4.409764	discourteous	0.02236007
-4.108734	discovered	0.001226451
-4.409764	discoveries	0.0003009389
-4.233673	discs	0.02269332
-4.011824	discuss	0.005976746
-4.233673	discussed	0.001696297
-4.108734	discussing	0.02988496
-4.108734	discussion	0.008568379
-4.409764	discussions	0.001809643
-4.409764	disembodied	-0.0001134602
-4.233673	disengaged	0.0003415551
-4.011824	dishes	0.01355884
-4.409764	dishonest	0.02236007
-4.409764	displayed	0.008914649
-4.409764	disposable	-0.0001134602
-4.409764	disposal	0.03004785
-4.409764	disproved	0.00254045
-4.409764	disproves	-4.583019e-05
-4.409764	disregard	0.0003686334
-4.409764	distance	0.0004109479
-4.409764	distended	-0.0001134602
-4.409764	distinguished	-0.0001219132
-4.409764	distortion	0.02236007
-4.233673	distract	0.002912225
-4.233673	distracted	0.0004329619
-4.409764	distress	0.02236007
-4.233673	disturbing	0.02992715
-4.409764	diversity	0.008026601
-4.233673	divide	0.003893705
-4.409764	dividing	0.008914649
-4.409764	divorce	0.02236007
-4.409764	dizzy	0.03004785
-2.252912	do	0.1343997
-4.409764	do-do-do-do-do	-0.0001219132
-4.233673	doctor	0.0281728
-4.409764	doctoral	-0.0001134602
-4.233673	doctorates	0.02692015
-4.409764	documentary	0.0007919638
-2.947366	does	0.08905938
-4.108734	dog	0.03804883
-4.233673	dogapus	0.03087056
-4.011824	dogs	0.02233366
-3.263636	doing	0.07191422
-4.409764	doll	-5.428454e-05
-3.932643	dollar	0.03948767
-4.108734	dollars	0.06320013
-4.409764	domination	0.0004363386
-4.409764	domino	0.01240681
-3.409764	done	0.08533794
-4.011824	doomed	0.03947818
-3.631613	door	0.05124747
-4.409764	door-dings	0.002991443
-4.409764	double	-4.583019e-05
-4.409764	double-meaning	0.004560804
-4.409764	double-sixes	2.181035e-05
-4.409764	doubt	0.003715714
-4.409764	doughnuts	0.003715714
-4.409764	dove	0.02236007
-3.349066	down	0.09216817
-4.409764	downs	0.03004785
-4.233673	downstairs	0.02426462
-4.409764	draft	0.001809643
-4.409764	dragon	0.03004785
-4.409764	drama	0.02236007
-4.409764	dramas	0.002268377
-4.409764	dramatically	-0.0001219132
-4.233673	drank	0.0003144477
-4.233673	draw	0.008120395
-4.409764	drawer	0.03004785
-4.409764	drawing	0.0004617308
-4.233673	drawn	0.03077068
-4.233673	dream	0.004208424
-4.409764	dress	0.03004785
-4.233673	dressed	0.0006971595
-4.233673	dresses	0.02310345
-4.409764	drew	0.007037229
-4.409764	drill	0.003238412
-3.865696	drink	0.01696454
-4.409764	drinkin	0.01240681
-4.108734	drinking	-2.081302e-06
-4.409764	drinks	0.0001486648
-4.409764	drip	0.001801153
-3.596851	drive	0.08259625
-4.108734	driver	0.005319215
-4.409764	drives	0.002497927
-4.108734	driving	0.05401108
-4.409764	drool	0.03004785
-4.233673	drop	0.02551859
-4.409764	drove	0.001351392
-4.409764	drowning	-0.0001219132
-4.233673	drug	-0.0002438258
-4.108734	drunk	0.005010063
-4.233673	dry	0.02993621
-4.409764	dryad	0.02236007
-4.409764	dryer	-9.655368e-05
-4.409764	du	-0.0001219132
-4.409764	duchy	0.03004785
-4.409764	duck	0.03004785
-4.233673	due	0.02997246
-4.409764	duel	0.03004785
-4.108734	dumb	0.03191959
-4.409764	dumber	0.000233255
-4.409764	dumped	0.008155815
-4.409764	dumpling	0.03004785
-4.409764	durable	-0.0001219132
-3.807704	during	0.01087842
-4.409764	dust	0.02236007
-4.409764	duties	0.03004785
-4.409764	duty-free	-0.0001219132
-4.409764	dye	-0.0001219132
-4.233673	dying	0.02827208
-4.409764	e-commerce	-7.964649e-05
-4.409764	e-mail	-0.0001219132
-4.409764	e-mailed	0.008155815
-4.409764	e-mailing	0.0003178617
-4.409764	e-mails	0.01240681
-3.669401	each	0.00380635
-4.409764	ear	-0.000105007
-4.233673	earlier	0.02995434
-4.409764	early	-5.428454e-05
-4.409764	earnest	-9.655368e-05
-4.409764	ears	0.03004785
-4.233673	earth	0.0008665973
-4.409764	earthbound	0.001741724
-4.233673	earthquake	0.004199884
-4.233673	easily	0.008103161
-4.233673	easy	0.03866816
-3.596851	eat	0.05146062
-4.011824	eating	0.02989424
-4.233673	eats	-0.0001339195
-4.409764	echo	0.001801153
-4.409764	echoes	0.02236007
-4.409764	economy	0.02236007
-4.409764	ecstatic	-0.0001219132
-4.409764	ectoplasmic	-0.000105007
-4.108734	edge	0.03394926
-4.409764	edges	0.03004785
-4.409764	edifices	0.008026601
-4.409764	editing	0.03004785
-4.108734	edition	0.004744818
-4.409764	educated	0.02236007
-4.011824	eee	0.02215193
-4.233673	effective	-0.0001761945
-4.409764	effects	0.002991443
-4.108734	efficient	0.02264362
-4.011824	effort	0.03293307
-4.409764	effortless	0.03004785
-4.233673	efforts	0.01107767
-4.409764	effusive	-0.0001219132
-4.409764	egg	-0.0001134602
-4.409764	eggnog	0.007037229
-4.409764	eggplants	0.02236007
-4.108734	eggs	0.05748373
-4.409764	egomaniac	0.03004785
-4.108734	eidetic	-0.0002437815
-4.233673	eight	0.004199884
-4.409764	eighth	-8.810018e-05
-3.631613	either	0.06507755
-4.409764	elaborate	-0.0001219132
-4.409764	elderly	0.0009359901
-4.233673	elected	0.02993621
-4.233673	electric	-0.0002438258
-4.233673	electron	0.00292205
-4.233673	electrons	0.03866816
-4.233673	elegant	0.03108856
-3.932643	element	0.05911447
-4.409764	elements	0.01240681
-4.409764	elephant	0.005604494
-4.409764	elevated	0.004321623
-4.233673	eliminate	0.02223906
-4.409764	eliminated	0.03004785
-4.409764	eliminating	0.002991443
-4.409764	eloquently	0.0006818582
-3.506674	else	0.0621924
-4.409764	emasculate	0.007037229
-4.011824	embarrassing	0.03596571
-4.409764	embarrassment	0.001563485
-4.409764	emblazoned	0.001801153
-4.409764	embrace	0.004321623
-4.409764	emerged	-0.0001219132
-3.807704	emergency	0.02967114
-4.409764	emo	-0.0001219132
-4.011824	emotion	0.03077459
-4.108734	emotional	0.0002094868
-4.108734	emotions	0.03346099
-4.409764	employee	0.005510289
-4.409764	employees	0.02236007
-4.409764	employing	0.007037229
-4.409764	empty	-0.0001219132
-4.233673	emulating	-0.0001677398
-4.409764	enabling	0.007037229
-4.233673	enchanted	-0.0002015574
-4.409764	encompasses	0.008914649
-4.233673	encounter	0.02997845
-4.233673	encounters	0.01034079
-4.233673	encouraged	0.002428534
-4.409764	encourages	0.008914649
-3.596851	end	0.04435847
-4.409764	ending	0.000157123
-4.409764	endless	-0.0001219132
-4.409764	enemies	0.03004785
-4.011824	enemy	0.06027288
-3.932643	engage	0.002713939
-3.932643	engine	0.03077791
-4.233673	engineer	0.009276696
-4.409764	engineering	-1.201122e-05
-4.409764	engulfing	0.008914649
-4.409764	enhancement	0.004560804
-3.710794	enjoy	0.0433584
-4.233673	enjoyable	0.002707916
-4.409764	enjoyed	0.003715714
-4.409764	enjoying	0.0002247952
-4.409764	enjoys	0.008914649
-4.409764	enlargement	0.03004785
-3.506674	enough	0.04544342
-4.409764	ensconced	0.002991443
-4.409764	ensign	0.005510289
-4.233673	entered	0.009069372
-4.409764	entering	-6.273866e-05
-4.233673	enterprise	0.02224796
-4.409764	entertained	-4.583019e-05
-4.108734	entertainment	0.0001079214
-3.807704	entire	-0.0005996582
-4.108734	entirely	-0.0003065585
-4.409764	entities	0.004321623
-4.409764	entitled	0.008026601
-4.233673	entrance	0.03326548
-4.409764	entrepreneurial	-0.0001134602
-4.409764	entry	0.0007919638
-4.409764	enumerates	0.02236007
-4.233673	environment	0.05407326
-4.108734	envy	0.03115549
-4.409764	epiphany	0.03004785
-3.865696	episode	0.004383839
-4.409764	epistemic	-0.0001219132
-4.233673	equal	0.02997845
-4.409764	equally	-8.810018e-05
-4.108734	equals	-0.0003047541
-4.409764	equation	-0.0001219132
-4.409764	equilibrium	0.005604494
-4.409764	equipment	0.02236007
-4.409764	eraser	0.001741724
-4.409764	erogenous	-0.0001219132
-4.409764	escape	-0.0001219132
-4.409764	especially	0.0004363386
-4.409764	esprit	-0.0001219132
-4.409764	essence	0.004560804
-4.409764	essentially	0.007037229
-4.409764	essentials	0.03004785
-4.108734	establish	0.01526321
-4.233673	established	0.02158967
-4.409764	establishment	0.02236007
-4.409764	esteem	0.03004785
-4.409764	estrogen-mimicking	-0.0001219132
-4.409764	eternal	-0.0001219132
-4.409764	euphemisms	0.001741724
-4.409764	evacuate	0.001869082
-3.388575	even	0.02231965
-3.564666	evening	0.06795236
-4.409764	event	0.02236007
-4.409764	events	0.03004785
-4.409764	eventually	-4.583019e-05
-3.312854	ever	0.03361506
-3.631613	every	0.0002634255
-3.756552	everybody	0.03784927
-3.506674	everyone	0.04999948
-3.710794	everything	0.07836018
-4.011824	evidence	0.04049437
-4.409764	evident	0.0004617308
-4.233673	evil	0.02992715
-4.108734	evolved	0.002620165
-4.233673	exact	-0.0001677398
-3.756552	exactly	0.04233745
-4.409764	exam	0.02236007
-3.865696	example	0.05905638
-4.233673	examples	0.02272897
-4.409764	exams	0.03004785
-4.409764	exasperated	0.0007919638
-4.409764	exceedingly	-7.964649e-05
-4.409764	exceeds	-9.655368e-05
-4.011824	excellent	0.02978546
-4.409764	except	-0.0001219132
-4.409764	exceptions	0.03004785
-4.409764	exchange	0.004560804
-4.233673	excited	0.01374084
-4.409764	excusable	-0.0001134602
-3.631613	excuse	0.02636425
-4.233673	execution	0.02997845
-4.409764	exercise	0.02236007
-4.409764	exercising	0.0006818582
-4.409764	exhibition	0.004560804
-4.233673	exist	0.02997845
-4.233673	existed	0.0009327695
-4.233673	existence	0.0349489
-4.409764	existing	-0.0001219132
-4.409764	exists	0.008914649
-4.409764	exit	0.008914649
-4.409764	expand	0.000351709
-4.409764	expanded	-0.000105007
-4.233673	expect	0.009579223
-4.409764	expected	0.008026601
-4.108734	expecting	0.009457697
-4.409764	expedition	0.005510289
-4.409764	expel	-8.810018e-05
-4.409764	expensive	-0.0001219132
-4.108734	experience	0.04291534
-3.865696	experiment	0.0459589
-4.409764	experimentation	0.02236007
-4.409764	experiments	0.02236007
-4.108734	expert	0.03101918
-4.409764	expiration	-4.583019e-05
-3.710794	explain	0.04432791
-4.409764	explains	0.00254045
-4.409764	explode	0.0003770962
-4.409764	exploded	0.003963097
-4.409764	exploit	0.0001655814
-4.409764	exploration	-5.428454e-05
-4.409764	explore	0.008914649
-4.409764	exploring	0.008914649
-4.409764	explosion	0.0006818582
-4.409764	explosive	-0.0001219132
-4.233673	exposure	0.03866816
-4.233673	expressed	0.002588779
-4.233673	expression	0.0349489
-4.409764	expulsion	0.03004785
-4.409764	exsorbibo	0.03004785
-4.409764	extended	0.007037229
-4.409764	extends	-9.655368e-05
-4.409764	extension	0.004560804
-4.409764	extinction	0.03004785
-4.409764	extorted	0.0009953092
-3.756552	extra	-0.0004338157
-4.233673	extract	0.02132308
-4.409764	extras	-5.428454e-05
-4.409764	extreme	-0.0001219132
-4.011824	extremely	-0.0003777341
-4.108734	eye	0.006192796
-4.409764	eyeball	0.03004785
-3.669401	eyes	0.05872748
-3.455522	face	0.05790813
-4.233673	faces	0.008845257
-4.233673	facial	-0.0002353724
-4.409764	facilities	0.0009614117
-4.409764	facing	-0.000105007
-4.409764	facsimile	-8.810018e-05
-3.631613	fact	0.06793232
-4.409764	factor	0.004560804
-4.409764	factory	0.002991443
-4.233673	facts	0.03880687
-4.409764	faculty	0.008026601
-4.409764	faeces	0.0006987957
-4.233673	fail	0.007957208
-4.409764	failed	0.03004785
-4.233673	fails	0.0006446744
-4.011824	failure	0.03481015
-4.409764	failures	0.002991443
-4.011824	fair	0.05398004
-4.011824	fairly	-0.0004369225
-4.409764	faith	0.002991443
-4.233673	fallen	-0.0002269189
-4.233673	falling	0.004815213
-4.409764	fallopian	-0.0001219132
-3.807704	familiar	0.007084733
-3.932643	family	0.03303169
-4.409764	famous	-8.810018e-05
-3.932643	fan	0.004239508
-4.233673	fancy	0.02997845
-4.409764	fandom	0.03004785
-4.409764	fans	0.02236007
-3.756552	far	0.02620172
-4.409764	farther	0.0007919638
-4.409764	fast	0.03004785
-4.409764	fastened	0.00254045
-4.409764	faster	0.000233255
-4.233673	fat	0.02995434
-3.865696	father	0.006833889
-3.865696	fault	0.06797223
-4.409764	favorite	-0.0001219132
-4.233673	favour	0.02997845
-3.932643	favourite	0.02966477
-4.233673	favourites	0.02992715
-4.233673	fear	0.02997845
-4.409764	feast	0.001809643
-4.409764	feed	0.008914649
-3.368371	feel	0.0612627
-4.409764	feel-good	-0.0001219132
-3.807704	feeling	0.04459796
-3.865696	feelings	0.06525736
-4.409764	feels	0.0007919638
-4.011824	feet	0.01787668
-4.409764	feldspar	-0.0001219132
-4.409764	fell	0.002991443
-4.409764	fella	0.0009953092
-4.409764	fellow	0.001809643
-4.108734	felt	0.008749604
-4.108734	female	-0.0003234677
-4.409764	feminine	-0.0001134602
-4.409764	fences	0.02236007
-4.409764	fertiliziation	0.03004785
-4.233673	fetch	0.00431092
-4.409764	fever	0.02236007
-3.807704	few	0.002747661
-4.409764	fibre	-2.892101e-05
-4.233673	fiction	0.02223906
-4.409764	fictional	-0.0001219132
-4.409764	fidelity	0.03004785
-3.865696	field	0.004255619
-4.409764	fiery	-0.0001219132
-4.233673	fifth	0.007913622
-4.409764	fifty	-0.000105007
-4.011824	fight	0.03461627
-4.011824	fighting	0.02678395
-4.409764	figuratively	0.004321623
-3.710794	figure	0.0606034
-4.108734	figured	0.0005600211
-4.409764	figurine	-0.0001134602
-4.409764	file	0.007037229
-4.108734	filled	0.00214376
-4.409764	filling	0.002991443
-4.409764	film	0.02236007
-4.108734	final	-0.0002896487
-4.409764	finale	0.03004785
-4.409764	finalize	0.0004701953
-4.011824	finally	0.02237112
-4.409764	finances	0.03004785
-3.233673	find	0.0303911
-4.108734	finding	0.007680613
-3.564666	fine	0.0542172
-4.233673	finger	0.006151426
-3.807704	fingers	0.06612387
-4.108734	finish	0.0309134
-4.011824	finished	0.03188095
-4.409764	fins	8.946138e-05
-4.011824	fire	0.03446048
-4.409764	fired	0.0004617308
-4.409764	firm	0.03004785
-3.142592	first	0.06512882
-4.409764	fish	0.004321623
-4.409764	fits	0.03004785
-3.807704	five	0.02935994
-4.409764	five-week	-0.000105007
-4.409764	fix	0.001351392
-4.409764	fixate	0.001809643
-4.409764	fixated	0.001809643
-4.233673	fixing	0.002537731
-4.233673	fizz	0.02229068
-3.710794	flag	0.06553081
-4.409764	flag-keteers	0.02236007
-4.409764	flag-related	-8.810018e-05
-4.409764	flagpole	0.004321623
-3.932643	flags	0.05912573
-4.409764	flames	0.03004785
-4.409764	flaming	-9.655368e-05
-4.409764	flash	-2.892101e-05
-4.409764	flashback	-2.046622e-05
-4.409764	flashlight	0.03004785
-4.409764	flat	-0.0001219132
-4.409764	flatulent	0.001741724
-4.409764	flatware	0.001809643
-4.409764	flavour	0.0003009389
-4.409764	flavourless	-0.0001134602
-4.409764	flermin	0.000351709
-4.233673	flies	0.02224796
-4.409764	flings	0.00254045
-4.409764	flip	-6.273866e-05
-4.409764	flippin	-0.0001219132
-4.409764	flirting	0.02236007
-4.409764	floated	4.899193e-06
-4.409764	floating	0.002991443
-4.011824	floor	0.004503368
-4.409764	floor-level	0.02236007
-4.409764	flossing	0.02236007
-4.409764	flow	0.001801153
-4.409764	flower	0.002991443
-4.409764	flowers	0.004321623
-4.409764	fluctuation	0.002991443
-4.409764	fluid	0.0002840169
-4.233673	flush	0.009242136
-4.233673	fly	0.03880687
-4.409764	flying	0.02236007
-4.233673	focus	0.02997845
-4.409764	fodder	0.0006649211
-4.409764	fold	-8.810018e-05
-4.409764	folk	0.02236007
-4.409764	follicle-stimulating	-0.000105007
-4.108734	follow	0.03087706
-4.011824	followed	0.0393902
-4.409764	following	0.0004871245
-4.409764	fondest	-3.737568e-05
-3.631613	food	0.07960091
-4.233673	foods	0.001679315
-4.233673	fool	0.02997845
-4.409764	fooling	0.002497927
-4.233673	foolish	0.03000871
-4.409764	foot	-0.0001219132
-4.108734	football	0.02987589
-4.409764	footnote	0.02236007
-2.364441	for	0.1295834
-4.108734	force	0.02670934
-4.011824	forced	0.03345012
-4.233673	forces	0.002428534
-4.233673	forcing	0.002520716
-4.409764	forearm	0.02236007
-4.409764	forego	0.008914649
-4.409764	foreigners	3.872211e-05
-4.233673	foreseeable	-0.000157493
-3.932643	forever	0.03160791
-4.409764	forfeit	0.008026601
-4.409764	forged	0.002991443
-4.409764	forget	0.000351709
-4.233673	forgive	0.01070474
-4.409764	forgiveness	0.03004785
-4.409764	forgotten	0.02236007
-4.011824	form	0.01148595
-4.409764	formally	-9.655368e-05
-4.409764	former	-0.0001219132
-4.409764	forms	0.004560804
-4.409764	formula	0.001741724
-4.409764	fornicating	0.0009953092
-4.108734	fort	0.03024164
-4.409764	forth	0.001809643
-4.409764	fortified	-9.655368e-05
-4.409764	forts	0.002991443
-4.409764	fortuitous	0.0003094003
-4.233673	forward	0.01061806
-3.932643	found	0.01472281
-4.409764	foundation	0.001741724
-4.409764	founder	0.03004785
-4.011824	fountain	0.05511219
-3.807704	four	0.02946568
-4.409764	four-eyes	0.03004785
-4.409764	four-letter	-4.583019e-05
-4.409764	fourteen	0.03004785
-4.409764	fourth	-0.000105007
-4.409764	foxy	-5.428454e-05
-4.409764	franchise	0.02236007
-4.409764	frankfurter	-0.000105007
-4.108734	frankly	0.0222213
-4.011824	fraud	0.05508337
-4.409764	freak	0.03004785
-4.011824	free	0.007765207
-4.409764	freed	0.008914649
-4.409764	freedom	0.03004785
-4.409764	freeze	0.03004785
-4.409764	freezer	0.03004785
-4.409764	frenzy	0.02236007
-4.409764	frequency	0.001801153
-4.409764	frequent	-0.0001134602
-3.455522	friend	0.07424331
-4.233673	friendly	0.001153206
-3.43204	friends	0.06574591
-4.108734	friendship	0.02419524
-4.409764	friggety-frak	0.03004785
-4.409764	fright	-9.655368e-05
-4.233673	frightened	0.05407326
-4.409764	frightening	0.03004785
-2.897881	from	0.02544121
-3.932643	front	0.0042833
-4.233673	frozen	-0.0002353724
-4.233673	fruit	0.05407326
-4.409764	frustrated	0.03004785
-4.233673	fuel	0.0002213522
-3.932643	full	0.004195707
-4.409764	full-time	-8.810018e-05
-4.409764	fultoni	0.02236007
-3.506674	fun	0.06262732
-4.409764	fun-loving	-8.810018e-05
-4.233673	function	0.003593952
-4.409764	functional	0.004321623
-4.409764	functions	0.03004785
-4.233673	funeral	0.03606869
-4.011824	funny	0.04075458
-4.233673	fur	0.05407326
-4.409764	furnishing	0.002268377
-4.409764	furniture	0.03004785
-4.409764	fusion	0.02236007
-3.932643	future	0.06011322
-4.409764	gag	-4.583019e-05
-4.409764	gain	0.002991443
-4.409764	gal	-0.0001219132
-4.409764	galactic	-6.273866e-05
-4.409764	galaxies	0.03004785
-4.409764	galaxy	0.03004785
-4.409764	gambol	0.0007919638
-3.534703	game	0.08287849
-4.409764	games	0.03004785
-4.409764	gamma	-0.0001219132
-4.409764	gap	0.02236007
-4.233673	garage	0.02992715
-4.233673	garden	0.03008122
-4.409764	gargling	-0.0001134602
-3.865696	gas	0.03693106
-4.108734	gate	0.03599931
-4.409764	gathering	9.791851e-05
-4.233673	gauge	-0.0002353724
-3.865696	gave	0.007626499
-4.233673	gaze	5.213908e-05
-4.409764	gelato	0.001801153
-4.233673	general	0.002163558
-4.233673	generally	0.002180559
-4.409764	generate	-7.964649e-05
-4.409764	generations	0.03004785
-4.409764	generic	0.03004785
-3.932643	genetic	-0.0004996408
-4.108734	genitals	0.02990907
-3.932643	genius	0.03220119
-4.409764	geniuses	0.004321623
-4.409764	genre	-0.000105007
-4.108734	gentlemen	0.05400388
-4.409764	genuine	0.0003009389
-4.409764	geode-loving	-0.0001219132
-4.409764	geographic	-0.0001134602
-4.409764	geologist	0.005604494
-4.409764	geology	-2.892101e-05
-4.409764	geometric	-0.0001219132
-4.233673	geometry	0.006735165
-4.409764	geriatric	-7.119269e-05
-4.409764	germ	-0.0001134602
-4.409764	gesture	0.03004785
-2.724022	get	0.06589534
-3.480345	gets	0.07727413
-3.43204	getting	0.02419519
-4.409764	giant	-0.0001219132
-3.669401	gift	0.0673379
-4.233673	girl	0.007345499
-3.455522	girlfriend	0.07421114
-4.409764	girlfriends	-0.0001134602
-4.108734	girls	0.03101918
-3.388575	give	0.03954693
-3.807704	given	0.0166487
-4.233673	gives	0.01070474
-4.011824	giving	0.002355064
-4.108734	glad	0.016272
-4.409764	gladiator	-0.0001219132
-4.409764	glamorous	-8.810018e-05
-4.409764	glancing	0.002991443
-4.108734	glass	0.05400388
-4.409764	glasses	0.02236007
-4.409764	glassware	-0.0001219132
-4.409764	global	-0.0001219132
-4.409764	glove	0.02236007
-4.409764	glove-slapping	0.03004785
-4.233673	gloves	0.0354442
-4.409764	glucosinolates	0.0002840169
-2.761404	go	0.08016067
-4.409764	goal	0.005604494
-4.233673	goat	0.03082516
-4.409764	gobble	3.872211e-05
-4.409764	god	-0.0001219132
-4.409764	gods	0.03004785
-4.108734	goes	0.01727533
-2.693761	going	0.05496488
-4.011824	gold	0.03152019
-4.409764	goldfish	0.005604494
-4.233673	golf	-0.0001743998
-4.233673	golly	0.02229068
-3.409764	gon	-0.001208654
-3.631613	gone	0.05671104
-2.939942	good	0.07433715
-4.409764	good-bye	0.005604494
-4.409764	good-natured	-0.0001219132
-4.409764	goodness	-0.0001219132
-4.233673	goods	0.03038953
-4.233673	goody	0.02225686
-4.409764	goofing	8.946138e-05
-4.409764	goofy	-0.0001134602
-4.409764	goose	0.03004785
-4.409764	gosh	0.02236007
-3.131011	got	0.05416711
-4.011824	gotten	0.03014818
-4.409764	gowns	0.02236007
-4.409764	grab	0.007037229
-4.233673	grade	0.02717219
-4.409764	graduate	-0.000105007
-4.409764	graduating	0.0004109479
-4.409764	grand	-0.0001134602
-4.409764	grant	0.001563485
-4.409764	grapefruit	0.03004785
-4.409764	grasp	0.004560804
-4.409764	grateful	0.001741724
-4.409764	gratify	0.008026601
-4.233673	gratitude	0.03404234
-4.108734	gravity	0.02744776
-4.409764	gray	-0.0001219132
-4.409764	grease	0.005604494
-3.506674	great	0.03940354
-4.409764	great-great-great-grandmother	0.005510289
-4.233673	greatest	-4.090022e-05
-4.409764	green	0.003238412
-4.409764	green-eyed	-8.810018e-05
-4.409764	greeting	0.03004785
-4.409764	grew	0.0004617308
-4.409764	grey	0.03004785
-4.233673	grilled	-0.000182853
-4.233673	grocery	0.004242587
-4.409764	ground	0.02236007
-3.932643	group	0.03291489
-4.409764	grovelling	0.008026601
-4.233673	grow	-0.00015083
-4.233673	growing	0.003457521
-4.108734	grown	-7.645175e-05
-4.409764	grows	0.0006987957
-4.409764	grumpy	0.0007919638
-4.409764	grunt	-0.0001134602
-4.233673	guarantee	0.01194619
-4.409764	guaranteed	-9.655368e-05
-4.409764	guardians	0.004560804
-3.596851	guess	0.05468344
-4.233673	guessing	0.03004497
-4.233673	guest	0.02223906
-4.409764	guilty	0.03004785
-4.409764	guitars	0.03004785
-4.409764	gullibility	0.004560804
-4.409764	gullible	0.004321623
-4.409764	gum	0.03004785
-4.409764	gums	0.03004785
-4.233673	gun	0.03090689
-4.409764	gunny	-0.0001134602
-4.409764	guttural	-0.0001219132
