
\data\
ngram 1=2992
ngram 2=11314

\1-grams:
-2.666027	!	0.04385305
-4.150327	%	-0.0002596772
-4.150327	&	-0.0002443146
-2.883155	'	0.113928
-3.974235	'Cause	0.0120752
-4.150327	'Penny	-0.0001367608
-3.673205	'cause	0.04261748
-4.150327	'cos	0.01010985
-2.817888	'd	0.02817458
-3.974235	'em	0.03455142
-4.150327	'hey	0.02499427
-4.150327	'it	0.0002321975
-2.645177	'll	-0.0007444657
-2.252699	'm	0.03430079
-2.275265	're	0.009098526
-1.788599	's	0.098264
-2.883155	've	-0.00330869
-1.247508	,	-0.0001980662
-1.141939	.	-0.1621067
-4.150327	100	-0.0002596772
-4.150327	11	-0.0002596772
-4.150327	12	-0.0002443146
-4.150327	13	0.001433481
-4.150327	1619	0.03221817
-4.150327	1930	0.006833911
-4.150327	1969	0.02499427
-3.974235	2	0.02501334
-4.150327	2,000-year-old	-0.0002596772
-4.150327	2.6	0.001464327
-4.150327	20	-0.0001367608
-4.150327	20-channel	-0.0002596772
-4.150327	200	-0.0002289514
-4.150327	29	-0.0001367608
-4.150327	3-D	0.009465247
-3.974235	30	-0.0004117947
-4.150327	360	0.02499427
-4.150327	6:30	0.03221817
-4.150327	7	-0.0002596772
-4.150327	7-Eleven	0.02499427
-4.150327	8	-0.0002596772
-4.150327	9,000	-0.0002596772
-4.150327	90	-0.0002289514
-4.150327	911	0.03221817
-4.150327	94	-0.0002289514
-3.172603	:	0.01759211
-4.150327	<	-0.0002596772
-1.167829	</s>
-99	<s>	-0.1980764
-1.653397	?	-0.02227083
-3.337413	A	-0.001608253
-4.150327	Aagh	0.0006476506
-4.150327	Aah	0.0006476506
-3.974235	Abort	0.000502523
-4.150327	About	-0.0001213938
-4.150327	According	0.006990091
-3.849297	Actually	0.02470406
-4.150327	Afraid	0.0004783437
-4.150327	Afrin	0.03221817
-3.974235	After	0.002982233
-4.150327	Again	0.02499427
-4.150327	Agency	0.009465247
-4.150327	Agreed	0.02499427
-3.548267	Ah	0.05972632
-4.150327	Air	-0.0002596772
-4.150327	Alabama	-4.45506e-05
-4.150327	Alba	0.001109732
-3.974235	Alex	0.0592408
-4.150327	Alien	0.003071339
-3.337413	All	0.00902518
-4.150327	Almost	-0.0002596772
-4.150327	Alright	0.03221817
-3.974235	Although	0.02574718
-4.150327	Alvin	0.003071339
-4.150327	Always	-9.065811e-05
-4.150327	Alzheimer	0.006833911
-3.974235	Am	0.01215721
-4.150327	Amazon	0.03221817
-3.337413	Amy	0.06349206
-4.150327	An	-0.0002596772
-2.838573	And	0.08381645
-4.150327	Angeles	-0.0002596772
-4.150327	Animals	0.003536008
-4.150327	Aniston	-0.0001367608
-3.974235	Another	-0.0004886243
-3.974235	Any	-0.0005193523
-4.150327	Anybody	0.0004321806
-3.606258	Anyway	0.02426911
-4.150327	Ape-ist	-0.0002443146
-4.150327	Apollo	-0.0002596772
-4.150327	Apparently	-0.0001060262
-4.150327	Apple	-0.0002596772
-4.150327	Archimedes	0.03221817
-3.220908	Are	0.01320532
-4.150327	Ark	0.03221817
-3.974235	Armenian	0.02473643
-4.150327	Around	-0.0002289514
-4.150327	Arrow	0.03221817
-4.150327	Arthur	-0.0001060262
-4.150327	Ask	0.0005706848
-4.150327	At	-0.0002135877
-4.150327	Attaboy	0.02499427
-4.150327	Aunt	-0.0002596772
-3.974235	Auto	0.02480157
-3.974235	Aw	0.03207305
-4.150327	Awesome	0.0006476506
-4.150327	Baby	0.03221817
-3.974235	Back	0.001930335
-4.150327	Bam	0.03221817
-4.150327	Barnett	0.002344356
-3.974235	Batman	0.025584
-4.150327	Be	-0.0002596772
-4.150327	Beats	0.00608502
-4.150327	Beauty	0.02499427
-3.497114	Because	0.02780273
-4.150327	Before	0.01230234
-4.150327	Benjamin	-0.0002443146
-3.409964	Bernadette	0.0776552
-3.974235	Bert	0.03505137
-4.150327	Besides	0.02499427
-4.150327	Blossom	0.006990091
-4.150327	Blu-ray	-0.0002596772
-4.150327	Booting	0.03221817
-4.150327	Borrowed	0.009465247
-4.150327	Bowl	-0.0002596772
-3.974235	Boy	0.02484914
-4.150327	Brewbacca	0.006833911
-4.150327	Bring	0.005586474
-3.849297	Buddy	0.03490629
-4.150327	Buffy	0.00608502
-4.150327	Building	-0.0002596772
-4.150327	Bullock	-0.0001367608
-3.036383	But	0.06428511
-4.150327	Butterfinger	0.03221817
-4.150327	By	0.00608502
-3.752387	Bye	0.03178294
-4.150327	Bye-bye	0.03221817
-4.150327	CERN	-0.0002596772
-4.150327	Ca	0.004171859
-4.150327	Calling	-0.0002596772
-3.548267	Can	0.02486062
-4.150327	Cavalry	0.003071339
-4.150327	Celebrate	0.001094321
-4.150327	Cello	-0.0002596772
-4.150327	Center	0.03221817
-4.150327	Chancellor	0.006833911
-4.150327	Channel	0.03221817
-4.150327	Cheers	0.03221817
-4.150327	Chewbacca	-0.0002596772
-4.150327	Chicken	0.03221817
-4.150327	Chinese	-0.0001521272
-4.150327	Chipmunks	0.03221817
-4.150327	Christmases	0.000262958
-4.150327	Chuckle	-0.0002596772
-3.974235	City	0.02488301
-4.150327	Clark	-0.0002596772
-4.150327	Clearly	0.02499427
-4.150327	Coast	0.03221817
-4.150327	Colossus	0.02499427
-2.988959	Come	0.000383446
-4.150327	Comforting	0.01010985
-4.150327	Comic	-0.0002596772
-4.150327	Coming	0.03221817
-4.150327	Computer	0.03221817
-4.150327	Context	0.03221817
-3.548267	Cooper	0.0698204
-4.150327	Cos	0.00440472
-4.150327	Costco	1.561799e-06
-4.150327	Counterpoint	0.02499427
-4.150327	County	-0.0002596772
-4.150327	Court	0.009465247
-3.974235	Crockett	0.03373606
-4.150327	Cuddles	0.009465247
-4.150327	Cut	0.006990091
-4.150327	Cylon	-0.0002596772
-3.974235	D	0.02473643
-4.150327	DMV	0.02499427
-3.974235	DVD	0.03826478
-3.752387	Damn	0.03790242
-3.974235	Darth	-0.0003894421
-4.150327	Darwin	0.006833911
-4.150327	Davy	-0.0002443146
-3.974235	Day	0.02659672
-3.849297	Dear	-0.0006337035
-4.150327	Delhi	0.002560777
-4.150327	Demon	-0.0002289514
-3.974235	Dennis	0.0592408
-3.220908	Did	0.02941288
-4.150327	Disney	-0.0002596772
-4.150327	Disneyland	0.009465247
-4.150327	Dissertation	0.00257624
-3.004199	Do	0.0206878
-4.150327	Doctor	-9.065811e-05
-3.673205	Does	0.01191628
-4.150327	Doing	0.00440472
-4.150327	Done	0.003071339
-4.150327	Double	-0.0002596772
-3.497114	Dr.	0.000454554
-4.150327	Drug	-0.0002596772
-4.150327	Duh-duh-duh-duh-duh-duh	0.03221817
-4.150327	Dune	0.03221817
-4.150327	During	0.00608502
-4.150327	Earl	-0.0002596772
-3.974235	Earth	0.03505137
-4.150327	East	-0.0002596772
-4.150327	Edna	0.002344356
-4.150327	Einstein	0.02499427
-3.974235	Elizabeth	0.00932012
-4.150327	Ellison	0.02499427
-3.849297	Emily	0.03946568
-4.150327	Emotionally	0.001001869
-4.150327	En	-0.0002596772
-4.150327	Enforcement	-0.0002596772
-4.150327	English	-0.0002596772
-4.150327	Etruscan	-0.0001982234
-3.974235	Even	0.01209101
-4.150327	Every	3.23061e-05
-4.150327	Everyday	0.003071339
-4.150327	Everyone	0.006833911
-3.849297	Everything	0.01716362
-3.673205	Exactly	0.0588057
-3.849297	Except	0.006237493
-3.409964	Excuse	0.0003759032
-4.150327	Extraterrestrial	-0.0002596772
-4.150327	FYI	0.02499427
-4.150327	Face	0.00440472
-4.150327	Facebook	-0.0001060262
-4.150327	Fantastic	-0.0002596772
-4.150327	Father	-0.0002596772
-4.150327	Federation	0.003071339
-4.150327	Feynman	0.001387216
-3.673205	Fine	0.0588057
-4.150327	Finkleday	0.02499427
-4.150327	Fiona	-0.0002596772
-3.849297	First	0.01259214
-4.150327	Five	-0.0002289514
-4.150327	Fondell	0.0001399284
-4.150327	Food	0.006833911
-3.752387	For	0.006478321
-4.150327	Force	0.02499427
-4.150327	Foreplay	0.009465247
-4.150327	Forget	0.00440472
-4.150327	Forty	-0.0002289514
-4.150327	Four	0.02499427
-4.150327	Fourteen	-0.0001521272
-3.974235	Franklin	0.02473643
-4.150327	French	-0.0002596772
-3.974235	Friday	0.02484914
-4.150327	Frisbee	0.02499427
-4.150327	Funny	0.000262958
-3.974235	G	0.02473643
-4.150327	GPS	0.03221817
-4.150327	Galapagos	-0.0002596772
-4.150327	Gap	0.03221817
-4.150327	Gargamel	0.0001399284
-4.150327	Gatorade	-0.0001674932
-4.150327	Gee	0.02499427
-4.150327	Geez	0.02499427
-4.150327	General	-0.0002596772
-4.150327	Genius	0.0003398691
-4.150327	Gepetto	0.02499427
-4.150327	German	-0.0002443146
-4.150327	Ginny	0.0007554253
-4.150327	Girl	0.002344356
-4.150327	Giselle	7.84267e-05
-3.849297	Give	0.001390103
-4.150327	Glaringly	-0.0002596772
-4.150327	Glass	-0.0002596772
-4.150327	Glendale	-0.0002596772
-4.150327	Glowing	-0.0002596772
-3.606258	Go	0.003165967
-4.150327	Go-Go-Go-Go	0.0006476506
-3.247236	God	0.06822803
-4.150327	Gods	0.009465247
-4.150327	Godzilla	0.006990091
-4.150327	Golden	-0.0002443146
-4.150327	Goldfarb	-0.0002596772
-3.372175	Good	0.05991913
-4.150327	Goodnight	0.03221817
-4.150327	Google	-0.0002443146
-3.849297	Got	0.009910433
-4.150327	Gotham	-0.0002443146
-3.974235	Grand	-0.0003894421
-3.372175	Great	0.0578444
-4.150327	Green	-0.0002443146
-4.150327	Guaranteed	0.006990091
-3.974235	Guys	0.02484914
-4.150327	Ha	0.02499427
-4.150327	Had	0.006990091
-4.150327	Halo	0.03221817
-4.150327	Hammer	0.00257624
-4.150327	Hand	0.02499427
-3.974235	Hang	0.001998364
-4.150327	Happily	-0.0001828585
-4.150327	Hard	0.000262958
-4.150327	Harlan	-0.0002596772
-4.150327	Haroun	0.003071339
-3.974235	Harry	0.0028119
-3.849297	Have	0.01424535
-3.752387	Hawking	0.03931651
-2.895054	He	0.009474224
-4.150327	Heimlich	0.0005706848
-3.673205	Hello	0.06987552
-3.673205	Here	0.05636442
-4.150327	Heroes	0.02499427
-2.718963	Hey	0.05191624
-3.497114	Hi	0.05837105
-4.150327	Hiking	0.03221817
-3.974235	His	-0.0001896782
-3.372175	Hmm	0.06900664
-3.974235	Hobbit	0.03209336
-3.752387	Hofstadter	0.05895068
-3.849297	Hold	0.001853284
-4.150327	Holy	-0.0002443146
-4.150327	Homeland	-0.0002596772
-4.150327	Honestly	0.02499427
-4.150327	Hook	0.003164232
-2.849297	How	0.02748451
-2.959995	Howard	0.1005894
-4.150327	Howard'	0.03026903
-4.150327	Hufflepuff	0.02499427
-3.606258	Huh	0.0702551
-4.150327	Hulk	0.03221817
-4.150327	Huntsville	0.02499427
-4.150327	Hut	0.03221817
-4.150327	Hysterical	0.0006476506
-1.543945	I	0.03179976
-3.849297	I'	0.02997882
-4.150327	I'm-I	0.002143491
-4.150327	IQ	0.00257624
-3.129137	If	0.04015364
-4.150327	Ignore	0.0005706848
-4.150327	Illinois	-0.0002596772
-4.150327	Imperial	-0.0002596772
-3.606258	In	0.00724412
-3.849297	India	0.03192797
-3.974235	Indian	-0.0002888392
-4.150327	Innovative	0.03221817
-4.150327	Intellectually	0.001001869
-4.150327	Intelligence	0.03221817
-3.849297	Interesting	0.03192797
-4.150327	Invisible	-0.0002596772
-4.150327	Iron	-0.0002443146
-3.172603	Is	0.02097952
-4.150327	Islands	0.009465247
-2.482874	It	0.02688015
-4.150327	J	0.0002783391
-4.150327	Jackson	0.03221817
-4.150327	Jamba	-0.0002596772
-4.150327	James	-0.0002596772
-4.150327	Japanese	1.561799e-06
-4.150327	Jeffries	0.02499427
-4.150327	Jennifer	-0.0002596772
-4.150327	Jersey	0.000693836
-4.150327	Jessica	-0.0002596772
-4.150327	Jet	-0.0002596772
-4.150327	Jews	0.03221817
-3.974235	Jim	0.04245095
-4.150327	Jiminy	-0.0002443146
-4.150327	Jobs	-0.0002135877
-4.150327	Jones	0.003071339
-4.150327	Joyce	0.02499427
-4.150327	Juice	0.03221817
-3.275265	Just	0.03913907
-4.150327	Justin	0.0005399024
-4.150327	Karaoke	0.001850085
-4.150327	Kazakhstan	0.03221817
-4.150327	Keep	0.0007554253
-4.150327	Kidnap	-0.0001213938
-4.150327	Kill	0.03221817
-4.150327	Killer	-0.0002443146
-4.150327	Kind	0.00257624
-4.150327	Kindle	-0.0002289514
-3.974235	Kites	0.02484914
-4.150327	Knight	-0.0002596772
-3.752387	Koothrappali	0.01708264
-4.150327	Koreatown	0.03221817
-3.974235	Kripke	0.03207305
-4.150327	Kudos	0.03221817
-4.150327	Kung	-0.0002596772
-3.974235	Kurt	0.04245095
-3.974235	LA	0.01518616
-4.150327	Lactose	0.03221817
-4.150327	Lalita	0.009465247
-3.974235	Lantern	0.03961076
-4.150327	Last	0.0004321806
-4.150327	Latham	0.02499427
-4.150327	Laxative	0.03221817
-4.150327	Lay	0.00440472
-4.150327	League	-0.0001213938
-4.150327	Leakey	0.03221817
-4.150327	Leo	0.03221817
-3.372175	Leonard	0.04119565
-4.150327	Lesley	0.02499427
-3.497114	Leslie	0.07758962
-3.372175	Let	0.00724292
-3.849297	Like	0.01871962
-4.150327	Limits	-0.0002596772
-4.150327	List	0.002344356
-3.849297	Listen	0.02470406
-3.974235	Little	-0.0004578941
-3.305228	Look	0.05764759
-4.150327	Los	-0.0002596772
-4.150327	Lost	-0.0002596772
-3.974235	Love	0.03242471
-4.150327	Lucas	0.006833911
-4.150327	Luckily	0.02499427
-4.150327	Lucky	-0.0002596772
-4.150327	Lysine	0.0007862232
-4.150327	Magneto	0.03221817
-3.974235	Man	-0.0005039886
-4.150327	Mandy	0.03221817
-4.150327	Manhattan	-0.0002596772
-4.150327	Mark	0.009465247
-4.150327	Martha	-0.0002596772
-3.974235	Mary	0.0592408
-4.150327	Maxwell	0.02499427
-3.337413	Maybe	0.04396284
-4.150327	Me	-0.0002596772
-4.150327	Me-wow	0.03221817
-4.150327	Mimesis	0.009465247
-4.150327	Mine	0.02499427
-3.849297	Missy	0.05909572
-4.150327	Mitzy	0.006833911
-3.673205	Mm	0.02441405
-3.849297	Mm-hmm	0.05909572
-4.150327	Mmm	0.02499427
-4.150327	Mmmm	0.02499427
-3.752387	Mom	0.0700205
-3.974235	Monday	-0.0003810591
-3.974235	Monkey	-0.0004732595
-4.150327	Monopoly	-0.0001060262
-4.150327	Monty	-0.0002596772
-3.752387	Morning	0.06466494
-4.150327	Morse	-0.0002596772
-4.150327	Mr	0.03221817
-3.849297	Mr.	-0.0007790256
-3.849297	Mrs.	-0.0006868285
-4.150327	Mumbai	-0.0002596772
-4.150327	Mummies	0.00117138
-3.372175	My	-0.001741035
-4.150327	My-my	-0.0001367608
-4.150327	NASA	-0.0001982234
-3.974235	Nary	0.009803712
-4.150327	Neutral	-0.0002596772
-3.974235	Never	3.319874e-06
-3.673205	New	-0.001190785
-3.849297	Next	0.002831245
-3.974235	Nice	0.006762179
-4.150327	Night	0.03221817
-2.455721	No	0.04611046
-4.150327	No-no-no	0.0006476506
-4.150327	Nobel	-0.0002596772
-3.974235	Nobody	0.006688784
-4.150327	None	0.00257624
-3.673205	Nope	0.0588057
-3.974235	North	-0.0005193523
-3.129137	Not	0.02148078
-3.752387	Nothing	0.06269832
-3.451357	Now	0.05133944
-4.150327	Nurse	0.006833911
-4.150327	Nuys	0.03221817
-4.150327	Obviously	0.02499427
-3.409964	Of	-0.001555706
-2.330783	Oh	0.04397679
-2.779259	Okay	0.05324717
-4.150327	Okay-dokay	0.03221817
-3.606258	On	0.006903704
-3.752387	Once	0.01200656
-4.150327	One	0.00257624
-3.974235	Ooh	0.02484914
-3.673205	Or	0.03328066
-3.974235	Orcs	0.001822196
-3.849297	Our	-0.00045625
-4.150327	Out-Of-The	0.009465247
-4.150327	Outer	-0.0002596772
-4.150327	Over	-0.0002596772
-3.974235	Ow	0.000502523
-4.150327	PS3	0.001495175
-4.150327	Palace	0.03221817
-4.150327	Palo	-0.0002596772
-4.150327	Pasadena	0.03221817
-4.150327	Pay	0.00608502
-2.673205	Penny	0.09492591
-4.150327	Penny'	0.03026903
-3.849297	People	0.003823919
-4.150327	Perfect	-0.0002443146
-3.974235	Peter	-0.0005193523
-4.150327	Pfff	0.02499427
-4.150327	Physics	-0.0002596772
-4.150327	Pie	0.03221817
-4.150327	Pizza	-0.0002596772
-4.150327	PlayStation	-0.0002443146
-3.673205	Please	0.02918693
-4.150327	Plus	0.02499427
-4.150327	Pole	0.009465247
-4.150327	Potter	0.03221817
-4.150327	Preach	0.03221817
-4.150327	Predator	-0.0002135877
-4.150327	President	-0.0002596772
-3.974235	Pretty	0.0004342287
-4.150327	Princeton	0.02499427
-3.451357	Priya	0.06734535
-4.150327	Prize	0.001495175
-4.150327	Probably	0.002050815
-3.974235	Problem	0.00922198
-4.150327	Project	0.03221817
-3.974235	Psst	0.000502523
-4.150327	Psychics	0.00117138
-4.150327	Pukhpa	0.03221817
-4.150327	Putting	0.0001706826
-4.150327	Python	0.03221817
-4.150327	Quidditch	-0.0001982234
-4.150327	Quinto	-5.992032e-05
-4.150327	Raiders	0.00257624
-2.946207	Raj	0.08299813
-4.150327	Ramona	0.03221817
-4.150327	Read	0.00440472
-3.089629	Really	0.0674182
-4.150327	Reconstituted	-0.0002443146
-4.150327	Refresh	0.001387216
-4.150327	Relatively	-0.0002596772
-4.150327	Relativity	0.03221817
-3.974235	Relax	0.02484914
-3.849297	Remember	0.03851227
-4.150327	Richard	-0.0002596772
-4.150327	Rider	0.02499427
-3.372175	Right	0.07112856
-4.150327	Roger	0.02499427
-4.150327	Romulans	0.0004629556
-4.150327	Russian	-0.0001213938
-4.150327	SETI	0.02499427
-4.150327	Sagittarius	0.0004629556
-4.150327	Same	0.000262958
-4.150327	Sandra	-0.0002596772
-4.150327	Santa	0.006833911
-3.974235	Saturday	0.006715314
-4.150327	Says	0.03221817
-4.150327	Schindler	0.006833911
-4.150327	Schnapps	0.03221817
-4.150327	Science	0.003071339
-4.150327	Scree-scree	0.03221817
-4.150327	Screw	0.01010985
-4.150327	Scrimmage'	0.03026903
-4.150327	Sea	0.009465247
-4.150327	Search	0.001464327
-4.150327	Security	0.03221817
-3.752387	See	0.04591713
-4.150327	Seibert	0.006833911
-4.150327	Serial	-0.0002596772
-4.150327	Seriously	0.02499427
-4.150327	Services	0.003071339
-4.150327	Sex	0.002344356
-4.150327	Shadow	0.00257624
-3.974235	Shame	0.003152633
-3.129137	She	0.004962765
-2.354446	Sheldon	0.1015103
-3.849297	Shelly	0.05909572
-4.150327	Shepherd	0.006833911
-4.150327	Sherlock	0.03221817
-4.150327	Shirt	-0.0001828585
-4.150327	Short	-0.0002289514
-3.673205	Should	0.01596184
-4.150327	Shrew	0.03221817
-4.150327	Siebert	0.009465247
-4.150327	Simon	-0.0002596772
-4.150327	Sir	0.03221817
-3.974235	Sit	-0.0002204171
-4.150327	Six	-0.0002443146
-4.150327	Skippy	0.03221817
-4.150327	Skis	0.03221817
-4.150327	Slayer	0.03221817
-3.974235	Slim	-0.0003894421
-4.150327	Slurpee	0.0006014694
-3.974235	Small	-0.0005193523
-4.150327	Smart	0.03221817
-4.150327	Smurfs	0.03221817
-4.150327	Snapchat	0.03221817
-4.150327	Snapple	-5.992032e-05
-4.150327	Snipe	0.03221817
-4.150327	Snort	0.00440472
-2.625282	So	0.08214759
-4.150327	Solakian	0.02499427
-4.150327	Sold	0.03221817
-4.150327	Soldier	0.009465247
-4.150327	Some	-0.0002596772
-4.150327	Somebody	-0.0001521272
-4.150327	Someday	0.02499427
-3.752387	Sometimes	0.04661939
-3.409964	Sorry	0.05808152
-3.974235	Sounds	0.0002648921
-4.150327	Soup	0.02499427
-3.974235	Speech	0.000502523
-4.150327	Spock	0.02499427
-4.150327	Spockumentary	0.03221817
-4.150327	Spoiler	-0.0002596772
-4.150327	SpongeBob	-0.0002443146
-4.150327	Stanford	0.03221817
-3.606258	Star	-0.00103792
-4.150327	Starting	-0.0002443146
-4.150327	Stay	-0.0002596772
-4.150327	Step	0.0008324237
-3.974235	Stephanie	0.0001725545
-3.849297	Stephen	-0.0005037945
-3.974235	Steve	-0.0005193523
-4.150327	Stewart	4.767906e-05
-4.150327	Still	0.0003244859
-4.150327	Stop	0.00440472
-3.409964	Stuart	0.04142306
-4.150327	Superior	-0.0002596772
-4.150327	Superman	0.002344356
-3.275265	Sure	0.05750304
-4.150327	Svaty	-0.0002596772
-4.150327	Sweet	-0.0002443146
-3.752387	Switzerland	0.04037338
-3.673205	TV	0.01773726
-4.150327	Ta-da	0.0006476506
-3.974235	Take	0.00149794
-4.150327	Taming	0.00257624
-4.150327	Tanweer	0.03221817
-3.974235	Technically	0.004191968
-4.150327	Tell	0.01010985
-3.974235	Ten	0.0592408
-3.849297	Terrific	0.05909572
-4.150327	Texas	-0.0001521272
-4.150327	Th	0.02499427
-3.974235	Thai	-0.0002427217
-2.988959	Thank	0.006208322
-3.606258	Thanks	0.04113946
-4.150327	Thanksgiving	0.001387216
-2.631813	That	0.04487036
-2.907289	The	0.01890564
-3.974235	Theft	-0.0003894421
-3.673205	Then	0.002922936
-3.053416	There	0.08280979
-3.974235	These	0.001251051
-3.275265	They	0.001954452
-4.150327	Thing	0.009465247
-3.129137	This	-0.0003675632
-3.974235	Those	0.001251051
-4.150327	Three	0.03221817
-4.150327	Thursday	7.84267e-05
-4.150327	Tiffany	0.006833911
-3.974235	Time	0.001204774
-4.150327	Tina	0.009465247
-3.673205	To	0.004041212
-4.150327	Tonight	0.002344356
-4.150327	Trek	0.03026903
-4.150327	Troopers	0.002143491
-4.150327	Trophy	0.0006476506
-4.150327	Trust	0.00168031
-4.150327	Try	0.005586474
-4.150327	Twitter	0.03221817
-3.974235	Two	0.0003110686
-4.150327	U	0.03221817
-4.150327	UPS	-0.0002289514
-4.150327	UV	-0.0002289514
-3.974235	Ugh	0.000502523
-2.807904	Uh	0.053557
-4.150327	Uh'	0.03026903
-3.974235	Uh-huh	0.03207305
-3.974235	Uh-uh	0.0592408
-3.451357	Um	0.05822626
-3.974235	Um'	0.0301239
-4.150327	Unabomber	-0.0002443146
-3.974235	Unbelievable	0.03207305
-4.150327	Unruh	-0.0002443146
-4.150327	Until	0.01010985
-4.150327	Usually	0.002050815
-4.150327	Vaclav	0.003071339
-3.974235	Vader	0.002332231
-3.974235	Valentine	0.006688784
-4.150327	Vampire	-0.0002596772
-4.150327	Van	-0.0002596772
-3.974235	Vegas	0.03207305
-4.150327	Venus	0.002344356
-4.150327	Vulcan	-0.0002443146
-4.150327	W-w-wuh	0.02499427
-4.150327	Wackadoodle	0.03221817
-3.409964	Wait	0.03151808
-4.150327	Wake	0.0008324237
-4.150327	Walls	0.00117138
-3.974235	Want	0.0126766
-4.150327	Warcraft	-0.0002596772
-3.673205	Wars	0.01058763
-3.974235	Was	0.008625334
-3.974235	Watch	0.0006652484
-4.150327	Waugh	0.02499427
-2.673205	We	0.03318888
-2.588034	Well	0.03058596
-4.150327	Well'	0.03026903
-3.974235	Were	0.01273996
-4.150327	Wh	0.02499427
-2.386899	What	0.0746883
-3.451357	When	0.03227295
-3.548267	Where	0.02569743
-3.974235	Which	0.002780938
-3.337413	Who	0.02274202
-3.974235	Whoa	0.02569822
-4.150327	Whose	-0.0002596772
-2.817888	Why	0.04291113
-4.150327	Wi-Fi	0.03221817
-3.974235	Will	0.009964718
-4.150327	Wine	0.009465247
-4.150327	Winkle	0.03221817
-4.150327	Wireless	-0.0002596772
-3.849297	With	0.007378872
-4.150327	Wolowitz	-0.0001828585
-4.150327	World	-0.0002443146
-3.849297	Would	0.01424535
-3.451357	Wow	0.05822626
-4.150327	Wozniak	0.001387216
-2.55373	Yeah	0.06038003
-4.150327	Year	-0.0002443146
-3.849297	Yep	0.03192797
-2.932842	Yes	0.05718256
-4.150327	Yippee	0.03221817
-4.150327	Yoda	0.03221817
-2.275265	You	0.0469599
-4.150327	YouTube	0.03221817
-3.752387	Your	-0.0006697642
-3.849297	Yup	0.02470406
-4.150327	Zachary	-0.0002596772
-3.673205	Zack	0.04217595
-4.150327	Zone	0.006990091
-1.871573	a	-0.04059495
-4.150327	a.m	0.03221817
-3.974235	able	0.006844964
-2.527077	about	0.1453039
-4.150327	accent	0.03221817
-3.974235	accident	0.03207305
-4.150327	accidentally	-0.0002596772
-4.150327	accomplishments	0.001433481
-4.150327	according	0.006990091
-4.150327	account	0.00257624
-3.974235	accused	0.001535182
-4.150327	acelerador	-0.0002596772
-4.150327	acetylene	-0.0002596772
-4.150327	achieve	0.009465247
-3.974235	acknowledge	0.02836647
-3.752387	across	0.005649782
-4.150327	act	0.000262958
-3.752387	acting	0.01227005
-4.150327	action	0.003071339
-4.150327	actual	-9.065811e-05
-3.673205	actually	0.03205102
-4.150327	add	-0.0001213938
-4.150327	addressed	0.001094321
-4.150327	adjusted	0.00608502
-4.150327	admired	0.003164232
-4.150327	admit	0.02499427
-4.150327	advancements	0.001850085
-4.150327	adventure-role-playing	3.23061e-05
-4.150327	advice	0.0001399284
-4.150327	affection	0.001464327
-3.974235	afraid	0.007481443
-3.752387	after	0.009884199
-3.974235	afternoon	0.002455966
-3.196084	again	0.07245087
-4.150327	against	-0.0002596772
-3.974235	age	0.02473643
-4.150327	age-appropriate	-9.065811e-05
-3.752387	ago	0.05895068
-4.150327	agree	0.006990091
-3.849297	agreed	0.00866858
-3.849297	agreement	0.03192797
-4.150327	ah	0.03221817
-4.150327	ahead	0.003071339
-4.150327	airflow	0.03221817
-4.150327	airport	0.001495175
-4.150327	alcohol	0.009465247
-4.150327	alert	0.03221817
-4.150327	alibi	0.03221817
-3.849297	alien	0.03186921
-2.658965	all	0.099127
-4.150327	allergist	0.02499427
-3.974235	allow	-0.0005193523
-3.849297	allowed	0.006699884
-4.150327	almost	-7.528951e-05
-3.673205	alone	0.0700016
-4.150327	along	0.02499427
-4.150327	alpha	-0.0002596772
-4.150327	alphabetically	0.03221817
-3.451357	already	0.0009401825
-3.752387	alright	0.02455903
-3.673205	also	0.007205314
-3.305228	always	0.07632867
-3.108934	am	0.09126972
-3.752387	amazing	0.03195233
-4.150327	ambiguity	0.001850085
-2.849297	an	-0.009546652
-4.150327	analogies	0.03221817
-4.150327	analyze	0.01010985
-2.1129	and	0.05445239
-4.150327	announcement	0.009465247
-4.150327	annoying	-0.0002443146
-4.150327	anonymous	0.02499427
-3.606258	another	-0.0002122178
-3.849297	answer	0.03762176
-4.150327	answering	0.001387216
-4.150327	anthropic	-0.0002596772
-4.150327	anthropologist	0.03221817
-4.150327	anxiety	0.03221817
-3.196084	any	0.02560879
-3.849297	anybody	0.008272178
-3.974235	anymore	0.04245095
-3.752387	anyone	0.006290753
-3.305228	anything	0.09573957
-3.849297	anyway	0.02470406
-4.150327	apart	-0.0002443146
-3.752387	apartment	0.04508773
-4.150327	apiece	0.03221817
-3.974235	apologise	0.008484144
-3.849297	apologize	0.04141489
-3.974235	app	0.0397793
-4.150327	appear	0.002143491
-4.150327	applicants	0.02499427
-3.974235	applied	-0.0004271618
-3.752387	apply	0.04126986
-4.150327	appointment	0.03221817
-3.752387	appreciate	0.008656889
-3.974235	approach	0.0341685
-4.150327	appropriate	0.001850085
-4.150327	apron	1.561799e-06
-4.150327	ard	1.561799e-06
-2.473633	are	0.1122745
-4.150327	argue	0.001495175
-3.974235	argument	0.00932012
-3.497114	around	0.08208033
-4.150327	aroused	0.03221817
-4.150327	arrangements	0.03221817
-4.150327	artificial	-9.065811e-05
-2.895054	as	0.06061248
-4.150327	aside	-0.0001674932
-3.220908	ask	0.02462171
-3.849297	asked	0.03476097
-3.849297	asking	0.03482767
-4.150327	asleep	0.03221817
-3.849297	ass	0.03289331
-4.150327	assume	0.001094321
-3.974235	asthma	0.03207305
-4.150327	asthma-and-glasses	-0.0002596772
-4.150327	astronauts	0.002143491
-2.687928	at	0.05250902
-4.150327	atom	0.03221817
-4.150327	attended	0.03221817
-3.974235	attending	0.03826478
-3.974235	attention	0.03565207
-3.849297	attractive	-0.000556874
-4.150327	audition	0.0008632266
-4.150327	aunt	-9.065811e-05
-4.150327	author	0.002344356
-4.150327	autumn	-0.0002596772
-4.150327	available	0.03221817
-4.150327	avoid	-0.0002596772
-3.974235	aw	0.02561663
-4.150327	awake	0.009465247
-3.974235	award	0.001319199
-4.150327	aware	0.003164232
-3.752387	away	0.03344595
-4.150327	awful	-0.0002443146
-4.150327	awfully	-0.0002596772
-3.673205	awkward	0.05869564
-4.150327	babe	0.02499427
-3.606258	baby	0.04954983
-3.071145	back	0.04751073
-4.150327	back-scratching	0.003071339
-4.150327	backsies	0.03221817
-4.150327	backup	-0.0002289514
-3.247236	bad	0.0724318
-4.150327	badasses	0.03221817
-4.150327	badgers	-5.992032e-05
-4.150327	badly	0.03221817
-4.150327	bag	0.003071339
-4.150327	bagels	0.03221817
-4.150327	bald	0.02499427
-4.150327	ball	1.561799e-06
-4.150327	balloon	0.02499427
-4.150327	balls	0.000262958
-4.150327	banana	0.02499427
-4.150327	bandages	0.03221817
-3.974235	bar	0.001235624
-4.150327	barbershop	-0.0002596772
-4.150327	bargain	0.01010985
-4.150327	baseball	0.02499427
-3.974235	basically	0.02473643
-3.974235	basket	0.002332231
-4.150327	bastard	0.03221817
-4.150327	bat	0.03221817
-3.849297	bathroom	0.03175327
-4.150327	battery	-0.0002443146
-3.974235	battle	0.03219274
-2.451357	be	0.08419412
-3.974235	beat	0.04314692
-4.150327	beats	0.00608502
-3.752387	beautiful	0.024889
-3.129137	because	0.02944927
-4.150327	become	0.005586474
-3.974235	becoming	0.0007576914
-3.305228	bed	0.0806524
-4.150327	bedroom	0.03221817
-3.036383	been	0.05644374
-3.372175	before	0.06665974
-4.150327	behaviour	0.003164232
-3.974235	behind	0.01462899
-3.275265	being	0.03548624
-3.409964	believe	0.04261393
-4.150327	belly	0.03221817
-4.150327	belongs	0.006990091
-4.150327	bend	0.006990091
-4.150327	bending	0.00608502
-4.150327	benedryl	0.0006014694
-3.974235	besides	0.02484914
-3.606258	best	0.01028143
-3.974235	bet	0.009300547
-4.150327	beta	-0.0002596772
-4.150327	betrayal	0.03221817
-3.974235	betrayed	0.0008039201
-3.372175	better	0.05966352
-3.673205	between	0.01082459
-4.150327	bifocals	0.003071339
-3.305228	big	0.0568848
-4.150327	big-ass	-0.0002596772
-4.150327	big-balled	-0.0002596772
-4.150327	bind	0.0001706826
-4.150327	bio-social	-0.0002596772
-4.150327	biological	-0.0002596772
-3.974235	bird	0.008358681
-4.150327	birds	0.001850085
-3.849297	birthday	0.01191134
-4.150327	bisexual	-0.0002596772
-3.673205	bit	0.06235454
-4.150327	biting	0.00168031
-3.974235	black	-0.0004886243
-4.150327	blackmailing	-0.0002443146
-4.150327	bladder	-0.0002135877
-4.150327	blank	0.009465247
-4.150327	blend	0.00257624
-4.150327	blind	0.03221817
-4.150327	blonde	7.84267e-05
-4.150327	blood	-0.0002443146
-4.150327	bloopers	0.03221817
-3.974235	blow	0.005327216
-4.150327	blows	-0.0002135877
-4.150327	blur	0.03221817
-3.849297	board	0.04263573
-3.974235	body	0.009614956
-4.150327	boldly	0.0008632266
-4.150327	bone	0.03221817
-4.150327	bones	-0.0001060262
-3.548267	book	0.04200289
-4.150327	books	0.03221817
-3.974235	boots	0.004378381
-3.849297	bored	0.03841137
-3.752387	boring	0.0277997
-4.150327	born	-0.0001982234
-4.150327	borrow	9.380135e-05
-3.548267	both	0.04533712
-4.150327	bother	0.0005706848
-4.150327	bottom	0.00257624
-3.849297	bought	0.004072442
-3.752387	bounce	0.005744148
-4.150327	bowl	-0.0001982234
-3.974235	box	0.0007268752
-3.673205	boy	0.0718338
-3.849297	boyfriend	0.04815516
-4.150327	boys	0.02499427
-4.150327	braiding	0.0002014389
-4.150327	braver	-0.0001367608
-3.606258	break	0.05992428
-3.974235	breakfast	0.03196088
-4.150327	breaks	0.03221817
-4.150327	breakup	0.03221817
-4.150327	breast-feeding	-0.0002596772
-4.150327	breed	0.005586474
-4.150327	bricks	0.02499427
-4.150327	bride	0.003071339
-3.752387	bring	0.01198495
-4.150327	brings	0.01010985
-4.150327	broccoli	0.009465247
-3.974235	broke	0.0006872962
-3.752387	broken	0.03777896
-3.673205	brother	0.04558394
-3.849297	brought	0.002744237
-3.974235	bucks	0.03196088
-4.150327	buddies	0.03221817
-4.150327	buddy	0.03221817
-4.150327	budgets	-0.0002596772
-4.150327	buffering	0.02499427
-4.150327	bug	-0.0002443146
-3.673205	building	0.0415895
-4.150327	built	0.00440472
-4.150327	bullies	-0.0001213938
-4.150327	bully	0.03221817
-4.150327	bullying	-0.0001982234
-3.974235	bunch	0.002431113
-4.150327	bungee	-0.0002596772
-3.974235	burn	0.000434229
-4.150327	burned	-0.0001060262
-4.150327	burped	0.0004783437
-3.974235	bus	0.01011849
-3.752387	business	0.0266829
-4.150327	bust	0.002143491
-2.606258	but	0.09133798
-4.150327	butterfly	0.03221817
-3.548267	buy	0.04142319
-4.150327	buying	0.0002321975
-3.409964	by	0.01482667
-2.932842	ca	-0.0003046994
-4.150327	cabin	0.001495175
-4.150327	caddie	0.03221817
-3.974235	cake	0.03505137
-3.451357	call	0.03896191
-3.409964	called	0.006663145
-4.150327	calling	0.006990091
-3.974235	calls	0.0008039201
-4.150327	calm	0.009465247
-4.150327	camaraderie	0.02499427
-3.497114	came	0.007402136
-4.150327	camera	0.0008324237
-4.150327	campaign	0.002344356
-4.150327	camping	0.03221817
-2.718963	can	0.06682695
-3.974235	candle	0.004938099
-4.150327	candy	0.006990091
-3.673205	car	0.02028142
-4.150327	carbohydrate	-0.0002596772
-3.849297	card	0.03181952
-3.606258	care	0.03512715
-3.974235	career	0.01186965
-4.150327	cars	-0.0002596772
-3.752387	case	0.07074437
-4.150327	cash	-0.0001060262
-4.150327	cashew	-0.0002443146
-4.150327	casting	-0.0002135877
-4.150327	cat	0.03221817
-4.150327	catch	0.005586474
-4.150327	categorized	0.000262958
-4.150327	catheter	0.03221817
-4.150327	caught	0.03221817
-4.150327	causing	-0.0001828585
-4.150327	caution	0.02499427
-4.150327	celebrate	0.03221817
-3.849297	cello	0.03484435
-4.150327	centripetal	-0.0002289514
-4.150327	cereal	-0.0002596772
-4.150327	ceremony	-0.0001982234
-4.150327	certain	-0.0002596772
-4.150327	certainly	0.002050815
-4.150327	chafed	-0.0002596772
-4.150327	challenge	0.03221817
-4.150327	challenges	0.000262958
-3.548267	chance	0.06673667
-3.849297	change	0.00661241
-3.606258	changed	0.04344088
-4.150327	changing	0.000262958
-4.150327	channel	0.002344356
-4.150327	charges	0.02499427
-4.150327	chart	0.03221817
-3.974235	chase	0.0592408
-4.150327	chasing	0.005586474
-3.752387	check	0.03217552
-4.150327	check-plus	-0.0002443146
-3.974235	checking	0.0008193304
-4.150327	cheers	0.01010985
-4.150327	cheese	0.003164232
-3.849297	chest	0.03822644
-4.150327	chew	0.00608502
-3.974235	chicken	0.04551477
-4.150327	child	0.009465247
-3.752387	childhood	0.03383293
-4.150327	children	0.03221817
-3.974235	chocolate	0.0004034356
-3.752387	choice	0.03178294
-4.150327	choke	0.00168031
-4.150327	choking	1.561799e-06
-3.974235	choose	-0.0003656905
-4.150327	chore	-0.0002596772
-4.150327	church	1.561799e-06
-4.150327	churches	0.03221817
-4.150327	circle	0.03221817
-4.150327	claim	0.006990091
-4.150327	claimed	0.001001869
-4.150327	clarify	0.0003398691
-4.150327	class	0.002344356
-3.974235	clean	0.03207305
-3.849297	clear	0.02725584
-4.150327	clearly	-0.0001828585
-4.150327	close	0.006990091
-4.150327	closer	0.03221817
-3.974235	clothes	0.02509481
-4.150327	club	-0.0002596772
-4.150327	clubs	0.03221817
-3.974235	clue	0.03224244
-4.150327	clues	0.03221817
-4.150327	co-dependently	0.03221817
-4.150327	co-workers	0.03221817
-4.150327	code	0.0006014694
-4.150327	coded	0.03221817
-3.849297	coffee	0.04219447
-4.150327	cofounders	0.00257624
-4.150327	college	0.03221817
-4.150327	colour	-0.0002596772
-4.150327	combined	-0.0002596772
-4.150327	combing	-0.0001674932
-4.150327	combustion	-0.0002596772
-2.907289	come	0.05044328
-3.849297	comes	0.03259864
-4.150327	comfortable	0.001495175
-3.673205	comic	-0.0008622537
-3.606258	coming	0.01667814
-4.150327	commentary	-0.0002596772
-4.150327	common	0.03221817
-4.150327	communicating	0.03221817
-3.974235	community	0.005436232
-4.150327	competitive	0.03221817
-4.150327	complain	0.001001869
-3.974235	complete	-0.0005039886
-4.150327	completely	-0.0002135877
-4.150327	compliment	0.03221817
-4.150327	compromise	0.003071339
-3.974235	computer	0.03197744
-4.150327	computers	1.561799e-06
-4.150327	concept	-0.0002443146
-4.150327	concern	0.001464327
-3.974235	concerned	0.0008809785
-4.150327	conclusions	0.03221817
-4.150327	conditioning	0.001495175
-4.150327	conducting	-0.0002596772
-4.150327	cones	0.03221817
-4.150327	confident	0.03221817
-4.150327	conflict	0.03221817
-3.974235	confrontation	0.0592408
-3.752387	confused	0.03546719
-4.150327	congratulate	0.0005706848
-3.849297	congratulations	0.03540682
-4.150327	conically	0.006990091
-4.150327	connections	0.00117138
-4.150327	consider	-0.0001060262
-4.150327	considered	-0.0002443146
-3.974235	considering	0.0006960608
-4.150327	consistency	0.03221817
-4.150327	consists	0.00257624
-4.150327	consumed	0.02499427
-3.974235	contacts	0.04551477
-4.150327	content	0.03221817
-4.150327	contest	0.03221817
-4.150327	continuing	0.0001399284
-4.150327	contracts	-0.0001828585
-3.974235	control	0.03698996
-4.150327	controlling	0.02499427
-4.150327	convention	0.001495175
-3.849297	conversation	0.0318158
-4.150327	cookie	0.02499427
-4.150327	cookies	0.02499427
-4.150327	cooking	0.0006630451
-3.752387	cool	0.06266578
-4.150327	cooler	-0.0001367608
-3.974235	coolest	-0.0003656904
-4.150327	cords	0.009465247
-4.150327	corrected	0.03221817
-3.849297	couch	0.03669956
-2.919878	could	0.06076901
-3.974235	count	0.03501802
-4.150327	counting	0.0006014694
-3.497114	couple	0.06145753
-3.451357	course	0.08750284
-4.150327	crack	0.00608502
-3.974235	crap	0.0592408
-4.150327	crappy	-0.0002596772
-4.150327	crashed	0.003071339
-4.150327	crate	0.03221817
-4.150327	crazier	-0.0001367608
-3.451357	crazy	0.06947535
-3.974235	create	0.005576435
-4.150327	created	0.005586474
-4.150327	creationists	0.03221817
-3.974235	credit	0.009237693
-4.150327	creepy	-0.0002443146
-4.150327	crew	0.03221817
-4.150327	cricket	0.03221817
-4.150327	crossbow	-0.0002596772
-3.974235	crossed	0.005441347
-4.150327	crouching	0.0006630451
-4.150327	cruel	0.001464327
-4.150327	cry	0.03221817
-4.150327	crying	0.009465247
-4.150327	cryptanalysis	0.02499427
-4.150327	crystals	0.00117138
-4.150327	cuddly	-0.0002596772
-3.974235	cup	0.002431113
-4.150327	cure	0.001464327
-4.150327	curiosity	0.02499427
-4.150327	currently	-0.0002443146
-4.150327	curry	-0.0001060262
-4.150327	cushion	0.03221817
-4.150327	customer	-0.0002596772
-4.150327	cut	0.006990091
-4.150327	cut-up	0.009465247
-4.150327	cutbacks	0.03221817
-3.673205	cute	0.062945
-3.849297	dad	0.0106318
-4.150327	damper	0.002143491
-3.974235	dancer	0.03423508
-4.150327	dancing	0.001850085
-4.150327	dangerous	0.03221817
-3.974235	dark	0.0007576909
-4.150327	darkness	-0.0002596772
-3.451357	date	0.06042143
-3.752387	dating	0.04303439
-3.409964	day	0.06562889
-4.150327	day-old	-0.0002596772
-3.974235	days	0.03207305
-4.150327	de	-0.0002596772
-4.150327	dead	0.009465247
-3.752387	deal	0.06209373
-3.497114	death	0.04508954
-4.150327	debate	-0.0002596772
-3.974235	debt	0.009882385
-4.150327	decide	0.01010985
-3.752387	decided	0.006554854
-4.150327	decides	-0.0002289514
-4.150327	decision	0.002344356
-4.150327	defecating	-0.0002596772
-4.150327	defend	0.005586474
-4.150327	defends	0.0005706848
-4.150327	defile	0.001094321
-4.150327	deliberately	-0.0001674932
-4.150327	delicious	0.03221817
-3.974235	delightful	-0.0003656904
-4.150327	deliver	-0.0002596772
-4.150327	delivery	-0.0002443146
-4.150327	demonstration	0.001109732
-4.150327	dentist	0.009465247
-3.849297	department	0.03456092
-4.150327	derivative	-0.0002596772
-4.150327	dermatologist	0.02499427
-4.150327	descendents	0.00257624
-4.150327	deserve	0.01010985
-4.150327	dessert	0.009465247
-3.974235	destroy	0.00627813
-4.150327	determine	0.003164232
-3.974235	development	0.001204774
-4.150327	device	0.0006630451
-4.150327	dictate'	0.03026903
-2.492315	did	0.1178808
-3.974235	die	0.02484914
-3.974235	died	0.03423508
-3.752387	difference	0.04488273
-4.150327	different	-0.0001060262
-4.150327	difficult	0.02499427
-4.150327	digital	-0.0002596772
-4.150327	digress	0.03221817
-3.337413	dinner	0.08538804
-4.150327	dipped	0.02499427
-4.150327	directors	0.03221817
-3.974235	dirty	0.02481786
-4.150327	disappoints	0.02499427
-4.150327	disaster	0.001788341
-4.150327	disclose	3.23061e-05
-4.150327	discomfort	0.03221817
-4.150327	discouraged	0.003071339
-4.150327	discover	-0.0002443146
-4.150327	discovered	0.003164232
-4.150327	discovering	0.0003860226
-3.974235	discovery	0.0592408
-4.150327	disease	0.03221817
-4.150327	disgusting	0.02499427
-4.150327	distance	3.23061e-05
-4.150327	distinguished	-0.0002135877
-2.056905	do	0.1201069
-3.752387	doctor	0.01484436
-4.150327	doctors	0.03221817
-4.150327	documentary	0.002143491
-2.932842	does	0.05459704
-4.150327	dog	0.03221817
-3.974235	dogs	0.03207305
-2.959995	doing	0.05421764
-3.497114	dollars	0.07333107
-3.305228	done	0.08534261
-3.673205	door	0.05148501
-4.150327	doorbell	1.561799e-06
-4.150327	dorky	-0.0002289514
-3.974235	doubt	0.003865937
-3.305228	down	0.07616956
-4.150327	downtown	0.02499427
-4.150327	dragged	0.01010985
-4.150327	drawers	0.03221817
-4.150327	dream	0.0002475774
-4.150327	dreaming	0.001001869
-4.150327	dress	0.03221817
-3.974235	dressed	0.001575121
-4.150327	drink	0.009465247
-3.974235	drive	0.01981428
-4.150327	driving	0.03221817
-4.150327	drone	0.03221817
-3.849297	drop	0.01472057
-4.150327	drug	-0.0001828585
-4.150327	drugged	0.0005706848
-4.150327	drugs	0.009465247
-4.150327	dude	0.03221817
-3.974235	dumb	-0.0004578941
-4.150327	dumpling	0.02499427
-3.974235	dumplings	0.02484914
-3.752387	during	0.01542027
-3.974235	e-mail	0.02826796
-4.150327	eBay	0.03221817
-3.673205	each	0.0008776675
-4.150327	early	0.02499427
-4.150327	earn	0.00440472
-4.150327	earworm	0.03221817
-3.974235	easy	0.001998364
-3.752387	eat	0.03749924
-3.849297	eating	0.003560018
-4.150327	eats	0.0001399284
-4.150327	effort	0.001850085
-3.849297	eight	0.03184892
-4.150327	eighteen	-0.0002289514
-3.849297	either	0.0286676
-4.150327	el	-0.0002596772
-3.974235	electricity	0.0592408
-4.150327	electromagnets	0.006990091
-4.150327	electron	-0.0002596772
-4.150327	element	0.009465247
-4.150327	eleven	-0.0001521272
-4.150327	elite	-0.0002135877
-4.150327	eloping	0.03221817
-3.497114	else	0.04549191
-4.150327	email	0.02499427
-4.150327	emailing	0.009465247
-4.150327	emasculation	0.02499427
-4.150327	embarrassed	0.006990091
-4.150327	emergencies	0.03221817
-4.150327	emergency	-0.0001367608
-4.150327	emotional	-0.0002596772
-4.150327	empty	0.03221817
-4.150327	encountered	-0.0002289514
-3.849297	end	0.0359465
-4.150327	ended	0.0008324237
-3.974235	ending	0.001235624
-4.150327	enforce	0.001788341
-4.150327	engagement	-0.0001982234
-4.150327	engine	0.009465247
-3.849297	enjoy	0.03316313
-4.150327	enjoyed	0.00608502
-3.497114	enough	0.04613522
-4.150327	enter	0.00608502
-4.150327	enthusiast	0.03221817
-3.974235	entire	-0.0005039886
-4.150327	environmental	-0.0002596772
-4.150327	episode	0.03221817
-3.974235	equations	0.002316766
-3.974235	equipment	0.03207305
-3.974235	equivalent	0.002431113
-4.150327	escaped	0.003071339
-4.150327	esteemed	0.03221817
-4.150327	evaluate	0.00608502
-3.275265	even	0.04494295
-3.849297	evening	0.02817461
-3.974235	eventually	0.02473643
-3.247236	ever	0.04007136
-3.548267	every	-0.0006959994
-4.150327	everybody	0.009465247
-3.849297	everyone	0.007958527
-3.497114	everything	0.01792773
-3.974235	evil	0.03204367
-4.150327	evolution	0.006990091
-3.974235	ex-boyfriend	-0.0005039886
-3.849297	exactly	0.002738298
-3.974235	example	0.0592408
-3.974235	except	0.01635055
-4.150327	exception	0.00257624
-3.974235	excited	0.01950848
-4.150327	exciting	0.02499427
-4.150327	excuse	0.001634019
-4.150327	excuses	0.001464327
-3.974235	exercise	0.03501802
-4.150327	exist	0.000262958
-3.974235	expect	0.01727791
-4.150327	expecting	0.01010985
-4.150327	experiment	0.02499427
-3.974235	experimental	-0.0004271618
-4.150327	experiments	0.001850085
-3.974235	expert	0.004005636
-4.150327	expertise	0.03221817
-3.974235	explain	0.02638418
-4.150327	exploration	0.001495175
-4.150327	express	-9.065811e-05
-4.150327	expression	0.00257624
-4.150327	extended	-0.0002443146
-4.150327	eye	-0.0002135877
-4.150327	eyes	0.03221817
-3.752387	face	0.01272976
-4.150327	facebook	-0.0002596772
-4.150327	facilitate	-0.0002596772
-4.150327	facing	9.380135e-05
-3.673205	fact	0.04531025
-3.974235	fair	0.0592408
-3.974235	fairly	-0.0005193523
-4.150327	fake	-0.0002443146
-4.150327	fall	-0.0002596772
-3.974235	falling	-0.0003195812
-3.849297	familiar	0.001204968
-3.849297	family	0.04219447
-4.150327	famous	-0.0002443146
-4.150327	fan	0.00257624
-4.150327	fans	0.00257624
-4.150327	fantastic	0.03221817
-4.150327	fantasy'	0.03026903
-3.974235	fascinating	0.0592408
-3.673205	fast	0.06987552
-4.150327	fat	-0.0002596772
-4.150327	fate	0.03221817
-3.673205	father	0.03534394
-4.150327	father-son	0.0004937325
-3.752387	fault	0.05895068
-3.752387	favour	0.05945816
-3.849297	favourite	0.03183236
-4.150327	feature	0.001850085
-4.150327	fed	0.01010985
-4.150327	fee	0.02499427
-3.548267	feel	0.01534763
-3.752387	feeling	0.06138352
-3.548267	feelings	0.06142798
-3.974235	feels	0.00174497
-4.150327	feet	0.03221817
-4.150327	fell	0.0004014079
-3.974235	felt	0.0004958219
-4.150327	female	-0.0002596772
-3.606258	few	-0.0009666692
-4.150327	fibre	-0.0002596772
-4.150327	field	0.00257624
-4.150327	fifteen	0.03221817
-4.150327	fifties	0.001850085
-4.150327	fifty	-0.0001367608
-4.150327	fight	1.561799e-06
-3.974235	fighting	0.02473643
-3.673205	figure	0.0003292157
-3.974235	figured	0.002703541
-4.150327	figuring	0.0009094356
-4.150327	film	0.03221817
-4.150327	filter	0.001850085
-3.849297	finally	0.003870506
-3.974235	finances	0.03204367
-4.150327	financial	-0.0002596772
-4.150327	finches	0.001850085
-3.372175	find	0.05038123
-3.220908	fine	0.05721409
-4.150327	finger	0.03221817
-4.150327	finished	0.02499427
-3.974235	fired	0.01326299
-4.150327	firms	0.006990091
-3.172603	first	0.04503699
-3.974235	fish	0.03207305
-4.150327	fishes	0.009465247
-4.150327	five	-0.0002289514
-3.974235	fix	0.004735895
-4.150327	flag	-0.0002443146
-4.150327	flesh	7.84267e-05
-4.150327	flexible	-0.0002596772
-4.150327	flight	-7.528951e-05
-4.150327	flip	0.0009094356
-4.150327	flirting	0.009465247
-4.150327	flirty	-0.0001060262
-4.150327	flooded	0.02499427
-3.849297	floor	0.01191134
-4.150327	flop	-0.0001521272
-4.150327	flossing	0.003164232
-3.974235	flowers	0.02475272
-4.150327	focus	0.002143491
-4.150327	folder	0.009465247
-4.150327	folk	-0.0002596772
-3.974235	follow	0.03285586
-4.150327	followed	0.00608502
-3.497114	food	0.06656915
-3.974235	football	-0.0003810591
-2.394452	for	0.03239559
-4.150327	forbidden	0.03221817
-3.849297	force	0.02451117
-4.150327	forest	-0.0001060262
-3.752387	forget	0.07065374
-3.974235	forgive	0.005919345
-3.849297	forgot	0.007868759
-4.150327	formula	0.03221817
-3.752387	found	0.009789667
-4.150327	foundational	3.23061e-05
-3.849297	four	0.03184892
-4.150327	frame	-0.0002443146
-4.150327	freaking	-0.0002289514
-3.974235	free	-0.0003042105
-4.150327	freedom	0.006990091
-4.150327	freeloader	0.03221817
-4.150327	freeze	0.006990091
-4.150327	freshener	0.03221817
-3.247236	friend	0.0723572
-4.150327	friend'	0.03026903
-3.372175	friends	0.07341032
-4.150327	friendship	0.03221817
-4.150327	fries	0.03221817
-4.150327	frisky	0.03221817
-3.004199	from	0.07476977
-3.752387	front	0.02745285
-4.150327	frosty	0.03221817
-4.150327	froze	0.03221817
-4.150327	fruit	0.003071339
-4.150327	fulcrum	0.003071339
-3.974235	full	0.002431113
-3.409964	fun	0.0355507
-4.150327	funeral	-0.0002596772
-3.548267	funny	0.06223099
-4.150327	furniture	-0.0002596772
-4.150327	furry	-0.0002596772
-4.150327	future	-0.0002596772
-4.150327	galactic	-0.0002596772
-4.150327	galleria	0.009465247
-3.409964	game	0.08130983
-4.150327	games	0.00257624
-3.974235	gaming	-0.0002818884
-3.974235	garage	0.009237693
-4.150327	garbage	-0.0002596772
-3.974235	gas	-0.0003894421
-3.974235	gave	0.004005635
-4.150327	gay	-4.45506e-05
-4.150327	gazelle	0.001556878
-4.150327	general	-0.0002596772
-4.150327	generated	-0.0001213938
-4.150327	genetic	-0.0002596772
-4.150327	genius	0.001850085
-4.150327	geniuses	0.03221817
-4.150327	gentleman	-1.380956e-05
-4.150327	gentlemen	0.03221817
-4.150327	germophobe	0.03221817
-2.618848	get	0.07855516
-3.849297	gets	0.008319244
-3.497114	getting	0.002760289
-3.974235	giant	-0.0005039886
-3.974235	gibbon	0.03247444
-4.150327	gif	0.03221817
-3.974235	gift	0.02774296
-4.150327	gifts	0.03221817
-4.150327	gig	-0.0002596772
-3.409964	girl	0.07160112
-3.548267	girlfriend	0.05957699
-3.974235	girls	0.001405339
-4.150327	girly	-0.0001060262
-3.172603	give	0.02229798
-3.974235	given	0.003695258
-4.150327	gives	0.00168031
-3.974235	giving	0.001374478
-3.849297	glad	0.01022539
-4.150327	glass	-0.0002135877
-3.849297	glasses	0.05909572
-4.150327	glow-in-the-dark-emergency-exit	-0.0001060262
-2.576295	go	0.09589299
-4.150327	go-go	-0.0002443146
-3.974235	goblin	0.0592408
-4.150327	goes	-0.0002135877
-4.150327	goggles	0.03221817
-2.618848	going	0.0768057
-2.849297	gon	-0.005156554
-3.606258	gone	0.03627542
-2.735353	good	0.07420091
-3.974235	gorgeous	0.03196088
-4.150327	gorilla	-0.0002596772
-2.779259	got	0.0647604
-3.849297	gotten	0.004803303
-4.150327	grab	0.00608502
-4.150327	grad	-0.0002443146
-4.150327	grade	0.003071339
-4.150327	graduating	0.03221817
-4.150327	grandmother	0.001495175
-4.150327	grant	-9.065811e-05
-4.150327	grants	0.03221817
-4.150327	graphene	-9.065811e-05
-3.974235	graphics	0.03207305
-4.150327	grasp	0.002143491
-4.150327	grave	0.03221817
-3.849297	gravity	0.03183236
-2.974235	great	0.06432176
-4.150327	great'	0.03026903
-3.974235	greatest	-0.0002273483
-4.150327	green	-0.0002596772
-4.150327	grew	0.0003244859
-4.150327	grind	0.00440472
-4.150327	groom	-0.0002289514
-4.150327	group	0.000262958
-4.150327	grow	0.00608502
-4.150327	growing	0.0008324237
-4.150327	grown	0.0008324237
-4.150327	guarantee	-5.992032e-05
-3.172603	guess	0.09799937
-4.150327	guest	0.0006476506
-4.150327	guidance	-0.0002443146
-3.974235	guilty	9.562145e-05
-4.150327	gum	0.03221817
-4.150327	gun	0.009465247
-3.220908	guy	0.05699886
-3.172603	guys	0.08180182
-3.974235	gym	-0.0004578941
-4.150327	gynaecologist	0.03221817
-3.849297	ha	0.02462392
-2.959995	had	0.05711769
-4.150327	hadn't'	0.03026903
-3.752387	hair	0.0326236
-4.150327	hairiest	-9.065811e-05
-3.974235	half	0.03373606
-3.849297	hall	0.03494443
-3.974235	hand	0.003726287
-4.150327	hand'	0.03026903
-4.150327	hands	0.001850085
-3.752387	hang	0.00276957
-4.150327	hanging	0.0009094356
-3.606258	happen	0.06097294
-3.372175	happened	0.05114131
-3.849297	happening	0.001485457
-3.673205	happens	0.05054237
-3.409964	happy	0.0721292
-3.451357	hard	0.03411086
-4.150327	harder	-0.0001367608
-3.974235	hardly	-0.0003042104
-4.150327	harem	0.009465247
-4.150327	harmless	0.03221817
-3.247236	has	0.006064254
-4.150327	hat	0.001850085
-3.606258	hate	0.006935033
-4.150327	hated	0.003164232
-4.150327	hates	-0.0001213938
-2.402138	have	0.03834738
-4.150327	have'	0.03026903
-3.275265	having	0.01031371
-2.527077	he	0.06091259
-4.150327	he'	0.03026903
-3.752387	head	0.05895068
-3.974235	headed	0.01040198
-3.974235	heads	0.0006872962
-4.150327	health	0.009465247
-3.372175	hear	0.01410817
-3.752387	heard	0.03487094
-3.974235	hearing	0.03239157
-4.150327	heart	0.03221817
-4.150327	heavy	0.03221817
-4.150327	hedge	-0.0001674932
-3.974235	held	0.03224244
-3.974235	helium	0.002301302
-4.150327	helium-neon	-0.0002289514
-3.606258	hell	0.01374237
-4.150327	hello	0.03221817
-4.150327	helm	0.00257624
-3.974235	helmet	0.0355519
-3.372175	help	0.04303278
-4.150327	helped	0.00168031
-4.150327	helpful	3.23061e-05
-3.974235	helping	3.319932e-06
-4.150327	helps	-0.0002135877
-2.727081	her	0.1037744
-2.838573	here	0.1190762
-4.150327	hereditary	0.03221817
-4.150327	heroes	0.02499427
-3.451357	hey	0.05822626
-3.849297	hi	0.0362643
-4.150327	hid	0.00440472
-4.150327	hide	0.03221817
-4.150327	hiding	0.001387216
-3.849297	high	-0.0004577001
-3.974235	higher	-0.0004886243
-4.150327	highest	-0.0002135877
-4.150327	highly	-0.0002596772
-2.703168	him	0.1021458
-4.150327	himself	0.03221817
-2.807904	his	0.02514574
-3.849297	hit	0.01194298
-3.974235	ho	0.03293882
-4.150327	hobo	0.009465247
-4.150327	hogging	0.0006630451
-3.974235	hold	0.002626159
-3.974235	holding	0.005856977
-4.150327	hole	0.0003398691
-4.150327	hologram	0.03221817
-3.337413	home	0.03561349
-4.150327	homo-habilus	-0.0002596772
-4.150327	honest	0.02499427
-4.150327	honour	0.006990091
-4.150327	honourable	3.23061e-05
-4.150327	honours	0.01230234
-4.150327	hootenannies	0.02499427
-3.673205	hope	0.014092
-4.150327	hopelessly	0.001850085
-4.150327	hopes	0.001464327
-3.849297	horrible	-0.0003947417
-4.150327	horror	-0.0001367608
-3.974235	hot	0.03196088
-4.150327	hotter	-0.0001367608
-4.150327	hour	0.009465247
-3.548267	hours	0.03454115
-3.606258	house	0.04767803
-2.895054	how	0.06473625
-4.150327	hug	0.009465247
-4.150327	hugs	0.00168031
-3.974235	huh	0.00932012
-4.150327	hum	0.00440472
-3.974235	human	-0.0003195812
-4.150327	humiliation	0.02499427
-4.150327	humming	0.03221817
-3.849297	hundred	0.002775207
-4.150327	hungry	0.02499427
-4.150327	hunting	0.02499427
-4.150327	hurry	0.03221817
-4.150327	hurt	0.0005245119
-4.150327	husband	0.006833911
-4.150327	hydrodynamics	-0.0002596772
-4.150327	hydroelectric	-0.0002596772
-3.974235	hypothesis	0.03207305
-4.150327	hysterical	-0.0002596772
-4.150327	i	-0.0002443146
-4.150327	iPod	0.0002783391
-4.150327	ice	0.03221817
-3.129137	idea	0.06509736
-4.150327	ideal	0.02499427
-3.974235	ideas	0.03505137
-2.645177	if	0.04073353
-4.150327	ignore	0.00608502
-4.150327	imagination	0.03221817
-4.150327	impersonation	0.00257624
-4.150327	important	-0.0002443146
-4.150327	importantly	0.02499427
-4.150327	impossibility	0.003071339
-4.150327	impressed	0.03221817
-4.150327	impression	0.001850085
-4.150327	impromptu	-0.0002289514
-2.308342	in	0.08718885
-4.150327	in-in-in-instead	0.00257624
-4.150327	inch	0.003071339
-4.150327	inches	0.03221817
-4.150327	inconvenience	-4.45506e-05
-3.974235	incredible	0.03196088
-3.974235	incredibly	-0.0004271617
-4.150327	individually	-0.0002443146
-4.150327	indoors	0.02499427
-3.849297	information	0.003435885
-4.150327	ingredients	0.001464327
-3.849297	inhaler	0.0378736
-4.150327	inherent	-0.0002596772
-3.849297	insane	0.04230588
-4.150327	insomnia	0.002344356
-4.150327	instead	0.00257624
-4.150327	integrity	0.00257624
-3.974235	intellectual	-0.0005039886
-4.150327	intend	0.006990091
-4.150327	intense	0.03221817
-3.974235	interested	0.001704957
-3.974235	interesting	0.03207305
-3.974235	internal	-0.0005193523
-4.150327	international	-0.0002596772
-4.150327	interrupted	-5.992032e-05
-4.150327	intimacy	0.002560777
-3.275265	into	0.01453473
-3.974235	introduce	0.006668451
-4.150327	introducing	-0.0001674932
-4.150327	invented	0.00608502
-4.150327	invention	0.009465247
-4.150327	investments	-0.0002596772
-4.150327	invisibility	0.009465247
-3.849297	invite	0.0003902536
-4.150327	invited	0.006990091
-4.150327	inward	-0.0002289514
-4.150327	irrigator	-9.065811e-05
-4.150327	irritating	0.03221817
-2.21836	is	0.1294873
-1.968483	it	0.1066458
-4.150327	it'	0.03026903
-3.849297	its	-0.0007636608
-4.150327	jack	0.0008324237
-4.150327	jacket	0.02499427
-4.150327	jail	-0.0001674932
-4.150327	jam	0.02499427
-4.150327	jealous	0.02499427
-4.150327	jeans	0.003071339
-4.150327	jeez	0.03221817
-4.150327	jersey	0.009465247
-3.849297	job	0.03234983
-3.673205	join	0.0002543277
-4.150327	joining	0.0002321975
-3.849297	joke	0.05909572
-4.150327	jokes	0.003071339
-4.150327	joking	0.02499427
-4.150327	journal	0.03221817
-4.150327	journals	0.02499427
-4.150327	joy	0.0009094356
-4.150327	judging	0.03221817
-4.150327	juice	0.03221817
-4.150327	jump	0.006990091
-4.150327	jumping	0.0008324237
-2.357935	just	0.08961046
-4.150327	kabob	0.03221817
-3.451357	keep	0.002547604
-3.849297	keeping	0.0169395
-3.849297	kept	-0.0007790256
-3.974235	key	0.006871557
-3.974235	kick	-8.896203e-05
-4.150327	kicked	0.01010985
-4.150327	kicking	0.00608502
-4.150327	kickstarter	-0.0002596772
-3.752387	kid	0.03773438
-3.372175	kidding	0.04317816
-3.673205	kids	0.03912729
-3.673205	kill	0.01248963
-3.974235	killed	0.0009888837
-4.150327	killing	0.00168031
-3.196084	kind	0.003498814
-4.150327	kinda	-0.0001982234
-4.150327	kinda-sorta	-0.0001674932
-4.150327	king	0.00257624
-3.849297	kiss	0.04503651
-4.150327	kissed	0.02499427
-3.974235	kissing	0.01119043
-4.150327	kite	0.006990091
-4.150327	knee	0.02499427
-3.974235	knew	0.02272197
-4.150327	knock	0.00440472
-4.150327	knocked	1.561799e-06
-2.372175	know	0.1423269
-4.150327	know-it-all	0.03221817
-4.150327	known	-0.0002596772
-3.752387	knows	0.005016376
-4.150327	knuckle	-0.0001828585
-3.849297	lab	0.03188577
-4.150327	lackey	0.009465247
-3.752387	ladies	0.002835307
-3.974235	lady	0.03423508
-4.150327	lamb	-0.0002596772
-4.150327	lame	0.009465247
-4.150327	lamp	0.03221817
-4.150327	landlord	0.03221817
-4.150327	lantern	0.001387216
-4.150327	large	-0.0002443146
-4.150327	largest	-0.0002443146
-3.849297	laser	0.05937372
-4.150327	lash	-0.0001674932
-3.275265	last	-0.00127945
-3.849297	late	0.03317975
-3.673205	later	0.06938655
-3.974235	laugh	0.03288904
-4.150327	laughed	0.02499427
-3.974235	laughs	0.03207305
-4.150327	lawful	0.0005091218
-3.974235	lawyer	0.0592408
-3.974235	lead	0.006730934
-4.150327	league	-0.0002289514
-3.849297	learn	-1.01176e-05
-4.150327	learning	0.002143491
-3.752387	least	0.01141532
-4.150327	leather	-0.0002596772
-3.849297	leave	0.02871693
-3.849297	leaving	-0.0006560917
-4.150327	led	-0.0001213938
-3.849297	left	0.01413182
-4.150327	leg	0.002344356
-4.150327	legally	0.03221817
-4.150327	lesson	0.02499427
-2.817888	let	0.02817617
-4.150327	lets	-0.0001982234
-3.974235	letter	0.03239157
-4.150327	letters	-0.0002596772
-3.849297	letting	0.007551122
-3.849297	level	0.03192797
-4.150327	lever	0.003071339
-4.150327	library	1.561799e-06
-3.497114	life	0.07003786
-4.150327	lifelike	0.02499427
-3.849297	light	0.03186548
-4.150327	lightning	-0.0002596772
-2.625282	like	0.1269124
-4.150327	liked	0.03221817
-4.150327	liking	0.0005706848
-3.849297	line	0.04230588
-4.150327	lip	0.03221817
-3.752387	listen	0.03388287
-4.150327	lit	0.005586474
-4.150327	literally	-0.0002289514
-3.036383	little	0.07114442
-3.548267	live	0.001146548
-3.752387	lives	0.01100761
-3.752387	living	0.00151952
-3.974235	lock	0.03880268
-4.150327	logical	-0.0002596772
-4.150327	logs	-0.0002596772
-3.305228	long	0.06757316
-3.974235	longer	0.03202711
-3.036383	look	0.07483951
-3.974235	looked	0.0248993
-3.673205	looking	0.03430891
-3.752387	looks	0.00637362
-4.150327	lordly	1.693371e-05
-3.974235	lose	0.03505137
-3.673205	lost	0.02003925
-3.275265	lot	0.04415304
-4.150327	loud	0.03221817
-3.196084	love	0.06515019
-4.150327	lovebug	0.03221817
-3.849297	loved	0.00984747
-4.150327	loves	-0.0002596772
-4.150327	loving	0.01010985
-3.974235	luck	0.03207305
-3.974235	lucky	0.03806325
-3.974235	lunatic	0.03197744
-3.974235	lunch	0.04245095
-4.150327	lure	0.0001706826
-3.752387	lying	0.06953153
-4.150327	ma'am	0.03221817
-3.548267	machine	0.08430959
-3.606258	mad	0.03655495
-3.337413	made	0.02108248
-4.150327	mag-lev	-0.0002443146
-4.150327	magazine	3.23061e-05
-3.849297	magic	0.02459135
-4.150327	mail	-1.380956e-05
-3.071145	make	0.05396883
-3.673205	makes	0.01791479
-3.548267	making	0.01146515
-4.150327	males	0.03221817
-3.372175	man	0.04195081
-4.150327	manage	0.006990091
-4.150327	maniac	0.03221817
-4.150327	manor	-0.0002289514
-4.150327	mantis	0.03221817
-3.974235	many	-0.0004732595
-4.150327	map	0.00440472
-4.150327	marathon	0.03026903
-4.150327	market	-0.0001828585
-4.150327	marriage	-0.0002443146
-3.606258	married	0.05889511
-4.150327	marry	0.01010985
-3.974235	mask	0.0005574241
-4.150327	mass	0.001387216
-4.150327	massive	-0.0002443146
-4.150327	mathematics	0.02499427
-3.497114	matter	0.08042417
-4.150327	mature	0.03221817
-3.548267	may	0.01462898
-3.305228	maybe	0.04954368
-2.344146	me	0.1550477
-3.974235	meal	0.03501802
-2.932842	mean	0.06511979
-4.150327	meaning	0.03221817
-3.752387	means	0.03017313
-3.974235	meant	0.0592408
-4.150327	measure	0.00608502
-4.150327	mechanics	0.00257624
-3.372175	meet	0.05232391
-4.150327	meets	-0.0001060262
-4.150327	member	0.00257624
-4.150327	memory	0.03221817
-3.849297	men	0.03490629
-4.150327	mention	0.02499427
-4.150327	menus	0.03221817
-4.150327	meow	0.0006476506
-4.150327	mercy	0.002143491
-4.150327	merely	-0.0001213938
-4.150327	merrier	0.03221817
-4.150327	messages	-0.0001674932
-4.150327	messed	0.0008324237
-3.673205	met	0.06162567
-4.150327	method	0.001464327
-4.150327	microscope	0.003071339
-3.849297	middle	0.002357296
-3.150326	might	0.0298132
-4.150327	miles	-0.0002135877
-3.451357	mind	0.05850426
-3.974235	mine	0.0592408
-4.150327	minestrone	0.03221817
-4.150327	miniature	0.0004937325
-3.606258	minute	0.04235363
-4.150327	minutes	0.03221817
-3.974235	mirror	0.0592408
-4.150327	miserable	0.003071339
-3.849297	miss	0.001439126
-4.150327	misses	-9.065811e-05
-4.150327	missing	0.009465247
-3.974235	mission	0.007465794
-3.849297	mistake	0.03256149
-4.150327	mistakes	0.02499427
-4.150327	misunderstanding	0.03221817
-4.150327	mitzvah	-0.0001982234
-4.150327	mobsters	3.23061e-05
-4.150327	model	0.03221817
-4.150327	modern	0.03221817
-4.150327	molecular	-0.0002596772
-3.849297	mom	0.03196484
-4.150327	moment	0.002560777
-3.337413	money	0.08127349
-4.150327	monster	0.03221817
-4.150327	month	0.001464327
-3.849297	months	0.05909572
-3.974235	mood	0.001220199
-3.974235	moon	0.0592408
-3.172603	more	0.07928591
-3.409964	morning	0.07632714
-3.673205	most	0.00181686
-3.247236	mother	0.08051581
-3.673205	mouth	0.04217595
-3.548267	move	0.01690303
-4.150327	moved	7.84267e-05
-4.150327	movements	0.00117138
-3.974235	moves	0.003059679
-3.451357	movie	0.03624891
-3.849297	movies	0.05909572
-3.673205	moving	0.008637626
-3.305228	much	0.040766
-4.150327	muffins	0.03221817
-4.150327	murder	-0.0002596772
-3.974235	music	0.03207305
-4.150327	musicals	0.02499427
-3.849297	must	0.03391138
-4.150327	mustard	0.009465247
-2.41393	my	-0.01910148
-3.548267	myself	0.0606295
-1.990459	n't	0.1252828
-2.849297	na	0.003499285
-4.150327	nag	0.00168031
-3.974235	naked	0.01100107
-3.305228	name	0.04958196
-3.974235	names	0.001251051
-4.150327	nana	0.006833911
-3.974235	nano	-0.0003894421
-4.150327	nap	0.02499427
-4.150327	narcissistic	-0.0002596772
-3.220908	nard	-0.002170277
-4.150327	narrows	0.00440472
-3.974235	nature	0.01394545
-4.150327	necessary	0.03221817
-4.150327	neck	-0.0002596772
-3.108934	need	0.08128197
-3.752387	needed	0.04579735
-4.150327	needle	-5.992032e-05
-4.150327	needlepoint	-0.0002596772
-3.849297	needs	0.007524193
-4.150327	negotiate	0.005586474
-3.974235	neighbour	0.007481445
-4.150327	neither	0.02499427
-4.150327	neon	-0.0002289514
-4.150327	nerd	0.02499427
-4.150327	nerds	0.03221817
-3.974235	nervous	0.03207305
-4.150327	net	0.03221817
-4.150327	network	-7.528951e-05
-4.150327	neuro-chemical	-0.0002596772
-3.108934	never	0.002303033
-3.247236	new	-0.001420808
-3.974235	news	0.03332065
-3.451357	next	0.008593561
-3.150326	nice	0.08430268
-3.071145	night	0.07149401
-4.150327	nightmare	0.03221817
-4.150327	nights	0.009465247
-4.150327	nine	-0.0002596772
-4.150327	ninja	0.03221817
-4.150327	nipples	0.03221817
-2.612507	no	0.05125429
-4.150327	no-no-no	0.02499427
-4.150327	no-one	-0.0002289514
-4.150327	none	0.00257624
-4.150327	nonsense	0.006990091
-4.150327	normally	0.003536008
-4.150327	north	-0.0001213938
-4.150327	nose	-0.0002596772
-2.269513	not	0.1173318
-3.606258	nothing	0.04593585
-3.673205	notice	0.07787674
-4.150327	noticed	0.01230234
-3.071145	now	0.1189603
-4.150327	numerically	-0.0001213938
-4.150327	o'clock	0.001850085
-3.974235	obnoxious	0.02512741
-4.150327	observation	0.00257624
-4.150327	obvious	0.03221817
-4.150327	obviously	-0.0002135877
-4.150327	odd	0.03221817
-2.181844	of	0.01565354
-3.071145	off	0.06536613
-4.150327	offered	0.006990091
-4.150327	offers	0.0005706848
-3.673205	office	0.03163795
-4.150327	offspring	0.03221817
-3.673205	oh	0.02441405
-2.988959	okay	0.07699633
-3.606258	old	-0.00134283
-4.150327	olive	0.03221817
-2.252699	on	0.1138873
-3.548267	once	0.03927621
-2.779259	one	0.05660403
-4.150327	one-on-one	0.03221817
-4.150327	onesie	0.01230234
-4.150327	online	-0.0002596772
-3.247236	only	0.01036668
-3.673205	open	0.04004924
-3.974235	opened	0.000572826
-4.150327	opera	-0.0001674932
-4.150327	operant	-0.0002596772
-4.150327	opinion	0.03221817
-4.150327	opposable	-0.0002596772
-4.150327	option	0.03221817
-4.150327	options	-0.0001982234
-4.150327	optometrist	0.02499427
-3.172603	or	0.01802777
-4.150327	orang-u-tan	0.009465247
-3.849297	order	0.005628943
-3.974235	ordered	0.03224244
-3.974235	orders	0.01210683
-3.409964	other	0.03960563
-3.004199	our	-0.004433969
-4.150327	ours	0.02499427
-3.974235	ourselves	0.03259049
-2.559262	out	0.1106614
-4.150327	out-of-the-box	-0.0001521272
-3.849297	outside	0.05898565
-4.150327	oven	0.009465247
-3.172603	over	0.08980666
-4.150327	overcome	-0.0002289514
-4.150327	overlay	0.03221817
-3.974235	overreacting	0.03207305
-4.150327	overseas	-0.0001982234
-4.150327	oversell	0.001788341
-3.849297	owe	0.006643668
-3.409964	own	0.05799434
-4.150327	owner	0.006833911
-4.150327	p.m.	0.03026903
-4.150327	page	0.03221817
-4.150327	paid	6.305263e-05
-3.974235	pain	0.001704957
-4.150327	painkillers	0.03221817
-4.150327	paintball	-0.0002596772
-4.150327	painted	0.002143491
-4.150327	palm	0.006833911
-4.150327	panicked	0.03221817
-3.974235	pants	0.03207305
-3.673205	paper	0.03831849
-4.150327	paradigm	-0.0002596772
-4.150327	parents	0.0004629556
-4.150327	park	-0.0002289514
-4.150327	parked	0.0009094356
-3.974235	part	0.009457724
-4.150327	particle	-0.0001674932
-4.150327	particulares	0.03221817
-4.150327	parties	0.03221817
-4.150327	partners	0.001850085
-3.606258	party	0.05918181
-4.150327	passes'	0.03026903
-4.150327	passing	7.84267e-05
-4.150327	password	0.03221817
-4.150327	pathetic	0.02499427
-3.974235	pay	0.007575349
-4.150327	paying	0.001464327
-4.150327	peach	-0.0002596772
-4.150327	pee	-0.0001060262
-4.150327	pee-pee	0.02499427
-4.150327	peed	0.001387216
-4.150327	peer-reviewed	-0.0002596772
-3.196084	people	0.05529705
-4.150327	pepper	0.02499427
-3.849297	perfect	0.0319814
-4.150327	perfectly	0.0001553052
-4.150327	perform	-0.0002596772
-3.849297	person	0.01939509
-4.150327	personality	0.02499427
-4.150327	persuasive	0.03221817
-3.974235	pet	-0.0002204171
-4.150327	petals	0.03221817
-3.752387	phone	0.03181076
-4.150327	phones	0.03221817
-4.150327	photomultiplier	0.03221817
-4.150327	photons	0.003164232
-4.150327	physic	0.0002783391
-3.974235	physicist	0.03207305
-4.150327	physicists	0.03221817
-3.548267	physics	0.06204693
-3.673205	pick	0.007856676
-4.150327	picked	0.0005245119
-3.974235	picture	0.002332231
-3.974235	pieces	0.03501802
-4.150327	pigeon	0.006833911
-4.150327	pile	0.00257624
-4.150327	pill	-0.0002596772
-4.150327	pillow	0.03221817
-4.150327	pinkeye	0.03221817
-4.150327	pit	-0.0002596772
-4.150327	pitcher	0.001850085
-3.337413	place	0.04501627
-3.849297	plan	0.03440634
-4.150327	planet	0.0002783391
-3.974235	planned	0.02656401
-4.150327	planning	0.03221817
-4.150327	plans	-0.0002596772
-4.150327	plate	0.03221817
-3.548267	play	0.01291152
-3.974235	playa	0.04245095
-4.150327	played	0.003164232
-3.974235	playing	0.03197744
-3.497114	please	0.03692533
-4.150327	pleasure	0.002344356
-4.150327	plexiglass	-0.0002135877
-3.974235	plumbing	0.03207305
-4.150327	plunge	-0.0001674932
-4.150327	podiatrist	0.02499427
-3.451357	point	0.07225535
-4.150327	police	0.03221817
-4.150327	polish	0.0008324237
-4.150327	polishing	0.03221817
-4.150327	polite	0.03221817
-4.150327	poodles	-1.380956e-05
-4.150327	poop	0.02499427
-3.974235	poor	-0.0002888392
-3.974235	popular	0.002455966
-4.150327	positioned	-0.0002596772
-4.150327	positronium	0.03221817
-3.974235	possible	0.01096952
-4.150327	possibly	-0.0001828585
-4.150327	poster	-0.0002135877
-4.150327	posterity	0.006990091
-4.150327	potential	-0.0002596772
-4.150327	potion	0.02499427
-4.150327	pound	0.03221817
-4.150327	power	1.693371e-05
-4.150327	powerful	-0.0002596772
-4.150327	practice	0.001387216
-4.150327	practicing	0.001094321
-4.150327	prayed	0.001464327
-4.150327	praying	-0.0002596772
-4.150327	pre-adolescent	-0.0002596772
-4.150327	pre-nup	0.03221817
-4.150327	presence	0.03221817
-4.150327	president	-4.45506e-05
-3.974235	pressure	0.02473643
-3.673205	pretend	0.03570022
-3.409964	pretty	0.024748
-4.150327	price	0.03221817
-4.150327	primordial	-0.0002289514
-4.150327	principle	0.002344356
-4.150327	prison	0.001464327
-4.150327	pro-bed	0.03221817
-3.673205	probably	0.002736837
-3.337413	problem	0.07456563
-3.974235	problems	0.03196088
-4.150327	products	0.00117138
-4.150327	professor	0.0006014694
-4.150327	proffer	0.00257624
-4.150327	programs	0.003071339
-4.150327	progress	0.009465247
-4.150327	projection	0.02499427
-3.974235	prom	0.01100107
-3.974235	promise	0.01221756
-4.150327	promised	0.002560777
-4.150327	promptly	0.003071339
-4.150327	prop	0.03221817
-4.150327	proposal	0.03221817
-3.849297	propose	0.03963422
-3.974235	proposed	0.03505137
-4.150327	prostitute	-0.0001674932
-4.150327	prostitutes	-0.0002596772
-4.150327	protect	0.00608502
-3.606258	proud	0.034438
-3.974235	prove	0.006762179
-4.150327	psychiatrist	0.02499427
-4.150327	psychologists	-0.0002596772
-4.150327	public	-0.0002596772
-3.974235	published	0.03423508
-4.150327	pull	0.0003860226
-4.150327	pulling	0.0009094356
-4.150327	pummel	0.01010985
-3.974235	punishment	0.03381919
-4.150327	puppet	0.03221817
-4.150327	puppets	0.009465247
-4.150327	purely	-0.0002443146
-3.974235	purpose	0.0592408
-4.150327	pursuit	0.00257624
-3.849297	push	0.03193172
-3.305228	put	0.0331982
-4.150327	putting	0.00608502
-4.150327	puzzle	0.03221817
-4.150327	qualified	0.000262958
-4.150327	qualities	0.02499427
-4.150327	quartets	-0.0002135877
-4.150327	quest	0.03221817
-3.849297	question	0.06096487
-3.849297	questions	0.04230588
-4.150327	quick	0.03221817
-3.974235	quiet	0.02540457
-4.150327	quip	0.01230234
-4.150327	quirky	0.03221817
-3.974235	quit	0.0329886
-4.150327	quite	6.305263e-05
-3.849297	quote	-0.000702196
-4.150327	raccoon	0.03221817
-4.150327	racist	0.03221817
-3.974235	radiation	0.001621437
-4.150327	rails	0.0007400269
-4.150327	raining	0.03221817
-4.150327	random	-2.918043e-05
-4.150327	ranking	0.03221817
-4.150327	rash	0.03221817
-3.974235	rat	0.03405203
-3.974235	rather	0.01209101
-4.150327	ray	0.009465247
-4.150327	re-evaluate	0.001294702
-3.752387	read	0.03083406
-3.849297	ready	0.0334789
-3.497114	real	0.02397083
-3.974235	realized	0.03573557
-2.743786	really	0.08038492
-3.497114	reason	0.08527546
-3.974235	reasonable	0.0397793
-4.150327	received	0.005586474
-4.150327	recognize	-1.380956e-05
-4.150327	red	0.0004321806
-4.150327	red-eye	0.03221817
-4.150327	reduction	0.03221817
-4.150327	refer	0.006990091
-4.150327	referring	0.006990091
-4.150327	refers	0.006990091
-4.150327	reflectors	0.002143491
-4.150327	regarded	-0.0002596772
-4.150327	regards	0.003071339
-4.150327	regular	-0.0002596772
-4.150327	reiterate	0.02499427
-3.606258	relationship	0.05068505
-4.150327	relativity	0.003071339
-3.849297	relax	0.02812289
-4.150327	relentless	0.02499427
-4.150327	relocate	0.03221817
-4.150327	remains	0.00257624
-3.305228	remember	0.01755713
-4.150327	reminds	0.00168031
-4.150327	reneged	0.002143491
-4.150327	rent	0.005586474
-4.150327	rented	0.00440472
-4.150327	renting	0.005586474
-4.150327	repentance	0.03221817
-4.150327	replica	0.00257624
-3.974235	report	0.001914885
-4.150327	research	-0.0002596772
-4.150327	reservations	0.003164232
-4.150327	resident	-0.0002596772
-4.150327	resources	0.009465247
-4.150327	respected	-0.0002443146
-4.150327	response	0.03221817
-3.849297	rest	0.004793019
-4.150327	restaurant	0.03221817
-3.974235	return	0.004875872
-4.150327	reversible	0.03221817
-4.150327	revolting	-0.0001213938
-4.150327	rid	0.00257624
-3.974235	ride	0.006699692
-3.752387	ridiculous	0.05895068
-2.798144	right	0.08711581
-4.150327	rightie	0.03221817
-3.673205	ring	0.07713977
-3.849297	ripped	-0.0003263037
-4.150327	roadblock	0.001495175
-3.974235	robot	0.03197744
-4.150327	robotic	-0.0002443146
-4.150327	rock	0.003071339
-3.974235	rocket	0.03505137
-4.150327	roll	0.002344356
-3.974235	romance	0.03196088
-3.849297	romantic	0.032383
-3.451357	room	0.04349272
-3.673205	roommate	0.05873091
-4.150327	root	0.00257624
-4.150327	rose	-0.0002596772
-3.974235	rough	0.03207305
-3.974235	rub	0.001242089
-4.150327	rude	3.23061e-05
-3.974235	ruin	0.0007114678
-4.150327	ruined	0.0003860226
-4.150327	rule	0.0009094356
-3.849297	rules	0.005176982
-4.150327	run	0.001387216
-3.974235	running	0.006840302
-3.974235	sabotage	1.870218e-05
-4.150327	sack	0.03221817
-3.974235	sad	0.01229667
-3.974235	safe	0.03207305
-4.150327	safety	-0.0002596772
-3.220908	said	0.07626478
-4.150327	sake	0.02499427
-3.849297	sale	0.05997413
-4.150327	salespeople	0.003536008
-3.752387	same	0.001241394
-4.150327	sandwiches	0.003071339
-4.150327	sarcasm	-0.0002289514
-4.150327	sarcastic	-0.0002596772
-4.150327	sat	0.001850085
-4.150327	sauna	0.03221817
-4.150327	savage	-0.0002596772
-4.150327	save	0.001387216
-4.150327	saved	0.001788341
-4.150327	savings	0.02499427
-3.673205	saw	0.02362002
-2.718963	say	0.09931071
-3.497114	saying	0.06497519
-3.849297	says	0.01053716
-4.150327	scale	0.03221817
-4.150327	scalped	-0.0002289514
-4.150327	scary	-0.0002596772
-4.150327	scent	0.03221817
-4.150327	scented	-0.0002443146
-4.150327	schedule	-0.0001982234
-3.548267	school	0.07802747
-4.150327	school'	0.03026903
-4.150327	schoolyard	0.009465247
-3.673205	science	0.03379682
-3.974235	science-fiction	0.02473643
-4.150327	scientific	-0.0002443146
-3.752387	scientist	0.0341493
-3.974235	scientists	0.03605301
-4.150327	score	0.001495175
-4.150327	screaming	0.02499427
-4.150327	screen	-0.0002596772
-4.150327	screening	0.009465247
-4.150327	screws	0.003164232
-4.150327	script	0.001001869
-3.974235	scrotum	0.03322101
-4.150327	search	0.002344356
-3.974235	seat	0.03385244
-3.752387	second	0.03147943
-4.150327	secondary	-0.0002596772
-3.849297	seconds	0.05909572
-3.752387	secret	0.0700205
-4.150327	secretly	0.0007554253
-2.895054	see	0.1076917
-3.849297	seeing	0.01172154
-3.849297	seem	0.007034578
-3.752387	seen	0.001155128
-4.150327	self-criticism	0.003071339
-4.150327	self-explanatory	0.03221817
-4.150327	self-respect	0.03221817
-4.150327	selfishness	0.03221817
-3.974235	sell	0.03322101
-3.974235	selling	0.0001263933
-4.150327	sells	0.00608502
-4.150327	semi-pro	0.03221817
-3.673205	send	0.01128616
-4.150327	sending	0.005586474
-4.150327	sends	0.0003860226
-4.150327	sense	0.03221817
-4.150327	sent	0.0005706848
-3.974235	series	0.01210683
-4.150327	serious	0.03221817
-4.150327	serve	0.03221817
-4.150327	service	0.03221817
-4.150327	session	0.00257624
-3.673205	set	0.01029106
-4.150327	sets	0.00257624
-4.150327	setting	0.02499427
-4.150327	settled	0.03221817
-3.849297	seven	-0.0004339184
-3.451357	sex	0.03985527
-4.150327	sex-is-off-the-table	0.01230234
-4.150327	sexier	0.0003706376
-3.974235	sexy	0.002827382
-4.150327	shake	0.0003860226
-3.849297	share	0.005894104
-4.150327	shave	0.009465247
-4.150327	shaved	-0.0002289514
-2.788599	she	0.02681234
-4.150327	sheet	0.03221817
-4.150327	shift	0.02499427
-4.150327	shine	0.03221817
-4.150327	ship	0.001850085
-4.150327	shipping	-9.065811e-05
-4.150327	shirt	7.84267e-05
-4.150327	shirts	0.002143491
-4.150327	shoes	0.01010985
-3.974235	shoot	0.011759
-4.150327	shop	-0.0001213938
-4.150327	shopping	-0.0002596772
-3.974235	short	0.02480157
-3.974235	shorts	0.006262524
-3.849297	shot	0.03540682
-3.004199	should	0.008265257
-4.150327	shoved	0.005586474
-3.372175	show	0.04674136
-4.150327	showcase	-5.992032e-05
-4.150327	shower	0.03221817
-4.150327	shown	0.0005706848
-3.974235	shows	0.01021296
-4.150327	shrimpers	-0.0002596772
-4.150327	shush	0.02499427
-3.752387	shut	0.01067941
-4.150327	shuttle	0.002344356
-4.150327	sick	0.03221817
-3.974235	side	0.03247444
-4.150327	sight	0.001464327
-3.849297	sign	0.01113684
-4.150327	sign-in	-0.0002596772
-4.150327	signal	0.02499427
-4.150327	signature	-0.0002596772
-3.849297	silly	0.03279779
-4.150327	silverware	0.03221817
-4.150327	similarities	0.00257624
-3.372175	since	0.03270802
-4.150327	sing	0.00257624
-4.150327	sing-a-longs	0.02499427
-3.974235	single	0.0592408
-4.150327	singles	0.02499427
-4.150327	sinus	-0.0002596772
-4.150327	sinuses	0.03221817
-4.150327	sir	0.03221817
-3.409964	sister	0.08132846
-3.451357	sit	0.04084238
-4.150327	sitting	0.02499427
-4.150327	situps	0.03221817
-4.150327	six	0.03221817
-4.150327	six-part	-0.0002596772
-4.150327	size	0.0002475774
-4.150327	skeleton	0.00257624
-4.150327	ski	0.03221817
-4.150327	skiing	0.03221817
-4.150327	skin	-4.45506e-05
-4.150327	sky	0.03221817
-4.150327	slavery	0.03221817
-3.606258	sleep	0.03696866
-3.974235	sleeping	0.03423508
-3.673205	slept	0.001001112
-4.150327	slices	0.00257624
-4.150327	slipped	0.03221817
-4.150327	slippers	0.03221817
-3.974235	slow	0.004331769
-4.150327	smallest	-0.0002596772
-3.673205	smart	0.04553271
-4.150327	smell	-0.0002596772
-4.150327	smoking	-0.0002596772
-4.150327	snail	0.001850085
-4.150327	sneeze	0.001850085
-2.752387	so	0.1023232
-3.849297	so'	0.02997882
-4.150327	socially	-0.0001982234
-4.150327	society	-4.45506e-05
-4.150327	socks	0.0006014694
-4.150327	soda	0.000216818
-3.974235	software	0.00922198
-4.150327	sold	0.00440472
-4.150327	solution	0.006990091
-3.974235	solve	0.03698996
-3.974235	solved	0.03207305
-4.150327	solving	0.0005245119
-3.053416	some	-0.0005856352
-4.150327	somebody	0.01010985
-4.150327	someday	0.01010985
-4.150327	somehow	0.03221817
-3.372175	someone	0.0434919
-3.129137	something	0.0759507
-3.849297	sometimes	0.01835017
-3.974235	somewhere	0.03207679
-3.974235	song	0.00932012
-3.849297	soon	0.05958553
-2.871573	sorry	0.09361822
-3.974235	sort	0.002409561
-4.150327	soul	0.03221817
-4.150327	sound	0.03221817
-3.752387	sounds	0.007260719
-4.150327	soup	0.03221817
-4.150327	space	-0.0002596772
-3.974235	spaces	0.03207305
-4.150327	spam	-0.0002596772
-4.150327	speaking	0.00257624
-3.974235	spear	-0.0003894421
-4.150327	spear-fishing	-0.0002443146
-3.974235	special	0.02656401
-4.150327	specifically	0.02499427
-4.150327	speed	0.02499427
-4.150327	spell	-0.0002443146
-3.673205	spend	0.01010524
-3.849297	spending	0.0009143726
-3.606258	spent	0.008531989
-4.150327	sperm	-0.0001060262
-4.150327	sphincter	0.03221817
-4.150327	spider	0.03221817
-4.150327	spill	-0.0002596772
-4.150327	spin	0.009465247
-4.150327	spits	0.002143491
-4.150327	splurging	0.002143491
-4.150327	spoil	0.00608502
-4.150327	sports	0.03221817
-3.974235	spot	0.03207305
-4.150327	squashed	0.006990091
-4.150327	stab	0.001387216
-4.150327	stable	-0.0002596772
-4.150327	stack	0.00608502
-3.752387	stand	0.01227005
-4.150327	standard	-0.0002596772
-3.849297	standing	0.00128472
-4.150327	stands	0.001464327
-4.150327	staring	0.0006014694
-3.606258	start	0.04377377
-3.752387	started	0.001179612
-4.150327	starters	0.03221817
-3.849297	starting	0.006699884
-4.150327	stash	0.00257624
-4.150327	state-of-the-art	-0.0002596772
-4.150327	stately	-0.0002596772
-3.974235	station	0.006777802
-3.451357	stay	0.03883713
-3.974235	staying	-0.0003503212
-4.150327	steaks	0.002143491
-4.150327	stealing	0.0005706848
-4.150327	steam	0.001387216
-4.150327	steamed	0.001094321
-4.150327	step	0.03221817
-3.275265	still	0.01382509
-4.150327	sting	0.009465247
-4.150327	stolen	0.03221817
-4.150327	stoned	1.561799e-06
-3.752387	stop	0.03363763
-3.673205	stopped	0.001405452
-4.150327	stopping	-0.0001367608
-4.150327	stops	0.03221817
-3.606258	store	0.03497188
-4.150327	storm	0.0006630451
-3.849297	story	0.009418923
-4.150327	stove	0.02499427
-3.974235	straight	0.03381919
-3.974235	strange	-0.0003503212
-4.150327	straying	7.84267e-05
-4.150327	stream	0.003071339
-4.150327	street	0.03221817
-4.150327	strength	0.02499427
-3.849297	string	-0.0005037945
-3.849297	strong	0.0001900219
-4.150327	struck	0.0009094356
-4.150327	stuck	0.005586474
-3.974235	student	0.01270828
-4.150327	students	0.03221817
-3.974235	study	0.002920286
-3.372175	stuff	0.06199313
-4.150327	stuffed	-5.992032e-05
-3.548267	stupid	0.03570645
-4.150327	subject	0.0004321806
-4.150327	substitution	0.02499427
-4.150327	succeeding	-0.0001982234
-4.150327	successful	-0.0001367608
-3.673205	such	0.004907696
-4.150327	sucking	0.00608502
-4.150327	suddenly	0.0007554253
-4.150327	sugar	-0.0002135877
-4.150327	suggest	0.01010985
-3.974235	suggesting	0.01079603
-3.974235	suit	0.03277291
-4.150327	summer	0.009465247
-4.150327	sunk	0.006990091
-4.150327	sunscreen	0.03221817
-4.150327	super	-0.0002596772
-4.150327	super-heavy	-0.0002596772
-4.150327	supercollider	0.0006476506
-4.150327	superpowers	0.001464327
-4.150327	supper	0.03221817
-3.974235	support	0.01194869
-3.752387	supposed	0.006554854
-3.019993	sure	0.1065262
-4.150327	surface	0.00257624
-4.150327	surgery	0.02499427
-3.752387	surprise	0.03551731
-4.150327	surprised	0.03221817
-4.150327	surround	-0.0002596772
-4.150327	sushi	0.009465247
-4.150327	swap	-0.0001060262
-4.150327	swear	0.02499427
-4.150327	sweaty	0.03221817
-4.150327	sweetie	0.003071339
-4.150327	swelling	0.0008324237
-4.150327	swept	7.84267e-05
-4.150327	swing	0.001495175
-4.150327	symposium	0.002143491
-4.150327	synonyms	0.0006476506
-4.150327	synthesizing	0.005586474
-3.974235	system	0.03207305
-4.150327	ta	0.0005399024
-3.974235	table	0.0592408
-4.150327	tableau	0.00257624
-4.150327	tag	0.002143491
-3.974235	tail	0.03207305
-3.071145	take	0.03330273
-4.150327	take-out	0.003071339
-3.974235	taken	0.004316234
-3.974235	takes	0.0002033315
-3.606258	taking	0.01723925
-3.150326	talk	0.04112757
-3.974235	talked	0.0592408
-3.337413	talking	0.0414246
-4.150327	tall	0.0002783391
-4.150327	tank	0.03221817
-4.150327	tape	0.03221817
-4.150327	tapestry	0.03221817
-3.974235	tea	0.04245095
-4.150327	teach	-0.0002596772
-3.673205	team	0.0616856
-3.974235	tearing	0.00693407
-4.150327	tears	0.03221817
-4.150327	teaspoon	0.00257624
-4.150327	technically	0.02499427
-3.974235	technology	0.03207305
-3.019993	tell	0.01285195
-3.974235	telling	0.01065413
-4.150327	temporary	-0.0002596772
-3.849297	ten	0.002645371
-3.849297	terrible	0.001114938
-4.150327	terrific	-0.0002596772
-4.150327	terrorizing	0.00608502
-4.150327	test	0.003071339
-4.150327	testicles	3.23061e-05
-4.150327	testing	0.0002321975
-4.150327	testosterone	-0.0002596772
-4.150327	text	0.003071339
-4.150327	texting	0.003071339
-4.150327	texts	0.03221817
-4.150327	th-th-there	0.01010985
-3.451357	than	0.01763738
-3.673205	thank	0.009636163
-3.974235	thanks	0.02656401
-2.101109	that	0.1479202
-4.150327	that'	0.03026903
-1.836459	the	-0.04848878
-3.548267	their	-0.00146407
-2.974235	them	0.1142936
-4.150327	theme	-0.0002443146
-4.150327	themed	-0.0002289514
-3.172603	then	0.09913968
-3.974235	theoretical	-0.0003126208
-3.752387	theory	0.06277252
-4.150327	therapy	-4.45506e-05
-2.658965	there	0.09667316
-4.150327	thermostat	-0.0002596772
-3.548267	these	0.01012075
-2.907289	they	0.01775466
-3.129137	thing	0.1071389
-3.071145	things	0.06691796
-2.527077	think	0.08843525
-3.497114	thinking	0.05370693
-3.974235	thinks	0.01215721
-4.150327	third	-0.0002596772
-3.849297	thirty	-0.000302463
-2.321023	this	0.08608942
-3.337413	those	0.005000149
-3.275265	thought	0.06670851
-4.150327	thoughts	0.001001869
-3.974235	thousand	-0.0004578941
-4.150327	threaten	0.006990091
-3.409964	three	0.03319075
-4.150327	threesome	0.001495175
-3.974235	threw	0.007763219
-4.150327	thrives	-0.0001828585
-3.548267	through	0.03496385
-3.673205	throw	0.007942456
-3.974235	throwing	0.001297332
-4.150327	thumbs	-0.0002289514
-4.150327	thy	-7.528951e-05
-4.150327	ticket	0.006990091
-3.849297	tickets	0.03194828
-4.150327	tickles	0.0003706376
-4.150327	ties	0.0003398691
-2.743786	time	0.1103145
-3.974235	times	0.01066989
-3.974235	timing	0.0592408
-3.974235	tired	0.002431113
-1.779259	to	0.08566871
-4.150327	toast	0.009465247
-4.150327	toaster	-0.0002596772
-3.974235	today	0.009300548
-3.275265	together	0.07987522
-3.451357	told	0.01234679
-4.150327	tomatoes	0.002143491
-3.752387	tomorrow	0.07328916
-4.150327	tongue	0.009465247
-3.372175	tonight	0.07271424
-3.053416	too	0.06694438
-3.752387	took	0.01796344
-4.150327	toothbrush	0.002344356
-4.150327	top	0.03221817
-3.974235	topic	0.0592408
-4.150327	torch	0.009465247
-4.150327	totally	0.001001869
-3.974235	tough	0.007497092
-4.150327	toughest	-0.0002135877
-4.150327	track	0.03221817
-4.150327	traffic	-0.0002443146
-3.974235	train	0.001127658
-4.150327	trapped	0.001850085
-4.150327	travel	-0.0002289514
-4.150327	tree	0.0003706376
-4.150327	trial	0.001464327
-4.150327	trick	0.001495175
-3.548267	tried	0.01071179
-3.974235	trip	0.03373606
-4.150327	troll	-0.0001982234
-4.150327	trouble	0.03221817
-4.150327	truce	0.03221817
-4.150327	trucker	0.03221817
-3.409964	true	0.06725466
-4.150327	truly	0.00608502
-4.150327	trunk	0.009465247
-3.974235	trust	0.0008655654
-3.409964	try	0.0798777
-3.497114	trying	0.03155497
-3.974235	tubes	0.0592408
-4.150327	tuckered	0.0009094356
-3.606258	turn	0.06513526
-4.150327	turned	-0.0002596772
-4.150327	turning	0.00440472
-4.150327	twelve	0.02499427
-4.150327	twenty	-0.0002289514
-4.150327	twice	0.009465247
-4.150327	twin	-0.0001213938
-4.150327	twitching	0.02499427
-3.172603	two	0.05356468
-4.150327	two-stage	-0.0002443146
-4.150327	typical	-0.0002443146
-3.053416	uh	0.02212613
-4.150327	uh-oh	0.03221817
-3.548267	um	0.02412423
-4.150327	un-pause	0.00440472
-4.150327	unbelievable	0.03221817
-4.150327	uncles	0.00117138
-4.150327	uncomfortable	0.03221817
-3.606258	under	0.03855027
-4.150327	under'	0.03026903
-4.150327	underestimate	0.00608502
-4.150327	undergone	0.005586474
-4.150327	underpants	0.03221817
-3.606258	understand	0.04057065
-4.150327	understands	0.00608502
-4.150327	undertow	0.02499427
-4.150327	underwear	0.01010985
-4.150327	unfamiliar	0.001495175
-3.974235	unhappy	0.004580418
-4.150327	uniform	-0.0001367608
-3.974235	universe	0.002904801
-4.150327	unless	0.001001869
-3.752387	until	0.0164745
-4.150327	unusual	0.02499427
-2.588034	up	0.1098037
-4.150327	upgrade	0.001464327
-4.150327	upon	0.001094321
-3.974235	upset	0.0592408
-4.150327	upsets	0.001634019
-4.150327	upside	0.006990091
-4.150327	urinary	-0.0002596772
-4.150327	urologist	0.03221817
-2.919878	us	0.06110867
-3.497114	use	0.01409935
-3.409964	used	0.01148288
-4.150327	user	-7.528951e-05
-3.849297	uses	0.009214486
-4.150327	using	0.001094321
-3.974235	usually	0.0007114673
-3.974235	vacuum	-0.0003894421
-3.974235	valid	-0.0004886243
-4.150327	value	0.00257624
-4.150327	vampires	0.003071339
-3.974235	version	0.004052212
-3.337413	very	0.02351018
-3.974235	vet	0.03207305
-4.150327	vicious	-0.0002596772
-4.150327	victim	0.03221817
-4.150327	victory	0.03221817
-3.974235	video	0.03196088
-3.849297	village	0.03256149
-4.150327	villain	-0.0002596772
-4.150327	virtual	-0.0002596772
-4.150327	voodoo	0.009465247
-4.150327	vote	0.03221817
-4.150327	votes	0.02499427
-3.974235	vulnerable	0.006844964
-3.497114	wait	0.07225504
-4.150327	waited	9.380135e-05
-4.150327	waiter	0.03221817
-3.752387	wake	0.00111523
-4.150327	walk	0.0009094356
-4.150327	walked	-0.0001521272
-4.150327	walking	0.03221817
-4.150327	wallets	0.02499427
-4.150327	walls	-0.0002135877
-4.150327	wandered	7.84267e-05
-2.600098	want	0.1025864
-3.451357	wanted	0.01372375
-4.150327	wanting	0.006990091
-3.752387	wants	0.006554854
-4.150327	warm	0.0008324237
-4.150327	warning	0.01010985
-2.41393	was	0.1124964
-4.150327	was'	0.03026903
-4.150327	wasp	0.000216818
-4.150327	waste	0.03221817
-4.150327	wasted	-0.0002135877
-3.548267	watch	0.02674811
-4.150327	watching	0.001788341
-3.752387	water	0.06991132
-3.974235	wave	-0.0005039886
-3.129137	way	0.10663
-2.184185	we	0.0291396
-4.150327	weaponised	-0.0002596772
-3.673205	wear	0.005703539
-3.548267	wearing	0.02497962
-4.150327	webcams	0.02499427
-3.974235	wedding	0.0111273
-3.974235	week	0.009316263
-3.752387	weekend	0.03586835
-3.849297	weeks	0.05909572
-3.409964	weird	0.04992916
-3.974235	welcome	0.0397793
-3.275265	well	0.05901433
-4.150327	well-being	-0.0001367608
-4.150327	well-known	0.001850085
-3.275265	went	0.04918768
-2.779259	were	0.06694308
-2.438519	what	0.1164868
-3.974235	whatever	0.04314692
-4.150327	wheel	0.03221817
-2.817888	when	0.03539257
-4.150327	whenever	0.00440472
-3.172603	where	0.0561313
-4.150327	wherever	0.002560777
-3.606258	which	0.03424736
-3.372175	while	0.06526668
-4.150327	whispering	0.02499427
-4.150327	white	-0.0002596772
-3.129137	who	0.02382569
-4.150327	whoa	0.03221817
-4.150327	whoever	-0.0002289514
-3.372175	whole	-0.001732644
-3.036383	why	0.08019733
-3.196084	will	0.04368552
-4.150327	willing	0.006990091
-4.150327	wimping	0.0009094356
-3.974235	win	0.00922198
-4.150327	window	0.009465247
-3.974235	wine	0.031994
-4.150327	wing-man	0.03221817
-4.150327	winner	0.00257624
-3.974235	wins	0.005939892
-3.548267	wish	0.03286629
-2.386899	with	0.06497049
-3.752387	without	-0.0001003792
-3.606258	wo	0.003446705
-3.497114	woman	0.04390974
-3.337413	women	0.08614694
-3.974235	wonder	0.001992141
-4.150327	wonderful	0.03221817
-4.150327	wondering	0.000693836
-3.974235	wood	0.03303839
-3.548267	word	0.01670833
-3.849297	words	0.05909572
-3.089629	work	0.0902418
-4.150327	worked	0.001495175
-3.673205	working	0.03745502
-3.752387	works	0.03439922
-4.150327	world	0.03221817
-4.150327	worm	0.03221817
-3.606258	worried	0.03294422
-3.752387	worry	0.02578362
-3.974235	worse	0.04245095
-4.150327	worships	-0.0002135877
-3.974235	worst	0.03227557
-4.150327	worthwhile	0.006990091
-2.76116	would	0.03453946
-4.150327	wound	0.0008324237
-4.150327	wounds	0.00257624
-3.974235	wow	0.03207305
-3.974235	wrapped	0.001590559
-4.150327	writing	0.006990091
-3.548267	wrong	0.07154398
-3.974235	wrote	0.03210992
-4.150327	y-yeah	0.03221817
-4.150327	yammering	-0.0002596772
-4.150327	yanked	-7.528951e-05
-4.150327	yards	0.03221817
-4.150327	yea	0.03026903
-3.129137	yeah	0.06770657
-3.752387	year	0.04113443
-3.451357	years	0.06262715
-4.150327	yelling	0.02499427
-3.752387	yes	0.05895068
-3.849297	yesterday	0.03192797
-3.673205	yet	0.04201586
-3.974235	yoga	0.04245095
-4.150327	yoghurt	0.003164232
-1.62593	you	0.09663865
-4.150327	young	-0.0001060262
-2.497114	your	-0.01724587
-3.974235	yours	0.03207305
-3.548267	yourself	0.05338048
-4.150327	yourselves	0.001850085
-3.849297	zero	0.001470013
-4.150327	zip	0.001094321
-4.150327	zoo	0.03221817

\2-grams:
-1.940374	! </s>
-3.183412	! Abort
-3.183412	! And
-3.007321	! Are
-3.183412	! For
-3.183412	! Funny
-3.007321	! Go
-3.183412	! Go-Go-Go-Go
-3.007321	! I
-3.183412	! It
-3.183412	! Just
-3.183412	! Man
-3.183412	! No
-3.183412	! No-no-no
-3.183412	! Ow
-3.183412	! Psst
-3.183412	! Sheldon
-3.183412	! Speech
-3.183412	! The
-3.183412	! There
-3.183412	! They
-3.183412	! What
-3.183412	! Why
-3.183412	! Yes
-3.174932	% sex-is-off-the-table
-3.174932	& D
-3.179982	' !
-2.878953	' .
-2.577922	' </s>
-3.179982	' All
-2.878953	' I
-3.179982	' No
-3.179982	' Priya
-3.179982	' Scrimmage'
-3.179982	' Sweet
-3.179982	' There
-3.179982	' We
-3.179982	' a
-3.179982	' and
-3.179982	' do
-3.179982	' just
-3.179982	' let
-3.179982	' man
-3.179982	' music
-3.179982	' never
-3.179982	' spear-fishing
-3.179982	' time
-3.179982	' uh
-3.179982	' uh-oh
-3.179982	' was
-3.179982	' yeah
-3.179982	' you
-3.175077	'Cause I
-3.175077	'Cause sometimes
-3.174932	'Penny already
-3.175512	'cause ,
-2.874482	'cause I
-3.175512	'cause it
-3.174932	'cos you
-3.180842	'd actually
-2.52763	'd be
-3.180842	'd become
-3.180842	'd do
-3.180842	'd eventually
-3.180842	'd feel
-3.180842	'd hate
-3.004751	'd have
-2.879812	'd it
-3.180842	'd jack
-3.180842	'd just
-2.703721	'd like
-3.180842	'd look
-3.180842	'd love
-3.004751	'd make
-3.180842	'd notice
-2.879812	'd say
-3.004751	'd take
-3.180842	'd the
-3.180842	'd they
-3.004751	'd think
-3.004751	'd you
-3.175077	'em .
-3.175077	'em on
-3.174932	'hey ,
-3.174932	'it could
-3.183839	'll also
-3.183839	'll always
-3.183839	'll appreciate
-3.183839	'll ask
-3.183839	'll avoid
-2.308778	'll be
-3.183839	'll check
-3.183839	'll come
-3.183839	'll consider
-3.183839	'll each
-3.183839	'll fall
-2.882809	'll get
-3.183839	'll give
-2.706718	'll go
-2.882809	'll have
-3.007748	'll help
-3.183839	'll just
-3.183839	'll let
-3.183839	'll love
-3.183839	'll meet
-3.183839	'll notice
-3.183839	'll read
-3.007748	'll see
-3.183839	'll send
-3.183839	'll serve
-2.785899	'll show
-3.183839	'll shut
-3.183839	'll sleep
-3.183839	'll stay
-3.183839	'll still
-2.882809	'll take
-3.007748	'll tell
-3.183839	'll try
-3.183839	'll wish
-3.020913	'm ,
-2.799065	'm Leonard
-2.719883	'm a
-3.197005	'm afraid
-3.197005	'm all
-3.197005	'm also
-3.197005	'm at
-3.197005	'm back
-3.197005	'm checking
-3.197005	'm comfortable
-3.197005	'm confident
-3.197005	'm doing
-3.197005	'm done
-3.197005	'm driving
-3.020913	'm fine
-3.197005	'm getting
-3.020913	'm glad
-2.456642	'm going
-2.594945	'm gon
-3.197005	'm hanging
-2.719883	'm happy
-3.197005	'm having
-3.020913	'm her
-3.197005	'm in
-3.197005	'm judging
-2.594945	'm just
-3.197005	'm kind
-3.197005	'm lying
-3.197005	'm no
-2.155612	'm not
-3.197005	'm off
-3.197005	'm on
-3.197005	'm over
-3.197005	'm overreacting
-3.197005	'm playing
-3.197005	'm pretty
-3.197005	'm proud
-3.197005	'm ready
-2.799065	'm really
-3.020913	'm right
-3.197005	'm saying
-3.197005	'm single
-3.197005	'm so
-2.020913	'm sorry
-3.020913	'm still
-3.197005	'm stupid
-2.719883	'm sure
-3.197005	'm telling
-2.719883	'm the
-3.020913	'm tired
-3.020913	'm trying
-3.197005	'm turning
-3.197005	'm unfamiliar
-3.197005	'm unhappy
-3.197005	'm up
-3.020913	'm very
-3.197005	'm willing
-2.59384	're a
-3.1959	're across
-3.1959	're all
-3.1959	're almost
-3.1959	're always
-3.1959	're an
-3.1959	're asking
-3.1959	're awful
-3.1959	're back
-3.019808	're being
-3.1959	're broken
-3.1959	're considering
-3.1959	're controlling
-3.1959	're dancing
-3.1959	're dating
-2.718778	're doing
-3.1959	're done
-3.1959	're eloping
-3.1959	're ever
-3.1959	're facing
-2.89487	're feeling
-3.1959	're forbidden
-3.1959	're friends
-2.89487	're getting
-2.417748	're going
-2.89487	're gon
-3.019808	're good
-3.1959	're gorgeous
-3.1959	're graduating
-3.019808	're having
-3.019808	're headed
-3.1959	're helping
-2.89487	're here
-3.1959	're his
-3.1959	're home
-3.1959	're hungry
-3.1959	're in
-3.1959	're irritating
-3.1959	're joking
-2.718778	're just
-2.718778	're kidding
-3.1959	're lawful
-3.019808	're leaving
-3.019808	're making
-2.89487	're more
-3.1959	're my
-2.135202	're not
-3.1959	're off
-3.1959	're okay
-3.1959	're old
-3.1959	're on
-3.1959	're only
-3.019808	're out
-3.1959	're passing
-3.1959	're physicists
-3.1959	're pretty
-3.1959	're probably
-3.019808	're really
-3.1959	're referring
-3.1959	're respected
-2.79796	're right
-3.1959	're safe
-3.1959	're saying
-3.1959	're sleeping
-3.1959	're so
-3.1959	're spending
-3.1959	're state-of-the-art
-3.019808	're still
-3.1959	're sure
-3.1959	're swelling
-3.1959	're synonyms
-3.1959	're talking
-2.89487	're the
-3.1959	're trapped
-3.1959	're up
-3.1959	're welcome
-3.060698	's '
-3.236789	's 'Penny
-2.759668	's ,
-2.935759	's .
-3.236789	's 7
-3.236789	's Blossom
-3.236789	's Chancellor
-3.060698	's Day
-3.236789	's Howard
-3.236789	's Leo
-3.236789	's Leonard
-3.236789	's Leslie
-3.236789	's List
-3.236789	's Mandy
-3.236789	's Pie
-3.060698	's Sheldon
-1.958035	's a
-3.060698	's about
-3.236789	's accomplishments
-3.060698	's actually
-2.583577	's all
-3.236789	's alone
-3.236789	's already
-3.236789	's always
-3.060698	's amazing
-2.759668	's an
-3.236789	's and
-3.236789	's anonymous
-3.236789	's another
-3.236789	's apartment
-3.236789	's asking
-3.236789	's ass
-3.236789	's assume
-3.236789	's award
-3.236789	's basically
-3.236789	's be
-2.935759	's because
-2.759668	's been
-3.236789	's behind
-3.236789	's being
-3.236789	's big
-3.236789	's birthday
-3.236789	's boring
-3.236789	's broken
-3.236789	's business
-3.236789	's call
-3.060698	's called
-3.236789	's calling
-3.236789	's categorized
-3.236789	's centripetal
-3.236789	's choice
-3.236789	's colour
-3.060698	's cool
-3.236789	's currently
-3.236789	's cute
-3.236789	's dangerous
-3.236789	's dark
-3.236789	's date
-3.236789	's dead
-3.060698	's do
-3.236789	's done
-3.236789	's early
-3.236789	's eighteen
-3.236789	's either
-3.236789	's empty
-3.236789	's enough
-3.236789	's escaped
-3.236789	's ex-boyfriend
-3.236789	's exactly
-3.236789	's facebook
-3.236789	's fascinating
-3.060698	's fault
-3.236789	's field
-3.236789	's fifteen
-2.838849	's fine
-3.236789	's finger
-3.236789	's for
-3.236789	's friend
-3.236789	's friendship
-3.236789	's from
-2.935759	's funny
-3.236789	's future
-3.060698	's go
-2.458638	's going
-2.692721	's gon
-3.236789	's gone
-3.060698	's good
-2.759668	's got
-3.236789	's gotten
-2.692721	's great
-3.060698	's had
-3.236789	's hair
-3.236789	's happening
-3.236789	's hard
-3.236789	's harder
-3.236789	's he
-3.236789	's here
-3.236789	's his
-3.236789	's home
-3.236789	's house
-3.236789	's how
-2.935759	's in
-3.236789	's incredible
-3.236789	's indoors
-3.236789	's information
-3.236789	's interested
-2.935759	's it
-2.361728	's just
-3.236789	's keep
-3.236789	's kidding
-2.935759	's kind
-3.236789	's kinda
-2.759668	's like
-3.236789	's mad
-3.236789	's made
-3.236789	's magic
-3.236789	's makes
-3.236789	's miserable
-3.236789	's more
-3.060698	's mother
-3.236789	's move
-3.236789	's moving
-2.692721	's my
-3.236789	's never
-3.060698	's new
-2.838849	's nice
-2.692721	's no
-3.236789	's none
-1.856578	's not
-3.236789	's nothing
-3.236789	's now
-3.236789	's observation
-3.236789	's office
-2.759668	's okay
-3.060698	's on
-3.236789	's only
-2.838849	's out
-2.935759	's over
-3.236789	's perfectly
-3.236789	's pet
-3.236789	's plumbing
-3.236789	's pretend
-3.236789	's pretty
-3.236789	's probably
-3.060698	's proud
-3.236789	's put
-3.236789	's putting
-3.236789	's qualities
-3.236789	's quiet
-3.236789	's racist
-3.236789	's ready
-3.060698	's really
-3.236789	's reasonable
-3.236789	's reversible
-3.060698	's right
-3.236789	's rocket
-3.236789	's rough
-3.236789	's sake
-2.838849	's see
-3.236789	's sending
-3.236789	's settled
-3.236789	's sexier
-3.236789	's she
-2.935759	's sister
-3.236789	's smart
-3.236789	's so
-3.236789	's spot
-3.236789	's starting
-3.236789	's stealing
-3.060698	's still
-3.236789	's stolen
-3.236789	's stoned
-3.236789	's stuff
-3.236789	's stupid
-3.236789	's such
-3.236789	's suggesting
-3.060698	's taking
-3.236789	's talk
-3.236789	's team
-3.236789	's tearing
-3.236789	's testosterone
-2.759668	's that
-2.423876	's the
-3.060698	's there
-3.236789	's thirty
-2.935759	's this
-3.060698	's three
-3.236789	's ticket
-3.236789	's time
-2.838849	's true
-3.060698	's try
-3.060698	's trying
-3.236789	's twelve
-3.236789	's twin
-3.236789	's un-pause
-2.935759	's up
-3.236789	's upset
-3.236789	's village
-3.236789	's watch
-3.060698	's way
-2.692721	's what
-3.060698	's why
-2.935759	's with
-3.236789	's work
-3.236789	's working
-3.236789	's worthwhile
-2.838849	's wrong
-3.236789	's yoghurt
-3.236789	's you
-2.634729	's your
-3.179982	've addressed
-3.179982	've adjusted
-3.179982	've all
-3.003891	've already
-3.179982	've always
-2.43962	've been
-3.003891	've done
-3.003891	've ever
-2.878953	've got
-3.179982	've gotten
-3.179982	've had
-3.179982	've hardly
-3.179982	've loved
-3.179982	've made
-2.702861	've never
-3.179982	've told
-3.179982	've waited
-3.179982	've wanted
-2.962748	, 'cause
-3.360688	, 'cos
-3.360688	, 12
-3.360688	, 2.6
-3.360688	, 20-channel
-3.360688	, 30
-3.184597	, </s>
-3.360688	, Alabama
-3.184597	, Alex
-3.360688	, Amy
-3.360688	, Bernadette
-3.360688	, Dennis
-3.184597	, Dr.
-3.360688	, Elizabeth
-3.360688	, Emily
-3.360688	, Friday
-3.184597	, God
-3.360688	, Hofstadter
-2.707476	, Howard
-3.360688	, Hufflepuff
-1.301883	, I
-3.360688	, I'm-I
-3.360688	, If
-3.360688	, Imperial
-3.360688	, Joyce
-3.360688	, Kripke
-3.360688	, Kurt
-3.184597	, Leonard
-3.184597	, Leslie
-3.360688	, Mary
-3.360688	, Missy
-3.184597	, Mom
-3.360688	, Monkey
-3.360688	, Mr
-3.360688	, Mr.
-3.360688	, Mrs.
-3.360688	, Mumbai
-3.360688	, Orcs
-2.661718	, Penny
-2.962748	, Priya
-2.620325	, Raj
-3.360688	, Ramona
-3.360688	, SETI
-2.070653	, Sheldon
-3.360688	, Sherlock
-3.360688	, Skippy
-3.360688	, Star
-3.360688	, Stephanie
-3.360688	, Stephen
-3.360688	, Steve
-3.059658	, Stuart
-3.360688	, Superman
-3.360688	, Th
-3.360688	, The
-3.360688	, Venus
-3.360688	, Zack
-2.758628	, a
-3.184597	, about
-3.360688	, actually
-3.360688	, after
-3.360688	, ah
-3.360688	, all
-2.962748	, alright
-3.184597	, an
-1.848805	, and
-3.360688	, another
-3.360688	, any
-3.360688	, anybody
-3.360688	, anything
-3.360688	, anyway
-2.661718	, are
-3.360688	, artificial
-3.360688	, as
-2.962748	, at
-3.360688	, aw
-3.360688	, babe
-3.360688	, bad
-3.360688	, basically
-3.360688	, be
-3.184597	, because
-3.360688	, bifocals
-3.184597	, both
-3.184597	, boy
-3.360688	, bring
-3.360688	, brother
-3.360688	, buddy
-3.360688	, building
-3.360688	, business
-1.835643	, but
-3.360688	, by
-3.184597	, ca
-2.883567	, can
-3.360688	, causing
-3.360688	, clear
-2.457598	, come
-3.360688	, conducting
-3.360688	, congratulate
-3.184597	, congratulations
-3.360688	, continuing
-3.184597	, could
-3.360688	, crazy
-2.883567	, did
-3.360688	, disgusting
-2.339499	, do
-2.962748	, does
-3.360688	, eleven
-3.360688	, every
-3.184597	, everything
-3.360688	, evil
-3.184597	, except
-3.360688	, familiar
-3.360688	, fantasy'
-3.360688	, fat
-2.962748	, fine
-3.360688	, first
-3.360688	, flowers
-3.360688	, food
-3.360688	, for
-3.360688	, forget
-3.360688	, friends
-3.360688	, from
-3.360688	, funny
-3.059658	, get
-3.059658	, give
-3.360688	, given
-3.360688	, glad
-3.059658	, go
-2.485627	, good
-3.184597	, got
-3.059658	, great
-3.360688	, great'
-2.962748	, guys
-3.184597	, hang
-2.883567	, have
-2.19932	, he
-3.360688	, he'
-3.360688	, hear
-2.81662	, here
-2.661718	, hey
-3.184597	, hi
-3.360688	, his
-3.184597	, ho
-2.582537	, how
-3.184597	, huh
-3.360688	, hum
-3.360688	, i
-2.431269	, if
-2.707476	, in
-3.360688	, instead
-3.360688	, interesting
-3.360688	, interrupted
-2.81662	, is
-1.822869	, it
-2.457598	, just
-3.360688	, kick
-3.360688	, kids
-3.360688	, kill
-3.360688	, kiss
-3.360688	, knuckle
-3.360688	, ladies
-3.360688	, last
-2.360688	, let
-3.360688	, lets
-2.81662	, like
-3.184597	, listen
-3.184597	, little
-3.360688	, live
-3.360688	, lock
-2.758628	, look
-3.360688	, looks
-3.360688	, lovebug
-3.360688	, ma'am
-3.360688	, make
-3.184597	, man
-3.360688	, may
-2.661718	, maybe
-3.360688	, men
-3.360688	, menus
-3.360688	, more
-3.059658	, most
-3.360688	, moving
-2.431269	, my
-3.360688	, narcissistic
-3.360688	, never
-3.360688	, next
-3.360688	, nice
-1.945715	, no
-3.360688	, no-no-no
-3.360688	, nose
-2.661718	, not
-3.360688	, nothing
-2.962748	, now
-2.962748	, oh
-2.547775	, okay
-3.184597	, on
-3.360688	, once
-3.184597	, one
-3.360688	, only
-3.184597	, or
-3.184597	, our
-3.360688	, out
-3.360688	, palm
-3.360688	, perfect
-3.360688	, phones
-2.758628	, please
-3.360688	, problem
-3.184597	, push
-3.360688	, put
-3.360688	, relax
-3.360688	, remember
-3.360688	, revolting
-2.707476	, right
-3.360688	, romance
-3.360688	, roommate
-3.360688	, rose
-3.360688	, sandwiches
-3.360688	, science
-2.962748	, see
-3.360688	, seven
-3.360688	, shake
-2.51559	, she
-3.360688	, shut
-3.059658	, since
-3.360688	, sing
-3.360688	, sing-a-longs
-3.360688	, sir
-3.184597	, sit
-3.360688	, slavery
