
\data\
ngram 1=14196
ngram 2=65937
ngram 3=14874

\1-grams:
-2.769277	!	0.05090099
-4.41519	$	-0.0003559793
-4.142189	%	0.03333146
-4.204337	&	-0.0002040261
-3.554852	'	0.1038959
-5.017251	''	-1.527532e-05
-5.017251	'06	0.02885105
-5.017251	'70s	-2.571085e-05
-4.114161	'Cause	0.053612
-5.017251	'Course	0.0004692094
-4.71622	'Crushers	0.02878987
-5.017251	'D'nde	-4.866814e-05
-5.017251	'Da-da-da-da	0.02175808
-5.017251	'Do	0.001661838
-5.017251	'Dude	0.02885105
-5.017251	'Em	0.003753695
-5.017251	'How	-4.866814e-05
-4.841159	'It	0.004981803
-5.017251	'Jimmy	-5.701594e-05
-4.841159	'Release	0.008473331
-5.017251	'Shamy	0.02885105
-4.841159	'Soft	-9.733594e-05
-5.017251	'Sup	0.005637829
-5.017251	'Thanks	0.001760324
-5.017251	'Very	-3.614612e-05
-5.017251	'Wesley	-5.07551e-05
-4.841159	'arrah	0.02483528
-5.017251	'bazinga	0.001586418
-5.017251	'buy	0.003675804
-3.920341	'cause	0.05851447
-4.841159	'check	0.008470404
-5.017251	'cohabitation	-5.701594e-05
-2.896677	'd	0.05547101
-4.41519	'em	0.05314514
-4.841159	'er	0.0005389233
-5.017251	'grown	-5.284206e-05
-5.017251	'has	-5.701594e-05
-5.017251	'here	0.01233715
-5.017251	'huzzah	0.0006782059
-2.760773	'll	0.03892865
-2.288897	'm	0.04036483
-5.017251	'need	-4.449417e-05
-5.017251	'no	1.394551e-05
-5.017251	'playing	-4.449417e-05
-5.017251	'problem	-4.866814e-05
-2.379761	're	0.0201274
-5.017251	'round	0.02885105
-1.935004	's	0.1645321
-5.017251	'the	-4.449417e-05
-5.017251	'there	0.001092315
-5.017251	'til	0.008503923
-5.017251	'tion	0.02885105
-2.760773	've	0.01572147
-5.017251	'with	0.0007304705
-5.017251	'would	0.007678859
-4.172153	(	0.03247471
-4.204337	)	0.03285394
-1.309808	,	-0.01136741
-1.191078	.	-0.2347678
-1.356527	/s	-0.1966577
-5.017251	0	0.02885105
-5.017251	0.18	-4.032016e-05
-5.017251	01100111	0.02885105
-5.017251	0400	0.02885105
-5.017251	0700	3.064398e-05
-4.540129	1	0.06422865
-5.017251	1-1-A-2-B	0.02885105
-5.017251	1/160th	-4.449417e-05
-5.017251	1/18	-4.449417e-05
-5.017251	1/87th	-4.449417e-05
-4.841159	10	0.01950361
-5.017251	10,000	0.02885105
-5.017251	10-year-old	0.0002624019
-4.540129	100	-0.0001967403
-4.841159	101	0.0007926506
-5.017251	102.2	0.02885105
-5.017251	104	-5.07551e-05
-4.41519	11	0.004109283
-5.017251	114	-2.752346e-06
-5.017251	11:30pm	0.007508937
-4.172153	12	0.05049684
-5.017251	12-year-old	-2.779793e-05
-5.017251	12.5	-4.658116e-05
-4.841159	120	0.0017159
-5.017251	123	0.007508937
-5.017251	125-page	-5.492901e-05
-4.841159	12th	-2.845844e-05
-4.841159	13	0.02188126
-4.71622	130	0.0001609075
-4.473182	14	0.0521029
-5.017251	140	0.001760324
-5.017251	1487	0.008503923
-4.841159	15	0.02882333
-5.017251	15'	0.01948184
-4.71622	16	0.03485338
-5.017251	16-ounce	-4.240718e-05
-5.017251	1642	0.02175808
-5.017251	165	-5.492901e-05
-4.841159	16th	0.02882333
-4.61931	17	0.02881696
-5.017251	17,000	0.0001141461
-5.017251	171	-4.839534e-06
-5.017251	172	1.394551e-05
-5.017251	1778	7.448062e-05
-5.017251	17th	-2.988498e-05
-4.61931	18	6.839028e-05
-5.017251	180	-4.449417e-05
-5.017251	183	-4.449417e-05
-5.017251	1859	0.02175808
-5.017251	1863	0.02885105
-5.017251	187	0.02175808
-5.017251	1880s	0.007508937
-5.017251	1890	0.02175808
-5.017251	1890s	0.0006782059
-5.017251	18th	-2.988498e-05
-5.017251	1908	0.02885105
-5.017251	1917	0.02175808
-4.841159	193	0.02177371
-5.017251	1930s	0.02885105
-5.017251	1935	0.02175808
-4.841159	1936	0.02170348
-5.017251	1940s	0.02885105
-5.017251	1948	-5.07551e-05
-5.017251	1952	0.02175808
-4.61931	1955	0.02164888
-5.017251	1964	0.02175808
-5.017251	1970s	-2.571085e-05
-5.017251	1976	0.0005172696
-5.017251	1980	-5.492901e-05
-5.017251	1980s	0.02885105
-4.841159	1989	0.02769158
-5.017251	1992	0.02885105
-5.017251	1993	0.02885105
-4.841159	1995	0.02172749
-5.017251	1998	0.02885105
-5.017251	1999	0.0005047317
-5.017251	1:13	4.734315e-05
-4.61931	2	0.0532084
-4.841159	2,000	0.0002262745
-5.017251	2.0	0.0008412927
-4.364038	20	0.02861557
-5.017251	200	-5.284206e-05
-4.71622	2003	0.05212167
-5.017251	2004	0.02885105
-4.841159	2008	0.02879433
-4.841159	2009	0.02170128
-5.017251	200million	-4.866814e-05
-5.017251	2012	0.02885105
-4.71622	2015	0.02877266
-5.017251	204	0.02175808
-4.841159	209	0.005580869
-5.017251	2099	0.005637829
-5.017251	20th	-2.988498e-05
-4.71622	21	-6.877404e-05
-5.017251	211	0.02885105
-4.71622	21st	-9.106617e-05
-4.71622	22	0.02878987
-5.017251	220	0.02885105
-5.017251	23	-5.07551e-05
-4.71622	2311	-0.0001049675
-5.017251	233	0.0008412927
-4.61931	24	-4.508403e-05
-5.017251	24-hour	-4.240718e-05
-5.017251	246	0.005637829
-4.61931	25	0.02182009
-5.017251	25-year-old	-3.614612e-05
-5.017251	2530	-3.614612e-05
-4.61931	27	0.05242787
-5.017251	28	-5.492901e-05
-5.017251	288	0.003753695
-5.017251	289	0.02175808
-5.017251	28th	0.0001433757
-5.017251	290	0.02885105
-5.017251	294	0.005637829
-5.017251	2:25	-5.284206e-05
-5.017251	2am	0.02175808
-4.61931	3	0.03832995
-5.017251	3,000	0.001760324
-4.841159	3-D	-6.047665e-05
-4.71622	30	5.440366e-05
-5.017251	30,000	1.394551e-05
-5.017251	30-foot	-5.701594e-05
-5.017251	30.96	-9.013896e-06
-5.017251	300	0.02885105
-5.017251	300th	1.422064e-06
-5.017251	30th	0.02175808
-4.841159	31	0.02879656
-5.017251	311	-4.032016e-05
-5.017251	32	0.02885105
-5.017251	32-ounce	-5.284206e-05
-5.017251	33-day	-5.701594e-05
-5.017251	35	-5.701594e-05
-5.017251	350	-4.658116e-05
-4.71622	36	-1.032119e-05
-4.841159	360	0.05215226
-5.017251	366	-5.701594e-05
-5.017251	367'	0.01948184
-5.017251	37	0.02175808
-5.017251	37B	0.004546018
-5.017251	3D	-2.988498e-05
-5.017251	4,000lb	0.02175808
-5.017251	4,400lb	0.02885105
-5.017251	4-1-1	0.005637829
-5.017251	4.6	-5.701594e-05
-5.017251	4.9	0.0004754776
-4.71622	40	0.02882683
-5.017251	41	-3.614612e-05
-5.017251	43	-4.866814e-05
-4.61931	45	-0.0001049136
-5.017251	46.9	-2.988498e-05
-5.017251	47	0.02885105
-5.017251	4D	-2.988498e-05
-4.841159	4K	-0.000107771
-4.41519	5	0.05757952
-4.841159	5,000	5.713178e-05
-5.017251	5.19	0.00677267
-4.71622	50	5.368421e-05
-4.841159	500	-8.063937e-05
-5.017251	5027.3	0.02175808
-5.017251	51	-4.658116e-05
-4.71622	52	0.02168825
-5.017251	533	0.02885105
-4.71622	60	0.0003342931
-4.841159	600	-2.63711e-05
-4.71622	61	0.004607175
-5.017251	63	0.0001141461
-5.017251	63345.3	0.02885105
-4.841159	64	0.02879656
-5.017251	640	-5.284206e-05
-5.017251	67	-2.988498e-05
-5.017251	68	0.02175808
-4.841159	6:15	0.02172749
-4.71622	7	0.04030892
-5.017251	70	-1.110103e-05
-5.017251	700,000	0.0002373411
-5.017251	7010	0.0001788713
-5.017251	71	-4.658116e-05
-4.540129	72	0.02710771
-4.71622	73	0.03216617
-5.017251	74	0.02175808
-5.017251	74.C	0.02885105
-4.841159	75	0.007464737
-5.017251	78	0.02885105
-5.017251	79	9.95321e-05
-5.017251	7:05	0.02885105
-5.017251	7:10	-5.284206e-05
-5.017251	7:20	0.02175808
-5.017251	7th	0.02175808
-4.841159	8	0.001707517
-4.841159	8,000	0.005597785
-5.017251	8.2	-5.701594e-05
-4.61931	80	0.02891897
-4.841159	800	0.02891926
-5.017251	82	-4.240718e-05
-5.017251	840	-2.752346e-06
-5.017251	87	0.0003584821
-5.017251	8:06	0.02885105
-5.017251	8:08	0.02885105
-5.017251	8:13	0.003753695
-4.841159	9.8	-8.552067e-05
-5.017251	90	0.02885105
-5.017251	93	0.02885105
-5.017251	93-year-old	7.865575e-05
-5.017251	95	0.001586418
-5.017251	97	-5.07551e-05
-4.841159	98	0.02882333
-5.017251	99-cent	-5.284206e-05
-5.017251	9am	0.003137272
-3.399202	:	0.05889562
-5.017251	:14:11,446	0.01948184
-4.61931	;	0.0172685
-5.017251	<	-5.284206e-05
-1.356527	</s>
-99	<s>	-0.1966577
-5.017251	>	0.0001997524
-1.884831	?	0.00396923
-3.178401	A	0.09191541
-5.017251	A-S-S.	0.0001997524
-5.017251	A-flat	0.005637829
-5.017251	A-game	0.02175808
-5.017251	AFK	0.02885105
-4.71622	AKA	0.01003425
-5.017251	AMC	-3.823317e-05
-5.017251	AT	-3.40591e-05
-5.017251	ATMs	0.0004211543
-5.017251	Aaaaaaaaaaaaaa	0.0006782059
-5.017251	Aaaaaaaaaaaaaaaaaa	0.0006782059
-5.017251	Aaaaaaagh	0.0006782059
-5.017251	Aaaaargh	0.02885105
-4.841159	Aaaah	0.02958021
-5.017251	Aaah	0.0006782059
-5.017251	Aaargh	0.0006782059
-5.017251	Abandon	0.0007304705
-5.017251	Abbott	0.005012394
-4.841159	About	0.0009173678
-5.017251	Abraham	-4.658116e-05
-4.71622	Absolutely	0.03060117
-5.017251	Abu	-5.701594e-05
-5.017251	Abundantly	0.02885105
-4.841159	Academy	0.004955428
-4.41519	According	0.00732542
-5.017251	Aced	0.003675804
-5.017251	Ach	0.003753695
-5.017251	Ackbar	0.0005611553
-5.017251	Activate	-5.701594e-05
-5.017251	Actor	-5.701594e-05
-3.996061	Actually	0.02509031
-4.61931	Adam	-8.754789e-05
-5.017251	Additionally	0.02175808
-5.017251	Address	0.02175808
-5.017251	Adler	0.005012394
-5.017251	Adler's	0.01948184
-5.017251	Admiral	-5.701594e-05
-5.017251	Adventure	5.596507e-06
-5.017251	Adventures	0.004546018
-5.017251	Adversity	0.003137272
-5.017251	Affirmative	0.02885105
-5.017251	Affleck	0.000826654
-5.017251	Afraid	0.001661838
-4.71622	Africa	0.04098066
-4.71622	African	-0.0001334806
-4.841159	African-American	-9.316186e-05
-4.239099	After	0.04383944
-4.540129	Again	0.02163573
-5.017251	Against	0.002481838
-4.540129	Age	0.006795115
-4.841159	Agent	-8.343373e-05
-4.473182	Agreed	0.02869812
-4.61931	Agreement	0.05209108
-3.799767	Ah	0.05123551
-4.71622	Aha	0.02878987
-5.017251	Ahoy	0.02885105
-5.017251	Ai	0.003145681
-4.71622	Air	0.004926949
-5.017251	Airborne	-5.701594e-05
-4.841159	Al-Ghazali	0.005354677
-5.017251	Alamo	0.005637829
-5.017251	Alanis	-5.701594e-05
-5.017251	Alaska	0.0004023518
-4.473182	Albert	-0.0001849088
-5.017251	Alcatraz	0.003753695
-5.017251	Alcohol	0.005637829
-4.31828	Alex	0.05288815
-4.841159	Alexander	-0.0001140319
-4.61931	Alfred	0.02724893
-5.017251	Alice	9.95321e-05
-4.540129	Alicia	0.06424559
-5.017251	Aligns	0.008503923
-4.841159	Alka-Seltzer	0.02171225
-3.012929	All	0.03826755
-5.017251	Allegiance	0.02885105
-5.017251	Allen	0.005012394
-5.017251	Allergist	0.005637829
-4.540129	Allow	0.002246144
-5.017251	Almost	0.000826654
-5.017251	Alone	0.005637829
-5.017251	Alpha	-3.823317e-05
-5.017251	Alpha-Bits	0.02885105
-4.841159	Alphas	0.03488396
-5.017251	Alps	0.02885105
-5.017251	Already	-1.318818e-05
-3.975858	Alright	0.06350422
-4.364038	Also	0.0239671
-5.017251	AltaVista	0.02175808
-5.017251	Altadena	0.0004023518
-3.727216	Although	0.1011861
-4.841159	Always	0.02973666
-4.276888	Am	0.0120619
-4.841159	Amazing	0.02174078
-4.540129	Amazon	0.03077526
-5.017251	Amazons	-5.492901e-05
-5.017251	Amen	0.007508937
-4.841159	Amendment	0.02882556
-4.276888	America	0.04694917
-4.063008	American	0.03323185
-5.017251	Americans	0.001092315
-4.841159	Amtrak	-9.942296e-05
-2.934465	Amy	0.1117382
-5.017251	Amygdala	0.02175808
-5.017251	Amys	0.02885105
-4.142189	An	-0.0004704072
-5.017251	AnaMantle	-5.701594e-05
-5.017251	Anaheim	0.02175808
-2.637039	And	0.1861323
-5.017251	And'	0.01948184
-5.017251	Andorra	0.02885105
-5.017251	Andy	-5.701594e-05
-4.71622	Angel	0.05222761
-4.61931	Angeles	0.02603227
-5.017251	Angelina	0.02885105
-5.017251	Angie	-5.701594e-05
-5.017251	Animal	-4.658116e-05
-5.017251	Anime	0.005637829
-4.41519	Another	0.0002462673
-4.841159	Answer	0.008453376
-5.017251	Answering	-6.926701e-06
-5.017251	Antares	-5.701594e-05
-5.017251	Antietam	0.00677267
-5.017251	Antoine	0.02885105
-4.31828	Any	-2.23986e-05
-5.017251	Anybody	0.0002498713
-5.017251	Anyone	0.005637829
-4.31828	Anything	0.009388783
-3.826919	Anyway	0.0208718
-5.017251	Apartment	-4.866814e-05
-5.017251	Apeist	0.02885105
-5.017251	Apocalyptic	-5.701594e-05
-5.017251	Apologise	0.02175808
-5.017251	Apologize	0.02885105
-5.017251	Apology	-5.701594e-05
-4.087831	Apparently	0.03782888
-5.017251	Appendicitis	0.02885105
-5.017251	Appendix	-4.866814e-05
-4.841159	Apple	-0.000109858
-5.017251	Applied	-5.492901e-05
-4.71622	April	0.02167301
-4.71622	Aquaman	0.02764597
-5.017251	Aramis	0.007508937
-4.71622	Archimedes	0.002630335
-4.364038	Arctic	0.02941441
-3.30968	Are	0.01937362
-5.017251	Aristotle	0.001586418
-5.017251	Arizona	0.02175808
-4.61931	Ark	0.02893747
-5.017251	Armadillo	-4.240718e-05
-5.017251	Armageddon	8.700613e-05
-5.017251	Armenia	0.0004023518
-5.017251	Armin	0.000360571
-4.841159	Armstrong	0.02214918
-5.017251	Arrah	0.02175808
-5.017251	Arroganto	0.02885105
-4.172153	Arthur	0.06178134
-5.017251	Article	4.525574e-05
-5.017251	Artificial	-5.701594e-05
-3.525889	As	0.0486336
-4.71622	Asian	-0.0001626997
-5.017251	Asimov	0.005012394
-4.61931	Ask	0.009092298
-4.61931	Assuming	0.03311339
-3.826919	At	0.01948742
-5.017251	Atari	0.005012394
-5.017251	Atlantic	-4.032016e-05
-5.017251	Attaboy	0.0006782059
-5.017251	Attacks	0.0006782059
-4.71622	Attention	0.0250302
-5.017251	Au	-5.701594e-05
-5.017251	August	-5.492901e-05
-5.017251	Aunt	-5.701594e-05
-4.841159	Austria	0.02342956
-5.017251	Avatar	0.02175808
-5.017251	Avenger	-5.701594e-05
-4.71622	Avengers	0.02175189
-4.473182	Avenue	0.06288859
-5.017251	Avoid	0.008503923
-4.172153	Aw	0.05181589
-5.017251	Aw-aw-aw	0.0006782059
-5.017251	Away	0.0005611553
-5.017251	Awful	0.02885105
-5.017251	Axel	0.005012394
-5.017251	Ay-yi-yi	0.02885105
-4.71622	Azeroth	0.02954962
-4.239099	B	0.0702413
-5.017251	B-minus	0.02885105
-5.017251	B.F.	-5.701594e-05
-4.841159	BBC	-6.394218e-05
-5.017251	BC	0.02175808
-5.017251	BRB	0.02885105
-5.017251	BS	0.02175808
-5.017251	Ba-da	-5.701594e-05
-5.017251	Ba-da-bazinga	0.0006782059
-5.017251	Ba-da-bum	0.02885105
-5.017251	Ba-dum-bump	0.02885105
-5.017251	Babies	0.005637829
-5.017251	Babinski	0.0004733883
-4.71622	Baby	0.02166862
-4.61931	Babylon	-0.0001362626
-4.41519	Back	0.008182589
-4.71622	Bad	0.02896295
-5.017251	Baffling	0.02175808
-5.017251	Bag	0.004546018
-5.017251	Baggins	0.02175808
-4.841159	Bah	0.02172749
-5.017251	Bailey	0.02885105
-5.017251	Bailment	-5.284206e-05
-5.017251	Baker	7.030547e-05
-5.017251	Bakersfield	0.02175808
-5.017251	Balderdash	0.02885105
-4.71622	Bam	0.0006170247
-5.017251	Bamf	0.003753695
-4.71622	Band-Aid	0.002755467
-4.841159	Band-Aids	0.03198012
-5.017251	Bandstand	0.02885105
-5.017251	Bar	0.02175808
-5.017251	Barely	-9.013896e-06
-4.61931	Barn	0.04096765
-5.017251	Barnett	0.003753695
-5.017251	Barnum	0.003753695
-4.142189	Barry	0.06256919
-4.841159	Bart	-8.343373e-05
-5.017251	Bartenders	0.001092315
-4.540129	Based	0.001707133
-5.017251	Basically	0.0008412927
-5.017251	Basket	0.004546018
-5.017251	Bath	0.003753695
-4.087831	Batman	0.05373519
-5.017251	Batmobile	0.02175808
-4.841159	Battle	0.004515426
-5.017251	Battlefield	0.005637829
-4.841159	Battlestar	-8.343373e-05
-4.841159	Bavarian	0.02879433
-5.017251	Bawwy	0.02885105
-5.017251	Baybrook	-5.701594e-05
-4.364038	Bazinga	0.0293967
-4.276888	Be	0.007795266
-4.841159	Beach	0.02170348
-5.017251	Bean	0.02175808
-5.017251	Beanie	-5.701594e-05
-5.017251	Bear	-5.701594e-05
-5.017251	Bears	0.003753695
-5.017251	Beast	0.02175808
-5.017251	Beautiful	-5.492901e-05
-5.017251	Beavers	0.02885105
-3.525889	Because	0.08861399
-5.017251	Because'	0.01948184
-5.017251	Bedtime	0.02885105
-5.017251	Beelzebobcat	0.005637829
-5.017251	Been	0.0005695149
-5.017251	Beer-battered	-3.40591e-05
-5.017251	Beethoven	0.02885105
-4.172153	Before	0.02420634
-5.017251	Behind	0.008503923
-5.017251	Behold	0.02885105
-4.61931	Being	-0.0001529253
-4.71622	Believe	0.004840387
-5.017251	Belize	0.02175808
-4.841159	Bell	0.004976543
-5.017251	Ben	-5.701594e-05
-5.017251	Bennigan	0.005012394
-3.81313	Bernadette	0.0819451
-5.017251	Bernatrix	0.02885105
-4.841159	Berry	0.007524204
-4.172153	Bert	0.07276687
-5.017251	Bertram	-5.701594e-05
-4.61931	Besides	0.02164011
-5.017251	Besserwisser	0.02885105
-4.41519	Best	0.003527927
-5.017251	Bet	0.007678859
-4.61931	Better	0.02901271
-5.017251	Betty	0.003753695
-5.017251	Between	0.007678859
-4.61931	Beverley	0.02211656
-4.71622	Beverly	0.05211931
-5.017251	Beyonc	5.98679e-05
-5.017251	Beyonce	-5.701594e-05
-5.017251	Bi-monthly	0.003137272
-4.41519	Bible	0.007658986
-4.540129	Biff	0.02962841
-4.087831	Big	-0.0001883142
-5.017251	Bilbo	-5.701594e-05
-4.31828	Bill	-0.0003420175
-4.61931	Billy	0.001715504
-5.017251	Bilurrrbe	0.02885105
-5.017251	Bin	0.02175808
-5.017251	Binks	0.004546018
-5.017251	Biologically	-2.362376e-05
-5.017251	Biologists	0.001092315
-4.841159	Biology	0.006919291
-5.017251	Bippity-boppity-boo	0.02885105
-5.017251	Birkenstocks	0.003753695
-5.017251	Bishop	0.007508937
-5.017251	Bitches	0.001552901
-4.61931	Black	-0.000184939
-5.017251	Bladder	3.509253e-06
-5.017251	Blah	-5.07551e-05
-4.841159	Blame	0.001682369
-5.017251	Blanc	0.005012394
-5.017251	Bleeding	0.0005611553
-5.017251	Bleuch	0.02885105
-5.017251	Bleugh	0.0006782059
-5.017251	Blonde	3.481872e-05
-5.017251	Blossom	0.005637829
-5.017251	Blossoms	-3.40591e-05
-4.841159	Blu-ray	0.02882046
-4.841159	Blue	0.02170348
-5.017251	Blueberries	0.001092315
-4.841159	Bluetooth	0.02882046
-5.017251	Blunderberg	0.02175808
-5.017251	Board	0.02175808
-4.841159	Bob	-0.0001140319
-5.017251	Bobby	-5.701594e-05
-5.017251	Boca	-5.701594e-05
-4.841159	Body	-0.0001140319
-4.71622	Boggle	0.03482956
-4.841159	Bohemia	0.03086703
-4.841159	Bohr	0.036886
-5.017251	Boilerplate	-3.197206e-05
-5.017251	Boldly	0.000492194
-5.017251	Bon	-5.701594e-05
-5.017251	Bond	0.02175808
-5.017251	Bongo	-5.701594e-05
-5.017251	Boo	0.02175808
-5.017251	Book	-4.658116e-05
-4.71622	Boone	0.05255974
-5.017251	Boop	0.02885105
-5.017251	Bootylicious	-5.701594e-05
-5.017251	Bored	0.02885105
-5.017251	Bose-Einstein	-5.701594e-05
-5.017251	Bosoms	0.0007597415
-5.017251	Boson	-5.492901e-05
-5.017251	Bosons	0.001988814
-5.017251	Both	0.004546018
-5.017251	Bother	0.02885105
-5.017251	Botox	0.0002018407
-5.017251	Bottle	0.02885105
-5.017251	Boulder	0.02175808
-4.71622	Boulevard	0.05209578
-5.017251	Bourne-Oppenheimer	-5.701594e-05
-5.017251	Bow	0.02175808
-5.017251	Bow-zone	0.02885105
-5.017251	Bowie	0.005637829
-5.017251	Bowling	-5.07551e-05
-5.017251	Box	0.005637829
-5.017251	Box-Thinking	0.02885105
-3.786802	Boy	0.06992199
-4.841159	Boys	0.02889025
-4.841159	Bozeman	0.02214918
-5.017251	Bozite	0.02885105
-5.017251	Brachistochrone	5.778042e-05
-5.017251	Brad	0.003753695
-5.017251	Brainstorm	0.02175808
-4.71622	Bran	0.0307386
-5.017251	Brann	0.02885105
-5.017251	Brazil	0.02175808
-4.841159	Bread	0.03488396
-4.71622	Break	0.01090472
-5.017251	Breaking	0.008503923
-5.017251	Brenda	-6.651499e-07
-4.841159	Brent	-8.552067e-05
-5.017251	Brian	-5.701594e-05
-5.017251	Brief	-5.284206e-05
-5.017251	Brightly	-5.701594e-05
-4.71622	Brilliant	0.0288552
-5.017251	Brimstone	0.02885105
-4.841159	Bring	0.004155922
-4.71622	British	0.02877106
-5.017251	Brobdingna	0.000258225
-4.61931	Brobdingnagian	0.05206519
-5.017251	Bros.	-4.240718e-05
-4.473182	Brown	0.02883166
-4.61931	Bruce	-0.0001953741
-5.017251	Brussels	-5.492901e-05
-5.017251	Buckland	0.02885105
-5.017251	Buckman	-5.701594e-05
-5.017251	Buda	0.003753695
-5.017251	Budabest	0.02885105
-4.841159	Budapest	0.03220937
-5.017251	Buddy	0.02885105
-5.017251	Bueno	0.02175808
-5.017251	Buffet	0.02885105
-5.017251	Buffy	0.008503923
-5.017251	Buick	0.002922886
-5.017251	Building	0.001829487
-5.017251	Bull	0.005637829
-5.017251	Bullock	0.003137272
-5.017251	Bunsen	-5.284206e-05
-4.841159	Buona	-8.552067e-05
-5.017251	Bureau	0.004546018
-5.017251	Burning	-5.701594e-05
-5.017251	Burrito	-5.701594e-05
-4.71622	Burton	0.02889759
-5.017251	Bus	0.007678859
-2.934465	But	0.1324193
-5.017251	But'	0.01948184
-4.71622	Butter	0.05212167
-5.017251	Butters	0.002922886
-5.017251	Butterscotch	-5.492901e-05
-4.473182	Buy	0.04666701
-5.017251	Buying	-5.701594e-05
-5.017251	Bwch-wch-wch-wch-wch-wch	0.02175808
-3.938069	By	0.01480238
-4.276888	Bye	0.05190761
-4.71622	Bye-bye	0.04968055
-4.540129	C	0.02775393
-5.017251	C-3P-wee	-5.284206e-05
-5.017251	C-3PO	0.003753695
-5.017251	C-Men	0.02885105
-4.71622	C.	0.01939443
-5.017251	C3PO	0.02885105
-5.017251	CAT	-5.492901e-05
-5.017251	CD	0.001760324
-4.540129	CERN	0.05537604
-5.017251	CNN	0.02885105
-5.017251	CSI	1.394551e-05
-4.172153	Ca	0.002778723
-5.017251	Cabin	0.002922886
-5.017251	Caca	0.005637829
-5.017251	Cal	-5.701594e-05
-5.017251	CalTech	0.02175808
-5.017251	Calculators	0.02175808
-4.41519	California	0.0641144
-5.017251	Caligula	0.02885105
-4.841159	Call	0.01092095
-5.017251	Calm	0.0001767832
-4.61931	Caltech	0.03408021
-5.017251	Cambridge	0.02175808
-5.017251	Camptown	-5.701594e-05
-3.577918	Can	0.02088055
-5.017251	Canada	0.02885105
-5.017251	Canadian	-4.866814e-05
-5.017251	Candles	0.003753695
-5.017251	Canine	-4.658116e-05
-5.017251	Canyon	0.007508937
-4.276888	Captain	0.0213803
-5.017251	Card	0.02175808
-5.017251	Care	-5.701594e-05
-4.61931	Careful	0.05209108
-4.71622	Carl	0.0001045199
-5.017251	Carlsbad	0.003137272
-4.841159	Carney	0.004981803
-5.017251	Carolina	0.02885105
-5.017251	Carrie	-5.701594e-05
-5.017251	Carry	0.001829487
-5.017251	Carter	0.02885105
-5.017251	Cartesian	-5.701594e-05
-5.017251	Carthage	0.007508937
-4.841159	Carver	0.003399962
-5.017251	Case	-5.07551e-05
-4.841159	Castle	0.02769158
-4.71622	Cat	0.05209578
-5.017251	Catalina	0.001760324
-5.017251	Cathy	0.02885105
-4.841159	Cats	0.02208329
-5.017251	Cause	0.004546018
-5.017251	Cavanaugh	0.02885105
-5.017251	Cedric	0.008503923
-5.017251	Center	0.02175808
-5.017251	Central	-5.284206e-05
-5.017251	Centres	0.001760324
-5.017251	Cersei	-4.658116e-05
-4.71622	Certainly	0.02878987
-5.017251	Ceti	-5.701594e-05
-5.017251	Chair	0.02885105
-5.017251	Chairman	0.004546018
-4.841159	Challenge	-7.508583e-05
-5.017251	Chamber	0.004546018
-5.017251	Chan	0.02885105
-4.841159	Chancellor	-0.0001140319
-5.017251	Change	-4.866814e-05
-5.017251	Changes	0.002922886
-4.71622	Channel	0.005542939
-5.017251	Chaos	2.229468e-05
-5.017251	Chardonnay	0.02175808
-5.017251	Charles	-5.492901e-05
-5.017251	Charlie	0.008503923
-5.017251	Chat	0.005637829
-5.017251	Chattahoochee	-5.07551e-05
-5.017251	Chaucer	0.005012394
-5.017251	Cheap	6.404292e-05
-4.31828	Check	0.03569245
-5.017251	Checkmate	0.02885105
-5.017251	Cheerios	0.00188189
-4.841159	Cheers	0.05215226
-4.41519	Cheesecake	-0.0002259249
-5.017251	Chemistry	0.003753695
-4.841159	Cher	0.02904199
-5.017251	Chevron	0.02885105
-4.71622	Chicago	0.02878987
-4.841159	Chicken	0.003080287
-5.017251	Chickens	0.001092315
-5.017251	Chief	-3.614612e-05
-5.017251	Chihuahua	0.002922886
-4.540129	China	0.03211761
-4.172153	Chinese	0.02147324
-5.017251	Chipotle	0.02885105
-4.841159	Chocolate	0.005607238
-5.017251	Cholera	0.003137272
-5.017251	Cholermus	0.02885105
-5.017251	Choosing	0.00677267
-5.017251	Chop-chop	0.02175808
-4.841159	Chris	-8.343373e-05
-5.017251	Christian	-5.701594e-05
-5.017251	Christie	0.0004211543
-3.975858	Christmas	0.03807471
-5.017251	Christmassy	0.0002185463
-5.017251	Christopher	-5.701594e-05
-4.841159	Chuck	-8.552067e-05
-5.017251	Church	0.004546018
-5.017251	Chutes	0.003753695
-5.017251	Cinnamon	-2.362376e-05
-4.61931	Circle	0.03398085
-4.31828	City	0.05984132
-5.017251	Clarify	0.0001642552
-5.017251	Clarke	0.02885105
-5.017251	Clarke-Maxwell	0.0004023518
-5.017251	Clash	0.004546018
-5.017251	Classic	-5.701594e-05
-4.841159	Clause	-8.552067e-05
-4.61931	Clearly	0.03064675
-5.017251	Clever	0.02175808
-4.71622	Click	0.04197067
-4.841159	Clone	-6.465076e-05
-5.017251	Closest	0.0001204094
-5.017251	Cloud	0.02885105
-5.017251	Cluck	0.02175808
-5.017251	Cluck-cluck-cluck	0.02885105
-5.017251	Co-discoverer	0.004546018
-5.017251	Coast	-5.701594e-05
-5.017251	Cockatoo	0.02175808
-4.841159	Cocoa	0.02170128
-5.017251	Coconut	0.005637829
-4.71622	Code	0.007660589
-5.017251	Coffee	0.02885105
-5.017251	Cohabitation	0.00188189
-5.017251	Coincidentally	0.02175808
-5.017251	Coins	-5.284206e-05
-5.017251	Coitus	0.02885105
-5.017251	ColecoVision	0.005012394
-4.841159	Colleagues	0.02769158
-4.61931	Collider	0.0532981
-4.473182	Colorado	0.03474007
-3.799767	Come	0.03462251
-5.017251	Comforting	0.003137272
-5.017251	Comic	-5.701594e-05
-4.172153	Comic-Con	0.0681632
-4.841159	Comics	0.001066699
-4.41519	Coming	0.05345913
-4.71622	Commander	0.02880006
-5.017251	Comments	0.0005611553
-5.017251	Commerce	0.02885105
-5.017251	Commitments	0.02885105
-4.841159	Committee	0.02882046
-4.841159	Communist	2.718875e-05
-5.017251	Complete	0.00188189
-4.841159	Computer	0.02170128
-4.61931	Con	0.05849389
-5.017251	Conclusive	-4.866814e-05
-5.017251	Confidence	0.003137272
-5.017251	Confound	0.003675804
-5.017251	Congeniality	0.004546018
-4.364038	Congratulations	0.06486718
-5.017251	Connelly	0.02175808
-4.841159	Connor	0.02882046
-4.841159	Conqueror	0.02882046
-5.017251	Consequently	0.02175808
-4.841159	Consider	0.02329959
-4.841159	Considering	0.009472006
-5.017251	Constance	0.02885105
-5.017251	Constant	0.02885105
-4.841159	Container	-8.343373e-05
-4.841159	Continue	0.02882046
-5.017251	Contribute	0.007508937
-4.71622	Control	0.02902321
-5.017251	Convention	0.02885105
-4.841159	Cookie	0.02879879
-5.017251	Cookies	0.005637829
-4.841159	Cool	0.00738829
-4.841159	Coop	0.0328686
-3.5121	Cooper	0.08255396
-5.017251	Cooper'	0.01948184
-5.017251	Cooper-Smoot	0.02175808
-5.017251	Copenhagen	-5.701594e-05
-5.017251	Copernicus	0.02175808
-4.841159	Copy	0.003657843
-5.017251	Corleone	0.005012394
-4.841159	Corn	-6.602934e-05
-5.017251	Corncob	0.02175808
-4.841159	Cornish	4.388895e-05
-4.841159	Cornwall	0.02928533
-4.841159	Corporation	0.03198012
-4.473182	Correct	0.02869812
-4.841159	Correction	0.05215226
-5.017251	Cosmo	0.005012394
-5.017251	CostCos	0.02175808
-5.017251	Costume	0.0008412927
-4.473182	Could	0.01283222
-4.61931	Council	0.007656352
-4.841159	Count	0.008473331
-5.017251	Counter-proposal	0.02885105
-5.017251	Counterproposal	0.02885105
-5.017251	Country	-5.701594e-05
-5.017251	Couple	0.0001621671
-5.017251	Couples	-4.658116e-05
-4.841159	Coupons	0.02973889
-4.841159	Course	0.02437135
-5.017251	Court	0.02885105
-5.017251	Cousteau	0.007508937
-5.017251	Cozy	-5.701594e-05
-5.017251	Cracklin	-5.701594e-05
-5.017251	Craigslist	0.02885105
-4.841159	Crawley	0.02769158
-5.017251	Cray	-5.701594e-05
-4.841159	Crazy	0.001541987
-5.017251	Creepy	5.778042e-05
-5.017251	Crikey	0.02175808
-5.017251	Crime	-5.701594e-05
-4.841159	Crisco	0.05215226
-5.017251	Crisis	0.003753695
-5.017251	Critical	-1.110103e-05
-5.017251	Crockett	-4.866814e-05
-5.017251	Crowe	0.002922886
-4.841159	Cruciferous	-8.552067e-05
-5.017251	Cruel	0.000826654
-4.841159	Crunch	0.003723103
-4.473182	Crusher	0.02801562
-4.61931	Crushers	0.02875929
-5.017251	Cry	1.603278e-05
-5.017251	Cuddles	0.02885105
-4.61931	Curie	0.03322608
-4.841159	Curiouser	0.003723103
-5.017251	Curse	0.007678859
-5.017251	Curses	0.02885105
-5.017251	Custer	0.001988814
-4.71622	Cut	0.02954962
-4.71622	Cyclops	0.0216969
-4.841159	Cylon	-5.421542e-05
-5.017251	Cylons	0.0002624019
-5.017251	Czech	-5.492901e-05
-5.017251	Czechoslovakia	0.02885105
-4.41519	D	0.02752196
-4.41519	D'Onofrio	0.04109779
-5.017251	D-d-d	0.0006782059
-5.017251	D-dimensional	-4.866814e-05
-5.017251	D.C.	-5.701594e-05
-4.841159	DC	-0.0001119449
-5.017251	DDR3	-3.197206e-05
-4.172153	DNA	0.0621861
-4.540129	DVD	0.02950615
-5.017251	DVR	0.0001454636
-5.017251	Da-da-da-da	0.02175808
-5.017251	DaH	-5.701594e-05
-4.841159	Dad	0.02883894
-4.71622	Daddy	0.02881058
-5.017251	Dagobah	0.02885105
-5.017251	Daleks	0.001092315
-5.017251	Dammit	0.02175808
-4.71622	Damn	0.02559672
-5.017251	Dan	5.98679e-05
-5.017251	Dance	-5.701594e-05
-4.841159	Dancing	0.007545444
-5.017251	Danger	0.02175808
-4.841159	Daq	-0.0001140319
-5.017251	Dare	0.01233715
-4.841159	Daredevil	0.02882046
-4.71622	Dark	0.0287682
-4.71622	Darn	0.02954962
-4.31828	Darth	-0.0002849931
-4.841159	Data	0.008187392
-4.841159	Davis	0.02882046
-5.017251	Davy	-5.701594e-05
-4.039527	Day	0.06392676
-5.017251	Dayaj	5.98679e-05
-5.017251	Daylight	0.0005402568
-4.841159	Dazzle	0.002337906
-5.017251	DeBakey	0.00677267
-4.841159	Dead	0.005815641
-4.473182	Dear	-0.0001751417
-5.017251	Death	5.778042e-05
-5.017251	Deborah	-5.701594e-05
-5.017251	December	-5.07551e-05
-4.61931	Deep	-0.0001668608
-4.841159	Defcon	-9.316186e-05
-5.017251	Defend	0.02885105
-5.017251	Delighted	0.005637829
-5.017251	Deluxe	-5.701594e-05
-5.017251	Democracy	0.02175808
-5.017251	Dengue	-4.658116e-05
-5.017251	Dennis	-4.658116e-05
-5.017251	Denny	0.005012394
-5.017251	Dent	0.002922886
-5.017251	Denver	4.734315e-05
-4.31828	Department	0.05821051
-5.017251	Depending	0.001829487
-5.017251	Depends	0.001829487
-5.017251	Depot	-4.240718e-05
-4.841159	Des	-8.552067e-05
-4.841159	Describe	0.008451248
-5.017251	Desert	0.0003062619
-4.41519	Despite	0.01267211
-5.017251	Details	0.02175808
-5.017251	Detroit	1.394551e-05
-5.017251	Devine	-4.658116e-05
-4.841159	Dew	0.03488396
-4.71622	Dibs	0.03687253
-5.017251	Dickens	0.005637829
-5.017251	Dickinson	0.005637829
-5.017251	Dictionary	0.02175808
-3.394001	Did	0.04467065
-5.017251	Diego	-5.701594e-05
-5.017251	Differential	-5.701594e-05
-5.017251	Dill	-4.866814e-05
-4.841159	Dinfast	0.01945125
-5.017251	Dining	0.02175808
-4.841159	Dinner	0.0270335
-5.017251	Dip	4.943056e-05
-5.017251	Dirac	0.005637829
-5.017251	Director	0.005012394
-4.841159	Disagree	0.02882046
-4.841159	Disease	0.02170567
-4.71622	Disney	0.0216774
-4.71622	Disneyland	0.02859263
-4.71622	Ditko	0.02170593
-5.017251	Dits	0.02885105
-5.017251	Dividing	0.0004880148
-5.017251	Dixie-Trek	-2.571085e-05
-5.017251	Dixit	0.02885105
-3.048768	Do	0.03622425
-5.017251	Dobby	0.008503923
-4.61931	Doc	0.0001379469
-4.204337	Doctor	0.02919873
-5.017251	Dodson	0.02175808
-3.975858	Does	0.01939466
-4.841159	Doing	0.0009076878
-5.017251	Dolbear	-5.492901e-05
-5.017251	Dolphins	-5.701594e-05
-5.017251	Don	-5.701594e-05
-5.017251	Done	0.02885105
-5.017251	Donner	5.778042e-05
-5.017251	Donny	0.003753695
-5.017251	Doo	-5.701594e-05
-5.017251	Doodle	-5.701594e-05
-4.841159	Doom	0.02966066
-4.71622	Doppler	-0.0001140232
-5.017251	Doubleazinga	0.0006782059
-4.841159	Downey	0.02879433
-4.41519	Dr	-0.0003010293
-3.437467	Dr.	0.002908437
-5.017251	Draft	0.02885105
-5.017251	Drag	0.0007764688
-4.473182	Dragons	0.05419156
-4.473182	Drat	0.02869812
-5.017251	Dried	-5.492901e-05
-5.017251	Dripping	-5.701594e-05
-5.017251	Drive	0.0005820547
-5.017251	Drop	-5.284206e-05
-5.017251	Du	-5.701594e-05
-5.017251	Duchess	0.02175808
-4.841159	Dud	0.03488396
-5.017251	Duds	0.02175808
-5.017251	Duke	0.004546018
-5.017251	Duly	-4.866814e-05
-5.017251	Dumb	0.000826654
-4.71622	Dumbledore	0.0287666
-5.017251	Dumplings	0.005637829
-4.473182	Dungeons	0.00359753
-4.841159	During	0.01052084
-4.841159	Dutch	-0.000109858
-5.017251	Dwarf	0.003753695
-5.017251	E	0.007508937
-5.017251	E.M.	-5.701594e-05
-5.017251	EEG	0.02175808
-5.017251	ESRAM	-5.492901e-05
-4.841159	Each	0.004927979
-4.71622	Earl	-0.0001035884
-4.540129	Earlier	0.02327856
-5.017251	Ears	0.002271971
-4.087831	Earth	0.071741
-4.841159	Eartha	-8.552067e-05
-5.017251	Ease	0.0005820547
-5.017251	Easement	0.02885105
-5.017251	Easily	-5.701594e-05
-4.239099	East	-0.0003085267
-5.017251	Easter	0.0005402568
-5.017251	Eastern	-5.701594e-05
-4.61931	Eat	0.008350154
-5.017251	Ebbinghaus	0.0005172696
-5.017251	Edisons	0.0003689268
-4.841159	Edward	-0.0001119449
-5.017251	Edwin	-5.701594e-05
-5.017251	Eee	0.02175808
-4.71622	Effect	0.02878987
-5.017251	Eggs	0.001092315
-4.41519	Eh	0.02157456
-5.017251	Eight	0.02885105
-4.172153	Einstein	0.06215066
-5.017251	Either	0.008503923
-5.017251	Ekairidium	0.02175808
-5.017251	Elbow	-5.701594e-05
-5.017251	Elder	-5.492901e-05
-5.017251	Electric	-5.701594e-05
-5.017251	Electromagnetism	5.98679e-05
-5.017251	Electrons	2.855663e-05
-4.841159	Element	-8.552067e-05
-5.017251	Elementary	-5.284206e-05
-5.017251	Eliot	0.02175808
-4.61931	Elizabeth	0.02164449
-5.017251	Elon	-5.701594e-05
-5.017251	Eloy	0.02885105
-5.017251	Elven	-5.701594e-05
-4.841159	Elvish	0.02879433
-5.017251	Embarrassed	0.007678859
-5.017251	Embarrassment	-5.492901e-05
-4.841159	Emergency	0.02879433
-4.841159	Emile	-0.0001140319
-4.71622	Emily	0.05781791
-5.017251	Empedocles	0.0001705191
-5.017251	Empire	0.003753695
-5.017251	Empress	0.02175808
-4.841159	En	-8.552067e-05
-5.017251	Enchanted	-5.07551e-05
-5.017251	Energise	0.02885105
-5.017251	Energy	-3.614612e-05
-4.841159	Engineering	0.02881217
-5.017251	Engineers	0.005637829
-4.61931	England	0.02898593
-4.473182	English	0.03091518
-4.41519	Enjoy	0.01140524
-5.017251	Enjoyed	0.00677267
-5.017251	Enlargement	0.004546018
-5.017251	Enough	-5.284206e-05
-5.017251	Enrico	-5.701594e-05
-4.61931	Enterprise	0.05778733
-5.017251	Entertainer	0.005012394
-4.841159	Epcot	0.02882046
-5.017251	Episodes	0.004546018
-5.017251	Equally	-1.736244e-05
-5.017251	Equation-Linked	-5.701594e-05
-5.017251	Equations	-5.492901e-05
-5.017251	Erectus	0.02885105
-5.017251	Ergo	0.01233715
-5.017251	Erno	-5.701594e-05
-4.841159	Erwin	-9.942298e-05
-5.017251	Eskimo	-4.240718e-05
-4.841159	Especially	0.0005668476
-4.841159	Essentially	0.02172749
-5.017251	Esteemed	-5.492901e-05
-5.017251	Ethan	-5.701594e-05
-5.017251	Ethernet	-5.701594e-05
-5.017251	Eubanks	5.151801e-05
-4.61931	Euclid	0.02165108
-5.017251	Euler-Lagrange	-5.701594e-05
-5.017251	Europe	0.02885105
-5.017251	Europeans	0.003753695
-5.017251	Europium	0.02175808
-5.017251	Eurydice	0.02885105
-3.920341	Even	0.0366982
-4.841159	Event	0.00019077
-4.841159	Eventually	0.0298395
-4.087831	Every	0.0001809595
-4.41519	Everybody	0.005313986
-4.540129	Everyone	0.001909732
-4.239099	Everything	0.03016095
-4.841159	Evolution	0.003494649
-5.017251	Ewok	0.02885105
-4.239099	Exactly	0.06269709
-5.017251	Examining	-5.701594e-05
-5.017251	Excalibur	0.02885105
-4.142189	Excellent	0.05281068
-4.41519	Except	0.03353899
-5.017251	Excited	0.005637829
-3.479431	Excuse	0.0003236055
-5.017251	Expedition	0.02885105
-4.71622	Explain	0.01796026
-5.017251	Explorer	0.007508937
-4.841159	Express	0.03488396
-4.841159	Extra	-0.0001140319
-4.841159	Eye-talian	0.02881217
-5.017251	FAA	0.02175808
-5.017251	FAQ	-5.284206e-05
-4.61931	FBI	0.03278133
-5.017251	FC	1.394551e-05
-5.017251	FI	1.394551e-05
-5.017251	FL	1.394551e-05
-5.017251	FP	1.394551e-05
-5.017251	FTP	-5.492901e-05
-4.114161	FYI	0.05175477
-5.017251	Faberge	-4.866814e-05
-5.017251	Face	0.007508937
-4.841159	Facebook	-7.646513e-05
-4.364038	Factory	0.01374134
-5.017251	Faculty	-5.701594e-05
-4.540129	Fair	0.02901115
-4.841159	Fairy	0.02883448
-5.017251	Fake	6.195542e-05
-5.017251	Falling	0.001829487
-5.017251	Fallujah	0.02175808
-5.017251	Family	0.0004023518
-4.841159	Fancy	0.00671784
-4.71622	Fantastic	0.02877043
-5.017251	Farminfarmian	0.02885105
-5.017251	Farr	0.02175808
-3.903307	Farrah	-0.0007627818
-4.41519	Fascinating	0.02866754
-5.017251	Fascism	0.02885105
-5.017251	Faster-than-light	-3.40591e-05
-4.841159	Father	0.0342149
-4.841159	Fear	0.004515426
-4.841159	Feast	0.007492345
-5.017251	Fed	0.02885105
-5.017251	Federation	0.004546018
-4.71622	Feel	-7.019508e-05
-5.017251	Feelings	0.005637829
-5.017251	Feinman	-4.449417e-05
-5.017251	Fellow	-5.492901e-05
-5.017251	Fellowship	0.02885105
-5.017251	Fence	-5.701594e-05
-5.017251	Fermi	0.02175808
-5.017251	Fester	0.02175808
-4.841159	Festival	0.02879879
-4.063008	Feynman	0.0596573
-5.017251	Fibonacci	-4.449417e-05
-5.017251	Fiddle-Faddle	0.02885105
-5.017251	Fiendishly	-3.614612e-05
-5.017251	Fiesta	0.02885105
-5.017251	Fig	-5.701594e-05
-5.017251	Fight	0.02885105
-4.841159	Fighting	0.001709613
-5.017251	Figure	0.0007764688
-5.017251	Fillion	0.02885105
-4.841159	Finally	0.02172749
-3.505367	Fine	0.05106324
-4.841159	Fink	0.03198012
-5.017251	Finnish	0.02885105
-4.71622	Fire	-3.608637e-05
-4.71622	Firefly	0.03129695
-5.017251	Firefox	0.02885105
-4.31828	First	0.03562328
-5.017251	Fischer	0.02175808
-5.017251	Fish	0.005637829
-5.017251	Fisher	0.02175808
-5.017251	Fisherman	0.005012394
-4.473182	Five	0.05363856
-5.017251	Fix	0.003675804
-4.841159	Flag	0.02928533
-3.956553	Flags	0.06177771
-5.017251	Flakey	0.02885105
-5.017251	Flaming	-5.701594e-05
-4.204337	Flash	0.05270448
-5.017251	Flash-frozen	-4.866814e-05
-4.71622	Flatland	0.02876597
-5.017251	Flatow	0.02885105
-5.017251	Flattering	0.02175808
-5.017251	Flattery	0.0004211543
-5.017251	Fleet	-5.492901e-05
-5.017251	Fleming	-5.701594e-05
-5.017251	Florida	0.0005047317
-5.017251	Flower	-1.110103e-05
-4.71622	Focus	0.05570035
-5.017251	Folger	0.005012394
-4.841159	Follow	0.004105343
-5.017251	Following	0.002922886
-5.017251	Fonda	-5.701594e-05
-5.017251	Fontana	0.02885105
-5.017251	Food	0.02175808
-5.017251	Foot	-5.07551e-05
-5.017251	Football	0.0004023518
-3.562406	For	0.02201913
-4.841159	Force	0.0006504647
-4.841159	Ford	0.002865899
-5.017251	Forer	0.02175808
-4.841159	Forest	0.03198012
-4.841159	Forget	0.001682369
-4.540129	Forgive	0.004772882
-5.017251	Forks	0.001092315
-4.71622	Formal	-0.0001098493
-5.017251	Formula	4.525574e-05
-4.41519	Fort	-0.0003420692
-4.841159	Fortress	0.004515426
-5.017251	Fortune	0.00188189
-5.017251	Found	0.0008622056
-4.841159	Foundation	0.007528452
-4.61931	Four	0.02875895
-5.017251	Fourteen	0.003753695
-4.71622	Fourth	0.02651222
-3.871122	Fowler	0.05917254
-4.841159	Francisco	0.02882046
-5.017251	Franconi	0.005012394
-4.841159	Frank	0.003696716
-4.841159	Frankenstein	0.0270335
-5.017251	Franklin	-5.701594e-05
-4.71622	Frankly	0.02559672
-5.017251	Fraudville	0.02175808
-5.017251	Fred	-5.701594e-05
-5.017251	Freemont	-5.492901e-05
-5.017251	Freeway	0.000952143
-5.017251	Freeze-dried	-5.492901e-05
-5.017251	Frege	0.002922886
-4.172153	French	-0.0005421966
-5.017251	French-educated	-5.07551e-05
-5.017251	Frenzy	-5.701594e-05
-5.017251	Frequent	7.683724e-06
-4.364038	Friday	0.0583347
-5.017251	Friedrich	-5.701594e-05
-4.71622	Friend	0.02202868
-4.61931	Friends	0.02951903
-4.841159	Friendship	0.02879433
-5.017251	Frisbee	0.02885105
-4.841159	Frisbee-sized	-8.343373e-05
-4.841159	Frisch	0.02172749
-4.841159	Frodo	0.03073705
-4.142189	From	0.01750091
-5.017251	Fruit	-5.701594e-05
-5.017251	Fry	-5.284206e-05
-5.017251	Fuddruckers	0.02885105
-4.841159	Fudgsicle	0.02882046
-5.017251	Full	0.004546018
-3.956553	Fun	0.03897019
-5.017251	Fun'	0.01948184
-4.841159	Funyuns	0.02939477
-5.017251	Furnishing	-5.492901e-05
-4.41519	Future	0.02170898
-4.841159	G-rated	0.02172749
-5.017251	GDDR5	-5.701594e-05
-5.017251	GEV	-3.40591e-05
-4.61931	GPS	0.03082008
-4.71622	Gablehauser	0.05338762
-4.841159	Gablehouser	0.02958914
-5.017251	Gadget.	0.02175808
-4.71622	Galactica	0.02884181
-4.61931	Galaxy	0.05209108
-4.71622	Galileo	0.02565692
-5.017251	Gallant	0.02885105
-4.841159	Galleria	0.03488396
-5.017251	Galveston	0.02175808
-4.473182	Game	0.03357888
-5.017251	Games	0.001586418
-5.017251	GameyGamer75	0.02175808
-5.017251	Gandalf	0.02175808
-5.017251	Gandhi	-5.284206e-05
-5.017251	Ganesh	0.02885105
-5.017251	Gang	0.0002561365
-5.017251	Garden	0.02885105
-4.841159	Garfield	0.001181809
-5.017251	Gargamel	0.005012394
-5.017251	Garlic	-5.492901e-05
-4.61931	Gary	0.005499664
-5.017251	Gasses	0.005637829
-4.841159	Gates	-4.306975e-05
-4.841159	Gee	0.02172749
-4.841159	Gei	3.762632e-05
-5.017251	Gen	-5.07551e-05
-5.017251	Gen.	0.0004754776
-4.41519	General	-3.11411e-06
-4.61931	Generation	0.05207461
-4.841159	Geneva	0.02170128
-4.71622	Genius	0.02873983
-3.975858	Gentlemen	0.05157143
-5.017251	Geologists	0.02885105
-5.017251	Geology	-4.032016e-05
-4.204337	George	0.02131038
-4.841159	Georgia	0.005591441
-5.017251	Geppetto	4.31683e-05
-4.473182	German	0.02161662
-4.841159	Germanic	0.02170128
-4.71622	Germans	0.001927633
-5.017251	Germany	0.02175808
-3.956553	Get	0.0333466
-4.841159	Getting	0.007269401
-4.841159	Gettysburg	0.02879433
-5.017251	Ghostbusters	0.02885105
-5.017251	Giacomo	0.005012394
-5.017251	Giant	-5.07551e-05
-5.017251	Gifted	-5.701594e-05
-5.017251	Gino	0.008503923
-4.841159	Girl	0.02879433
-5.017251	Girls	0.02175808
-5.017251	Giuseppe	0.005637829
-4.204337	Give	0.008934357
-4.31828	Given	0.01540681
-5.017251	Giving	0.007678859
-5.017251	Glad	0.02885105
-4.841159	Gladly	0.02882046
-4.841159	Glenn	0.005699296
-5.017251	Gloria	-5.701594e-05
-5.017251	Glory	0.001552901
-5.017251	Glutamine	0.005637829
-5.017251	Gmail	-4.240718e-05
-3.761978	Go	0.05322871
-5.017251	Goblin	0.007508937
-4.017251	God	0.06046237
-4.71622	Gods	0.02167289
-5.017251	Gods'	0.01948184
-4.61931	Godzilla	0.005826567
-5.017251	Godzilla-like	-4.449417e-05
-5.017251	Gogh	0.003753695
-5.017251	Goldberg	0.02885105
-5.017251	Goldfarb	0.02175808
-5.017251	Goldfinch	0.0004023518
-5.017251	Gollum	0.02175808
-5.017251	Golly	0.02175808
-5.017251	Gomorrah	0.00188189
-5.017251	Gondor	0.02175808
-3.340557	Good	0.06313425
-5.017251	Good'	0.01948184
-4.71622	Good-bye	0.05212167
-5.017251	Goodall	-5.284206e-05
-4.540129	Goodbye	0.05263526
-4.71622	Goodness	0.02164667
-4.71622	Goodnight	0.02878987
-5.017251	Goofus	0.007508937
-4.473182	Google	0.007789499
-5.017251	Googling	0.0009479595
-5.017251	Goonies	0.02885105
-4.841159	Gorilla	0.02202618
-5.017251	Gorn-infested	-5.492901e-05
-5.017251	Gorshin	0.02175808
-4.841159	Gosh	0.02172749
-5.017251	Gossip	0.005637829
-4.017251	Got	0.01963726
-5.017251	Gotcha	0.02885105
-5.017251	Gotten	0.0002018407
-4.841159	Gottfried	-8.552067e-05
-5.017251	Gottlob	-5.701594e-05
-4.71622	Government	0.03829079
-5.017251	Graduate	-1.318818e-05
-5.017251	Graham	-5.492901e-05
-5.017251	Gram	0.001760324
-4.841159	Grand	-0.0001140319
-5.017251	Grande	0.02175808
-4.71622	Grandma	0.02903884
-4.841159	Granny	0.030811
-4.841159	Grant	0.02769158
-4.71622	Granted	0.02179799
-5.017251	Grass	0.003137272
-5.017251	Grateful	0.02885105
-5.017251	Gravity	-5.701594e-05
-5.017251	Graziano	0.005012394
-4.114161	Great	0.0517736
-4.841159	Greece	0.02223926
-4.841159	Greece'	0.01945125
-5.017251	Greedy	-5.284206e-05
-4.540129	Greek	-6.314271e-05
-4.841159	Greeks	0.02896165
-4.473182	Green	0.00481304
-4.841159	Greene	0.0270335
-5.017251	Greetings	0.02885105
-5.017251	Greyjoy	1.422064e-06
-4.71622	Griffith	-0.0001119363
-4.841159	Grinch	0.007478346
-5.017251	Groove	-4.449417e-05
-5.017251	Grossinger	0.02885105
-5.017251	Group	-5.701594e-05
-5.017251	Grow	0.0005820547
-5.017251	Growing	0.0005820547
-5.017251	Grumpy	0.02175808
-5.017251	Gryffindor	-3.40591e-05
-5.017251	Guatemala	8.700613e-05
-4.841159	Guess	0.04205486
-4.61931	Guide	0.007417169
-5.017251	Guilty	0.005637829
-5.017251	Guinan	0.001829487
-5.017251	Guinea	0.0001788713
-5.017251	Gulf	-5.492901e-05
-4.841159	Gunderson	0.0003892148
-5.017251	Guten	-5.701594e-05
-4.61931	Guy	0.05209108
-5.017251	Gygax	0.02175808
-4.71622	H	0.02500624
-4.61931	H-O	0.02872039
-5.017251	HC	0.02885105
-5.017251	HD	-4.866814e-05
-4.71622	Ha	0.02954962
-4.71622	Ha-ha	0.0216969
-4.841159	Had	0.007460489
-4.61931	Hadron	-0.0001425236
-4.841159	Hah	0.02958021
-4.841159	Hah-hah	0.0006476142
-5.017251	Hair	0.004546018
-5.017251	Hairy	-5.492901e-05
-4.841159	Haiti	0.004115881
-5.017251	Halbert	-5.701594e-05
-4.61931	Half	0.01535263
-4.841159	Halle	-8.552067e-05
-4.473182	Halloween	0.02876918
-4.31828	Halo	0.03148412
-5.017251	Ham-Fisted	6.195542e-05
-5.017251	Hammerhead	-5.284206e-05
-5.017251	Hammurabic	-5.284206e-05
-5.017251	Han	-5.701594e-05
-5.017251	Hand	0.002368497
-5.017251	Hand-holding	0.005637829
-5.017251	Handbook	0.004546018
-4.087831	Hang	0.001370838
-5.017251	Hankius	-5.701594e-05
-5.017251	Hannah	-5.492901e-05
-5.017251	Hannibal	0.0003543042
-4.540129	Happen	-0.0001480645
-5.017251	Happy	1.422064e-06
-5.017251	Haradwaith	-5.701594e-05
-5.017251	Hard	0.000826654
-4.71622	Hardly	0.02878987
-5.017251	Harness	7.683724e-06
-4.841159	Harry	-8.552067e-05
-5.017251	Harsh	-4.449417e-05
-5.017251	Harvey	0.005637829
-4.841159	Has	0.008527881
-5.017251	Hate	0.003675804
-5.017251	Hatter	0.001829487
-5.017251	Haughty	-5.492901e-05
-3.855882	Have	0.03566109
-5.017251	Having	-1.318818e-05
-4.71622	Hawaii	0.03281866
-5.017251	Hawaiian	-5.701594e-05
-4.841159	Hawkeye	0.0342149
-3.826919	Hawking	0.08963794
-5.017251	Hayn	0.0001746951
-3.133589	He	0.03708309
-5.017251	Head	0.004546018
-5.017251	Headset	0.02885105
-5.017251	Hearing	-5.701594e-05
-4.841159	Heated	0.007478346
-5.017251	Heaven	0.02175808
-5.017251	Heck	0.02175808
-5.017251	Heimlich	-5.701594e-05
-4.841159	Heinz	-8.343373e-05
-4.71622	Heisenberg	0.006763579
-5.017251	Helen	0.004546018
-5.017251	Heliosheath	-5.701594e-05
-4.841159	Helium	0.02923398
-4.61931	Hell	0.01195822
-3.261376	Hello	0.06384308
-5.017251	Helmholtz	0.02175808
-4.61931	Help	0.002989678
-5.017251	Helpful	-5.701594e-05
-5.017251	Helping	1.394551e-05
-4.841159	Henry	-0.000109858
-4.31828	Her	-0.0001143247
-5.017251	Herculean	-4.866814e-05
-3.738497	Here	0.08703669
-4.71622	Herman	0.02876374
-5.017251	Heroes	-5.07551e-05
-4.71622	Hewlett	0.03895942
-5.017251	Hewlett-Packard	-5.284206e-05
-3.525889	Hey	0.05560474
-4.039527	Hi	0.05163955
-5.017251	Hide	0.002368497
-4.364038	Higgs	0.0619624
-4.841159	High	-0.000109858
-4.841159	Highly	0.02879879
-5.017251	Hillbilly	-5.701594e-05
-5.017251	Him	0.02885105
-5.017251	Hinckley	1.603278e-05
-4.841159	Hindu	-0.000109858
-4.841159	Hinduism	0.02570925
-4.841159	Hint	0.02172749
-5.017251	Hippos	0.02175808
-5.017251	Hirsch	0.007508937
-5.017251	Hirschsprung	0.005012394
-4.087831	His	4.11676e-05
-5.017251	Historically	0.02175808
-4.71622	History	0.004460566
-5.017251	Hit	0.003675804
-4.61931	Hitchhiker	0.004920626
-5.017251	Hither	0.02175808
-5.017251	Hm	0.0006782059
-3.684812	Hmm	0.05733317
-5.017251	Hmmm	0.005637829
-5.017251	Hmmph	0.02175808
-5.017251	Hobbit	0.0006782059
-4.841159	Hoberman	0.004981803
-5.017251	Hoedown	-4.449417e-05
-3.975858	Hofstadter	0.05557337
-5.017251	Hoisted	0.0005172696
-4.063008	Hold	0.04360976
-4.31828	Hollywood	0.03038043
-5.017251	Holmes	6.195542e-05
-5.017251	Holocaust	0.02885105
-4.841159	Holy	-0.000103597
-4.841159	Home	0.0005041453
-5.017251	HomeTown	-5.701594e-05
-5.017251	Homeland	-5.701594e-05
-5.017251	Homeostasis	-5.07551e-05
-5.017251	Homesick	0.003137272
-4.841159	Hominids	0.02171225
-4.841159	Homo	-0.0001140319
-5.017251	Honduras	-4.032016e-05
-4.61931	Honestly	0.02166631
-5.017251	Honesty	0.0004211543
-4.71622	Honey	-0.0001425344
-5.017251	Honor	-5.701594e-05
-5.017251	Honour	0.02885105
-5.017251	Hoo	0.0006782059
-4.71622	Hook	0.008780528
-5.017251	Hope	0.007678859
-5.017251	Horatio	0.02175808
-4.61931	Hot	-0.0001863217
-5.017251	Hotay	0.02885105
-4.841159	Hoth	0.03055112
-4.71622	House	0.007461756
-4.71622	Houston	0.02621098
-3.133589	How	0.0619134
-3.276888	Howard	0.08325355
-5.017251	Howdy	0.02175808
-4.540129	However	0.02163573
-5.017251	Hu-u-urgh	0.0006782059
-5.017251	Hubba	0.02175808
-5.017251	Hubba-hubba	0.02885105
-5.017251	Hubble	-5.701594e-05
-5.017251	Hubei	-5.701594e-05
-4.841159	Hufflepuff	0.03488396
-5.017251	Hugh	0.02885105
-4.276888	Huh	0.05912633
-4.473182	Hulk	0.03158034
-4.41519	Human	-0.0002787752
-5.017251	Hummingbirds	0.001092315
-5.017251	Humorous	2.229468e-05
-5.017251	Humorously	0.02175808
-5.017251	Humvee	0.005637829
-5.017251	Hungarians	0.001092315
-5.017251	Hunger	-5.701594e-05
-4.841159	Hungry	-0.0001119449
-5.017251	Hunt	0.005012394
-4.841159	Hurry	0.02947742
-5.017251	Hurts	0.02175808
-4.841159	Hush	0.05215226
-5.017251	Hydrogen	-5.284206e-05
-1.550605	I	-0.001838416
-4.841159	I'	0.01945125
-4.71622	I-I	0.004404657
-5.017251	I.	0.0001767832
-4.841159	I.D	0.02882046
-5.017251	I.D.	0.02175808
-5.017251	I.e	0.02175808
-4.71622	ID	0.0521405
-4.71622	II	0.03058177
-4.841159	III	0.001611125
-4.841159	IKEA	0.009442139
-4.540129	IQ	0.007888967
-5.017251	IRS	-4.839534e-06
-5.017251	IS	0.00677267
-5.017251	Ice-skating	0.02885105
-4.540129	Icee	0.02919714
-4.841159	Icees	0.009442139
-4.841159	Iceman	0.02172749
-5.017251	Ich	-5.701594e-05
-3.019427	If	0.05314386
-5.017251	Illogical	0.02885105
-4.61931	Imagine	0.01014539
-4.841159	Imodium	0.01235542
-5.017251	Impact	0.02885105
-5.017251	Impaired	-4.866814e-05
-5.017251	Imperial	-5.284206e-05
-5.017251	Implacable	0.02175808
-5.017251	Implementing	-5.701594e-05
-4.71622	Impressive	0.05632265
-3.297091	In	0.05375564
-5.017251	Include	0.002368497
-4.841159	Including	0.01148645
-5.017251	Inconsiderate	0.02175808
-5.017251	Incredibles	0.02885105
-4.473182	Indeed	0.05202992
-4.61931	India	0.06072916
-4.172153	Indian	0.03060574
-4.540129	Indiana	-0.0001647609
-5.017251	Indianapolis	4.734315e-05
-5.017251	Indians	6.821798e-05
-5.017251	Individual	-5.701594e-05
-5.017251	Indonesia	0.000360571
-5.017251	Industrial	-4.032016e-05
-4.841159	Infinite	0.0001072413
-5.017251	Informal	-4.866814e-05
-4.71622	Initial	0.0005041541
-4.841159	Initiate	-7.92598e-05
-4.841159	Initiating	-0.000109858
-5.017251	Insightful	0.02885105
-5.017251	Inspector	-5.701594e-05
-5.017251	Instagram	0.02885105
-4.364038	Instead	0.02635931
-5.017251	Institute	0.001760324
-3.920341	Interesting	0.05185429
-5.017251	Interestingly	0.0004545835
-5.017251	Interior	-5.07551e-05
-5.017251	Internal	-5.701594e-05
-5.017251	International	-4.866814e-05
-4.114161	Internet	0.03316264
-5.017251	Interpretation	0.02885105
-5.017251	Interrupting	-1.318818e-05
-5.017251	Intimacy	0.002922886
-4.841159	Intriguing	0.02882046
-5.017251	Introduction	0.007508937
-5.017251	Invasion	0.004546018
-5.017251	Inventory	0.02885105
-5.017251	Invisible	-4.449417e-05
-5.017251	Invitational	0.005637829
-5.017251	Ionised	-5.284206e-05
-5.017251	Iowa	0.02885105
-4.71622	Ira	0.05212167
-4.841159	Irish	-0.000107771
-4.71622	Iron	-9.941435e-05
-5.017251	Irony	0.005012394
-4.841159	Irrelevant	0.02882046
-3.242733	Is	0.05321123
-4.364038	Isaac	-0.0002286618
-5.017251	Island	0.02175808
-5.017251	Isle	0.004546018
-5.017251	Isosceles	0.02175808
-5.017251	Israelites	0.0003584821
-2.543034	It	0.02496571
-5.017251	Italia	-5.701594e-05
-4.473182	Italian	0.05236436
-5.017251	Itchy	0.005637829
-4.841159	Its	-9.107479e-05
-5.017251	J.K.	-5.701594e-05
-5.017251	Jab	-5.701594e-05
-5.017251	Jabba	0.005012394
-5.017251	Jabir	-5.701594e-05
-4.71622	Jack	0.03194953
-5.017251	Jackie	-5.701594e-05
-5.017251	Jacks	0.002922886
-4.71622	Jackson	0.02700291
-5.017251	Jacques	-5.701594e-05
-4.841159	Jacuzzi	0.003543052
-4.841159	Jacuzzis	0.03002289
-5.017251	Jamba	-5.492901e-05
-5.017251	Jamboree	0.02885105
-4.473182	James	0.02150469
-5.017251	Jan	-5.701594e-05
-4.841159	Jane	-0.0001140319
-5.017251	Janine	-5.492901e-05
-4.841159	January	-0.0001119449
-4.540129	Japanese	0.02157477
-4.841159	Jar	-0.0001119449
-5.017251	Jaws	0.005637829
-4.841159	Jealousy	0.00310668
-5.017251	Jean-Luc	-5.492901e-05
-4.61931	Jedi	0.05221822
-5.017251	Jeepers	-5.701594e-05
-5.017251	Jeeves	0.02885105
-4.841159	Jeffries	0.05215226
-4.841159	Jell-O	0.03488396
-4.61931	Jenga	0.02162267
-4.71622	Jennifer	-0.0001425344
-4.71622	Jenson	0.02878987
-5.017251	Jeopardy	0.02885105
-4.71622	Jersey	0.02167069
-5.017251	Jerusalem	0.02175808
-4.276888	Jesus	0.02641245
-5.017251	Jew	0.02885105
-4.31828	Jewish	0.005664386
-5.017251	Jibber-jabber	0.005637829
-5.017251	Jiffy	-5.701594e-05
-4.841159	Jim	0.02879433
-4.841159	Jiminy	0.02882046
-5.017251	Jimmy	0.003753695
-5.017251	Jobs	0.02175808
-4.841159	Joe	0.01228026
-4.71622	Joel	-2.564884e-05
-5.017251	Joes	0.02885105
-5.017251	Joey	0.003137272
-4.71622	Johnson	0.0002729696
-5.017251	Join	0.0002415178
-5.017251	Joke	0.0008412927
-5.017251	Joker	0.02175808
-4.364038	Jones	0.06482202
-5.017251	Joplin	0.0001120584
-5.017251	Joseph	-5.701594e-05
-4.841159	Joss	-8.552067e-05
-4.841159	Journal	0.004515426
-5.017251	Joyce	-4.658116e-05
-5.017251	Jr	0.02175808
-4.841159	Judas	0.02924961
-4.841159	Juice	0.02506079
-4.841159	Juicy	-6.811653e-05
-5.017251	Julian	-5.07551e-05
-4.841159	Julie	-8.552067e-05
-4.61931	July	0.02868533
-5.017251	Jump	0.001829487
-5.017251	June	-5.701594e-05
-5.017251	Jungian	-5.284206e-05
-5.017251	Jurassic	-5.07551e-05
-3.554852	Just	0.06122694
-4.841159	Justice	-8.134676e-05
-5.017251	Justin	0.0006865676
-5.017251	KMN	0.02885105
-5.017251	Ka	5.98679e-05
-5.017251	Kadhai	-5.492901e-05
-5.017251	Kandorian	-3.823317e-05
-4.841159	Kangaroo	0.05215226
-5.017251	Kansas	-4.032016e-05
-5.017251	Kardashian	0.02885105
-4.841159	Kardashians	0.005650652
-5.017251	Kart	0.02885105
-4.841159	Kass	0.02973889
-5.017251	Kcuhc	0.02885105
-4.364038	Keep	0.02150754
-5.017251	Keepers	0.005637829
-5.017251	Kenobi	0.003753695
-4.841159	Kenya	-0.0001140319
-4.71622	Keys	0.0006170247
-4.841159	Khan	0.02170128
-4.841159	Khloe	0.03488396
-4.841159	Kick	0.007122957
-5.017251	Kidney	-4.658116e-05
-5.017251	Kids	0.02885105
-5.017251	Killed	0.0005172696
-5.017251	Killing	0.007678859
-4.473182	Kim	0.02591525
-4.61931	Kind	0.00445425
-4.841159	King	0.004955428
-5.017251	Kingman	0.02175808
-4.31828	Kirk	0.05291412
-4.841159	Kitt	0.02570925
-4.71622	Kitty	0.009511105
-4.41519	Klingon	0.03551667
-5.017251	Klingon-Sanskrit	-5.701594e-05
-5.017251	Klingons	0.02175808
-5.017251	Kmart	-5.492901e-05
-4.71622	Knight	0.03004448
-4.540129	Knock	0.02163573
-5.017251	Knock-knock	0.02885105
-4.841159	Knox	0.02214918
-4.841159	KoKo	0.00847679
-4.841159	Kobayashi	-8.552067e-05
-4.841159	Kolinar	0.036886
-5.017251	Koo	0.0005611553
-5.017251	Kool-Aid	9.95321e-05
-5.017251	Koothranardowitz	0.001586418
-4.841159	Koothrapali	0.003713559
-3.826919	Koothrappali	0.09074286
-4.841159	Koothrappalis	0.001061724
-4.841159	Korea	0.05215226
-4.61931	Korean	-0.0001912001
-5.017251	Kourtney	0.02175808
-4.71622	Kraken	0.05292513
-5.017251	Kringle	0.02175808
-3.841159	Kripke	0.07013718
-4.841159	Krypton	0.005580869
-4.71622	Kryptonian	-0.0001480904
-4.841159	Kudos	0.02882046
-5.017251	Kung-Fu	-5.701594e-05
-5.017251	Kup-fun-tor	-5.701594e-05
-5.017251	Kurt	0.001760324
-5.017251	L	0.005637829
-5.017251	L-L-see	0.003688435
-5.017251	L.A	0.02885105
-5.017251	L.A.	-5.492901e-05
-5.017251	L.H	0.02885105
-4.841159	L.H.	0.02172749
-4.71622	LEGO	-9.591022e-05
-5.017251	LSD	0.0001705191
-5.017251	Lab	-5.701594e-05
-5.017251	Lactose	-5.492901e-05
-4.841159	Lad	0.0342149
-5.017251	Ladders	0.02175808
-4.473182	Ladies	0.05220651
-5.017251	Lady	0.0001621671
-5.017251	Ladybugs	7.448062e-05
-4.61931	Lake	-0.0001786778
-5.017251	Lambda-CDM	-3.823317e-05
-5.017251	Lamda	-3.823317e-05
-5.017251	Laminate	0.008503923
-5.017251	Land	0.02175808
-5.017251	Lanka	0.005637829
-4.61931	Lantern	0.0001658272
-5.017251	Lap	0.02175808
-4.61931	Large	-0.0001689478
-4.841159	Larry	0.004179107
-4.61931	Las	-0.0001404366
-5.017251	Lascaux	0.02175808
-4.41519	Last	0.0005492446
-5.017251	Lately	0.001504726
-5.017251	Latham	0.007508937
-4.61931	Latin	0.03064976
-5.017251	Lauderdale	0.0004733883
-5.017251	Lawlessness	0.003753695
-4.841159	Lawrence	0.03488396
-5.017251	Lay	0.0001621671
-4.71622	LeVar	-0.0001140232
-4.841159	Leader	0.007478346
-5.017251	Leaf	-5.701594e-05
-4.61931	League	0.03360493
-5.017251	Leakey	0.02175808
-5.017251	Leaky	-5.701594e-05
-5.017251	Leap	0.02885105
-5.017251	Learn	0.007508937
-5.017251	Lebanon	0.02885105
-3.855882	Lee	0.08148497
-5.017251	Legion	0.004546018
-5.017251	Lego	0.005012394
-5.017251	Legoland	0.003137272
-5.017251	Legos	0.02885105
-4.841159	Leibniz	0.007492345
-4.61931	Leo	0.03468256
-5.017251	Leon	-5.701594e-05
-2.60901	Leonard	0.1228774
-5.017251	Leonid	-5.701594e-05
-5.017251	Leopold	-5.284206e-05
-5.017251	Lesley	0.02885105
-4.473182	Leslie	0.0006577577
-5.017251	Less	9.118146e-05
-3.443219	Let	0.006495444
-5.017251	Lett	-5.492901e-05
-5.017251	Level	9.95321e-05
-5.017251	Lewis	-5.701594e-05
-5.017251	Libido	-4.866814e-05
-5.017251	Lichtenstein	-4.240718e-05
-5.017251	Liechtenstein	0.003753695
-5.017251	Life	0.02175808
-5.017251	Light	0.02175808
-5.017251	Lighten	0.0005820547
-3.750079	Like	0.07109898
-5.017251	Liked-Our-Paper	0.02885105
-4.473182	Lincoln	0.02905555
-5.017251	Linux	-5.701594e-05
-5.017251	Lion	-5.492901e-05
-5.017251	Lipid	-5.492901e-05
-5.017251	Lisa	-5.284206e-05
-4.31828	Listen	0.06045559
-4.841159	Literally	0.01250149
-5.017251	Literature	0.02885105
-4.276888	Little	-0.0004351741
-5.017251	Living	-5.701594e-05
-4.841159	Lizard	-9.942296e-05
-5.017251	Localized	0.007508937
-5.017251	Lock	0.003753695
-4.841159	Locus	-7.92598e-05
-5.017251	Log	0.02175808
-4.841159	Logs	0.05215226
-5.017251	Lone	5.778042e-05
-5.017251	Long	-5.492901e-05
-4.71622	Longclaw	0.008786144
-5.017251	Longest	-1.527532e-05
-5.017251	Loobenfeld	0.02175808
-3.570092	Look	0.06807011
-4.841159	Looking	0.001963271
-4.71622	Looks	0.000866639
-5.017251	Loomis	0.003753695
-5.017251	Loony	-5.701594e-05
-3.684812	Lord	0.06110787
-5.017251	Lorvis	0.02885105
-4.31828	Los	-0.0003135042
-5.017251	Lose	0.0008622056
-4.540129	Lost	0.00144394
-4.841159	Lot	0.008340579
-5.017251	Lots	0.004546018
-5.017251	Louis-slash-Louise	0.0001872236
-4.71622	Love	0.005674063
-5.017251	Lovers	0.005637829
-5.017251	Lubes	0.02175808
-4.61931	Lucas	0.02560459
-5.017251	Luckily	0.001760324
-4.473182	Lucky	0.05403559
-5.017251	Luigi	0.005012394
-5.017251	Luis	-5.701594e-05
-4.540129	Luke	0.003305912
-5.017251	Luminescence	-4.866814e-05
-5.017251	Luna	-4.240718e-05
-4.473182	M	0.05777748
-4.841159	M-theory	0.02170786
-4.841159	M.	0.0002346289
-5.017251	M.A.	0.02175808
-4.61931	MA	0.02165985
-4.71622	MG	0.0104126
-4.473182	MIT	0.0519899
-4.841159	MP3	-0.000109858
-4.841159	MRI	0.03371603
-5.017251	MS	0.02175808
-5.017251	MSN	-5.701594e-05
-5.017251	MUON	0.0006782059
-5.017251	MacArthur	-5.701594e-05
-5.017251	MacNeil/Lehrer	-5.701594e-05
-5.017251	Machine	0.02175808
-5.017251	Mack	-5.284206e-05
-5.017251	Macy	0.005012394
-4.841159	Mad	-0.000105684
-4.61931	Madame	-0.0001425236
-4.841159	Made	-5.976774e-05
-5.017251	Madhuri	-5.701594e-05
-5.017251	Madonna	0.02885105
-5.017251	Magdalene	0.00677267
-4.841159	Maggie	0.004955428
-4.71622	Magic	0.02165106
-5.017251	Magnesium	0.02175808
-4.841159	Mahalo	0.03073705
-5.017251	Mahatma	-5.701594e-05
-5.017251	Maintaining	1.812007e-05
-5.017251	Major	0.0001642552
-4.540129	Make	0.004229608
-4.71622	Making	0.01089036
-5.017251	Mall	0.002922886
-5.017251	Mama	-5.701594e-05
-4.276888	Man	0.04357538
-4.71622	Man-Bat	0.02168166
-5.017251	Man-Bat-Man-Bat-Batman	0.005637829
-5.017251	Man-Bat-Man-Bat-Man	0.0004023518
-5.017251	Man-Batman	0.005637829
-5.017251	Man-Man	0.0008412927
-5.017251	Man-bat	0.003137272
-5.017251	Mandarin	0.02885105
-5.017251	Mandelbrot	1.812007e-05
-4.841159	Mandy	0.05215226
-5.017251	Manga	0.02175808
-5.017251	Manganese	0.02175808
-5.017251	Mango	0.02175808
-4.841159	Manhattan	-7.92598e-05
-5.017251	Mankind	0.02885105
-5.017251	Manu	0.003137272
-5.017251	Many	0.0001141461
-5.017251	Maple	-5.701594e-05
-5.017251	Maps	0.001829487
-4.841159	March	0.004501702
-4.71622	Marco	-0.0001140232
-5.017251	Marie	0.02175808
-4.61931	Mario	0.02357165
-5.017251	Marion	1.603278e-05
-4.841159	Mark	-8.552067e-05
-5.017251	Marker	0.01233715
-5.017251	Marmaduke	0.02885105
-4.31828	Mars	0.05316417
-4.841159	Martin	0.02175176
-4.473182	Marty	0.008662432
-4.841159	Maru	0.02940817
-4.71622	Marvel	0.02876214
-5.017251	Marvelous	-5.701594e-05
-4.473182	Mary	0.06017953
-5.017251	Massachusetts	0.02885105
-5.017251	MasterCard	-3.40591e-05
-5.017251	Mathematical	0.02885105
-4.841159	Matrix	0.005659112
-5.017251	Matter	-1.527532e-05
-5.017251	Maxwell	0.005012394
-4.087831	May	0.03431568
-3.727216	Maybe	0.1035728
-5.017251	McBlanket	0.02885105
-5.017251	McCoy	0.02885105
-4.841159	McDonald	0.01261108
-5.017251	McFly	0.0002498713
-5.017251	McGeary	0.02885105
-5.017251	McRib	-2.988498e-05
-4.204337	Me	0.06286366
-5.017251	Mean	-5.701594e-05
-5.017251	Meaningless	-5.492901e-05
-5.017251	Measures	0.02885105
-5.017251	Mecca	0.001760324
-5.017251	Medical	-5.07551e-05
-5.017251	Medusa	0.02175808
-5.017251	Mee	-5.492901e-05
-4.540129	Mee-Maw	0.0104791
-4.142189	Meemaw	0.05323341
-5.017251	Meemaws	0.02885105
-4.71622	Meeting	0.05209578
-4.841159	Meh	0.02882046
-5.017251	Meitnerium	0.000356393
-5.017251	Melba	-2.362376e-05
-5.017251	Melted	-5.701594e-05
-4.841159	Memorial	0.02923398
-5.017251	Men	0.0001224973
-5.017251	Menace	0.0007597415
-5.017251	Mendelevium	0.02175808
-5.017251	Menelaus	0.0003689268
-5.017251	Menushya	-5.701594e-05
-5.017251	Mercury	0.02885105
-5.017251	Meriwether	0.02885105
-5.017251	Meriwether'	0.01948184
-5.017251	Mesozoic	1.603278e-05
-5.017251	Message	-4.866814e-05
-5.017251	Met	0.002481838
-4.540129	Mexican	-0.0002850794
-4.71622	Mexico	0.05212167
-4.841159	Michael	-0.000109858
-4.841159	Michelle	-8.552067e-05
-4.841159	Michigan	0.02963608
-5.017251	Mickey	0.005012394
-5.017251	Microsoft	1.603278e-05
-4.71622	Middle	-0.0001105213
-5.017251	Middle-Eastern	-5.701594e-05
-5.017251	Midol	0.02175808
-5.017251	Midwest	0.001586418
-5.017251	Midwestern	0.02175808
-5.017251	Might	0.000826654
-5.017251	Migraines	0.005637829
-4.841159	Mike	0.03488396
-4.71622	Milk	-0.0001425344
-5.017251	Milky	-4.866814e-05
-4.61931	Miller	0.0002465603
-5.017251	Mimeaux	0.00188189
-4.841159	Mimesis	0.02882046
-5.017251	Minamoto	-5.701594e-05
-4.841159	Mind	0.0298395
-5.017251	Minds	0.02885105
-5.017251	Mine	-5.701594e-05
-5.017251	Miners	-2.153668e-05
-5.017251	Miniseries	-2.779793e-05
-5.017251	Minstrels	0.0004211543
-5.017251	Mint	-5.492901e-05
-5.017251	Mirjam	-5.701594e-05
-4.540129	Miss	0.02863083
-4.841159	Mississippi	0.05215226
-4.540129	Missy	0.03547472
-5.017251	Mithra	0.005637829
-5.017251	Mix	0.02885105
-4.276888	Mm	0.05190761
-4.540129	Mm-hmm	0.0287287
-4.276888	Mmm	0.05190761
-5.017251	Mmmmm	0.0006782059
-5.017251	Mobius	-5.284206e-05
-5.017251	Mock	-5.701594e-05
-5.017251	Mockery	0.005637829
-5.017251	Mockingbirds	0.0007785597
-4.841159	Mohammed	0.003137054
-4.841159	Moines	0.02172749
-5.017251	Moldova	0.0001746951
-5.017251	Molybdenum	0.02175808
-4.087831	Mom	0.06338105
-5.017251	Mom.You	0.001754037
-5.017251	Moments	1.394551e-05
-4.71622	Mommy	0.03103451
-4.71622	Monday	0.03484765
-4.71622	Mondays	0.05852448
-5.017251	Monkey	0.003753695
-5.017251	Monkeys	4.31683e-05
-5.017251	Monogrammed	-2.779793e-05
-5.017251	Monopoly	0.02885105
-5.017251	Monrovia	0.02175808
-4.71622	Monster	0.05209578
-4.841159	Montana	0.02882046
-4.540129	Monte	0.03664107
-5.017251	Montgomery-Ward	-5.492901e-05
-4.841159	Month	0.02172749
-5.017251	Moon	-5.701594e-05
-5.017251	Moot	0.02885105
-5.017251	Mordor	-4.032016e-05
-4.473182	More	0.0184997
-4.841159	Morlocks	0.02769158
-4.41519	Morning	0.05197815
-5.017251	Morrisette	0.02885105
-4.841159	Morse	-6.882483e-05
-5.017251	Morton	0.02175808
-5.017251	Moses	0.02885105
-4.71622	Most	0.0001295802
-5.017251	Mostly	0.0004545835
-4.239099	Mother	0.06406213
-5.017251	Motion	-5.701594e-05
-5.017251	Motorola	-5.07551e-05
-4.841159	Mount	-0.0001119449
-4.61931	Mountain	0.05206755
-4.61931	Move	0.02952418
-5.017251	Movies	0.0004023518
-5.017251	Moving	0.001829487
-5.017251	Mozart	0.02175808
-4.841159	Mr	-5.141882e-05
-3.841159	Mr.	-0.00103793
-5.017251	Mrs	-5.701594e-05
-4.239099	Mrs.	-0.0002534729
-4.540129	Ms.	-0.0002259593
-5.017251	Much	-2.752346e-06
-5.017251	Mud	0.02885105
-5.017251	Mufasa	0.02885105
-5.017251	Muggles	0.02885105
-5.017251	Mumbai	0.02885105
-5.017251	Munch	0.02175808
-5.017251	Munching	0.001829487
-4.841159	Muppet	0.003700926
-5.017251	Murdoch	0.02885105
-5.017251	Murray	3.273135e-05
-5.017251	Musa	-5.701594e-05
-5.017251	Musk	0.0003543042
-4.61931	Must	0.009199663
-5.017251	Mutant	-5.701594e-05
-5.017251	Mwah	0.02175808
-5.017251	Mwah-ha-ha	0.02885105
-5.017251	Mxyzptlk	-1.527532e-05
-3.22137	My	-0.0008366462
-4.61931	N	0.04219013
-5.017251	N-gauge	-4.658116e-05
-5.017251	NASA	0.005637829
-5.017251	NE	1.394551e-05
-5.017251	NPR	-4.658116e-05
-5.017251	NQ	-4.866814e-05
-5.017251	NSF	-4.866814e-05
-5.017251	Na-oh	0.0006782059
-5.017251	Nadoolman	0.02885105
-4.71622	Nah	0.0216969
-4.841159	Nailed	0.003645212
-5.017251	Namaste	0.02885105
-4.61931	Name	0.01135764
-5.017251	Nana	0.02885105
-5.017251	Nancy	0.02885105
-5.017251	Napoleon	-4.449417e-05
-5.017251	Nathan	-5.701594e-05
-4.61931	National	-0.0001522516
-5.017251	Navajo	0.02885105
-5.017251	Navy	0.02885105
-5.017251	Nazis	0.0001141461
-5.017251	Neat	0.02885105
-4.473182	Nebraska	0.04074203
-5.017251	Neck	-5.492901e-05
-4.71622	Need	0.01227597
-5.017251	Needed	-4.449417e-05
-5.017251	Needy	-5.284206e-05
-5.017251	Neeeeeooooowwwwww	0.0006782059
-5.017251	Neeeeooooowwwww	0.0006782059
-5.017251	Neeeeoooowwwww	0.0006782059
-5.017251	Negative	-5.284206e-05
-4.841159	Neil	-8.552067e-05
-4.61931	Neither	0.007188237
-5.017251	Nelly	0.02885105
-5.017251	Nemesis	0.005637829
-5.017251	Neocortex	0.02885105
-4.841159	Neosporin	0.02570925
-4.841159	Netflix	0.02879656
-5.017251	Network	0.000952143
-5.017251	Neuroscience	0.02175808
-5.017251	Neutrino	0.005637829
-4.841159	Nevada	-8.481357e-05
-4.142189	Never	0.05419106
-4.71622	Nevertheless	0.0216969
-5.017251	Nevis	0.02885105
-4.31828	New	-0.0004059994
-5.017251	Newcomb	-5.701594e-05
-4.841159	Newmar	0.02172749
-4.204337	Newton	0.06988562
-5.017251	Newtons	0.02885105
-3.996061	Next	0.05440702
-5.017251	Nibia	0.003753695
-4.31828	Nice	0.02937334
-5.017251	Nick	0.02175808
-5.017251	Nicolaus	-5.701594e-05
-4.841159	Niels	-8.552067e-05
-5.017251	Nietzsche	0.02175808
-4.473182	Night	0.03970117
-4.841159	Nightcrawler	0.05215226
-5.017251	Nightmare	-3.197206e-05
-5.017251	Nighty-night	0.02175808
-5.017251	Nikola	-5.07551e-05
-4.364038	Nimoy	0.04436988
-4.540129	Nine	0.003848023
-5.017251	Nine/Star	3.064398e-05
-5.017251	Ninja	-5.701594e-05
-4.61931	Nintendo	0.0006381387
-2.695031	No	0.07954531
-5.017251	No-Funderson	0.005637829
-4.841159	No-one	0.005800832
-4.841159	Noah	0.003696716
-4.039527	Nobel	0.03142696
-4.71622	Nobody	-8.129865e-05
-5.017251	Nodlehs	0.02885105
-4.841159	None	0.004556546
-5.017251	Nonsense	0.02885105
-5.017251	Noonien	-5.701594e-05
-4.473182	Nope	0.05202992
-5.017251	Nordic	-5.07551e-05
-4.841159	Norris	-0.000105684
-5.017251	Norse	-5.701594e-05
-4.204337	North	-0.000430917
-4.841159	Northern	-0.0001140319
-5.017251	Northwest	1.422064e-06
-4.841159	Norton	0.02263053
-5.017251	Nose	0.02885105
-3.331509	Not	0.03150913
-4.172153	Nothing	0.05270905
-5.017251	Notice	0.0002373411
-5.017251	Notify	0.008503923
-4.841159	November	-8.343373e-05
-5.017251	Novus	0.0003689268
-3.039527	Now	0.1277365
-4.540129	Nowitzki	0.07567412
-5.017251	Nuclear	-3.614612e-05
-5.017251	Nudge	0.02175808
-4.841159	Number	0.0001949467
-5.017251	Numerator	0.02885105
-5.017251	Nut	-5.701594e-05
-4.841159	Nuts	0.007478346
-4.71622	Nutter	-0.0001404474
-4.473182	Nye	0.03600418
-4.71622	O	0.004924838
-4.841159	O-gauge	0.02218433
-5.017251	OMG	0.02175808
-5.017251	Oa	0.02175808
-5.017251	Oat	-5.284206e-05
-5.017251	Oatmeal	-2.153668e-05
-5.017251	Obesity	0.02885105
-4.61931	Obi-Wan	0.05213111
-5.017251	Obispo	0.02175808
-4.71622	Observe	0.02878987
-4.41519	Obviously	0.06081516
-5.017251	Occam	0.005012394
-5.017251	Octopus	0.007508937
-4.841159	Odd	0.02172749
-5.017251	Oddly	0.02175808
-5.017251	Oecanthus	-5.701594e-05
-5.017251	Oedipal	-4.449417e-05
-3.485771	Of	-0.0005231963
-5.017251	Off	0.008503923
-4.71622	Officer	0.05212167
-4.841159	Offices	0.001061724
-2.419555	Oh	0.0483073
-5.017251	Oh-ho	0.0006782059
-5.017251	Oh-ho-ho	0.02175808
-3.169061	Okay	0.04875461
-4.841159	Oklahoma	0.02882046
-4.61931	Old	0.02168851
-4.841159	Olive	-0.0001140319
-4.71622	Olympic	-0.0001626997
-4.841159	Olympics	0.03371603
-5.017251	Olympus	0.003753695
-5.017251	Om	0.02885105
-5.017251	Omaha	0.005637829
-5.017251	Omar	0.02175808
-3.886917	On	0.0219915
-4.364038	Once	0.06887036
-3.61071	One	0.07435703
-5.017251	One'	0.01948184
-5.017251	One-Eyed	-5.701594e-05
-4.41519	Only	0.04143396
-5.017251	Oobius	-5.701594e-05
-3.920341	Ooh	0.05228325
-5.017251	Ooo-ooo	0.02885105
-5.017251	Oop	0.0006782059
-5.017251	Oops	0.02175808
-4.71622	Open	0.01220403
-5.017251	Opening	0.0001433757
-4.61931	Oppenheimer	0.0544138
-5.017251	Optimized	-5.701594e-05
-3.637039	Or	0.07115722
-5.017251	Orcs	0.0005611553
-4.841159	Order	-0.000107771
-5.017251	Oregon	0.0007785597
-5.017251	Oreo	0.02885105
-5.017251	Orient	-5.492901e-05
-5.017251	Origami	-5.07551e-05
-5.017251	Origin	0.02885105
-4.71622	Original	-0.0001140232
-5.017251	Orpheus	0.003753695
-4.473182	Other	0.0003679197
-5.017251	Otherwise	0.02175808
-5.017251	Otto	-5.492901e-05
-5.017251	Ouch	0.02885105
-4.276888	Our	-9.403523e-05
-5.017251	Ours	0.0003689268
-4.841159	Out	0.007500839
-5.017251	Outdoor	0.005637829
-5.017251	Outside	0.005637829
-4.473182	Over	0.04262398
-4.41519	Ow	0.0528028
-4.71622	Oxford	-0.0001209575
-5.017251	Oxnard	0.02885105
-5.017251	Oyl	0.02885105
-4.841159	P.E	0.02882046
-5.017251	PBS	0.02175808
-5.017251	PDFs	-5.701594e-05
-5.017251	PMS	0.02885105
-5.017251	PMS'ing	0.02885105
-5.017251	PRK	0.02885105
-5.017251	PS1	0.02175808
-5.017251	PS2	0.02175808
-4.71622	PS3	0.02567866
-4.540129	PS4	0.03257155
-5.017251	PVC	0.007508937
-5.017251	Pacific	-5.701594e-05
-5.017251	Packard	0.02885105
-5.017251	Pad	-4.032016e-05
-4.71622	Page	0.05210755
-5.017251	Paint	0.00677267
-5.017251	Painters	0.000935409
-5.017251	Pair	0.004546018
-5.017251	Pakistan	6.821798e-05
-4.71622	Palace	0.03485338
-5.017251	Palpatine	0.0006970204
-4.841159	Paneer	0.02172749
-5.017251	Panofsky	0.02175808
-4.71622	Paper	0.02165106
-5.017251	Papua	-4.032016e-05
-5.017251	Parade	0.02885105
-5.017251	Paradox	0.02175808
-5.017251	Paraffin	-5.284206e-05
-5.017251	Parcel	-5.492901e-05
-4.71622	Pardon	0.002307316
-4.61931	Park	0.0389028
-5.017251	Parks	0.02885105
-5.017251	Parliamentary	-5.492901e-05
-5.017251	Parmesan	-2.571085e-05
-4.841159	Particle	0.02881663
-4.276888	Pasadena	0.05313849
-5.017251	Pastries	3.273135e-05
-5.017251	Patang	-5.284206e-05
-5.017251	Patch	-5.701594e-05
-5.017251	Patience	0.02175808
-4.841159	Patrick	-8.552067e-05
-5.017251	Pattern	0.003137272
-5.017251	Patties	0.02175808
-5.017251	Paul	0.008503923
-5.017251	Pay	-1.736244e-05
-4.540129	Pchew	0.0005558521
-5.017251	Peace	-3.823317e-05
-5.017251	Peach	0.02885105
-5.017251	Pear	0.02885105
-5.017251	Pear-tickle	0.02885105
-5.017251	Pearson	0.001760324
-5.017251	Pee-wee	-5.284206e-05
-5.017251	Peeing	0.02885105
-5.017251	Peg-Leg	-5.701594e-05
-2.908347	Penny	0.09716305
-4.841159	Penrose	-8.552067e-05
-4.114161	People	0.01393363
-5.017251	Pep	-5.492901e-05
-5.017251	Pepper	-4.449417e-05
-5.017251	Peppermint	-5.701594e-05
-5.017251	Peppers	0.02175808
-5.017251	Pepsi	0.0007785597
-5.017251	Per	0.0004880148
-5.017251	Perfect	0.02175808
-5.017251	Perform	0.008503923
-3.71622	Perhaps	0.1166912
-4.841159	Perlmutter	0.0006734621
-5.017251	Permission	-5.284206e-05
-5.017251	Perseus	0.003753695
-5.017251	Persian	-5.284206e-05
-5.017251	Personal	-5.284206e-05
-4.841159	Personally	0.02172749
-5.017251	Pest	-5.701594e-05
-5.017251	Pete	0.005012394
-4.841159	Peter	-7.299885e-05
-5.017251	Pets	0.001092315
-4.841159	Pfieffer	0.02172749
-4.540129	PhD	0.05539715
-5.017251	PhDs	2.438199e-05
-4.841159	Phantom	-0.0001119449
-5.017251	Pharoah	0.007508937
-4.841159	Philharmonic	0.02966737
-5.017251	Physically	0.02175808
-4.239099	Physics	0.05876182
-5.017251	Physika	2.229468e-05
-5.017251	Physiologically	-3.614612e-05
-5.017251	Pi	-5.284206e-05
-4.841159	Picard	0.005667571
-4.841159	Picasso	0.007458366
-4.61931	Pick	0.03864802
-4.71622	Pictionary	0.03829079
-5.017251	Picture	0.005637829
-5.017251	Pie	0.00108813
-5.017251	Pilates	0.02885105
-5.017251	Pinocchio	0.0001099706
-5.017251	Pixie	-5.701594e-05
-5.017251	Pizza	0.02885105
-5.017251	Plan	0.0002268995
-5.017251	Planck	0.005012394
-5.017251	Plane	-4.032016e-05
-5.017251	Planets	0.02175808
-4.71622	Plantation	0.05212167
-5.017251	Plateful	0.02885105
-4.841159	Platform	0.005607238
-4.204337	Play	0.03439151
-5.017251	PlayStation	0.02175808
-4.61931	Playing	0.01408403
-3.774212	Please	0.06138023
-5.017251	Pleased	0.007508937
-5.017251	Pledge	0.004546018
-4.841159	Plenty	0.004515426
-4.71622	Plimpton	0.05212167
-4.364038	Plus	0.03503195
-4.841159	Pluto	0.02945508
-5.017251	Pneumococcus	0.02175808
-5.017251	Podiatrist	0.005637829
-5.017251	Poindexter	0.02175808
-4.41519	Point	0.02641033
-5.017251	Pointing	0.0007764688
-5.017251	Poison	-5.284206e-05
-5.017251	Pok'mon	-4.032016e-05
-4.61931	Pole	0.03676695
-4.61931	Polish	0.02929696
-5.017251	Polish-born	0.02175808
-5.017251	Pollock	0.02175808
-4.71622	Polo	0.03792026
-5.017251	Pon	-5.701594e-05
-5.017251	Ponies	0.005637829
-5.017251	Pool	0.02175808
-5.017251	Poor	1.812007e-05
-5.017251	Poorly	-5.701594e-05
-5.017251	Pop	-5.701594e-05
-4.61931	Pop-Pop	0.05389578
-4.841159	Pope	0.000311915
-5.017251	Portland	0.02885105
-4.841159	Possible	-0.000109858
-4.841159	Possibly	0.05215226
-5.017251	Postal	3.690611e-05
-5.017251	Poster	0.02885105
-4.841159	Potter	0.008811117
-4.61931	Pottery	-0.0001425236
-5.017251	Pouting	0.003753695
-4.71622	Power	-0.0001543516
-5.017251	PowerPoint	-5.492901e-05
-5.017251	Prairie	0.02885105
-4.71622	Pratt	0.02729901
-5.017251	Prawn	-5.701594e-05
-5.017251	Precisely	0.02175808
-5.017251	Prefect	-5.701594e-05
-5.017251	Prejudice	0.003137272
-4.71622	Prepare	0.009329751
-5.017251	Prepares	0.02175808
-5.017251	Preposterous	0.02885105
-5.017251	Prescription	0.0004023518
-4.41519	Presents	-8.046097e-05
-4.41519	President	-0.0002926809
-4.841159	Pretty	9.888926e-05
-5.017251	Previously	0.01233715
-5.017251	Pride	0.003753695
-5.017251	Primates	0.001988814
-5.017251	Prince	-5.701594e-05
-4.41519	Princess	0.02859581
-4.61931	Princeton	0.03826021
-5.017251	Principia	0.0001037075
-5.017251	Pringles	0.02885105
-4.31828	Priya	0.05826306
-4.276888	Prize	0.06721729
-4.71622	Prize-winning	0.0001964146
-4.71622	Probably	0.0007042747
-5.017251	Probe	-3.614612e-05
-5.017251	Proceed	0.02885105
-3.761978	Professor	0.02052975
-5.017251	Proficient	0.002922886
-4.540129	Project	0.02865698
-5.017251	Proof	0.005637829
-5.017251	Property	0.004546018
-4.172153	Proton	0.06990791
-5.017251	Providing	-3.40591e-05
-5.017251	Psychologically	-2.362376e-05
-4.841159	Puffs	0.05215226
-5.017251	Pullman-built	-5.701594e-05
-5.017251	Pun	-5.07551e-05
-5.017251	Punch	0.005637829
-4.61931	Punchali	0.03254362
-5.017251	Pursuant	0.007508937
-4.540129	Put	0.0037386
-5.017251	Pythagoras	0.0003689268
-5.017251	Pythagorean	-5.701594e-05
-4.61931	Q	0.008747035
-5.017251	QaQqu	-5.701594e-05
-5.017251	Qu'vatlh	-3.197206e-05
-5.017251	Quantentheorie	-5.701594e-05
-4.841159	Quantum	-4.515703e-05
-5.017251	Quarterly	0.02885105
-4.61931	Queen	0.02695728
-5.017251	Query	0.02175808
-4.61931	Question	0.05310214
-4.61931	Quick	0.02179168
-5.017251	Quidditch	1.394551e-05
-4.364038	Quinto	0.05842789
-5.017251	Quite	-3.823317e-05
-5.017251	Quixote	0.003137272
-5.017251	Quiznos	0.02885105
-4.71622	R	0.003715537
-4.841159	R.	-0.000109858
-5.017251	R.R	0.02885105
-5.017251	R2-D2	0.02175808
-5.017251	RAM	0.02175808
-4.841159	REM	-3.263315e-05
-5.017251	RSVP	0.0008893942
-5.017251	Rabeliechtli	0.02885105
-5.017251	Races	0.02885105
-5.017251	Radiation	-5.492901e-05
-4.61931	Radio	-0.0001564257
-5.017251	Radiohead	0.02885105
-5.017251	Rag	0.005637829
-4.540129	Raiders	0.006234047
-5.017251	Railway	0.02885105
-5.017251	Rain	0.02885105
-5.017251	Raisin	-5.284206e-05
-4.841159	Raisinets	0.02882046
-3.479431	Raj	0.089936
-4.473182	Rajesh	0.03278546
-4.71622	Ralph	0.004951213
-4.71622	Ramona	0.02882014
-4.841159	Ranch	0.05215226
-5.017251	Randall	0.0005611553
-4.841159	Rangers	0.02170348
-5.017251	Rar	0.0006782059
-5.017251	Raton	0.02175808
-4.841159	Rats	0.02958021
-5.017251	Ravage	0.002368497
-5.017251	Razor	0.0007597415
-5.017251	Re-initiating	-5.492901e-05
-5.017251	Read	0.003675804
-5.017251	Ready	0.005637829
-5.017251	Real	-4.866814e-05
-3.646183	Really	0.05775958
-4.841159	Rebecca	0.05215226
-5.017251	Recommended	0.0005172696
-4.276888	Red	0.002722555
-5.017251	Rederivation	0.004546018
-5.017251	Redwood	-5.07551e-05
-4.841159	Regarding	0.0008909532
-5.017251	Regardless	0.02175808
-4.841159	Relationship	-8.134676e-05
-5.017251	Relativity	0.001586418
-5.017251	Relax	0.02175808
-4.841159	Remarkable	0.02882046
-4.239099	Remember	0.04168252
-5.017251	Reminds	0.002368497
-4.841159	Renaissance	-7.4378e-05
-5.017251	Rendered	-5.701594e-05
-5.017251	Rent	0.02175808
-5.017251	Report	0.02885105
-4.841159	Republic	0.0328686
-5.017251	Rescue	0.002922886
-4.540129	Resources	0.02872041
-5.017251	Restraining	-5.492901e-05
-5.017251	Restricting	5.569294e-05
-5.017251	Retractable	-5.07551e-05
-5.017251	Return	0.004546018
-5.017251	Revenue	-5.492901e-05
-5.017251	Reverend	-1.527532e-05
-5.017251	Rex	-2.571085e-05
-5.017251	Reynolds	0.001586418
-5.017251	Rhineheitsgebot	-5.701594e-05
-4.841159	Ricardo	0.003700926
-5.017251	Rich	-3.40591e-05
-4.31828	Richard	-0.0002947207
-5.017251	Richie	-5.701594e-05
-5.017251	Rick	0.0005611553
-5.017251	Rider	0.002922886
-5.017251	Riemann	-4.449417e-05
-4.017251	Right	0.05536209
-4.841159	Riley	0.0342149
-5.017251	Ring	0.007508937
-4.473182	Rings	0.0519899
-5.017251	Riposte	0.02885105
-5.017251	Risk	0.02885105
-5.017251	Ritalin	0.02885105
-5.017251	Ritz	0.02885105
-5.017251	Road	-5.701594e-05
-4.61931	Robert	-0.0001668608
-4.841159	Robin	-0.000105684
-4.540129	Robles	0.02868981
-5.017251	Robot	-5.492901e-05
-5.017251	Robots	0.02885105
-4.71622	Rock	0.02167727
-5.017251	Rock'em	-5.701594e-05
-5.017251	Rock-Paper-Scissors	0.02885105
-5.017251	Rock-Paper-Scissors-Lizard-Spock	0.001586418
-5.017251	Rocks	0.02885105
-4.841159	Rod	-7.92598e-05
-5.017251	Roger	0.02175808
-5.017251	Roll	0.008503923
-4.841159	Roller	-0.0001140319
-5.017251	Rolling	-5.701594e-05
-4.841159	Roman	-0.000109858
-4.71622	Romania	0.007017207
-4.841159	Romans	0.0001239457
-5.017251	Romantic	0.0001224973
-5.017251	Rome	0.00677267
-5.017251	Romulans	0.001829487
-5.017251	Roofing	0.02885105
-4.540129	Roommate	-0.0001139584
-4.841159	Roommates	-3.263316e-05
-5.017251	Rosa	-5.701594e-05
-4.71622	Rostenkowski	0.0216969
-4.71622	Rothman	0.03418431
-5.017251	Roughing	0.003675804
-4.841159	Round	0.0001970351
-4.61931	Rover	0.005653067
-5.017251	Rowling	0.02175808
-5.017251	Rubik	0.02885105
-4.841159	Ruffalo	0.004735892
-4.841159	Run	0.001131575
-5.017251	Rupert	-5.701594e-05
-4.841159	Russell	0.004955428
-5.017251	Russia	0.02175808
-5.017251	Russian	0.0001746951
-5.017251	Ruth	-2.779793e-05
-5.017251	Ryan	-5.701594e-05
-4.71622	S	0.0217936
-5.017251	SHIELD	0.02175808
-5.017251	SS	-5.701594e-05
-5.017251	STDs	-4.658116e-05
-4.71622	Sad	0.03829079
-4.71622	Sadly	0.0216969
-5.017251	Sagan	0.02885105
-4.71622	Said	0.008416401
-4.841159	Saint	-9.524892e-05
-4.841159	Salt	-8.134676e-05
-4.61931	Sam	0.001448115
-4.841159	Same	6.548295e-05
-4.61931	San	-0.0001995481
-5.017251	Sanctum	0.004546018
-5.017251	Sandra	-5.701594e-05
-4.473182	Santa	0.01843214
-4.841159	Sarah	-8.552067e-05
-4.540129	Sarcasm	0.0347922
-5.017251	Satanimals	-3.614612e-05
-4.41519	Saturday	0.03017577
-5.017251	Saturdays	0.02885105
-4.841159	Saturn	-8.134676e-05
-5.017251	Saturnalia	0.02885105
-4.71622	Saul	0.005552393
-5.017251	Sauron	0.002922886
-5.017251	Sausage	0.02175808
-5.017251	Sawyer	0.005012394
-4.039527	Say	0.03825561
-5.017251	Says	0.008503923
-5.017251	ScD	0.02885105
-5.017251	Scandinavian	0.003753695
-5.017251	Scholls	-4.658116e-05
-4.71622	School	0.02957265
-4.364038	Schrodinger	0.04638963
-5.017251	Schrodinger'	0.01948184
-5.017251	Schumacher	0.02175808
-4.239099	Science	0.03995936
-4.71622	Scientific	-8.480494e-05
-5.017251	Scientists	0.02885105
-4.71622	Scissors	-0.0001320995
-5.017251	Scissors'	0.01948184
-4.841159	Scooby	-0.0001140319
-5.017251	Scooby-Doo	-5.701594e-05
-5.017251	Score	0.0008622056
-5.017251	Scotch	-5.07551e-05
-5.017251	Scott	-5.701594e-05
-4.841159	Scotty	0.02342956
-5.017251	Scout	0.02175808
-4.841159	Scrabble	0.02204375
-5.017251	Scrambled	-2.571085e-05
-5.017251	Screw	0.0003438597
-5.017251	Screwed	0.02885105
-5.017251	Search	0.02175808
-5.017251	Season	-2.988498e-05
-4.61931	Second	0.02171046
-4.841159	Secondly	0.02172749
-4.841159	Secret	-9.316186e-05
-4.61931	Section	0.0001122494
-5.017251	Security	-5.701594e-05
-3.665068	See	0.02911445
-5.017251	Seems	0.00677267
-4.841159	Seibert	0.02170128
-5.017251	Semiotics	0.02885105
-5.017251	Senate	0.02175808
-5.017251	Senior	-3.614612e-05
-5.017251	Senoran	-5.701594e-05
-5.017251	Sensational	-1.944957e-05
-5.017251	Serial	-5.701594e-05
-4.71622	Series	0.01416464
-4.841159	Seriously	0.03488396
-4.841159	Service	0.004520686
-4.841159	Set	-8.552067e-05
-5.017251	Seth	0.02175808
-4.841159	Seuss	0.0342149
-4.71622	Seven	0.03713171
-5.017251	Seventeen	0.02885105
-5.017251	Sezchuan	-5.701594e-05
-4.71622	Shack	0.05212167
-5.017251	Shaggy	0.0002018407
-5.017251	Shakespeare	0.005012394
-4.71622	Shall	0.001443545
-4.71622	Shame	0.03078041
-4.61931	Shatner	0.03685104
-3.22137	She	0.01695319
-5.017251	She-Hulk	0.02885105
-5.017251	Shedding	0.008503923
-4.841159	Sheep	0.003723103
-4.841159	Shel-Mart	0.03220937
-5.017251	Sheld-on	0.005637829
-3.284857	Sheldon	0.07895084
-5.017251	Sheldon-face	-5.492901e-05
-5.017251	Sheldonopolis	0.02175808
-4.71622	Sheldons	0.02881568
-4.61931	Sheldor	0.04376002
-4.364038	Shelly	0.05977304
-5.017251	Shelly-bean	0.02175808
-5.017251	Shelvetica	0.02885105
-5.017251	Sherlock	-5.701594e-05
-5.017251	Shh	0.02175808
-5.017251	Shhh	0.0006782059
-4.61931	Shhhhh	0.0005864374
-4.71622	Shilly-Shally	0.02920339
-5.017251	Shining	0.005637829
-5.017251	Ship	0.005637829
-5.017251	Shire	0.0005611553
-5.017251	Shirley	0.02885105
-5.017251	Shoe	-5.701594e-05
-5.017251	Shoo	0.02175808
-5.017251	Shopworn	-5.701594e-05
-5.017251	Shore	0.02885105
-4.61931	Should	0.01551488
-5.017251	Shoulda	0.02175808
-4.473182	Show	0.006791798
-5.017251	Shrewd	0.02885105
-5.017251	Shut	0.003675804
-5.017251	Shyamalan	2.020737e-05
-5.017251	Siam	-5.284206e-05
-5.017251	Sick	0.005637829
-5.017251	Sides	0.001092315
-4.71622	Siebert	0.04032496
-4.841159	Sign	0.002450037
-4.841159	Silence	0.0006476142
-5.017251	Silver	-5.701594e-05
-4.71622	Simple	0.02952349
-4.71622	Simpson	0.02880006
-5.017251	Simulation	-5.701594e-05
-5.017251	Simultaneously	0.02175808
-5.017251	Sin	-4.032016e-05
-4.204337	Since	0.0267085
-5.017251	Sincere	-4.032016e-05
-4.841159	Sing	0.02880548
-5.017251	Singh	0.002922886
-5.017251	Sinking	-5.701594e-05
-4.71622	Sir	-0.0001035884
-4.841159	Siri	1.32908e-05
-5.017251	Sirron	-5.701594e-05
-5.017251	Sit	0.0001872236
-5.017251	Sith	-5.701594e-05
-5.017251	Sitter	1.812007e-05
-5.017251	Sitting	-5.701594e-05
-5.017251	Sivana	0.007508937
-4.841159	Sixth	-8.552067e-05
-5.017251	Size	-5.492901e-05
-5.017251	Skee-Ball	-4.032016e-05
-5.017251	Skinner	0.02885105
-4.841159	Skippy	0.02879433
-5.017251	Skynet	-4.866814e-05
-4.841159	Skype	0.02425214
-5.017251	Skypes	0.00188189
-4.61931	Skywalker	0.004869985
-5.017251	Slaves	0.0006782059
-5.017251	Slayer	-5.492901e-05
-4.841159	Sleep	0.0002513381
-4.841159	Sleepy	-8.898773e-05
-5.017251	Slick	0.02175808
-5.017251	Slide	0.02885105
-5.017251	Slip	5.98679e-05
-5.017251	Sloppy	-5.701594e-05
-4.841159	Slow	0.0001461915
-5.017251	Slurpies	-5.492901e-05
-4.841159	Small	-9.733594e-05
-4.71622	Smart	0.03485338
-5.017251	Smeldor	0.005637829
-4.841159	Smell	0.005164512
-5.017251	Smelly	-4.240718e-05
-4.71622	Smoot	0.00417272
-5.017251	Smoot-Cooper	0.02885105
-5.017251	Smurf	-5.701594e-05
-5.017251	Snatchers	-5.701594e-05
-5.017251	Snickering	0.005012394
-5.017251	Snikt	0.02885105
-5.017251	Snowball	0.02175808
-3.103436	So	0.1042623
-4.841159	SoccerMom09	0.0004017512
-4.61931	Social	-0.000153632
-5.017251	Society	0.02885105
-5.017251	Sock'em	-5.701594e-05
-4.841159	Socks	0.02172749
-5.017251	Sodom	0.003753695
-5.017251	Soft	-5.284206e-05
-5.017251	Sold	0.02885105
-5.017251	Solids	0.005637829
-5.017251	Solitude	0.02885105
-5.017251	Solo	0.02175808
-5.017251	Solutions	0.001829487
-4.473182	Some	0.001244857
-4.71622	Somebody	0.005439335
-4.841159	Someday	0.02329959
-4.540129	Someone	0.01588826
-4.71622	Something	0.005449906
-4.364038	Sometimes	0.02224967
-5.017251	Somewhat	-5.492901e-05
-4.841159	Somewhere	0.002952061
-5.017251	Son	0.004546018
-4.841159	Sonny	0.003723103
-5.017251	Soon	0.02885105
-5.017251	Sorcerer	0.005012394
-3.886917	Sorry	0.08300437
-5.017251	Souls	0.02885105
-5.017251	Sound	-1.944957e-05
-4.71622	Sounds	0.0008742278
-5.017251	Soundsational	-5.701594e-05
-4.61931	Soup	-0.0001710348
-5.017251	Sour	-5.701594e-05
-4.71622	South	0.02169044
-4.841159	Southern	-7.508583e-05
-5.017251	Soviet	-5.492901e-05
-5.017251	Soviet-style	-5.492901e-05
-4.540129	Space	-0.0002419525
-5.017251	Space-time	0.0007785597
-5.017251	Spaghetti	0.00188189
-4.71622	Spanish	0.0322741
-4.71622	Sparkletts	-2.636246e-05
-4.71622	Sparks	0.02182007
-5.017251	Speak	-3.40591e-05
-4.41519	Speaking	0.0043625
-4.841159	Special	-0.000109858
-4.841159	Specifically	0.02172749
-5.017251	Spectacular	-1.944957e-05
-5.017251	Spell	0.007508937
-5.017251	Spending	9.95321e-05
-5.017251	Sphere	0.02885105
-5.017251	Spicy	-4.449417e-05
-4.017251	Spider-Man	0.06336614
-5.017251	Spider-man	-5.07551e-05
-5.017251	Spiderman	0.02885105
-5.017251	Spielberg	0.003753695
-4.841159	Spiner	0.009442139
-5.017251	Spitball	0.02885105
-5.017251	Spittoon	0.02885105
-3.841159	Spock	0.07214145
-5.017251	Spoiler	0.02175808
-4.71622	SpongeBob	0.05338762
-5.017251	Sporting	-5.284206e-05
-5.017251	Spread	0.001726794
-4.61931	Spy	0.008732121
-5.017251	Squares	0.02885105
-5.017251	Squeaky	-5.07551e-05
-5.017251	Sri	-5.701594e-05
-5.017251	Sssshhhh	0.0006782059
-5.017251	Stale	-5.701594e-05
-5.017251	Staleness	0.003137272
-5.017251	Stalin	0.0003689268
-4.039527	Stan	-0.0005204306
-4.71622	Stand	0.0006833634
-5.017251	Stanford	-5.07551e-05
-5.017251	Stanislavski	0.005012394
-5.017251	Staples	0.02885105
-3.562406	Star	-0.001705689
-5.017251	Starch	-5.701594e-05
-5.017251	Stardate	-5.701594e-05
-4.61931	Starfleet	-0.0002134543
-5.017251	Starlight	0.02175808
-5.017251	Stars	0.02885105
-5.017251	Start	0.0001872236
-5.017251	Starting	3.481872e-05
-5.017251	State	-4.866814e-05
-4.841159	States	0.02171006
-4.841159	Station	0.02882046
-5.017251	Statistically	-4.240718e-05
-5.017251	Stay	-2.779793e-05
-5.017251	Stealing	0.003137272
-5.017251	Steinem	0.02885105
-4.841159	Stella	-7.646515e-05
-5.017251	Stems	-5.701594e-05
-4.364038	Step	0.001061908
-4.276888	Stephanie	0.05849628
-4.063008	Stephen	0.0009564139
-5.017251	Stephen-Hawking	-5.701594e-05
-4.61931	Steve	0.0004207279
-5.017251	Steven	-5.701594e-05
-5.017251	Stevens	0.02885105
-5.017251	Stewards	0.004546018
-4.841159	Stewart	0.02882046
-5.017251	Stick	0.02885105
-4.473182	Still	0.02264515
-5.017251	Stomp	0.02175808
-4.841159	Stone	0.02880325
-4.063008	Stop	0.04646001
-4.71622	Store	0.03485338
-4.841159	Storm	0.02172749
-5.017251	Stormtroopers	0.001092315
-4.841159	Story	0.02182199
-5.017251	Strahlung	0.02175808
-5.017251	Straightening	0.0005820547
-5.017251	Strap	0.001829487
-5.017251	Strike	9.95321e-05
-4.841159	String	-7.508583e-05
-5.017251	Stripe	-5.07551e-05
-4.841159	Strongly	-9.524891e-05
-5.017251	Struck	0.0001767832
-5.017251	Structure	0.02175808
-5.017251	Stu	0.008503923
-3.826919	Stuart	0.07245326
-5.017251	Studio	-4.032016e-05
-5.017251	Stuff	0.003753695
-5.017251	Stupid	5.596507e-06
-5.017251	Subject	0.0003543042
-5.017251	Subliminal	-5.492901e-05
-5.017251	Substance	-5.284206e-05
-5.017251	Subtlety	0.003137272
-5.017251	Sucker	0.02885105
-5.017251	Sudan	0.02885105
-5.017251	Sudoku	0.0001099706
-5.017251	Sugar	0.02885105
-5.017251	Suicide	0.02175808
-5.017251	Summer	-5.492901e-05
-4.841159	Sumter	0.02570925
-5.017251	Sun	0.02885105
-4.473182	Sunday	0.05977796
-4.841159	Super	-8.134676e-05
-5.017251	Superb	0.02885105
-5.017251	Supercomputer	0.007508937
-5.017251	Supercuts	0.005637829
-4.841159	Superheroes	0.02203716
-5.017251	Superliner	-5.701594e-05
-4.473182	Superman	0.04152043
-5.017251	Superstitious	-3.614612e-05
-5.017251	Suppose	0.01233715
-5.017251	Sur	0.02175808
-4.41519	Sure	0.06498172
-5.017251	Surely	0.02885105
-5.017251	Surfer	-5.07551e-05
-4.841159	Surprise	0.05215226
-4.71622	Surprisingly	0.02202868
-4.841159	Svaty	-8.552067e-05
-5.017251	Sweat	0.008503923
-4.841159	Sweatpants	0.05215226
-5.017251	Sweaty	0.005637829
-5.017251	Sweden	0.02885105
-5.017251	Swedes	0.0001016198
-4.61931	Swedish	-0.0001021592
-4.841159	Sweet	0.003698821
-4.841159	Swift	0.03198012
-5.017251	Swish	0.02885105
-4.61931	Swiss	-0.0001988447
-4.540129	Switzerland	0.05255277
-4.841159	Sword	0.004510139
-5.017251	Swordfish	0.005637829
-5.017251	Swordmaster	0.0006782059
-5.017251	SyFy	-5.284206e-05
-5.017251	Szechuan	-5.284206e-05
-4.71622	T	0.005661373
-4.41519	T-shirt	0.06314617
-4.61931	T-shirts	0.04253149
-5.017251	T.	-5.701594e-05
-5.017251	T.S	0.02885105
-4.063008	TV	0.07008173
-4.841159	Ta-da	0.02958021
-5.017251	Tag	0.02175808
-5.017251	Tahecin	0.02885105
-4.239099	Take	0.02453372
-4.540129	Talk	0.03882289
-5.017251	Tall	-3.823317e-05
-5.017251	Tamagotchi	0.002922886
-5.017251	Tandoori	-5.284206e-05
-5.017251	Tangential	0.007508937
-4.841159	Tardis	0.02179565
-5.017251	Taser	0.02885105
-5.017251	Tasers	0.02175808
-5.017251	Tasing	0.02885105
-5.017251	Tatooine	0.001586418
-5.017251	Taurus	-5.284206e-05
-4.540129	Taylor	0.002315967
-5.017251	Tea	0.02885105
-5.017251	Team	0.001008625
-5.017251	Teams	0.001092315
-5.017251	Tears	-1.527532e-05
-5.017251	Tech	0.02175808
-5.017251	Technetium	0.02885105
-4.841159	Technically	0.02564059
-5.017251	Teenage	-5.701594e-05
-5.017251	Teens	0.001760324
-5.017251	Telepathically	0.005637829
-5.017251	Telescope	0.0003689268
-5.017251	Television	-5.701594e-05
-4.114161	Tell	0.002899189
-5.017251	Teller	0.02175808
-5.017251	Temple	0.004546018
-4.61931	Ten	0.02984906
-5.017251	Tennessee	-5.701594e-05
-5.017251	Terran	-5.701594e-05
-5.017251	Terrific	0.02175808
-5.017251	Territories	0.02885105
-4.61931	Tesla	0.03480576
-5.017251	Testament	0.02175808
-5.017251	Tests	0.02885105
-5.017251	Tetris	0.003753695
-5.017251	Tex-Mex	0.02885105
-4.841159	Texan	0.02374032
-3.841159	Texas	0.06828253
-4.31828	Thai	0.05200646
-5.017251	Thailand	0.0003543042
-3.269063	Thank	0.0130032
-4.063008	Thanks	0.06307486
-4.61931	Thanksgiving	0.03221516
-5.017251	Thanksgivings	0.01233715
-2.753614	That	0.06809992
-2.844064	The	0.01806253
-5.017251	Their	-5.701594e-05
-5.017251	Them	0.02885105
-3.646183	Then	0.07091715
-5.017251	Theon	-5.701594e-05
-5.017251	Theoretical	-5.07551e-05
-3.228375	There	0.08303525
-4.71622	Therefore	0.0216969
-4.31828	These	0.0008667562
-3.297091	They	0.03675615
-5.017251	Thing	0.02175808
-4.71622	Things	0.003115817
-4.61931	Think	0.005256559
-5.017251	Thinking	-5.492901e-05
-5.017251	Third	0.02175808
-5.017251	Third-graders	0.0004211543
-5.017251	Thirsty	0.001760324
-5.017251	Thirty	0.0009479595
-3.019427	This	0.004706116
-4.841159	Thor	0.02172749
-5.017251	Thorndike	0.003753695
-4.276888	Those	0.001325777
-5.017251	Thought	0.01233715
-4.276888	Three	0.03113939
-5.017251	Three-headed	-4.866814e-05
-5.017251	Thriller	-3.40591e-05
-4.61931	Thrones	0.03479897
-5.017251	Thunder	0.001092315
-5.017251	Thunderbolt	-5.701594e-05
-4.841159	Thunderdome	0.02172749
-4.087831	Thursday	0.06248863
-5.017251	Thursdays	0.02175808
-5.017251	Tiberius	-4.032016e-05
-5.017251	Tibetan	-4.449417e-05
-5.017251	Tic-tac-toe	0.0007785597
-5.017251	Tickle	0.02885105
-5.017251	Ticonderoga	0.02175808
-4.41519	Time	0.05225606
-5.017251	Tire	2.646931e-05
-5.017251	Titans	0.0008245629
-3.855882	To	0.04523277
-4.841159	Toast	0.0002534269
-5.017251	Tobacco	0.003753695
-5.017251	Toblerone	0.02885105
-4.71622	Toby	0.03215268
-4.841159	Today	0.02769158
-5.017251	Todd	-5.701594e-05
-4.71622	Told	0.007617678
-4.473182	Tom	0.05558274
-4.71622	Tomorrow	0.05781791
-4.841159	Tondelaya	0.02879433
-4.31828	Tonight	0.04348415
-4.71622	Too	-2.844983e-05
-4.841159	Top	0.004514358
-5.017251	Topic	0.0008622056
-5.017251	Torch	0.007508937
-5.017251	Toronto	0.02885105
-5.017251	Toto	0.01948184
-5.017251	Touching	0.002481838
-5.017251	Tough	-2.988498e-05
-5.017251	Tour	0.02885105
-5.017251	Tourette	0.005012394
-5.017251	Towards	0.008503923
-5.017251	Town	0.02175808
-5.017251	Toy	-5.492901e-05
-5.017251	Toys	0.005637829
-5.017251	Trains	0.005637829
-4.61931	Transformers	0.0349788
-5.017251	Trapper	-5.701594e-05
-5.017251	Travel	-5.701594e-05
-5.017251	Travers	-4.032016e-05
-5.017251	Trebek	0.001462839
-3.674828	Trek	0.07166679
-5.017251	Trek'	0.01948184
-5.017251	Tribble	0.02885105
-5.017251	Tribbles	-5.701594e-05
-5.017251	Trick	0.0001099706
-5.017251	Trip	-1.944957e-05
-4.841159	Triple	-0.000105684
-5.017251	Trouble	3.509253e-06
-5.017251	Troy	0.02885105
-4.540129	True	0.0520605
-4.71622	Trust	0.002307316
-5.017251	Truthfully	0.02175808
-4.71622	Try	0.01122015
-4.841159	Trying	0.007478346
-4.841159	Tso	0.0342149
-5.017251	Tub	-4.449417e-05
-5.017251	Tubs	0.001092315
-4.31828	Tuesday	0.009421498
-5.017251	Tuk	0.02175808
-5.017251	Tupperman	0.02885105
-5.017251	Tupperware	-2.153668e-05
-5.017251	Turkey	0.003753695
-5.017251	Turn	0.007508937
-4.841159	Turns	0.0007458771
-5.017251	Turtle	-5.701594e-05
-5.017251	Turtles	0.02175808
-5.017251	Twelfth	-2.988498e-05
-5.017251	Twelve	-2.988498e-05
-5.017251	Twenty	-2.362376e-05
-4.540129	Twitter	0.0367297
-5.017251	Twizzlers	-1.944957e-05
-4.142189	Two	0.02916355
-4.841159	Typhoid	0.0004289145
-5.017251	Typically	0.003688435
-4.841159	Tyson	0.02882046
-5.017251	U	0.02885105
-4.71622	U.S.	-0.0001140232
-5.017251	Uber	-4.240718e-05
-4.841159	Uganda	0.02879433
-4.239099	Ugh	0.0526805
-3.305443	Uh	0.01867916
-5.017251	Uh-duh	0.02175808
-4.61931	Uh-huh	0.02875929
-4.41519	Uh-oh	0.02942728
-5.017251	Uhura	0.02885105
-5.017251	Ultimate	-1.944957e-05
-3.799767	Um	0.05307567
-4.61931	Um'	0.01939007
-5.017251	Umfrumf	0.004546018
-5.017251	Umm	0.02885105
-5.017251	Un	-5.701594e-05
-5.017251	Un-unravelable	0.02885105
-4.841159	Unacceptable	0.05215226
-4.473182	Uncle	-0.0001507571
-5.017251	Und	-5.701594e-05
-4.41519	Under	0.01183745
-5.017251	Understand	-5.701594e-05
-5.017251	Understandable	0.02885105
-5.017251	Underworld	-5.701594e-05
-5.017251	Undoubtedly	2.438199e-05
-4.61931	Unfortunately	0.02977833
-5.017251	Unhygienic	0.005637829
-5.017251	Uni	0.02175808
-4.841159	Union	0.02879656
-5.017251	Unit	-4.658116e-05
-4.61931	United	-0.0001995481
-5.017251	Universe	0.003137272
-4.61931	University	0.05251033
-4.142189	Unless	0.05001316
-4.473182	Unlike	0.01036015
-5.017251	Unlikely	0.02885105
-4.71622	Until	0.02021164
-4.540129	Up	-1.720902e-05
-5.017251	Uranium-235	0.001462839
-4.61931	Use	0.01037987
-4.71622	Using	0.004607174
-5.017251	Usually	-5.07551e-05
-4.841159	V	0.0221338
-5.017251	V.	0.01948184
-4.61931	VHS	0.00145021
-4.841159	Vaclav	0.004735892
-4.31828	Vader	0.05186991
-5.017251	Valentimes	-2.153668e-05
-4.276888	Valentine	0.006373554
-5.017251	Valorum	-5.492901e-05
-5.017251	Vampire	-5.701594e-05
-5.017251	Van	-5.701594e-05
-5.017251	Vanderplatt	0.0001746951
-5.017251	VapoRub	2.438199e-05
-5.017251	Vartabedian	0.02885105
-4.540129	Vegas	0.05845898
-4.841159	Vegetable	-7.717282e-05
-5.017251	Velikovsky	-3.823317e-05
-5.017251	Velma	0.003753695
-5.017251	Venetian	-5.701594e-05
-5.017251	Ventimiglia	0.02885105
-5.017251	Verbatim	-5.492901e-05
-5.017251	Veronica	0.005637829
-3.684812	Very	-0.0005577472
-4.841159	Vexillology	0.00310668
-4.841159	Viagra	0.003970496
-4.841159	Victorian	-6.602934e-05
-5.017251	Victory	0.0006782059
-5.017251	Video	-2.779793e-05
-5.017251	Vienna	0.02885105
-5.017251	Vietnamese	-5.701594e-05
-5.017251	Vine	0.02885105
-5.017251	Vines	0.02885105
-4.841159	Vintage	0.006012441
-5.017251	Violation	0.004546018
-5.017251	Virgin	-4.866814e-05
-5.017251	Vista	0.02885105
-5.017251	Vitamin	-5.284206e-05
-5.017251	Vocal	-1.527532e-05
-5.017251	Vociferously	0.005637829
-5.017251	Voice	-3.197206e-05
-5.017251	Voil	5.98679e-05
-5.017251	Volunteers	0.02175808
-5.017251	Von	-5.701594e-05
-4.61931	Voyager	0.008394328
-4.71622	Vulcan	0.02165106
-4.841159	Vulcans	0.02221289
-5.017251	W	0.005012394
-5.017251	W-W-Wait	0.02885105
-5.017251	Wah	0.0006782059
-3.547428	Wait	0.05962261
-5.017251	Waitresses	0.002271971
-5.017251	Walgreens	0.001586418
-5.017251	Walked	0.0008245629
-5.017251	Walken	0.02885105
-4.841159	Walking	-5.496891e-06
-5.017251	Waltz	0.02885105
-5.017251	Want	0.002368497
-5.017251	War	-2.988498e-05
-4.841159	Warcraft	-5.976776e-05
-5.017251	Warlords	0.004546018
-5.017251	Warm	-2.362376e-05
-4.204337	Wars	0.05544355
-4.142189	Was	0.03393874
-4.61931	Washington	0.03278358
-4.540129	Watch	0.03468576
-4.841159	Water	0.02570925
-5.017251	Waterfalls	0.0006782059
-5.017251	Wavin	-5.701594e-05
-5.017251	Wax	0.02885105
-4.540129	Way	0.03683182
-5.017251	Wayne	0.0003689268
-2.977836	We	0.03860543
-5.017251	Wear	-5.701594e-05
-4.71622	Web	-0.0001140232
-5.017251	Webster	0.007508937
-4.71622	Wednesday	0.02509692
-5.017251	Weights	0.003753695
-5.017251	Weisskopf'	0.01948184
-4.276888	Welcome	0.02940105
-2.576341	Well	0.09593517
-4.841159	Well'	0.01945125
-5.017251	Well-groomed	-5.492901e-05
-5.017251	Weltschmerz	0.02885105
-5.017251	Wenceslas	0.0005611553
-4.473182	Were	0.01621601
-5.017251	Werner	-5.284206e-05
-4.142189	Wesley	0.02839742
-4.61931	West	0.03341096
-5.017251	Western	-5.701594e-05
-5.017251	Westward	0.02175808
-4.841159	Wh	0.02172749
-5.017251	Wh-Where	0.0006907487
-5.017251	Wha	0.005637829
-5.017251	Wharf	0.003753695
-2.759572	What	0.09169218
-5.017251	What.	0.02175808
-4.841159	Whatever	0.0327853
-3.761978	Wheaton	0.0841369
-5.017251	Wheaton'	0.01948184
-4.841159	Whedon	0.004981803
-4.841159	Whee	0.0006476142
-4.841159	Wheel	0.03371603
-4.841159	Wheels	0.02882046
-3.505367	When	0.07519852
-4.841159	Whenever	0.007648267
-3.577918	Where	0.03903153
-5.017251	Whereas	0.02175808
-5.017251	Wherever	0.008503923
-5.017251	Whether	0.0004023518
-5.017251	Whew	0.02175808
-3.655523	Which	0.05336603
-4.063008	While	0.04240134
-5.017251	White	-1.318818e-05
-3.5121	Who	0.07970585
-4.540129	Whoa	0.0520605
-5.017251	Whoo-whoo	0.02885105
-5.017251	Whoopi	-5.701594e-05
-5.017251	Whos	0.02885105
-5.017251	Whuh	0.02175808
-3.139303	Why	0.08288417
-5.017251	Wi-Fi	0.005637829
-5.017251	Wichita	0.02885105
-4.71622	Wii	-0.0001056754
-5.017251	Wikipedia	0.0008412927
-3.655523	Wil	0.06474993
-5.017251	Wild	-5.07551e-05
-4.142189	Will	0.01225335
-4.61931	William	-0.0001425236
-5.017251	Willis	0.001586418
-5.017251	Willy	0.02885105
-5.017251	Wilson	0.004546018
-4.540129	Windows	-0.0002523877
-4.841159	Wine	0.003900982
-4.473182	Winkle	0.05941915
-4.841159	Wisconsin	0.001705421
-5.017251	Wise	-2.988498e-05
-5.017251	Wishing	0.007678859
-5.017251	Witches	0.02175808
-3.826919	With	0.05855177
-4.841159	Without	-7.855227e-05
-4.71622	Wizarding	-0.0001077623
-4.41519	Wo	0.00294418
-3.547428	Wolowitz	0.086702
-4.41519	Wolverine	0.02754699
-4.71622	Woman	0.02338159
-4.71622	Women	0.02287932
-4.61931	Wonder	0.02871147
-5.017251	WonderCon	0.002922886
-4.31828	Wonderful	0.05193347
-5.017251	Woo-woo	0.02885105
-5.017251	Woods	0.005637829
-4.841159	Wooh	0.02172749
-5.017251	Wookie	-4.658116e-05
-5.017251	Wookiee	0.02885105
-4.841159	Wool	-8.552067e-05
-5.017251	Woot	0.02175808
-4.61931	Words	0.001790122
-5.017251	Worked	3.509253e-06
-5.017251	Works	0.001829487
-4.473182	World	0.02651066
-5.017251	Worst	-5.492901e-05
-3.655523	Would	0.01512417
-4.039527	Wow	0.05166309
-5.017251	Wowza	0.02885105
-4.364038	Wrong	0.05196876
-5.017251	Wu	0.02885105
-5.017251	Wuh	-5.701594e-05
-5.017251	Wunch	0.002922886
-4.31828	X	0.06096916
-4.61931	X-Men	0.02207498
-5.017251	X.	-5.701594e-05
-5.017251	XXXXL	0.02885105
-4.841159	Xavier	0.0342149
-4.239099	Xbox	0.05192412
-5.017251	Y	-3.823317e-05
-5.017251	Y-you	0.001754037
-5.017251	Y.	-9.013896e-06
-5.017251	Yajna	0.02175808
-4.473182	Yay	0.031378
-5.017251	Ye	0.000360571
-5.017251	Yea	0.02175808
-2.941704	Yeah	0.05142513
-5.017251	Year	6.195542e-05
-5.017251	Years	0.0005611553
-5.017251	Yeh	0.02175808
-5.017251	Yellow	0.02885105
-4.841159	Yelp	0.02879879
-4.71622	Yep	0.05212167
-5.017251	Yerkes	0.003753695
-2.925583	Yes	0.06061038
-5.017251	Yesterday	0.01233715
-4.841159	Yet	0.0004916061
-5.017251	Yiddish	0.001586418
-4.71622	Yoda	0.04032496
-5.017251	Yonder	-5.701594e-05
-5.017251	Yoo-hoo	0.02175808
-4.841159	York	-5.559331e-05
-4.841159	Yorkshire	0.003097106
-5.017251	Yosemite	-5.701594e-05
-2.350733	You	0.07197759
-4.71622	YouTube	0.02879783
-5.017251	Young	0.005012394
-5.017251	Youngest	-4.658116e-05
-5.017251	Youngsters	0.02175808
-3.562406	Your	-7.297029e-05
-5.017251	Yours	0.02885105
-5.017251	Youth	-5.492901e-05
-5.017251	Ytterbium	0.02175808
-5.017251	Yuh-uh	0.02175808
-5.017251	Yup	0.02885105
-5.017251	Yvette	-5.701594e-05
-4.841159	Z	-7.717282e-05
-4.41519	Zachary	-0.0002259249
-4.31828	Zack	0.05619176
-5.017251	Zamboni	0.02885105
-5.017251	Zancor	0.02175808
-5.017251	Zarnecki	0.005637829
-4.841159	Zazzles	0.03609814
-5.017251	Ziggy	0.005637829
-5.017251	Zingers	-3.823317e-05
-5.017251	Zip	0.003675804
-4.841159	Ziploc	-8.898775e-05
-5.017251	Zod	-5.284206e-05
-4.841159	Zone	0.02882046
-5.017251	Zoo	0.005637829
-4.841159	Zoom	0.02172749
-4.841159	Zork	0.02882046
-5.017251	Zur	-5.701594e-05
-5.017251	Zzzzzzzzz	0.02885105
-5.017251	``	0.01948184
-1.806531	a	-0.03768964
-5.017251	a-a	-4.658116e-05
-5.017251	a-knocking	0.02885105
-5.017251	a-twitter	0.02885105
-4.71622	a.m.	0.0422405
