
\data\
ngram 1=7027
ngram 2=32847
ngram 3=9334

\1-grams:
-2.756729	!	0.05054181
-4.622031	$	-0.0002334239
-4.400182	%	0.008376751
-4.497092	&	-0.0003397655
-2.895032	'	0.1527445
-4.798122	'Bye	0.02318602
-3.953024	'Cause	0.04576083
-4.798122	'Kay	0.02959722
-4.798122	'Penny	-5.449018e-05
-4.798122	'Rocket	-0.0001028857
-4.798122	'S	0.002191453
-4.798122	'Sup	0.008601137
-4.798122	'Thank	0.009338823
-4.798122	'ah	0.02318602
-3.820399	'cause	0.06076153
-4.798122	'cos	0.009338823
-2.934799	'd	0.03072998
-4.798122	'damsel	0.002191453
-4.798122	'deal	0.0004297618
-4.057759	'em	0.04008083
-4.798122	'get	0.005767952
-4.798122	'girlfriend	0.02959722
-4.798122	'has	0.0004297618
-4.798122	'hey	0.02318602
-4.798122	'it	0.0003743914
-2.648903	'll	0.06163898
-2.301885	'm	0.02846518
-2.294332	're	0.04669335
-1.847757	's	0.09069778
-2.923061	've	-0.004196382
-4.798122	'who	0.006086905
-4.798122	'why	0.001809378
-4.798122	'you	0.0001391459
-4.321001	(	0.02928782
-4.400182	)	0.03903363
-1.281851	,	-0.08833911
-1.179499	.	-0.276087
-1.213452	/s	-0.2935822
-4.798122	00:03:18,914	0.02729005
-4.622031	1	0.03882304
-4.497092	10	0.05193504
-4.798122	100	-0.0001063423
-4.798122	104	0.02318602
-4.254054	12	0.0293742
-4.798122	128	0.02959722
-4.622031	13	0.001671866
-4.400182	14	0.01067756
-4.622031	15	-2.597987e-05
-4.798122	15,000	4.577484e-05
-4.798122	15-year-old	0.006086905
-4.798122	15th	-0.0001063423
-4.798122	16	0.02318602
-4.798122	1619	0.02959722
-4.798122	18th-century	-0.000116712
-4.798122	1930	0.006086905
-4.798122	1940	0.02959722
-4.798122	1am	0.02959722
-4.400182	2	0.05454439
-4.798122	2,000-year-old	-0.000116712
-4.798122	2.0	0.02959722
-4.798122	2.5	-0.0001028857
-4.798122	2.6	0.001441515
-4.400182	20	-0.0001426355
-4.798122	20-channel	-0.000116712
-4.798122	21st	-0.0001132555
-4.798122	24	-6.486109e-05
-4.798122	24/7	0.02959722
-4.798122	25	-0.0001063423
-4.798122	250	-9.597238e-05
-4.798122	26	-8.560219e-05
-4.798122	28	-0.000116712
-4.798122	28.17	0.02959722
-4.622031	3-D	0.008484564
-4.798122	3.9	-7.523178e-05
-4.400182	30	-0.0003496934
-4.798122	30-year-old	-6.089263e-06
-4.798122	360	0.02318602
-4.798122	37	-7.177491e-05
-4.798122	383	-9.597238e-05
-4.798122	3:05	-0.000116712
-4.622031	4	0.02312422
-4.622031	4,000	-0.000212684
-4.798122	40-minute	-1.300404e-05
-4.798122	45	-7.177491e-05
-4.798122	48	-5.449018e-05
-4.798122	4am	0.02959722
-4.400182	5	0.05649059
-4.798122	5.1	-0.000116712
-4.798122	50	4.577484e-05
-4.798122	500	0.0004609108
-4.798122	55	-7.177491e-05
-4.798122	57	0.02318602
-4.798122	58	0.02318602
-4.798122	59	0.02318602
-4.798122	60	4.577484e-05
-4.798122	60,000	-0.0001132555
-4.798122	60/40	-0.000116712
-4.798122	60th	0.008601137
-4.798122	63/37	-0.000116712
-4.798122	65	-0.0001132555
-4.798122	699,999	0.0001598977
-4.798122	6:30	0.002191453
-4.798122	7	-0.000116712
-4.798122	7-Eleven	0.02318602
-4.798122	72	-0.000116712
-4.798122	73	0.002194928
-4.798122	7:18am	0.02318602
-4.798122	7:20	0.02318602
-4.798122	7:40	0.02318602
-4.798122	8	-0.000116712
-4.798122	80-year-old	-6.089263e-06
-4.798122	84	0.02318602
-4.798122	8:00	-0.000116712
-4.798122	8:10	0.003008833
-4.798122	8:20	0.02959722
-4.798122	8:45	0.02959722
-4.798122	9	-0.0001063423
-4.622031	9,000	-0.0001577717
-4.798122	90	-0.0001063423
-4.798122	911	0.02959722
-4.798122	93	-0.0001028857
-4.798122	94	-0.0001028857
-3.299812	:	0.02179443
-4.497092	;	0.005895757
-4.798122	<	-0.0001097989
-1.213452	</s>
-99	<s>	-0.2935822
-1.701386	?	-0.0552953
-3.383149	A	0.02088347
-4.798122	A-A	-0.0001132555
-4.622031	AA	0.0087315
-4.798122	Aaaa-aw	0.000637464
-4.798122	Aaah	0.02318602
-4.622031	Aaargh	0.02953542
-4.798122	Aagh	0.000637464
-4.622031	Aah	0.0005756647
-4.400182	Abbott	0.02939444
-4.622031	About	0.001290138
-4.099152	Absolutely	0.0311115
-4.798122	According	0.00629733
-3.737424	Actually	0.02647383
-4.497092	Adam	0.002544987
-4.798122	Additional	-0.0001028857
-4.798122	Admit	0.004277945
-4.798122	Advantage	-0.0001063423
-4.798122	Afraid	0.000582067
-4.798122	Afrin	0.02959722
-4.321001	After	0.0246068
-4.144909	Again	0.06396028
-4.798122	Age	0.002716486
-3.701212	Ah	0.05436822
-4.798122	Aharonov-Bohm	-0.0001063423
-4.798122	Ahoy	0.02318602
-4.254054	Air	-0.0004632499
-4.798122	Alabama	0.0001322288
-4.798122	Alba	0.001042769
-4.798122	Albert	-0.0001028857
-4.144909	Alex	0.06396028
-4.798122	Alfred	0.02318602
-4.622031	Alice	0.02550915
-4.400182	Alicia	0.03458732
-4.798122	Alien	0.003008833
-3.279608	All	0.03924526
-4.622031	Alliance	0.029481
-4.497092	Almost	0.03025281
-4.798122	Alphas	0.02959722
-4.019971	Alright	0.0562685
-4.254054	Also	0.0228264
-4.254054	Although	0.03584683
-4.798122	Although'	0.02729005
-4.798122	Alvin	0.003008833
-4.622031	Always	-3.677084e-05
-4.196062	Am	0.01061039
-4.622031	Amazon	0.0294847
-4.497092	America	0.02941921
-4.798122	American	-0.0001063423
-3.391582	Amy	0.0932291
-4.497092	An	-0.0002291366
-2.868703	And	0.1122219
-4.622031	Angeles	0.02306969
-4.798122	Angelo	0.02959722
-4.622031	Angie	0.05448272
-4.798122	Animals	0.003472117
-4.798122	Aniston	4.283094e-06
-4.798122	Anne	-0.0001132555
-4.798122	Annual	-0.0001028857
-4.798122	Answering	-8.214542e-05
-4.798122	Ants	0.02318602
-4.254054	Any	-0.0002614551
-4.798122	Anybody	0.000564757
-4.321001	Anything	0.0180745
-3.798122	Anyway	0.02207498
-4.798122	Ape-ist	-0.0001063423
-4.400182	Apparently	0.02381895
-4.622031	Apple	-0.0001262568
-4.798122	Appreciate	0.00317946
-4.622031	Approaching	0.00595276
-4.798122	Aquaman	0.02959722
-4.798122	Aquasocks	0.02959722
-4.798122	Arcadia	7.343826e-05
-4.798122	Archimedes	0.02959722
-3.247894	Are	0.03917307
-4.798122	Arizona	0.02959722
-4.622031	Ark	0.03251558
-4.622031	Armageddon	0.01084324
-4.798122	Army	-0.000116712
-4.798122	Arnold	0.003008833
-4.798122	Around	-9.251566e-05
-4.497092	Arthur	0.005997465
-4.798122	Article	-0.0001097989
-4.254054	As	0.01982695
-4.798122	Asian	-6.089263e-06
-4.798122	Ask	0.0006513144
-4.622031	Assuming	0.003770407
-4.798122	Asthma	0.02318602
-4.144909	At	0.001565889
-4.622031	Aunt	-0.0002265107
-4.497092	Auto	0.05443359
-4.798122	Avengers	0.002194928
-3.868703	Aw	0.05442003
-4.798122	Award	0.001441515
-4.798122	Away	-0.0001063423
-4.798122	Awesome	0.000637464
-4.798122	Awkward	0.02959722
-4.798122	Ay	-0.000116712
-4.798122	Aye	0.02318602
-4.400182	B	0.03541812
-4.798122	BLT	7.343826e-05
-4.798122	Ba-ba-ba-ba	0.02959722
-4.798122	Babe	0.02318602
-4.622031	Baby	0.03612741
-4.798122	Babylon	-0.0001063423
-4.400182	Back	0.008606086
-4.798122	Baggins	0.0004297618
-4.798122	Bakersfield	-8.214542e-05
-4.622031	Bale	0.03882304
-4.622031	Bam	0.02953542
-4.798122	Band	0.001833682
-4.622031	Band-Aid	0.03156988
-4.798122	Band-Aids	-0.0001097989
-4.622031	Bandits	0.05448272
-4.622031	Banner	0.03227337
-4.798122	Barbecue	0.008601137
-4.196062	Barry	0.05414339
-4.798122	Baseball	0.02959722
-4.798122	Bat	-0.000116712
-4.798122	Bat-Man-Bat	0.02959722
-4.798122	Bat-signal	0.02959722
-3.868703	Batman	0.07527408
-4.798122	Batman-Man	0.02959722
-4.798122	Battlestar	0.008601137
-4.497092	Be	0.001523939
-4.497092	Beach	0.008477546
-4.622031	Beats	0.00761787
-4.798122	Beauty	0.02318602
-3.374876	Because	0.07243214
-4.798122	Beekeeper	0.00629733
-4.622031	Beer	0.02512789
-4.497092	Before	0.01139532
-4.798122	Befuddled	0.02959722
-4.798122	Begin	0.02959722
-4.400182	Believe	0.005997517
-4.798122	Benedict	-0.000116712
-4.798122	Benihana	5.960632e-05
-4.798122	Benjamin	-0.0001132555
-4.798122	Berberick	0.008601137
-4.798122	Berkeley	-5.794718e-05
-3.684179	Bernadette	0.07918225
-4.254054	Bert	0.07525673
-4.497092	Besides	0.02306243
-4.622031	Best	0.0003130588
-4.798122	Bet	0.0007274991
-4.497092	Better	0.02964875
-4.798122	Betty	-0.000116712
-4.798122	Between	0.009338823
-4.798122	Bifurcated	-0.000116712
-4.622031	Big	-0.0001850292
-4.798122	Bilbo	-0.000116712
-4.622031	Bill	-0.0001715982
-4.798122	Billy	0.005767952
-4.798122	Bin	0.008601137
-4.622031	Bisexual	0.002947034
-4.798122	Bite	0.001823266
-4.622031	Black	0.02306969
-4.798122	Blinky	0.006086905
-4.798122	Blossom	0.00629733
-4.622031	Blossoms	0.02953542
-4.497092	Blu-ray	0.02936848
-4.798122	Bobby	-0.000116712
-4.798122	Bold	-4.411902e-05
-4.798122	Booting	0.02959722
-4.798122	Boots	-7.523178e-05
-4.798122	Borrowed	0.008601137
-4.798122	Bottles	0.002716486
-4.798122	Boulder	0.02318602
-4.798122	Bowes-Einstein	-0.000116712
-4.798122	Bowl	-0.000116712
-4.099152	Boy	0.02269188
-4.798122	Bozeman	0.02318602
-4.798122	Bozites	0.008601137
-4.798122	Brainiac	6.652222e-05
-4.497092	Bran	0.006481772
-4.798122	Breathe	0.001639289
-4.497092	Brent	-0.0002333887
-4.798122	Brewbacca	0.006086905
-4.798122	Brilliant	0.02959722
-4.497092	Bring	0.01021639
-4.798122	Bro	0.02959722
-4.798122	Bros	6.652222e-05
-4.798122	Brothers	0.005767952
-4.798122	Brown	0.006086905
-4.798122	Brrrr	0.02959722
-4.400182	Bruce	-0.0003877202
-4.019971	Buddy	0.06377509
-4.798122	Buffy	0.005767952
-4.798122	Buh-buh-buh-buh	0.000637464
-4.622031	Building	0.001717002
-4.798122	Bullock	0.02959722
-4.798122	Bummer	0.02959722
-4.798122	Bunyan	0.02959722
-4.798122	Burbank	0.02959722
-4.798122	Burned	0.005606813
-4.798122	Burton	0.006086905
-3.218338	But	0.07592777
-4.798122	Butterfinger	0.02959722
-4.798122	Butterfly	0.0003743914
-4.622031	Buy	0.003630886
-4.254054	By	0.00542072
-3.923061	Bye	0.05371134
-4.622031	Bye-bye	0.03028865
-4.798122	C	0.02318602
-4.622031	C'mon	0.0005346144
-4.798122	C-3PO	0.0001495217
-4.798122	C-minus	-6.140416e-05
-4.622031	CERN	-0.0001750548
-4.798122	CPR	0.001833682
-4.798122	CSI	0.002194928
-4.254054	Ca	0.003606055
-4.798122	Ca'ada	0.0001322288
-4.798122	Cage	5.960632e-05
-4.798122	Cal-Tech	0.02318602
-4.321001	Call	0.01188374
-4.798122	Callender	0.006086905
-4.798122	Calling	-0.000116712
-4.622031	Calm	5.659572e-05
-4.798122	Cambridge	-0.0001097989
-3.383149	Can	0.02481476
-4.798122	Capital	-0.000116712
-4.254054	Captain	0.03081618
-4.622031	Carl	0.001290138
-4.798122	Case	-0.0001132555
-4.798122	Casey	-0.0001063423
-4.622031	Casper	0.007994633
-4.798122	Cat	0.008601137
-4.798122	Catholics	0.02318602
-4.798122	Cats	0.02318602
-4.798122	Catwoman	0.02318602
-4.798122	Caught	0.0002152407
-4.622031	Cause	0.01377134
-4.798122	Cavalry	0.003008833
-4.798122	Celebrate	0.001233427
-4.798122	Center	0.02959722
-4.798122	Chambourg	0.006086905
-4.798122	Chancellor	0.006086905
-4.798122	Channel	0.02959722
-4.798122	Character	0.0001218534
-4.798122	Charlie	-0.000116712
-4.099152	Check	0.0361882
-4.798122	Checkmate	0.001833682
-4.798122	Cheeks	0.008601137
-4.798122	Cheers	0.02959722
-4.798122	Cheeseburger	0.02959722
-4.497092	Cheesecake	-0.0002333887
-4.798122	Cherenkov	-0.000116712
-4.798122	Chess	-0.0001063423
-4.622031	Chewbacca	-0.0002230541
-4.622031	Chicken	0.03054459
-4.497092	Chief	-0.0003501355
-4.798122	Chihuahua	0.02959722
-4.144909	Chinese	0.009923657
-4.798122	Chipmunks	0.02959722
-4.798122	Choice	0.02959722
-4.798122	Chosen	9.418692e-05
-4.798122	Chris	-0.000116712
-4.622031	Christian	-0.0002230541
-4.798122	Christie	0.02318602
-4.321001	Christmas	0.02303083
-4.798122	Christmassy	0.02959722
-4.798122	Chu	0.008601137
-4.798122	Chuck	-0.000116712
-4.798122	Chuckle	-0.000116712
-4.798122	Chutes	0.003008833
-4.798122	Cinnabon	0.02318602
-4.400182	Cinnamon	0.06134876
-4.622031	City	0.02319371
-4.798122	Civil	-0.000116712
-4.798122	Clarence	-0.000116712
-4.798122	Clark	-0.000116712
-4.798122	Claus	0.02959722
-4.798122	Clearly	0.02318602
-4.798122	Close	-3.720477e-05
-4.798122	Coast	0.02959722
-4.798122	Coffee	-0.0001097989
-4.622031	Colonel	-0.0001608298
-4.798122	Colonial	-0.000116712
-4.798122	Colossus	0.02318602
-4.798122	Columbus	0.02959722
-3.247894	Come	0.0003833445
-4.798122	Comforting	0.009338823
-4.400182	Comic	-0.0003151208
-4.019971	Comic-Con	0.06727013
-4.400182	Coming	0.03101643
-4.798122	Compromise	0.02959722
-4.798122	Computer	0.02959722
-4.622031	Con	0.03882304
-4.798122	Conan	0.02318602
-4.798122	Confetti	-8.560219e-05
-4.798122	Confidence	0.02318602
-4.798122	Confusion	-0.0001132555
-4.144909	Congratulations	0.05754867
-4.798122	Connor	0.006086905
-4.798122	Context	0.02959722
-4.254054	Cool	0.02928831
-3.953024	Cooper	0.07474228
-4.798122	Cooper-Hofstadter	-9.942905e-05
-4.622031	Copenhagen	0.02311711
-4.798122	Cornell	0.0001841094
-4.798122	Corvette	0.008601137
-4.622031	Cos	0.004216146
-4.798122	Costco	0.0001495217
-4.798122	Could	0.009338823
-4.798122	Counterpoint	0.02318602
-4.798122	County	-0.000116712
-4.622031	Couple	0.002654687
-4.798122	Couples	-4.066191e-05
-4.798122	Court	0.008601137
-4.798122	Covenant	0.02959722
-4.798122	Cover	0.001441515
-4.798122	Crocker	-9.942905e-05
-4.622031	Crockett	0.03111266
-4.798122	Crusher	0.001406826
-4.798122	Cuban	0.008601137
-4.798122	Cuddles	0.008601137
-4.798122	Cut	0.00629733
-4.798122	Cylon	-9.597238e-05
-4.798122	Cylons	0.02959722
-4.622031	D	0.02307699
-4.798122	D-do	0.003914963
-4.798122	D.	-0.000116712
-4.798122	DMV	0.02318602
-4.798122	DNA	0.00629733
-4.798122	DS	0.02959722
-4.622031	DTS	0.008738558
-4.254054	DVD	0.04567862
-4.622031	DVDs	0.05448272
-4.798122	DVR	0.02318602
-4.497092	Dad	0.05442093
-4.622031	Dammit	0.02318642
-4.144909	Damn	0.06039048
-4.622031	Dance	-0.0002299673
-4.798122	Dancing	0.001663583
-4.798122	Daredevil	-0.0001132555
-4.798122	Darrow	0.02959722
-4.622031	Darth	-0.0001750548
-4.622031	Darwin	0.005970293
-4.798122	Data	-0.0001028857
-4.622031	Dave	0.05448272
-4.622031	David	-0.0001750548
-4.798122	Davis	0.02959722
-4.798122	Davy	-0.0001132555
-4.144909	Day	0.06390646
-4.798122	Day-ted	0.02959722
-4.798122	Days	0.02318602
-4.798122	Dead	-0.000116712
-4.798122	Deaf	4.283094e-06
-4.798122	Death	-5.449018e-05
-4.798122	Decorate	0.004277945
-4.622031	Defcon	0.002902616
-4.798122	Define	0.004277945
-4.798122	Delhi	0.002532131
-4.798122	Delightful	0.02959722
-4.622031	Demon	-0.0001988568
-4.798122	Denmark	0.02959722
-4.497092	Dennis	0.0543787
-4.798122	Depot	0.02959722
-4.798122	Design	0.02959722
-4.798122	Diamond	-0.000116712
-3.391582	Did	0.04226657
-4.400182	Diego	0.03659109
-4.798122	Differential	-0.000116712
-4.798122	Dig	-0.0001097989
-4.798122	Dinner	0.006086905
-4.798122	Disagree	0.02959722
-4.798122	Disk	0.02959722
-4.798122	Disney	-0.000116712
-4.622031	Disneyland	0.008539337
-4.798122	Dissertation	0.002716486
-3.077963	Do	0.03526543
-4.400182	Doctor	0.002842566
-3.684179	Does	0.01947802
-4.798122	Dogg	0.02318602
-4.798122	Doing	0.004277945
-4.798122	Dolby	0.0001495217
-4.497092	Done	0.032767
-4.798122	Door	0.02959722
-4.798122	Doppler	-0.000116712
-4.798122	Dorn	0.02318602
-4.622031	Double	-0.0002299673
-4.798122	Doug	0.003008833
-4.798122	Dr	-0.0001097989
-3.895032	Dr.	0.0002256616
-4.798122	Dragon	0.02959722
-4.622031	Dragons	0.02989946
-4.798122	Duh-duh-duh-duh-duh-duh	0.02959722
-4.622031	Duncan	0.0294847
-4.622031	Dungeons	0.002899134
-4.798122	During	0.005767952
-4.622031	Dyson	0.02961797
-4.798122	E.R	0.02959722
-4.798122	Each	-3.029037e-05
-4.622031	Earl	-0.0002230541
-4.196062	Earth	0.06434782
-4.321001	East	-0.0004460362
-4.497092	Easter	0.02943402
-4.798122	Easy-peasy	0.02318602
-4.798122	Eat	0.02318602
-4.798122	Edison	0.0002809698
-4.798122	Edna	0.002194928
-4.798122	Effect	0.02959722
-4.497092	Eh	0.05442093
-4.321001	Einstein	0.02811098
-4.798122	Elegant	0.02959722
-4.798122	Elevators	0.02318602
-4.798122	Elf	0.002194928
-4.497092	Elizabeth	0.008429827
-4.798122	Elliot	-0.000116712
-4.798122	Ellison	0.02318602
-4.798122	Elves	0.008601137
-4.622031	Emily	0.03612741
-4.798122	Empathetic	0.02959722
-4.798122	En	-0.000116712
-4.798122	Encouraging	0.0002048634
-4.798122	End	0.002716486
-4.622031	England	0.0294847
-4.497092	English	0.0002720342
-4.798122	Enterprise	0.001406826
-4.798122	Enterpriseand	-6.486109e-05
-4.798122	Enters	-6.089263e-06
-4.798122	Equation	-0.000116712
-4.798122	Ergo	0.02318602
-4.798122	Ernie	0.02959722
-4.798122	Especially	0.005767952
-4.798122	Etruscan	-7.177491e-05
-4.798122	Euler	0.006086905
-4.798122	Eve	0.02959722
-4.196062	Even	0.01125819
-4.798122	Ever	0.02959722
-4.497092	Every	-0.0001081039
-4.400182	Everybody	0.01523026
-4.798122	Everyday	0.003008833
-4.798122	Everyone	0.006086905
-4.144909	Everything	0.02113349
-4.798122	Everywhere	0.009338823
-4.144909	Exactly	0.05411211
-4.798122	Excalibur	0.000613227
-4.798122	Excellent	0.02959722
-4.798122	Excelsior	0.000637464
-4.321001	Except	0.007801876
-3.567673	Excuse	0.0002919433
-4.798122	Executive	-0.0001097989
-4.798122	Experimental	-0.0001063423
-4.622031	Eyes	0.001771883
-4.798122	F	0.003008833
-4.798122	FBI	0.0005682188
-4.622031	FYI	0.02312422
-4.622031	Face	0.004216146
-4.798122	FaceTime	0.0006513144
-4.321001	Facebook	0.03960456
-4.497092	Factory	0.03274619
-4.798122	Falconry	0.02959722
-4.798122	Fancy	-4.066191e-05
-4.798122	Fantastic	-0.0001097989
-4.798122	Father	0.0004020757
-4.798122	February	-0.0001063423
-4.622031	FedEx	-0.0001266604
-4.798122	Federal	-0.0001132555
-4.798122	Federation	0.003008833
-4.798122	Feel	0.002194928
-4.798122	Fellas	0.02959722
-4.622031	Feynman	0.007515814
-4.798122	Fifth	-0.000116712
-4.798122	Finally	0.02318602
-4.798122	Financial	-0.0001097989
-4.798122	Financially	0.02318602
-3.427054	Fine	0.05177222
-4.798122	Fines	0.008601137
-4.798122	Finkleday	0.02318602
-4.798122	Fiona	-0.000116712
-4.196062	First	0.01434719
-4.798122	Fischer	0.003008833
-4.622031	Five	0.02949951
-4.798122	Flintstone	0.008601137
-4.798122	Florida	0.006086905
-4.798122	Focus	0.001833682
-4.798122	Folding	0.005606813
-4.798122	Fondell	0.0002498337
-4.798122	Food	0.006086905
-4.622031	Football	0.05448272
-3.756729	For	0.01441798
-4.254054	Force	0.02373988
-4.798122	Foreplay	0.008601137
-4.196062	Forget	0.0110154
-4.798122	Forgive	0.001823266
-4.798122	Forty	-9.251566e-05
-4.798122	Found	0.005767952
-4.798122	Foundation	-0.0001132555
-4.497092	Four	0.02300443
-4.798122	Fourier	-0.000116712
-4.622031	Fourteen	-0.0001815722
-4.798122	Fourth	-0.000116712
-4.798122	Frakes	0.02318602
-4.798122	Francisco	0.02959722
-4.622031	Frank	0.003672737
-4.622031	Franklin	0.02306969
-4.798122	Frappuccino	0.01098105
-4.798122	Freaky	-0.0001063423
-4.798122	Fred	-0.000116712
-4.798122	Free	-4.066191e-05
-4.622031	French	-0.000212684
-4.400182	Friday	0.02335844
-4.798122	Fridays	0.02959722
-4.497092	Friends	0.004659652
-4.254054	Frodo	0.05502743
-4.400182	From	0.0115722
-4.798122	Frosty	0.005767952
-4.798122	Fu	-0.0001028857
-4.497092	Fun	0.05442093
-4.622031	Funny	0.0004164176
-4.798122	Future	-0.000116712
-4.798122	Fuzzyboots	0.02959722
-4.622031	GPS	0.029481
-4.497092	Gablehauser	0.03393033
-4.798122	Gah	0.02959722
-4.798122	Galapagos	-0.000116712
-4.798122	Gallo	0.002194928
-4.798122	Gals	0.008601137
-4.798122	Game	0.002716486
-4.798122	Gameboy	0.02959722
-4.798122	Gamgee	0.02959722
-4.798122	Gamma	-0.000116712
-4.798122	Gap	0.02959722
-4.798122	Gas	0.02959722
-4.798122	Gas-X	0.0001322288
-4.798122	Gates	-0.000116712
-4.622031	Gay	0.02312422
-4.254054	Gee	0.02287711
-4.622031	General	-0.0002299673
-4.622031	Generation	0.02306969
-4.798122	Genius	0.000613227
-4.798122	Gentlemen	0.02959722
-4.798122	Geordi	-0.000116712
-4.400182	George	-0.0003466261
-4.798122	German	0.008601137
-3.985209	Get	0.01192228
-4.798122	Gets	0.0003778518
-4.622031	Ghostbusters	0.001720474
-4.622031	Giant	-0.0002334239
-4.798122	Girl	0.002194928
-4.622031	Girls	0.004391819
-4.798122	Giselle	0.0001391459
-3.953024	Give	0.006166439
-4.798122	Given	0.0006166893
-4.400182	Glad	0.01967577
-4.798122	Glaringly	-0.000116712
-4.798122	Glass	-0.0001097989
-4.622031	Glendale	0.001290138
-4.798122	Glissinda	0.005767952
-4.798122	Glowing	-0.0001097989
-3.718941	Go	0.03375468
-4.798122	Go-Go-Go-Go	0.000637464
-3.417911	God	0.07537983
-4.798122	God-fearing	-8.214542e-05
-4.798122	Gods	0.008601137
-4.798122	Godzilla	0.00629733
-4.497092	Golden	-0.0003363088
-4.798122	Gon	0.000464372
-4.798122	Gonzalez	0.008601137
-3.313822	Good	0.07213145
-4.798122	Good-Bye	0.02318602
-4.622031	Good-bye	0.02312422
-4.622031	Goodnight	0.05448272
-4.798122	Goofy	-0.0001097989
-4.798122	Google	-9.597238e-05
-4.798122	Goonies	0.02318602
-4.798122	Gore/Lieberman	-0.000116712
-4.798122	Gorn	-9.597238e-05
-4.798122	Gosling	0.02318602
-3.868703	Got	0.02558311
-4.798122	Gotham	-0.0001132555
-4.798122	Graaf	-0.000116712
-4.798122	Graduate	0.0002152407
-4.497092	Grand	-0.0002333887
-4.497092	Grant	0.02328882
-3.436394	Great	0.05273156
-4.798122	Greek	0.008601137
-4.497092	Green	0.02942291
-4.798122	Greetings	0.02318602
-4.798122	Gremlins	0.003008833
-4.798122	Grenade	0.02959722
-4.798122	Guaranteed	0.00629733
-4.622031	Guess	0.0112725
-4.798122	Gunderson	0.02959722
-3.895032	Guys	0.05368013
-4.798122	H	0.001663583
-4.798122	H-h-h-hang	0.001833682
-4.798122	HBOs	0.02959722
-4.798122	Ha	0.02318602
-4.798122	Ha-ha	0.02959722
-4.798122	Hacking	0.0001426043
-4.497092	Had	0.01041832
-4.798122	Half	0.005767952
-4.798122	Halfling	-0.000116712
-4.622031	Halley	0.01481499
-4.798122	Halloween	-0.0001097989
-4.254054	Halo	0.03893406
-4.798122	Hammer	0.002716486
-4.497092	Hand	0.0250006
-3.622031	Hang	0.002370356
-4.798122	Hans	-0.0001132555
-4.497092	Happen	-0.0002744744
-4.798122	Happily	-3.374759e-05
-4.622031	Happy	-0.000191943
-4.798122	Hard	0.0002636717
-4.798122	Hardly	0.005606813
-4.798122	Harlan	-0.000116712
-4.798122	Harmony	-8.560219e-05
-4.622031	Haroun	0.002947034
-4.798122	Harry	-0.000116712
-4.497092	Has	0.006773319
-3.923061	Have	0.01450994
-4.798122	Hawaii	0.008601137
-4.057759	Hawking	0.07298788
-2.988562	He	0.0386309
-4.798122	Hear	0.02318602
-4.798122	Heard	0.009338823
-4.798122	Heartrate	0.02318602
-4.798122	Hee-hee	0.02318602
-4.622031	Heimlich	0.00626843
-4.622031	Hell	0.02306969
-3.756729	Hello	0.06410143
-4.798122	Helmet	0.002716486
-4.497092	Help	0.0250551
-4.798122	Helping	4.283094e-06
-4.798122	Her	-6.140416e-05
-3.54285	Here	0.1027369
-4.622031	Heroes	0.05448272
-2.711762	Hey	0.04164618
-4.798122	Hey-hey-hey-hey-hey	0.02959722
-3.475903	Hi	0.05378775
-4.798122	Higgs	-0.0001028857
-4.798122	High	-0.0001132555
-4.798122	High-energy	-0.0001097989
-4.622031	Hiking	0.03882304
-4.798122	Hindus	-2.33759e-05
-4.798122	Hippos	0.001292375
-4.798122	Hire	0.0006513144
-4.497092	His	-2.163142e-05
-4.798122	Hissy	-0.0001132555
-3.718941	Hmm	0.06303514
-4.798122	Hmmm	0.02959722
-4.400182	Hobbit	0.0319092
-3.953024	Hofstadter	0.06381287
-4.057759	Hold	0.001277805
-4.622031	Hollywood	0.02970684
-4.798122	Holmes	0.02959722
-4.622031	Holy	-0.000154315
-4.798122	Home	-0.000116712
-4.798122	Homeland	-0.000116712
-4.798122	Homo	-0.000116712
-4.497092	Honestly	0.03221158
-4.798122	Honey	0.008601137
-4.798122	Hook	0.00317946
-4.798122	Hope	0.009338823
-4.798122	Hope-hope	0.000748279
-4.798122	Horse	0.02318602
-4.798122	Hos	0.008601137
-4.798122	Hospitals	0.003472117
-4.622031	Hot	0.002099104
-4.798122	Hounds	0.02959722
-4.798122	Housewives	0.02959722
-2.985209	How	0.05885062
-4.798122	How'	0.02729005
-2.968818	Howard	0.0995222
-4.798122	However	-0.000116712
-4.798122	Hugh	-0.0001097989
-3.895032	Huh	0.06493153
-4.144909	Hulk	0.04224845
-4.798122	Human	-0.000116712
-4.798122	Huntsville	0.02318602
-4.798122	Hurry	0.02959722
-4.798122	Hut	0.02959722
-4.798122	Hutt	0.008601137
-4.798122	Huygens	0.02318602
-4.798122	Hypothetically	0.02318602
-1.597819	I	-0.02198297
-4.497092	I'	0.02716646
-4.798122	I'm-I	0.002049004
-4.798122	I-I-I	0.000146063
-4.798122	I..	0.01098105
-4.798122	II	0.02318602
-4.622031	IQ	0.002603299
-3.180074	If	0.0433932
-4.497092	Ignore	0.0005277246
-4.798122	Illinois	-0.000116712
-4.798122	Imperial	-0.000116712
-3.567673	In	0.01794908
-4.798122	Incredible	-9.251566e-05
-4.798122	Indeed	0.02318602
-3.923061	India	0.06358999
-4.144909	Indian	0.03209517
-4.622031	Indiana	-0.0001681416
-4.622031	Indy	0.001682281
-4.798122	Infinite	0.001451921
-4.798122	Innovative	0.02959722
-4.798122	Install	0.005606813
-4.400182	Instead	0.002531115
-4.798122	Institute	0.001441515
-4.254054	Interesting	0.0579224
-4.622031	International	-0.0001750548
-4.622031	Internet	0.02953542
-4.798122	Interrupting	-0.000116712
-4.798122	Invisible	-0.000116712
-4.798122	Invite	0.0001806505
-4.622031	Iron	-0.000164685
-3.266643	Is	0.01976485
-4.622031	Isaac	0.02307699
-4.798122	Island	-0.000116712
-4.798122	Islands	0.008601137
-2.551378	It	0.05473707
-4.798122	It-it-it	0.006086905
-4.622031	Italian	0.008484564
-4.798122	J	0.0004297618
-4.798122	J-bombs	0.02318602
-4.622031	Jabba	0.0119403
-4.622031	Jackson	0.03612741
-4.798122	Jamba	-0.000116712
-4.798122	James	-0.0001132555
-4.798122	January	-0.0001097989
-4.798122	Jaws	-0.0001132555
-4.798122	Jealousy	0.008601137
-4.400182	Jeffries	0.02300065
-4.798122	Jenga	0.000613227
-4.798122	Jennifer	-0.000116712
-4.798122	Jerry	0.008601137
-4.254054	Jersey	0.05508535
-4.798122	Jessica	-0.000116712
-4.622031	Jet	-0.0001750548
-4.798122	Jews	0.02959722
-4.321001	Jim	0.04107809
-4.798122	Jiminy	-0.0001132555
-4.144909	Jimmy	0.05568267
-4.798122	Jobs	-6.140416e-05
-4.798122	John	-0.000116712
-4.798122	Join	0.0003778518
-4.798122	Joke	0.000703257
-4.798122	Joker	0.0002498337
-4.798122	Jonathan	-0.000116712
-4.400182	Jones	0.01144428
-4.798122	Journal	0.001833682
-4.798122	Joy	0.02318602
-4.622031	Joyce	-0.0001681416
-4.798122	Judas	0.008601137
-4.798122	Juice	0.02959722
-4.798122	June	0.02959722
-3.174873	Just	0.06868561
-4.798122	Justice	-0.0001132555
-4.798122	Justin	0.008601137
-4.622031	KBB	0.03882304
-4.622031	Ka	0.0003679625
-4.798122	Kama	-0.000116712
-4.622031	Kandor	0.03111266
-4.798122	Karaoke	0.002191453
-4.798122	Karen	-0.000116712
-4.798122	Kazakhstan	0.02959722
-4.798122	Keaton	0.002191453
-4.196062	Keep	0.008002374
-4.798122	Kellogg	0.006086905
-4.400182	Kevin	0.03284485
-4.798122	Khoo-vakh	0.000637464
-4.798122	Kid	0.006086905
-4.798122	Kidding	0.02959722
-4.798122	Kidnap	-3.374759e-05
-4.622031	Kill	0.03155872
-4.798122	Killer	-9.597238e-05
-4.400182	Kim	0.06420732
-4.622031	Kind	0.002654687
-4.798122	Kindle	-8.905895e-05
-4.798122	King	-9.942905e-05
-4.400182	Kirk	0.02935743
-4.622031	Kites	0.02312422
-4.400182	Klingon	0.05488189
-4.622031	Knight	-0.0001750548
-4.057759	Koothrappali	0.06472667
-4.622031	Korea	0.0004653662
-4.497092	Korean	0.008367993
-4.798122	Koreatown	0.02959722
-4.196062	Kripke	0.03788262
-4.622031	Krypton	0.02306969
-4.497092	Kryptonian	0.0543787
-4.798122	Kung	-0.000116712
-4.321001	Kurt	0.03978278
-4.798122	L.A.	0.001833682
-4.622031	LA	0.01432502
-4.798122	La	-0.000116712
-4.798122	LaForge	0.02318602
-4.798122	Lactaid	0.005606813
-4.622031	Lactose	0.02953542
-4.622031	Ladies	0.01167377
-4.798122	Lakers	-8.905895e-05
-4.622031	Lalita	0.03882304
-4.622031	Lantern	0.02961057
-4.798122	Larry	0.000118395
-4.798122	Las	-0.0001097989
-4.622031	Laser	0.005970293
-4.497092	Last	0.00126018
-4.497092	Latham	0.05464932
-4.798122	Lawyers	0.02959722
-4.798122	Laxative	0.02959722
-4.798122	LeVar	-0.000116712
-4.622031	League	0.002711168
-4.798122	Leakey	0.02959722
-4.798122	Learn	0.0002498337
-4.798122	Leave	0.001823266
-4.798122	Leaving	0.0003363283
-4.798122	Lebanon	0.00629733
-4.196062	Lee	0.05458075
-4.798122	Legoland	0.02959722
-4.798122	Leia	0.02959722
-4.798122	Leibniz	-6.089263e-06
-4.798122	Len	-0.0001028857
-4.798122	Lenny	0.02318602
-4.798122	Lenwoloppali	-0.000116712
-4.497092	Leo	0.05442093
-3.508088	Leonard	0.07399366
-4.497092	Leopold	0.03876125
-4.622031	Lesbian	0.02312422
-3.923061	Lesley	0.08443729
-3.895032	Leslie	0.07057461
-4.798122	Lesser	-0.0001132555
-3.366758	Let	0.03317939
-4.798122	Letterman	0.02959722
-4.798122	Lettuce	-0.000116712
-4.798122	Licensed	0.00629733
-4.798122	Lieutenant	-0.000116712
-4.798122	Lighten	0.0007829146
-3.718941	Like	0.05966534
-4.798122	Limits	-0.0001132555
-4.622031	Lisa	0.02961797
-4.798122	Lisatronic	0.02318602
-4.798122	List	0.002194928
-3.701212	Listen	0.02848281
-4.497092	Little	-0.0002226202
-4.798122	Live	0.001663583
-4.622031	Lobster	-0.0002334239
-4.798122	Lobsters	-0.000116712
-4.798122	Loch	-0.000116712
-4.321001	Long	0.02287357
-3.321001	Look	0.05396333
-4.798122	Looks	0.0009110895
-4.798122	Loony	-0.000116712
-4.798122	Lorvis	0.002194928
-4.622031	Los	-0.0001750548
-4.798122	Lost	-0.0001132555
-4.798122	Lots	0.002716486
-4.622031	Love	0.01577866
-4.798122	Luau	0.02959722
-4.497092	Lucas	0.006025526
-4.798122	Lucky	-0.0001132555
-4.622031	Luke	-0.0002334239
-4.798122	Lysine	0.000921484
-4.798122	Lysol	0.02959722
-4.622031	M	-0.0002265107
-4.798122	M.	-0.000116712
-4.798122	MC	-0.000116712
-4.798122	MIT	0.0002809698
-4.622031	MacArthur	-0.0001715982
-4.798122	Macy	0.006086905
-4.622031	Made	0.006121089
-4.798122	Maglev	-9.942905e-05
-4.798122	Magneto	0.02959722
-4.798122	Magnets	9.418692e-05
-4.798122	Magnolias	-0.0001063423
-4.798122	Mahalo	0.006086905
-4.798122	Make	0.004277945
-4.798122	Making	0.005606813
-4.321001	Man	0.05475531
-4.622031	Man-Man	-0.0002057704
-4.622031	Mandy	0.02953542
-4.798122	Manookian	0.02318602
-4.798122	Marcie	0.02959722
-4.798122	Marie	-0.000116712
-4.798122	Mario	-0.000116712
-4.798122	Mark	0.008601137
-4.798122	Maroon	-0.0001063423
-4.798122	Marriage	0.002194928
-4.798122	Marry	0.009338823
-4.622031	Mars	-0.0001750548
-4.622031	Marshmallow	-0.0001750548
-4.798122	Martian	-0.0001132555
-4.497092	Mary	0.06104806
-4.798122	Matrix	4.283094e-06
-4.798122	Maxwell	0.02318602
-4.254054	May	0.01806684
-3.254054	Maybe	0.1199162
-4.798122	McFadden	0.02959722
-4.019971	Me	0.02325882
-4.798122	Me-wow	0.02959722
-4.798122	Meanwhile	0.0003121081
-4.622031	Meemaw	0.03882304
-4.798122	Meesa	-2.631823e-06
-4.622031	Meet	0.0004722904
-4.798122	Meeting	6.306426e-05
-4.798122	Melts	0.002191453
-4.622031	Men	0.004245114
-4.798122	Merry	0.0008452655
-4.798122	Message	-0.0001132555
-4.400182	Mexican	0.008323845
-4.798122	Mexico	0.001663583
-4.622031	Michael	-0.0002334239
-4.798122	Middle	-9.597238e-05
-4.798122	Might	0.001386015
-4.798122	Migraines	0.02959722
-4.798122	Mike	0.00317946
-4.798122	Miles	-0.0001132555
-4.798122	Milky	-0.0001097989
-4.798122	Mimesis	0.008601137
-4.798122	Mine	0.02318602
-4.798122	Miserable	0.02959722
-4.798122	Miss	-0.000116712
-4.622031	Mississippis	0.0294847
-4.196062	Missy	0.06074711
-4.798122	Mitzy	0.006086905
-3.895032	Mm	0.05368013
-4.057759	Mm-hmm	0.05398864
-4.057759	Mmm	0.05398864
-4.798122	Mmmm	0.02318602
-4.798122	Mode	0.02959722
-3.953024	Mom	0.06365168
-4.622031	Mommy	0.02953542
-4.798122	Mona	0.02959722
-4.400182	Monday	0.03217143
-4.622031	Monkey	-0.000136629
-4.798122	Monopoly	-6.089263e-06
-4.798122	Montana	-0.000116712
-4.798122	Monte	0.02318602
-4.798122	Monty	-0.000116712
-4.798122	Moo-shu	0.002194928
-4.622031	Moo-stache	0.02953542
-4.798122	Mordor	0.02318602
-4.497092	More	-0.000108104
-3.985209	Morning	0.08503427
-4.622031	Morse	-0.0001612283
-4.497092	Most	0.002816454
-3.953024	Mother	0.05377696
-4.798122	Motion	-0.000116712
-4.622031	Mouth	0.0297661
-4.798122	Mouth-to-Mouth	-0.000116712
-4.798122	Move	0.0008764443
-4.798122	Mr	0.02959722
-3.985209	Mr.	0.001939129
-4.798122	Mrs	-8.560219e-05
-3.923061	Mrs.	-0.001217203
-4.622031	Mulder	0.03282879
-4.798122	Mullins	0.002191453
-4.798122	Mum	0.006086905
-4.798122	Mumbai	-0.0001132555
-4.798122	Murdoch	0.008601137
-4.798122	Must	0.002532131
-3.60779	My	-0.001768692
-4.798122	My-my	-3.029037e-05
-4.798122	Mystique	0.02959722
-4.798122	N-dimensional	-9.942905e-05
-4.798122	NASA	-5.449018e-05
-4.798122	NEVER	0.000637464
-4.798122	NORAD	0.008601137
-4.798122	NPR	0.008601137
-4.622031	Nah	0.02312422
-4.798122	Nailed	0.004277945
-4.798122	Naked	0.02318602
-4.798122	Name	0.004277945
-4.497092	Nancy	0.03108802
-4.622031	National	-0.0002230541
-4.798122	Neat	0.02959722
-4.798122	Nebraska	0.008601137
-4.798122	Nemesis	0.02959722
-4.798122	Ness	-0.0001132555
-4.798122	Netflix	0.02318602
-4.622031	Neutral	-0.0001750548
-3.953024	Never	-0.0004612372
-4.798122	Nevertheless	0.02318602
-3.923061	New	-0.001220661
-4.798122	Newcomb	-0.0001132555
-4.497092	Newton	0.0331418
-4.196062	Next	0.006399036
-4.144909	Nice	0.040459
-4.798122	Nicely	-2.631823e-06
-4.798122	Night	-0.000116712
-4.798122	Nightcrawler	0.003008833
-4.798122	Nimoy	0.02318602
-4.798122	Nintendo	-0.000116712
-2.48531	No	0.0723079
-4.798122	No-no-no	0.000637464
-4.798122	No-one	0.006086905
-4.622031	Nobel	-0.0002334239
-4.400182	Nobody	0.005920359
-4.798122	Non-alcoholic	-0.0001097989
-4.254054	None	0.0361874
-4.196062	Nope	0.05417385
-4.798122	Norris	0.002716486
-4.254054	North	-0.0005661868
-4.798122	Norton	0.0003813124
-3.343277	Not	0.03943752
-3.820399	Nothing	0.08879631
-4.798122	Novus	0.0009734592
-3.455699	Now	0.1134941
-4.798122	Nurse	0.006086905
-4.798122	Nursis	-0.000116712
-4.497092	Nye	0.02312116
-4.798122	O-o-o-o-h	0.000637464
-4.798122	O-o-o-o-oh	0.02959722
-4.798122	O-o-o-oh	0.000637464
-4.798122	O-o-o-okay	0.02318602
-3.54285	Of	-0.002156854
-4.798122	Off	0.00629733
-4.497092	Officer	0.05791399
-2.426131	Oh	0.04054128
-4.798122	Oh-oh	0.02959722
-2.692612	Okay	0.0498472
-4.798122	Okay'	0.02729005
-4.798122	Okay-dokay	0.02959722
-4.798122	Okeydoke	0.02959722
-4.798122	Oklahoma	-0.000116712
-4.798122	Olsen	-0.000116712
-3.953024	On	0.006525285
-4.321001	Once	0.02049461
-4.057759	One	0.02768773
-4.798122	One-day	-0.0001097989
-4.497092	Only	0.01190555
-4.798122	Oo-oo-oh	0.000637464
-4.144909	Ooh	0.05491368
-4.798122	Oop	0.000637464
-4.622031	Open	0.004216146
-4.798122	Operating	-0.0001097989
-3.776933	Or	0.05509728
-4.798122	Orcs	0.001292375
-4.622031	Order	-0.0002299673
-4.798122	Oreos	0.008601137
-4.798122	Original	-0.000116712
-4.798122	Oshikuru	9.418692e-05
-4.622031	Other	4.31902e-05
-4.798122	Otherwise	0.002532131
-4.196062	Our	-0.0004780782
-4.798122	Our-Premise-Is-Intriguing	0.02959722
-4.798122	Out	0.002716486
-4.798122	Out-Of-The	0.008601137
-4.798122	Outer	-0.000116712
-4.497092	Ow	0.0005138742
-4.798122	P.E	0.02959722
-4.798122	PC	0.02959722
-4.798122	PS	-0.0001063423
-4.798122	PS3	0.001663583
-4.798122	PSP	0.02959722
-4.798122	Pad	-8.214542e-05
-4.798122	Pagliacci	0.00629733
-4.622031	Palace	0.0294847
-4.798122	Palak	-0.000116712
-4.798122	Palo	-0.0001132555
-4.798122	Papaya	0.008601137
-4.798122	Pardon	0.001823266
-4.798122	Parks	0.00629733
-4.400182	Pasadena	0.05435915
-4.622031	Pass	0.03578553
-4.798122	Patterson	1.119805e-05
-4.798122	Patty	0.006086905
-4.798122	Paul	-0.000116712
-4.798122	Pay	0.005767952
-4.622031	Peeps	-8.863244e-05
-2.684179	Penny	0.09561114
-4.798122	Penny'	0.02729005
-4.057759	People	0.0374037
-4.798122	Peppermint	-0.000116712
-4.798122	Pepto	0.0007274991
-4.622031	Perfect	0.0294884
-4.798122	Perfectly	-0.000116712
-4.798122	Perpetual	-0.000116712
-4.497092	Peter	-0.0002917578
-4.798122	Pfff	0.02318602
-4.400182	Physics	0.029303
-4.798122	Picard	0.0001495217
-4.622031	Pictionary	0.02974758
-4.798122	Pie	0.02959722
-4.798122	Pink	-0.000116712
-4.798122	Pippin	0.003008833
-4.622031	Pizza	0.008488091
-4.798122	PlayStation	-0.0001063423
-3.923061	Please	0.02898123
-4.497092	Plimpton	0.0642691
-4.497092	Plus	0.02306243
-4.798122	Pluto	0.02959722
-4.622031	Pole	0.02953542
-4.798122	Polly	0.02318602
-4.798122	Poltergeist	0.003008833
-4.798122	Poor	-7.177491e-05
-4.798122	Pop-Tart	0.02959722
-4.798122	Pope	0.003008833
-4.798122	Popsicles	0.02959722
-4.798122	Positive	0.02959722
-4.798122	Post	-0.0001097989
-4.798122	Potl	0.02959722
-4.798122	Potter	-7.868861e-05
-4.798122	PowerPoint	-0.0001132555
-4.798122	Pray	0.02318602
-4.798122	Predator	-9.942905e-05
-4.798122	Prejudice	0.008601137
-4.798122	Preliminary	-0.0001028857
-4.798122	Prescription	0.02318602
-4.622031	President	-0.0002299673
-4.144909	Pretty	0.02386908
-4.798122	Pride	0.003008833
-4.798122	Princess	-0.000116712
-4.798122	Princeton	0.02318602
-3.756729	Priya	0.06646775
-4.798122	Prize	0.003008833
-4.321001	Probably	0.03158225
-4.321001	Problem	0.008306273
-4.099152	Professor	-0.0008989818
-4.798122	Proton	0.02959722
-4.798122	Prove	0.004277945
-4.798122	Proximity	0.003008833
-4.497092	Psst	0.03022686
-4.798122	Psychics	0.001292375
-4.798122	Public	-0.0001132555
-4.798122	Pukhpa	0.02959722
-4.798122	Purell	0.002191453
-4.798122	Purelling	0.0003363283
-4.400182	Put	0.01367762
-4.798122	Putting	0.004277945
-4.798122	Python	0.02959722
-4.798122	Q	0.02959722
-4.798122	Qualities	0.00317946
-4.798122	Quick	0.02318602
-4.798122	Quidditch	-5.449018e-05
-4.798122	Quinto	6.998023e-05
-4.622031	Quizznos	0.024714
-4.798122	R2-D2	0.003008833
-4.798122	Raiders	0.002716486
-4.497092	Raisin	-0.0002333887
-3.107926	Raj	0.08685605
-4.798122	Ramen	0.009338823
-4.622031	Ramona	0.03612741
-4.798122	Randall	0.00629733
-4.497092	Read	0.01162475
-4.497092	Ready	0.03629119
-4.798122	Real	-0.000116712
-3.22992	Really	0.02992978
-4.798122	Rebecca	0.02318602
-4.798122	Recall	0.02959722
-4.798122	Reconstituted	-8.214542e-05
-4.798122	Record	0.0007274991
-4.798122	Red	-0.000116712
-4.798122	Redemption	0.02318602
-4.798122	Regardless	0.02318602
-4.798122	Relatively	-0.000116712
-4.798122	Relativity	0.02959722
-4.254054	Relax	0.05423561
-4.144909	Remember	0.04225226
-4.798122	Rent	0.005606813
-4.798122	Resources	0.02959722
-4.798122	Revolution	0.02318602
-4.798122	Rhode	-0.000116712
-4.798122	Richard	-0.0001132555
-4.622031	Rider	0.05448272
-3.455699	Right	0.09975804
-4.798122	Road	-0.000116712
-4.798122	Rob'	0.02729005
-4.798122	Robin	0.02959722
-4.798122	Robot	2.502845e-05
-4.622031	Rock	-0.0002299673
-4.798122	Roger	-0.0001063423
-4.798122	Romance	-0.0001097989
-4.798122	Romans	4.923272e-05
-4.798122	Romulans	0.0005682188
-4.798122	Roommate	8.256175e-07
-4.798122	Rosa	-0.000116712
-4.798122	Rough	0.0002740505
-4.798122	Round	0.008601137
-4.622031	Rover	0.02310617
-4.622031	Run	0.02306969
-4.798122	Rupert	-0.000116712
-4.798122	Russia	0.0004297618
-4.798122	Russians	0.02318602
-4.497092	Rutherford	0.02306243
-4.798122	Ryan	-0.000116712
-4.798122	S'mores	0.02318602
-4.798122	S-Y-F-Y	0.02959722
-4.798122	S.	-0.0001063423
-4.798122	S.A.T.	0.006086905
-4.798122	SNIPE	0.000637464
-4.798122	Sacks	0.02318602
-4.798122	Sad	0.008601137
-4.798122	Safe	-0.000116712
-4.798122	Sagan	0.003008833
-4.798122	Sagittarius	0.0005682188
-4.798122	Said	0.005767952
-4.798122	Saloons	0.008601137
-4.798122	Sam	0.001562944
-4.798122	Samantha	-0.0001063423
-4.622031	Same	0.0008775566
-4.798122	Samurai	0.02959722
-4.622031	Samwise	0.02306969
-4.321001	San	-0.000408399
-4.798122	Sandra	-0.000116712
-4.400182	Santa	0.005805924
-4.798122	Satan	0.004277945
-4.798122	Satisfied	0.008601137
-4.099152	Saturday	0.06514838
-4.798122	Sauce	0.008601137
-4.798122	Save	0.004277945
-4.400182	Say	0.02475929
-4.798122	Scanner	-0.0001097989
-4.798122	Scanners	0.008601137
-4.798122	Schindler	0.006086905
-4.798122	Schnapps	0.02959722
-4.798122	School	0.002716486
-4.497092	Schrodinger	0.006029034
-4.622031	Science	0.029481
-4.622031	Scientists	0.03332516
-4.798122	Scree-scree	0.02959722
-4.622031	Screw	0.01371423
-4.798122	Scrimmage'	0.02729005
-4.798122	Scrotum	0.02959722
-4.622031	Scully	0.02953542
-4.400182	Sea	0.04169564
-4.798122	Season	-9.942905e-05
-4.798122	Seconded	0.02959722
-4.798122	Secondly	0.02318602
-4.798122	Section	5.614846e-05
-4.798122	Security	0.02959722
-3.636754	See	0.04737866
-4.798122	Seedy	-0.000116712
-4.798122	Seen	0.004277945
-4.798122	Segway	0.02959722
-4.798122	Seibert	0.006086905
-4.798122	Sergeant	-0.000116712
-4.798122	Serial	-0.000116712
-4.798122	Series	0.0001495217
-3.953024	Seriously	0.03159416
-4.798122	Services	0.003008833
-4.622031	Seven	0.05448272
-4.798122	Sex	0.002194928
-4.798122	Shadow	0.002716486
-4.497092	Shamy	0.008939697
-4.798122	Sharpe	0.008601137
-4.798122	Shatner	0.02959722
-3.24182	She	0.009443683
-4.622031	She-Hulk	0.02953542
-4.798122	Sheld-off	0.02959722
-2.441141	Sheldon	0.09890196
-4.497092	Sheldon'	0.02716646
-4.622031	Sheldon-approved	-0.0001988568
-4.798122	Shelly	0.02959722
-4.798122	Shepherd	0.006086905
-4.622031	Sherlock	0.029481
-4.798122	Sherpas	0.02959722
-4.798122	Shh-shh-shh	0.000637464
-4.798122	Shh-shh-shh-shh	0.02959722
-4.622031	Shire	0.03635297
-4.798122	Shoemaker	0.003008833
-4.798122	Shore	0.003008833
-4.622031	Short	0.002892171
-3.868703	Should	0.01881862
-4.798122	Show	0.0001806505
-4.622031	Shrimp	0.001601784
-4.497092	Shut	0.0006593248
-4.798122	Shyamalan	4.283094e-06
-4.622031	Siebert	0.02333966
-4.798122	Sign	0.0007274991
-4.798122	Signal	0.008601137
-4.798122	Significant	-0.0001132555
-4.798122	Silence	0.008601137
-4.798122	Simpsons	0.02959722
-4.254054	Since	0.00141087
-4.798122	Sing	0.004277945
-4.321001	Sir	0.0542473
-4.622031	Sit	5.659572e-05
-4.400182	Six	-8.644524e-05
-4.798122	Sixth	-9.942905e-05
-4.798122	Skee-Ball	-8.905895e-05
-4.622031	Skippy	0.03882304
-4.622031	Skis	0.02953542
-4.798122	Skittle	0.02959722
-4.497092	Skynet	0.02700967
-4.798122	Skype	0.02318602
-4.798122	Skywalker	0.001406826
-4.798122	Slayer	0.02959722
-4.400182	Slim	-0.0002882572
-4.798122	Slow	0.02959722
-4.798122	Slowly	0.02318602
-4.798122	Slurpee	0.0006582394
-4.798122	Slurpie-Icee	-0.000116712
-4.622031	Small	-0.0002230541
-4.798122	Smallville	-8.560219e-05
-4.622031	Smart	0.05448272
-4.798122	Smile	0.02959722
-4.400182	Smith	0.02948811
-4.622031	Smoot	0.03882304
-4.622031	Smooth	0.02953542
-4.798122	Smother	0.001451921
-4.798122	Snapchat	0.02959722
-4.497092	Snipe	0.03022686
-4.798122	Snipes	0.003008833
-4.798122	Snoop	-0.000116712
-4.798122	Snort	0.004277945
-4.798122	Snowman	0.02318602
-2.733664	So	0.1327774
-4.798122	So'	0.02729005
-4.798122	Sock	-0.0001132555
-4.798122	Sold	0.02959722
-4.798122	Soldier	0.008601137
-4.057759	Some	0.003984503
-4.798122	Somebody	0.006086905
-4.798122	Someday	0.02318602
-4.798122	Someone	0.001562944
-4.400182	Something	0.009590132
-4.144909	Sometimes	0.04590051
-4.798122	Son	0.002716486
-4.798122	Sophie	0.006086905
-3.436394	Sorry	0.07259487
-3.985209	Sounds	0.001923624
-4.798122	Soup	0.02318602
-4.798122	South	-0.0001097989
-4.622031	Space	-0.0001750548
-4.798122	Speaking	0.002716486
-4.622031	Speckerman	0.02341996
-4.622031	Speech	0.0005756647
-4.798122	Speedy	-0.000116712
-4.798122	Spell	-9.942905e-05
-4.798122	Spider-Man	0.02318602
-4.497092	Spiner	0.02544736
-4.196062	Spock	0.0291606
-4.798122	Spockumentary	0.02959722
-4.798122	Spoiler	-0.0001132555
-4.798122	Squad	0.02959722
-4.798122	Squeeze	-1.646135e-05
-4.400182	Stan	-0.0002813439
-4.798122	Stanford	0.02959722
-3.798122	Star	0.02843655
-4.798122	Stars	0.001292375
-4.798122	Starting	-8.905895e-05
-4.622031	Station	0.02953542
-4.321001	Stay	0.003015074
-4.798122	Steel	-0.000116712
-4.798122	Steelier	0.02959722
-4.798122	Step	0.0007829146
-4.400182	Stephanie	0.0585777
-4.196062	Stephen	-0.0004562661
-4.497092	Steve	-0.0003501355
-4.798122	Stick	-4.066191e-05
-4.144909	Still	0.02608609
-4.798122	Stitches	0.008601137
-4.798122	Stooges	0.02318602
-4.099152	Stop	0.02799048
-4.798122	Stretch	0.02959722
-3.555084	Stuart	0.07933487
-4.798122	Stupid	5.614846e-05
-4.798122	Suburu	0.001663583
-4.798122	Suffered	0.002191453
-4.798122	Sulfites	0.02959722
-4.400182	Sunday	0.03604349
-4.798122	Super	-0.000116712
-4.798122	Superceded	0.000637464
-4.798122	Superior	-0.000116712
-4.099152	Superman	0.06368491
-4.798122	Supervisor	0.02959722
-4.622031	Suppose	0.004947655
-3.343277	Sure	0.09382714
-4.798122	Surgical	-0.0001132555
-4.798122	Surprise	0.02959722
-4.798122	Sutra	0.02318602
-4.798122	Svaty	-0.000116712
-4.798122	Swamp	-0.000116712
-4.798122	Sweatpants	0.02959722
-4.622031	Swedish	-0.0001162895
-4.798122	Sweet	-8.214542e-05
-4.622031	Swell	0.02953542
-4.400182	Swiss	-0.0004461066
-4.254054	Switzerland	0.03610586
-4.798122	SyFy	-0.0001132555
-4.798122	Szechuan	-0.0001132555
-4.622031	T	0.006025105
-4.798122	T-shirt	0.02959722
-4.798122	T1	-0.000116712
-3.798122	TV	0.07514271
-4.798122	Tag	0.02318602
-4.254054	Take	0.01313764
-4.798122	Taking	-0.0001063423
-4.798122	Talk	0.00629733
-4.622031	Tanweer	0.03028865
-4.798122	Teasing	0.005767952
-4.798122	Technically	0.004277945
-4.798122	Teflon	-9.597238e-05
-4.254054	Tell	0.01165624
-4.622031	Telling	0.009277023
-4.622031	Ten	0.03635297
-4.400182	Terminator	0.03865654
-4.798122	Terminators	0.0004020757
-4.798122	Terrible	0.02959722
-4.144909	Terrific	0.05411211
-4.798122	Tex-Mex	0.008601137
-4.196062	Texas	0.0394128
-4.798122	Th	0.02318602
-4.019971	Thai	0.05405908
-3.149762	Thank	0.003994916
-4.798122	Thank-you	0.02959722
-4.798122	Thankfully	0.0007759869
-3.54285	Thanks	0.06253225
-4.798122	Thanksgiving	0.02318602
-2.679196	That	0.08098252
-3.016367	The	0.0178797
-4.497092	Theft	-0.0002333887
-3.622031	Then	0.07546479
-4.798122	Then'	0.02729005
-4.798122	Theodore	0.02318602
-3.201525	There	0.07886765
-4.798122	Thermal	0.008601137
-4.400182	These	0.001267171
-3.343277	They	0.01185098
-4.798122	Thing	0.02318602
-4.400182	Think	0.008108759
-4.798122	Third	-6.831802e-05
-4.798122	Thirty	-0.0001063423
-3.159633	This	0.01051333
-4.798122	Thor	0.008601137
-4.497092	Those	0.001328952
-4.798122	Thought	0.004277945
-4.798122	Thoughts	0.008601137
-4.400182	Three	0.05430515
-4.798122	Thrones	0.02959722
-4.798122	Thunderdome	0.02318602
-4.196062	Thursday	0.06477767
-4.798122	Thursdays	0.008601137
-4.798122	Tickets	0.001292375
-4.798122	Tiffany	0.006086905
-4.400182	Time	0.001163705
-4.798122	Times	-0.0001132555
-4.798122	Tiny	-0.000116712
-4.798122	Titanic	-0.000116712
-3.718941	To	0.03075607
-4.622031	Told	0.009239927
-4.798122	Tom	0.02959722
-4.622031	Tomorrow	0.03961416
-4.321001	Tonight	0.02079919
-4.497092	Too	9.253866e-05
-4.622031	Top	0.002599819
-4.798122	Total	-0.000116712
-4.622031	Totally	0.02953542
-4.798122	Toucan	-0.000116712
-4.798122	Town	0.003008833
-4.798122	Tranquility	0.02959722
-4.622031	Transgender	-0.0001750548
-4.798122	Travel	-0.000116712
-4.144909	Trek	0.08537798
-4.798122	Trip	4.231707e-05
-4.798122	Triumphant	0.008601137
-4.798122	Troopers	0.001833682
-4.798122	Trophy	0.000637464
-4.798122	True	-0.000116712
-4.321001	Trust	0.001576121
-4.622031	Try	0.007441924
-4.798122	Trying	0.00629733
-4.798122	Tuesday	-0.0001132555
-4.798122	Turned	0.00629733
-4.497092	Turns	0.0007528545
-4.798122	Tushy	-4.411902e-05
-4.798122	Twice	0.02959722
-4.622031	Twins	-0.0001715982
-4.798122	Twister	0.001406826
-4.400182	Twitter	0.03951849
-4.254054	Two	0.007362772
-4.798122	U	0.02959722
-4.798122	U-Haul	2.502845e-05
-4.798122	UCLA	0.02959722
-4.798122	USA	-8.560219e-05
-4.798122	USC	0.0001495217
-4.798122	UV	-8.214542e-05
-4.497092	Ugh	0.0552225
-2.884308	Uh	0.04492147
-3.684179	Uh-huh	0.06291194
-4.622031	Uh-oh	0.05448272
-4.497092	Uh-uh	0.05442093
-4.798122	Uh..	-0.000116712
-4.798122	Uhura	-0.0001132555
-3.54285	Um	0.05301419
-4.400182	Um'	0.02710468
-4.798122	Un-unravelable	0.008601137
-4.400182	Unbelievable	0.02941185
-4.798122	Uncle	-0.0001132555
-4.798122	Under	0.005767952
-4.622031	Underhill	0.03195684
-4.497092	University	0.02990806
-4.622031	Unless	0.02360615
-4.798122	Unruh	-0.0001063423
-4.400182	Until	0.01182244
-4.798122	Upon	-0.000116712
-4.798122	Upsy-daisy	0.02959722
-4.798122	Us	0.0002014044
-4.622031	Use	0.007019944
-4.798122	Usually	6.652222e-05
-4.798122	Vaclav	0.003008833
-4.622031	Vader	0.002610257
-4.254054	Valentine	0.005777996
-4.798122	Vampire	-0.000116712
-4.798122	Van	-0.000116712
-4.798122	Vartabedian	0.02959722
-4.497092	Vegas	0.05442093
-4.798122	Venus	0.002194928
-4.144909	Very	0.0006756054
-4.798122	Video	-9.546646e-06
-4.798122	Vienna	0.008601137
-4.798122	Village	-8.560219e-05
-4.798122	Visualize	0.004277945
-4.798122	Vulcan	-0.0001097989
-4.798122	W-W-Wait	0.02318602
-4.798122	W-We	0.0003743914
-4.798122	W-wait	0.000637464
-4.798122	Waah	0.02959722
-4.798122	Wackadoodle	0.02959722
-3.594002	Wait	0.05995299
-4.798122	Wake	0.0007829146
-4.798122	Waking	0.0007829146
-4.622031	Waldo	0.02953542
-4.798122	Walgreens	0.002191453
-4.798122	Wall	0.02318602
-4.798122	Walls	0.001292375
-4.798122	Walmart	0.02318602
-4.196062	Want	0.01207112
-4.497092	Warcraft	0.005394588
-4.622031	Warlord	0.002613736
-4.798122	Warriors	0.02318602
-4.057759	Wars	0.03875778
-4.057759	Was	0.04236169
-4.254054	Watch	0.02580332
-4.798122	Water	-0.000116712
-4.622031	Waugh	0.02386549
-4.497092	Way	0.006273311
-4.798122	Wayne	0.0003432486
-2.708217	We	0.04446533
-4.798122	We-We	0.0008521934
-4.400182	Web	-0.0003431696
-4.798122	Weird	0.02959722
-4.622031	Welcome	0.00634212
-2.616279	Well	0.03864224
-4.400182	Well'	0.02710468
-4.400182	Were	0.01227421
-4.622031	Wesley	-0.0002334239
-4.497092	West	0.03307458
-4.798122	Wh	0.02318602
-4.798122	Wha	0.0004297618
-4.798122	Wham	0.02318602
-2.408071	What	0.1079893
-4.622031	Whatcha	0.0002265441
-4.196062	Whatever	0.05905822
-4.798122	Wheaton	0.006086905
-3.580638	When	0.04799925
-3.567673	Where	0.03452822
-4.622031	Whether	0.002470331
-4.057759	Which	0.03932023
-4.622031	While	0.01091925
-4.798122	Whistlers	0.0002705909
-4.798122	White	-0.000116712
-3.60779	Who	0.03519633
-4.144909	Whoa	0.05491368
-4.798122	Whoa-whoa-whoa-whoa-whoa	0.02959722
-2.889637	Why	0.0525088
-4.622031	Wi-Fi	0.02959946
-4.798122	Wikipedia	0.02959722
-4.144909	Wil	0.06104784
-4.798122	Wild	-0.0001097989
-3.985209	Will	0.01526432
-4.798122	Williams	0.02959722
-4.798122	Williamsburg	0.02959722
-4.798122	Wine	0.008601137
-4.798122	Winkle	0.02959722
-4.798122	Wireless	-0.000116712
-4.622031	Wish	0.01358218
-4.798122	Witches	-0.0001132555
-4.019971	With	0.03756485
-4.622031	Without	0.03030348
-4.622031	Wo	0.003853164
-3.868703	Wolowitz	0.05387303
-4.798122	Women	0.02959722
-4.622031	Wonder	-0.0001750548
-4.798122	Wong	0.008601137
-4.798122	Woodstock	0.02959722
-4.798122	Wookiee	0.02959722
-4.798122	Working	0.004277945
-4.497092	World	0.002615385
-3.895032	Would	0.03550819
-3.718941	Wow	0.05318696
-4.798122	Wozniak	0.001406826
-4.798122	Wu-uh	0.02318602
-4.497092	Wuh	0.02306243
-4.798122	Wyatt	0.02959722
-4.798122	X	-0.0001132555
-4.798122	X-Box	0.02959722
-4.798122	X-Files	0.02959722
-4.798122	X-Men	0.02959722
-4.798122	X-ray	-0.000116712
-4.798122	Xavier	0.003008833
-4.497092	Y	0.02706121
-2.591296	Yeah	0.05875252
-4.497092	Year	0.005908502
-4.798122	Yellow	0.002194928
-4.099152	Yep	0.08521943
-2.981881	Yes	0.1220172
-4.798122	Yet	0.001011578
-4.622031	Yippee	0.02953542
-4.798122	Yo	0.02318602
-4.798122	Yoda	0.02959722
-4.798122	Yorkshire	-0.0001097989
-2.293651	You	0.06971687
-4.798122	Young	-0.0001132555
-3.895032	Your	-0.001224844
-4.798122	Yours	-8.214542e-05
-4.196062	Yup	0.05417385
-4.798122	Zachary	-0.000116712
-3.953024	Zack	0.07134288
-4.798122	Zealand	0.02959722
-4.798122	Zelda	0.02959722
-4.798122	Zod	0.02959722
-4.622031	Zone	0.03635297
-1.882459	a	-0.05035188
-4.798122	a-a	0.0001702739
-4.798122	a.m	0.02959722
-4.400182	a.m.	0.02688972
-4.798122	abandoned	-0.000116712
-4.798122	abandoning	0.0006513144
-4.099152	able	0.005803182
-4.798122	aboard	0.003008833
-2.541645	about	0.1801876
-4.622031	above	0.02306969
-4.622031	absolute	-0.0001612283
-4.622031	absolutely	0.03154384
-4.798122	absurd	0.02959722
-4.798122	abyss	0.02959722
-4.798122	academics	0.02959722
-4.798122	accelerator	-6.831802e-05
-4.497092	accent	0.06510825
-4.798122	accepted	-0.000116712
-4.798122	accepting	-0.000116712
-4.400182	access	0.03625783
-4.321001	accident	0.02940301
-4.798122	accidentally	-0.0001132555
-4.798122	accolades	0.0007274991
-4.400182	accomplished	0.02958697
-4.622031	accomplishment	0.03882304
-4.798122	accomplishments	0.001625407
-4.798122	according	0.00629733
-4.196062	account	0.04495214
-4.798122	accurate	0.008601137
-4.497092	accused	0.004490764
-4.798122	acelerador	-0.000116712
-4.798122	acetal	-0.000116712
-4.798122	acetylene	-0.000116712
-4.497092	achievement	0.05698604
-4.798122	achievements	0.02318602
-4.798122	acidophilus	-0.000116712
-4.798122	acknowledge	0.02318602
-4.798122	acoustic	-9.597238e-05
-4.798122	acquiring	-0.000116712
-3.985209	across	0.035527
-4.798122	act	0.0002636717
-4.196062	acting	0.01669823
-4.798122	actinoid	-0.0001097989
-4.254054	action	0.002658988
-4.798122	activated	0.005767952
-4.622031	active	0.02953542
-4.798122	activities	0.005767952
-4.798122	activity	0.02959722
-4.798122	actor	0.001292375
-4.798122	actors	0.0009734592
-4.400182	actress	0.06420732
-4.798122	acts	0.0009110895
-4.254054	actual	-0.0004651446
-4.798122	actuality	0.002532131
-3.408956	actually	0.09989942
-4.798122	ad-hoc	-0.000116712
-4.622031	add	0.0002057832
-4.798122	added	0.001441515
-4.622031	addicted	0.02949211
-4.798122	addiction	-9.942905e-05
-4.798122	addition	0.002716486
-4.497092	address	0.01272767
-4.798122	addressed	0.001233427
-4.798122	adjoining	1.46556e-05
-4.622031	adjust	0.005706153
-4.622031	adjusted	0.01215364
-4.798122	administration	-6.140416e-05
-4.798122	admired	0.00317946
-4.254054	admit	0.03092261
-4.798122	admitting	-0.000116712
-4.798122	adult	-0.0001132555
-4.798122	adults	0.02959722
-4.798122	advance	0.02959722
-4.798122	advancements	0.002191453
-4.622031	advantage	0.002902615
-4.497092	adventure	0.02699862
-4.798122	adventure-role-playing	0.0002152407
-4.400182	advice	0.03904627
-4.798122	aerial	-0.000116712
-4.497092	affection	0.005321039
-4.798122	affectionate	-1.646135e-05
-4.497092	afford	0.00987298
-4.019971	afraid	0.01961949
-3.651994	after	0.06646702
-4.798122	aftermath	0.002716486
-4.400182	afternoon	0.03178261
-4.622031	afterwards	0.03227337
-3.417911	again	0.06541426
-4.144909	against	0.0168921
-4.321001	age	0.02801499
-4.798122	age-appropriate	4.283094e-06
-4.798122	agenda	0.02959722
-4.798122	agent	0.0008036969
-4.798122	aggravate	0.0006166893
-3.737424	ago	0.06447986
-4.400182	agree	0.0362294
-4.196062	agreed	0.07018827
-4.099152	agreement	0.06389855
-4.798122	agrees	0.00317946
-4.622031	ah	0.05448272
-3.985209	ahead	0.06054598
-4.798122	ails	0.0006166893
-4.321001	air	0.0292164
-4.622031	aircraft	0.008502197
-4.798122	airflow	0.02959722
-4.798122	airplane	0.02959722
-4.798122	airport	0.001663583
-4.798122	aisle	0.001406826
-4.400182	alcohol	0.03458732
-4.798122	alcoholic	-0.000116712
-4.798122	alcoholism	0.0002636717
-4.622031	alert	0.05448272
-4.798122	algebraically	-9.942905e-05
-4.622031	algorithm	0.001349111
-4.622031	alibi	0.03882304
-4.497092	alien	0.0294166
-4.497092	aliens	0.0005806947
-4.497092	alive	0.03876125
-2.720754	all	0.1559793
-4.798122	all-night	-1.991867e-05
-4.798122	all-nighter	4.923272e-05
-4.798122	allergic	0.00629733
-4.798122	allergies	0.02959722
-4.798122	allergist	0.02318602
-4.798122	allergy	-0.0001132555
-4.798122	alliance	0.02959722
-4.497092	allow	0.009105704
-4.798122	allowance	0.001833682
-4.144909	allowed	0.00586492
-4.057759	almost	0.004836364
-3.923061	alone	0.06871859
-4.196062	along	0.03936111
-4.497092	alpha	-0.0002606472
-4.798122	alphabetically	0.02959722
-4.622031	alphas	0.003627399
-3.798122	already	0.003589792
-4.254054	alright	0.05423561
-3.737424	also	0.06946452
-4.798122	alternate	-0.000116712
-4.798122	although	0.002532131
-4.798122	aluminium	0.02959722
-3.400182	always	0.05336032
-3.207057	am	0.1111163
-3.798122	amazing	0.02908458
-4.798122	ambiguity	0.002191453
-4.798122	ambulance	0.008601137
-4.622031	amount	0.009056259
-4.798122	ample	-0.0001132555
-2.871265	an	-0.01545379
-4.798122	analogy	-5.103313e-05
-4.798122	analysis	0.02318602
-4.798122	analyze	0.009338823
-4.798122	ancient	-0.000116712
-2.143464	and	0.1404997
-4.321001	and'	0.02704291
-4.798122	androgynous	0.008601137
-4.798122	angel	0.003008833
-4.622031	anger	0.00914102
-4.400182	angry	0.02808324
-4.622031	angular	-0.0001750548
-4.622031	animalistic	0.029481
-4.798122	animals	0.02318602
-4.798122	announce	0.00317946
-4.798122	announcement	0.008601137
-4.798122	annoy	0.001823266
-4.798122	annoyed	0.02959722
-4.400182	annoying	0.0293104
-4.798122	annual	-4.066191e-05
-4.622031	annulment	0.05448272
-4.798122	anonymous	0.02318602
-3.636754	another	0.03338126
-4.019971	answer	0.06778831
-4.798122	answering	0.005767952
-4.622031	answers	0.02953542
-4.798122	ant	-0.000116712
-4.798122	antagonize	-4.411902e-05
-4.798122	anthropological	0.003008833
-4.798122	anthropologist	0.02959722
-4.798122	anticlimactic	0.02959722
-4.798122	ants	0.008601137
-4.798122	anxiety	0.02959722
-3.224091	any	0.04719769
-4.196062	anybody	0.06879135
-4.254054	anymore	0.03857593
-3.684179	anyone	0.07176685
-3.366758	anything	0.09502722
-3.953024	anyway	0.08497257
-4.497092	anywhere	0.02942661
-4.497092	apart	0.03027628
-3.567673	apartment	0.0913991
-4.622031	apiece	0.02953542
-4.798122	apnoea	-0.0001132555
-4.798122	apologies	0.00629733
-4.400182	apologise	0.0378706
-4.798122	apologised	0.00629733
-4.099152	apologize	0.03756182
-4.254054	apology	0.02928831
-4.400182	app	0.03624278
-4.798122	apparently	0.02318602
-4.798122	appear	0.001833682
-4.798122	appears	0.00629733
-4.798122	appellate	-7.177491e-05
-4.798122	appendix	0.0008764443
-4.798122	apple	-0.000116712
-4.798122	appli'	0.02729005
-4.798122	applicants	0.02318602
-4.798122	application	0.002194928
-4.798122	applications	0.001441515
-4.798122	applies	0.0007274991
-4.254054	apply	0.06582931
-4.497092	appointment	0.0563869
-4.099152	appreciate	0.01748572
-4.798122	appreciation	0.02959722
-4.622031	approach	0.002293758
-4.798122	approaches	-0.000116712
-4.798122	approaching	-0.0001132555
-4.798122	appropriate	-0.0001132555
-4.798122	approved	0.005767952
-4.798122	apron	0.0001495217
-4.798122	archery	0.02318602
-4.400182	ard	-9.11846e-05
-2.487429	are	0.1121572
-4.196062	area	0.0324463
-4.497092	argue	0.002308463
-4.798122	arguing	0.0001495217
-4.622031	argument	0.01084324
-4.798122	aria	0.0002498337
-4.798122	ark	0.00629733
-4.798122	arm	0.02959722
-4.798122	arms	0.00317946
-4.798122	army	-0.000116712
-3.436394	around	0.1107928
-4.798122	arrange	-2.33759e-05
-4.400182	arrangements	0.03182955
-4.798122	array	0.002716486
-4.798122	arrested	0.02318602
-4.798122	arrived	0.02318602
-4.798122	arrogant	0.02959722
-4.798122	article	0.000613227
-4.622031	artificial	-0.0001124269
-4.798122	artist	0.02959722
-4.798122	artistic	0.02959722
-3.049934	as	0.1124375
-4.622031	ashamed	0.009056259
-4.798122	ashtray	0.02959722
-4.622031	aside	0.02953542
-4.798122	asinine	-0.0001132555
-3.358789	ask	0.05814984
-3.798122	asked	0.04729041
-3.84388	asking	0.04875443
-4.622031	asks	0.03305264
-4.254054	asleep	0.0600985
-4.798122	aspect	0.002716486
-4.321001	ass	0.03124832
-4.798122	assault	0.002716486
-4.798122	assemble	0.005767952
-4.798122	assert	0.001264634
-4.798122	assistant	-5.449018e-05
-4.798122	assume	0.001233427
-4.798122	assumed	0.001011578
-4.622031	assumption	0.00311766
-4.798122	asteroid	-0.0001132555
-4.254054	asthma	0.02943606
-4.798122	asthma-and-glasses	-0.0001132555
-4.622031	astronaut	0.02997356
-4.622031	astronauts	4.664902e-05
-4.798122	astronomer	0.008601137
-2.745044	at	0.08446705
-4.497092	ate	0.02977953
-4.798122	athlete	0.02959722
-4.798122	athletes	-6.486109e-05
-4.798122	athletic	0.02959722
-4.622031	atom	0.03251558
-4.622031	atoms	-0.0002230541
-4.798122	attached	0.00629733
-4.254054	attack	0.05426004
-4.798122	attempt	0.00629733
-4.798122	attend	0.005606813
-4.798122	attending	0.02959722
-4.196062	attention	0.06888673
-4.798122	attitude	0.0002498337
-4.622031	attorney	0.02953542
-4.798122	attract	-0.000116712
-4.497092	attracted	0.00617374
-4.798122	attractions	0.02959722
-4.254054	attractive	0.05424133
-4.798122	auctioning	0.0001391459
-4.798122	audition	0.0008452655
-4.798122	auditions	0.02318602
-4.798122	aunt	2.502845e-05
-4.798122	author	0.002194928
-4.798122	authority	0.0001495217
-4.622031	autograph	0.03195684
-4.798122	autographed	-0.000116712
-4.622031	available	0.02953542
-4.798122	avatar	0.0007274991
-4.798122	average	0.002191453
-4.497092	avoid	-0.0001738116
-4.798122	avoided	0.005767952
-4.622031	awake	0.009321189
-4.798122	award	0.001441515
-4.798122	aware	0.00317946
-3.60779	away	0.06255455
-4.497092	awesome	0.03637227
-4.321001	awful	0.03756959
-4.798122	awfully	-0.000116712
-4.497092	awkward	0.02943031
-4.798122	axis	0.008601137
-4.798122	aye	0.02318602
-4.798122	b-be	-0.0001132555
-4.798122	b..	-0.000116712
-4.798122	babe	0.02318602
-4.497092	babies	0.0321125
-3.820399	baby	0.08219058
-4.400182	bachelor	-0.0002152534
-2.998782	back	0.09484196
-4.798122	back-scratching	0.003008833
-4.622031	backpack	0.003090665
-4.622031	backsies	0.02953542
-4.497092	backup	0.02943402
-4.622031	backwards	0.05448272
-4.622031	bacon	0.029481
-4.798122	bacterial	-0.000116712
-3.292972	bad	0.06908923
-4.497092	badass	0.03150809
-4.622031	badasses	0.02953542
-4.798122	badger	0.003008833
-4.798122	badgers	6.998023e-05
-4.798122	badly	0.02959722
-4.798122	baffles	0.001823266
-4.144909	bag	0.04665224
-4.798122	bagel	0.001441515
-4.622031	bagels	0.03099007
-4.798122	bags	0.02959722
-4.798122	bailed	0.02318602
-4.798122	bald	0.02318602
-4.497092	ball	0.03299246
-4.798122	baller	0.02318602
-4.798122	ballistic	-0.000116712
-4.798122	balloon	0.02959722
-4.798122	balls	0.0002636717
-4.622031	bam	0.02312422
-4.400182	banana	0.05687031
-4.798122	bananas	0.02959722
-4.622031	band	0.02953542
-4.798122	bandwidth	0.002191453
-4.798122	bang	0.02959722
-4.622031	bank	0.008505724
-4.798122	banned	0.0002498337
-4.321001	bar	0.05658375
-4.798122	barbecue	0.008601137
-4.798122	barber	0.02959722
-4.798122	barefoot	0.02959722
-4.798122	barely	-9.546646e-06
-4.798122	bargain	0.009338823
-4.798122	barge	0.002191453
-4.622031	bark	0.0413757
-4.798122	barriers	0.02959722
-4.497092	bars	0.05791399
-4.622031	base	0.009229328
-4.622031	based	0.001771883
-4.798122	basement	0.003008833
-4.622031	basic	-0.0001988568
-4.400182	basically	0.02295011
-4.622031	basis	0.02605965
-4.622031	basket	0.002610257
-4.622031	bass	0.02953542
-4.798122	bassinet	0.001406826
-4.622031	bastard	0.02953542
-4.321001	bat	0.06414555
-4.798122	bat'lething	-9.597238e-05
-4.798122	batcrap	2.157084e-05
-4.798122	bathing	-9.942905e-05
-4.099152	bathroom	0.06464458
-4.798122	bats	-0.0001063423
-4.798122	batter	0.002191453
-4.798122	battery	-9.942905e-05
-4.622031	battle	0.002850394
-4.622031	battles	0.009277023
-4.798122	bayberry	0.02318602
-2.459666	be	0.1212799
-4.622031	beach	0.029481
-4.622031	beak	0.002892171
-4.798122	beam	0.000391694
-4.798122	beams	0.0001391459
-4.798122	bean	-0.000116712
-4.798122	bear	0.0001322288
-4.254054	beat	0.04801515
-4.622031	beaten	0.0006766083
-4.321001	beats	0.005368062
-4.099152	beautiful	0.05452891
-4.622031	beauty	0.02306969
-4.798122	beaver	0.008601137
-4.798122	beavers	-2.33759e-05
-4.798122	became	-0.0001063423
-3.149762	because	0.06967475
-4.400182	become	0.005725281
-4.798122	becomes	0.005606813
-4.497092	becoming	0.006657379
-3.497092	bed	0.09139439
-4.798122	bed-wetting	-6.140416e-05
-4.144909	bedroom	0.05760517
-4.798122	bedrooms	0.02959722
-4.798122	bedsheets	0.02959722
-4.798122	bedtime	0.02318602
-4.798122	beef	0.008601137
-3.14491	been	0.05509258
-4.497092	beer	0.04123306
-3.358789	before	0.1111264
-4.622031	befuddled	0.02953542
-4.622031	beg	0.001762141
-4.798122	began	0.02959722
-4.798122	begged	6.652222e-05
-4.497092	begging	0.03955238
-4.798122	behaves	0.0009110895
-4.798122	behaviour	0.02959722
-3.868703	behind	0.06318829
-3.350964	being	0.07054474
-4.798122	beliefs	0.02959722
-3.417911	believe	0.1096281
-4.798122	believed	0.00317946
-4.798122	believes	0.002191453
-4.798122	belly	0.02959722
-4.497092	belong	0.002942658
-4.622031	belongs	0.006235531
-4.497092	belt	0.04084142
-4.798122	bend	0.00629733
-4.798122	benedryl	0.0006582394
-4.622031	benefit	0.03251558
-4.798122	benzene	-7.523178e-05
-4.497092	besides	0.02306243
-3.718941	best	0.06522236
-4.099152	bet	0.05196866
-4.497092	beta	-0.000209192
-4.622031	betas	0.02953542
-4.622031	betcha	0.05448272
-4.497092	betray	0.01035809
-4.497092	betrayed	0.001374687
-3.436394	better	0.07702102
-3.776933	between	0.0186858
-4.497092	beverage	0.05442093
-4.798122	beyond	-0.0001132555
-4.798122	bias	0.002191453
-4.622031	bid	0.03114981
-4.622031	bidding	0.001720474
-4.798122	bifocals	0.003008833
-3.374876	big	0.05739726
-4.798122	big-ass	-0.000116712
-4.622031	bigger	0.02329587
-4.798122	biggie	0.02318602
-4.622031	bike	0.03882304
-4.622031	bikini	0.008526886
-4.798122	bill	0.02959722
-4.622031	billion	-6.056076e-05
-4.622031	bills	0.02953542
-4.798122	bind	0.0001806505
-4.798122	binge-watching	-0.0001132555
-4.798122	bio-social	-0.000116712
-4.798122	biographer	0.02959722
-4.798122	biological	-0.000116712
-4.798122	biologically	-0.000116712
-4.622031	bird	0.007776283
-4.622031	birds	0.03195312
-4.798122	birth	-0.000116712
-3.985209	birthday	0.06836098
-4.798122	biryani	0.02959722
-4.798122	bisexual	-0.000116712
-4.798122	bishop	0.02959722
-3.756729	bit	0.06849635
-4.321001	bitch	0.03469232
-4.798122	bitches	0.001292375
-4.400182	bite	0.01631831
-4.622031	biting	0.003094147
-4.798122	bitten	9.418692e-05
-4.798122	bitter	0.001125955
-4.321001	black	0.005948881
-4.622031	black-tie	0.05448272
-4.798122	blackmail	0.000637464
-4.798122	blackmailing	-0.0001097989
-4.798122	blackout	0.02318602
-4.497092	bladder	0.009264705
-4.798122	blades	0.02959722
-4.497092	blame	0.04162504
-4.254054	blanket	0.06090818
-4.798122	bleeding	0.02959722
-4.622031	blend	0.00492317
-4.798122	blender	0.02959722
-4.798122	blessing	0.02959722
-4.798122	blew	0.0003778518
-4.622031	blind	0.02951431
-4.798122	blinded	0.008601137
-4.798122	blister	0.02959722
-4.798122	block	0.0001841094
-4.622031	blocks	0.002700728
-4.622031	blog	0.02379242
-4.622031	blonde	0.002147759
-4.798122	blondes	0.0008764443
-4.497092	blood	-0.0003466789
-4.798122	bloodied	0.003008833
-4.798122	bloodthirsty	-0.000116712
-4.798122	bloopers	0.02959722
-4.798122	blossoms	0.008601137
-4.144909	blow	0.01087967
-4.622031	blows	0.001217301
-4.400182	blue	0.01145849
-4.798122	bluffing	0.02959722
-4.798122	blunt	-0.000116712
-4.798122	blur	0.02959722
-4.057759	board	0.03668232
-4.622031	boards	0.02312422
-4.497092	boat	0.03105087
-4.622031	bobcat	0.02953542
-4.798122	bodies	0.02959722
-4.099152	body	0.03931985
-4.798122	bodysnatchers	-0.0001063423
-4.798122	boggle	0.000921484
-4.798122	bold	0.02318602
-4.798122	boldly	0.0008452655
-4.798122	bond	0.02959722
-4.798122	bone	-5.103313e-05
-4.622031	bones	0.02963278
-4.798122	boo-hoo	0.02959722
-4.798122	boobies	0.02318602
-3.636754	book	0.07019537
-3.985209	books	0.07680569
-4.798122	bookstore	5.960632e-05
-4.798122	bookworm	0.02959722
-4.622031	boom-boom	0.03195312
-4.798122	boot	0.0007829146
-4.497092	boots	0.03429331
-4.798122	bore	0.009338823
-4.400182	bored	0.06420732
-4.254054	boring	0.02597602
-4.622031	born	0.001345642
-4.622031	borrow	0.00459799
-4.798122	bot	0.009338823
-3.718941	both	0.05948282
-4.144909	bother	0.0182492
-4.497092	bothering	0.009215233
-4.400182	bottle	0.004009799
-4.798122	bottled	-0.0001028857
-4.400182	bottom	0.03239201
-4.057759	bought	0.01499594
-4.497092	bounce	0.005573261
-4.798122	bounced	0.0003121081
-4.798122	bouncing	-8.560219e-05
-4.798122	bout	0.002716486
-4.497092	bowl	0.003095935
-4.798122	bowls	0.02959722
-3.868703	box	0.06197163
-4.798122	boxes	0.02318602
-3.923061	boy	0.06434809
-3.895032	boyfriend	0.06215948
-4.196062	boys	0.05513757
-4.798122	braiding	0.0002152407
-4.057759	brain	0.03783543
-4.622031	brains	0.03282879
-4.798122	brainteaser	0.02959722
-4.497092	bran	-0.0002333887
-4.798122	bratwurst	0.008601137
-4.798122	bread	0.02318602
-3.868703	break	0.06828669
-4.798122	break-ups	0.02959722
-4.798122	breakdown	0.003008833
-4.019971	breakfast	0.0664617
-4.400182	breaking	0.006845082
-4.622031	breaks	0.03578553
-4.321001	breakthrough	0.02456934
-4.622031	breakup	0.02953542
-4.798122	breast-feeding	-0.000116712
-4.798122	breath	0.02959722
-4.622031	breathe	0.0296513
-4.798122	breed	0.005606813
-4.798122	breezy	0.02959722
-4.798122	bricks	0.02318602
-4.798122	bride	0.003008833
-4.622031	briefcase	0.0231244
-4.798122	briefly	0.02959722
-4.497092	bright	-0.0002057352
-4.400182	brilliant	0.05434044
-3.895032	bring	0.02691661
-4.400182	bringing	0.0196972
-4.400182	brings	0.01494914
-4.798122	brisket	0.02959722
-4.798122	bro	0.000637464
-4.798122	broad	-0.000116712
-4.798122	broccoli	0.008601137
-3.985209	broke	0.04282989
-3.868703	broken	0.0494001
-4.099152	brother	0.04943022
-4.798122	brother-sister-Elliott-E.T	0.02959722
-4.798122	brothers	0.02959722
-3.953024	brought	0.02636725
-4.798122	brown	-0.0001028857
-4.798122	bruised	0.001264634
-4.622031	brushes	0.008562157
-4.497092	bubble	0.003329437
-4.798122	bubbles	-0.000116712
-4.798122	buck	0.0007829146
-4.798122	bucket	0.02318602
-4.798122	buckle	0.0007829146
-4.254054	bucks	0.03085202
-4.798122	bud	0.02959722
-4.798122	buddies	0.02959722
-3.756729	buddy	0.06315838
-4.798122	buffering	0.02318602
-4.798122	buffet	0.0006582394
-4.798122	buffets	0.002191453
-4.321001	bug	0.05426299
-4.798122	bugs	0.02318602
-4.622031	buh	0.02312422
-4.622031	build	0.006858294
-3.953024	building	0.08013402
-4.798122	builds	0.005767952
-4.144909	built	0.01253263
-4.622031	bulletin	-0.0001474015
-4.798122	bullies	1.46556e-05
-4.798122	bullying	-7.523178e-05
-4.798122	bumped	0.005767952
-4.798122	bumper	-0.0001132555
-4.099152	bunch	0.002222338
-4.798122	bungee	-0.000116712
-4.622031	bunny	0.02953542
-4.622031	burden	0.02770797
-4.798122	bureaucracy	-0.0001097989
-4.798122	burn	-9.546646e-06
-4.622031	burned	0.0002196236
-4.497092	burning	0.001905981
-4.798122	burp	-2.683315e-05
-4.622031	burst	0.005752955
-4.254054	bus	0.04553637
-4.798122	bush	0.008601137
-4.400182	business	0.05435915
-4.497092	bust	0.03252243
-4.057759	busy	0.0568747
-2.619145	but	0.1428515
-4.254054	but'	0.02698114
-4.497092	butt	0.02943402
-4.798122	butter	0.02959722
-4.622031	butterflies	0.02953542
-4.798122	butterfly	0.02959722
-4.798122	butterscotch	0.0008764443
-4.798122	buttload	0.008601137
-4.622031	button	0.03026269
-4.798122	buttons	0.001663583
-3.953024	buy	0.05225724
-4.622031	buying	0.0002611478
-4.622031	buzz	-0.000164685
-3.299812	by	0.05319434
-4.254054	bye	0.05519435
-4.798122	bye-bye	0.02959722
-2.934799	ca	-0.004894806
-4.798122	cabinet	2.502845e-05
-4.798122	cacophonous	-0.000116712
-4.798122	cactus	0.02959722
-4.798122	caddie	0.02959722
-4.798122	cafeteria	0.008601137
-4.622031	cake	0.03227337
-4.798122	calculating	0.005767952
-4.798122	calculations	0.02318602
-4.798122	calicos	0.02959722
-3.519368	call	0.07535936
-3.636754	called	0.03308239
-4.144909	calling	0.0205374
-4.497092	calls	0.005958882
-4.321001	calm	0.008539099
-4.798122	calorie	0.02959722
-3.701212	came	0.01364381
-4.400182	camera	0.04210721
-4.622031	cameras	0.03882304
-4.798122	camouflage	-9.251566e-05
-4.798122	campaign	0.002194928
-2.689219	can	0.08772766
-4.798122	canal	0.001406826
-4.497092	candles	0.05495545
-4.497092	candy	0.01491329
-4.798122	canes	0.002191453
-4.798122	cannon	-0.0001132555
-4.622031	cap	0.002947034
-4.622031	capable	0.002654687
-4.798122	capital	-0.0001028857
-4.798122	capture	0.001233427
-3.594002	car	0.08159827
-4.798122	carbohydrate	-0.000116712
-4.798122	carbon	-0.0001132555
-4.099152	card	0.04439742
-4.798122	card-shaped	-0.0001132555
-4.798122	cardio	0.001441515
-4.497092	cards	0.02328882
-3.567673	care	0.06271464
-4.622031	cared	0.002571988
-4.254054	career	0.03681466
-4.622031	careful	0.05448272
-4.798122	carefully	0.02959722
-4.196062	cares	0.0127311
-4.798122	cargo	-0.0001063423
-4.798122	carnal	4.283094e-06
-4.798122	carpet	0.02959722
-4.798122	carragenin	-0.000116712
-4.622031	carried	0.01507272
-4.798122	carries	0.001451921
-4.798122	carrot	0.02959722
-4.798122	carrots	0.003008833
-4.497092	carry	0.01967601
-4.497092	carrying	0.0002551964
-4.798122	cars	-9.597238e-05
-4.798122	cart	0.008601137
-4.798122	carve	0.00317946
-4.798122	carved	0.002191453
-3.953024	case	0.08943096
-4.798122	cashew	-8.560219e-05
-4.798122	casting	-8.560219e-05
-4.798122	casts	0.005606813
-4.798122	casual	0.02318602
-4.798122	casually	-0.000116712
-4.400182	cat	0.02978329
-4.254054	catch	0.01566701
-4.798122	catchy	0.02959722
-4.798122	categorize	0.005767952
-4.798122	categorized	0.0002636717
-4.798122	catheter	0.02959722
-4.622031	cats	0.02953542
-4.099152	caught	0.0714707
-4.798122	cause	0.005606813
-4.798122	caused	0.02959722
-4.622031	causing	0.009317655
-4.798122	caution	0.02318602
-4.798122	cave	0.003008833
-4.798122	ceiling	0.008601137
-4.400182	celebrate	0.001760816
-4.798122	celebrated	0.0002636717
-4.798122	celebrating	-0.000116712
-4.622031	cell	0.02307334
-4.321001	cello	0.06413987
-4.798122	cells	0.02959722
-4.798122	centimetre	-4.411902e-05
-4.798122	centimetres	0.02318602
-4.798122	centre	0.02959722
-4.622031	centrifugal	-0.0001750548
-4.622031	centrifuge	0.001379715
-4.798122	centripetal	-0.0001028857
-4.622031	century	0.02550915
-4.497092	cereal	0.001430216
-4.798122	ceremony	0.002191453
-4.622031	certain	4.31902e-05
-4.400182	certainly	0.00472727
-4.798122	chafed	-0.000116712
-4.622031	chafing	0.05448272
-4.798122	chain	-0.0001028857
-4.798122	chained	0.00629733
-4.497092	chair	0.0642691
-4.798122	chairs	0.02959722
-4.622031	challenge	0.03961416
-4.798122	challenging	0.005767952
-4.497092	champagne	0.01161198
-3.756729	chance	0.07959002
-4.798122	chances	0.02959722
-3.798122	change	0.08317861
-3.923061	changed	0.0802253
-4.798122	changers	0.02318602
-4.798122	changes	0.02318602
-4.798122	changing	0.0004782169
-4.622031	channel	0.002078253
-4.622031	chapel	0.03882304
-4.798122	chapter	7.343826e-05
-4.497092	character	0.03481774
-4.798122	characterise	0.004277945
-4.798122	characters	0.02318602
-4.798122	charcoal	0.0002498337
-4.254054	charge	0.03226847
-4.798122	charges	0.02318602
-4.798122	chart	0.0001391459
-4.798122	chase	0.02318602
-4.798122	chased	0.005606813
-4.798122	chasing	0.001823266
-4.798122	chasm	0.003008833
-4.798122	chat	0.02959722
-4.798122	chauffeur	0.0006513144
-4.798122	cheap	4.283094e-06
-4.798122	cheaper	4.283094e-06
-4.622031	cheating	0.00256503
-4.099152	check	0.05048428
-4.798122	check-plus	-0.0001063423
-4.622031	checked	0.001269327
-4.798122	checkers	0.000637464
-4.622031	checking	0.001276264
-4.798122	checkmate	0.02959722
-4.497092	cheer	0.01187711
-4.798122	cheerleaders	0.001292375
-4.622031	cheers	0.03961416
-4.321001	cheese	0.006874075
-4.798122	cheeseburger	0.02959722
-4.798122	cheesecake	0.02959722
-4.798122	cheesy	0.02318602
-4.798122	cheetos	0.002191453
-4.798122	chem	-8.214542e-05
-4.798122	cheque	0.02959722
-4.798122	cherry	-0.000116712
-4.798122	chess	0.0009110895
-4.321001	chest	0.0352137
-4.798122	chew	0.005767952
-4.057759	chicken	0.04067608
-4.622031	chickens	0.02550549
-4.798122	chided	0.02318602
-4.400182	child	0.03865276
-4.321001	childhood	0.0316925
-4.798122	childish	0.009338823
-4.798122	chili	0.008601137
-4.798122	chilli	-0.0001028857
-4.798122	chilly	0.02959722
-4.798122	chimp	0.0001149366
-4.798122	chipped	0.0006166893
-4.798122	chisel	0.02959722
-4.798122	chloroform	0.003008833
-4.497092	chocolate	0.03017985
-4.622031	chocolates	0.00887267
-4.057759	choice	0.06625697
-4.497092	choices	0.02460868
-4.798122	choking	0.0001495217
-4.798122	cholera	0.002191453
-4.622031	choose	-2.597985e-05
-4.798122	chooses	0.005606813
-4.622031	choosing	6.740229e-05
-4.798122	chopped	0.008601137
-4.798122	chose	0.00317946
-4.798122	chosen	5.960632e-05
-4.798122	chromosome	2.502845e-05
-4.798122	chrysanthemum	-0.000116712
-4.798122	church	-7.523178e-05
-4.798122	churches	0.02959722
-4.798122	chute	0.003008833
-4.798122	cider	0.001663583
-4.798122	cilantro	0.008601137
-4.400182	cinnamon	0.03265458
-4.798122	circumstance	0.002191453
-4.798122	circumstances	0.02959722
-4.321001	city	0.008800209
-4.798122	civil	-0.000116712
-4.798122	civilization	0.0005682188
-4.798122	claim	0.00629733
-4.798122	clams	0.02959722
-4.622031	clarify	0.02383992
-4.798122	clarinet	0.02959722
-4.400182	class	0.06683728
-4.400182	classic	0.05433742
-4.622031	classified	0.05448272
-4.400182	clause	0.03058685
-4.099152	clean	0.06064327
-4.798122	cleaner	0.02959722
-4.798122	cleaners	0.02318602
-4.497092	cleaning	0.004261207
-4.144909	clear	0.02975223
-4.057759	clearly	0.0232052
-4.798122	clever	0.02959722
-4.798122	climbed	0.005606813
-4.622031	climbing	0.02949951
-4.798122	clinging	0.00629733
-4.798122	clip-ons	0.02959722
-4.798122	cloak	-0.0001028857
-4.400182	clock	0.05435915
-4.254054	close	0.03621328
-4.622031	closed	0.02978092
-4.798122	closed-captioning	0.001264634
-4.622031	closer	0.03635297
-4.798122	closest	2.157084e-05
-4.400182	closet	0.03400125
-4.196062	clothes	0.03198542
-4.798122	cloud	0.00317946
-4.622031	clown	0.006075494
-4.798122	clowns	0.001663583
-4.254054	club	0.05419517
-4.622031	clubs	0.03282879
-4.144909	clue	0.03858847
-4.622031	clues	0.02988834
-4.798122	co-dependently	0.02959722
-4.798122	coach	0.0001322288
-4.798122	coal	0.002191453
-4.798122	coat	0.003008833
-4.798122	cob	0.02959722
-4.798122	coccyx	0.02959722
-4.798122	cocktails	0.02318602
-4.497092	cocoa	0.03876125
-4.798122	cocoon	0.003008833
-4.254054	code	0.04629792
-4.798122	coded	0.02959722
-4.798122	coefficients	0.02959722
-3.985209	coffee	0.03827214
-4.798122	cofounders	0.002716486
-4.798122	coin	-0.0001132555
-4.798122	coincidence	0.02318602
-4.622031	coitus	0.008484564
-4.321001	cold	0.06409173
-4.798122	colleague/friendship	-0.0001097989
-4.798122	collectible	-0.0001097989
-4.622031	collection	0.02953542
-4.798122	collector	0.006086905
-4.798122	collects	-0.000116712
-4.254054	college	0.05825621
-4.798122	collided	0.02959722
-4.798122	collider	4.577484e-05
-4.497092	colon	0.03189506
-4.798122	colonel	0.0001322288
-4.622031	colonoscopy	0.03282879
-4.798122	colour	-0.000116712
-4.798122	combined	-0.0001132555
-4.798122	combing	-9.546646e-06
-4.798122	combustion	-0.000116712
-3.034694	come	0.1033637
-4.622031	comedy	0.002892171
-4.099152	comes	0.02642482
-4.798122	comet	0.02959722
-4.497092	comfortable	0.002337049
-4.400182	comforting	0.05431692
-3.718941	comic	-0.001397812
-4.798122	comic-book	-9.546646e-06
-3.567673	coming	0.07892728
-4.798122	commencing	0.02959722
-4.622031	comment	0.03227337
-4.622031	commentary	-0.0001681416
-4.622031	comments	0.03081182
-4.798122	commercial	0.02959722
-4.798122	commercials	0.02318602
-4.798122	commitment	0.002716486
-4.798122	committed	0.02318602
-4.497092	committee	0.04231473
-4.400182	common	0.05435915
-4.622031	communicate	0.003864608
-4.798122	communicating	0.02959722
-4.798122	communication	-7.177491e-05
-4.497092	community	0.007973179
-4.254054	company	0.04595528
-4.798122	compare	-0.0001097989
-4.798122	compared	0.00629733
-4.622031	compartment	0.03882304
-4.798122	compete	0.001663583
-4.798122	competed	0.0001495217
-4.622031	competition	0.02953542
-4.798122	competitive	0.02318602
-4.321001	complain	0.05617787
-4.798122	complaining	0.00317946
-4.798122	complains	0.009338823
-4.798122	complaint	0.02959722
-4.497092	complete	-0.0003293953
-4.196062	completely	0.001835593
-4.798122	complexion	0.00629733
-4.321001	complicated	0.05455809
-4.622031	compliment	0.02953542
-4.622031	component	0.03251558
-4.798122	compressions	0.02959722
-4.400182	compromise	0.03514595
-4.798122	compromises	0.01098105
-4.798122	compulsive	0.0002705909
-4.321001	computer	0.05688871
-4.798122	computers	0.0001495217
-4.798122	conceive	0.002716486
-4.798122	concentrate	0.02959722
-4.798122	concept	-9.942905e-05
-4.622031	concern	0.003644836
-4.321001	concerned	0.00580856
-4.798122	concerns	0.009338823
-4.798122	concisely	-0.000116712
-4.622031	conclusion	0.02312422
-4.622031	conclusions	0.02953542
-4.798122	concussion	0.02318602
-4.798122	condensates	0.02959722
-4.622031	condescension	0.02953542
-4.622031	condition	0.029481
-4.798122	conditional	0.008601137
-4.798122	conditioning	0.001663583
-4.798122	conditions	0.02318602
-4.798122	conducting	-0.0001097989
-4.798122	cones	0.02959722
-4.254054	conference	0.03708538
-4.798122	confided	0.02318602
-4.798122	confidence	0.02959722
-4.798122	confidentiality	0.002716486
-4.798122	confirm	0.005767952
-4.798122	confirmed	9.418692e-05
-4.798122	conflict	0.02959722
-4.798122	confront	0.001639289
-4.798122	confrontation	-5.103313e-05
-4.196062	confused	0.03457443
-4.798122	confusing	0.008601137
-4.798122	congrats	0.02318602
-4.798122	congratulate	0.0006513144
-4.400182	congratulations	0.0308665
-4.798122	conically	0.00629733
-4.798122	connect-the-dots	0.02959722
-4.798122	connected	0.02318602
-4.622031	connection	0.009352991
-4.798122	connections	0.001292375
-4.798122	conserve	0.0004263012
-4.321001	consider	0.001940267
-4.622031	considered	0.0004792151
-4.400182	considering	0.02943367
-4.798122	consist	0.002716486
-4.798122	consistency	0.02959722
-4.798122	consists	0.002716486
-4.798122	consolation	0.02959722
-4.798122	constant	-0.000116712
-4.798122	constipated	-0.000116712
-4.798122	consume	0.002194928
-4.798122	consumed	0.02318602
-4.400182	contact	0.04059346
-4.798122	contacting	0.001823266
-4.497092	contacts	0.04131391
-4.622031	contagious	0.02949211
-4.622031	container	0.009922293
-4.798122	containers	0.02959722
-4.798122	contains	-0.0001132555
-4.798122	contaminated	0.005767952
-4.798122	content	0.02959722
-4.798122	contest	0.02959722
-4.798122	contests	0.003008833
-4.622031	context	0.02383992
-4.798122	continuing	0.0002705909
-4.798122	contract	0.00629733
-4.798122	contracts	-6.831802e-05
-4.321001	control	0.06589107
-4.798122	controlling	0.02318602
-4.798122	controls	0.005767952
-4.798122	controversy	0.02959722
-4.622031	convention	0.002325049
-4.798122	conventions	1.46556e-05
-4.321001	conversation	0.05587187
-4.798122	conversations	0.008601137
-4.798122	conversion	0.0002498337
-4.798122	converts	-0.0001063423
-4.622031	convince	0.001883696
-4.497092	convinced	0.01110629
-4.497092	cook	0.03248515
-4.497092	cookie	0.05436694
-4.622031	cookies	0.02312422
-4.798122	cooking	0.000703257
-4.798122	cooks	0.02959722
-3.497092	cool	0.09485991
-4.622031	cooler	0.000489602
-4.497092	coolest	0.0001548259
-4.798122	cooling	-8.560219e-05
-4.798122	cooperating	0.001663583
-4.622031	coordinate	0.0005514277
-4.798122	cope	0.001663583
-4.798122	cops	0.001833682
-4.798122	copy	0.001264634
-4.798122	cord	0.001406826
-4.798122	cords	0.008601137
-4.798122	corduroy	-9.942905e-05
-4.798122	core	0.02318602
-4.622031	corn	0.001741307
-4.497092	corner	0.03221158
-4.798122	corners	0.002716486
-4.497092	correct	0.03407249
-4.798122	corrected	0.02959722
-4.798122	corridor	0.02959722
-4.622031	cosmic	-0.0002161407
-4.622031	cost	0.01000722
-4.622031	costs	0.01502975
-4.400182	costume	0.05441495
-4.497092	costumes	0.02653503
-4.798122	cotillion	-2.683315e-05
-4.099152	couch	0.05081786
-2.94079	could	0.1133736
-4.798122	counsellor	0.008601137
-4.321001	count	0.03578832
-4.798122	counter	-0.000116712
-4.798122	counting	0.02959722
-4.622031	countries	0.0330116
-4.497092	country	0.02630644
-3.684179	couple	0.070278
-4.497092	couples	0.02944622
-4.798122	coupling'	0.02729005
-3.427054	course	0.08891039
-4.798122	court	-0.0001097989
-4.400182	cousin	-0.0003431696
-4.798122	cousing	0.02959722
-4.497092	cover	0.0157734
-4.400182	covered	0.03550624
-4.798122	covers	6.306426e-05
-4.798122	cow	-0.0001097989
-4.798122	cowardly	0.008601137
-4.798122	cowboy	-9.942905e-05
-4.798122	crackers	0.0001841094
-4.798122	crackpot	-0.000116712
-4.798122	cramps	0.02959722
-4.400182	cranky	0.004597872
-4.144909	crap	0.06340761
-4.321001	crappy	0.002631892
-4.622031	crashed	0.008819725
-4.798122	crate	0.0006582394
-4.622031	crawl	0.009497898
-4.798122	crawling	0.0001426043
-4.798122	craziness	0.0007690599
-3.475903	crazy	0.0715221
-4.798122	crazy-big	-0.0001097989
-4.400182	cream	0.02937223
-4.254054	create	0.006865062
-4.400182	created	0.01699713
-4.798122	creation	0.003008833
-4.798122	creationists	0.02959722
-4.798122	creative	0.003008833
-4.798122	creature	0.02959722
-4.254054	credit	0.03850899
-4.798122	credit-worthiness	0.002716486
-4.622031	creep	0.0007666772
-4.497092	creepy	0.003113356
-4.622031	crew	0.03251558
-4.798122	cricket	0.02959722
-4.798122	cried	0.000391694
-4.798122	cries	0.003008833
-4.622031	crime	0.02953542
-4.798122	criminal	0.02959722
-4.400182	crisis	0.05435915
-4.622031	critical	0.003066283
-4.798122	criticism	0.02318602
-4.798122	criticizes	-4.411902e-05
-4.798122	cross	0.005767952
-4.798122	crossbar	-0.000116712
-4.798122	crossbow	-0.000116712
-4.497092	crossed	0.005483223
-4.798122	crossword	-0.0001132555
-4.622031	crotch	0.001602435
-4.798122	crouching	0.0006617024
-4.497092	crowd	0.0642691
-4.497092	cruel	0.05791399
-4.622031	cruise	0.007994633
-4.798122	crunch	0.02959722
-4.798122	crunchy	0.02959722
-4.798122	crushes	0.0003778518
-4.622031	crust	0.05448272
-4.321001	cry	0.0607414
-4.798122	crybaby	0.02959722
-4.798122	crying	0.008601137
-4.622031	cryogenic	-0.0001750548
-4.798122	cryptanalysis	0.02318602
-4.622031	crystals	0.00273901
-4.622031	cuckoo	-0.0001681416
-4.798122	cuddly	-0.0001063423
-4.798122	cultural	-0.0001097989
-4.798122	cultures	0.02959722
-4.196062	cup	0.03220672
-4.622031	cure	0.001324827
-4.622031	curiosity	0.02312422
-4.622031	current	-0.0001850292
-4.622031	currently	-9.168118e-05
-4.622031	curry	0.03195684
-4.798122	curse	0.02959722
-4.798122	curtains	0.001441515
-4.622031	curve	0.02953542
-4.622031	cushion	0.02953542
-4.798122	custody	0.002716486
-4.798122	customer	-0.0001132555
-4.497092	cut	0.0123787
-4.798122	cut-up	0.008601137
-4.798122	cutbacks	0.02959722
-4.019971	cute	0.05810889
-4.798122	cutest	0.0003709309
-4.798122	cutie	0.02959722
-4.798122	cutthroat	-0.0001097989
-4.798122	cutting	-0.000116712
-4.798122	cyanoacrylate	0.001292375
-4.798122	d	0.0004297618
-4.798122	d'oeuvres	0.02959722
-4.798122	d..	-0.0001132555
-4.057759	dad	0.01941277
-4.798122	dads	0.0001495217
-4.798122	dam	0.001833682
-4.622031	damn	0.004216146
-4.798122	damned	0.02959722
-4.798122	damper	0.001833682
-4.798122	dams	0.008601137
-4.798122	damsel	0.02959722
-4.497092	dance	0.03464535
-4.497092	dancer	0.03189133
-4.400182	dancing	0.03369278
-4.798122	dangerous	0.02959722
-4.798122	dangle	0.001233427
-4.622031	dare	0.03305264
-4.196062	dark	0.0238058
-4.798122	darkness	-0.000116712
-4.798122	dat	0.02959722
-4.321001	data	0.02940671
-3.508088	date	0.07428711
-4.798122	date-like	-0.0001132555
-4.497092	dated	0.05442967
-4.622031	dates	0.05448272
-3.820399	dating	0.06594381
-4.798122	daughter	0.00629733
-4.798122	dawn	0.003008833
-3.465684	day	0.09800763
-4.798122	day-old	-0.0001063423
-4.798122	daylight	0.008601137
-3.923061	days	0.06538101
-4.798122	de	-0.000116712
-4.497092	dead	0.03221158
-4.798122	deadliest	-0.000116712
-4.798122	deadline	0.0002498337
-3.594002	deal	0.06561016
-4.622031	dealer	0.0002542268
-4.622031	dealing	0.001601784
-4.099152	death	0.05305945
-4.622031	debate	0.02308793
-4.497092	debt	0.03963074
-4.798122	deceive	0.001233427
-4.798122	decelerates	0.02959722
-4.622031	decent	-0.0002057704
-4.400182	decide	0.002243966
-4.254054	decided	0.01039406
-4.622031	decides	0.001199961
-4.497092	decision	0.04123686
-4.798122	decisions	5.960632e-05
-4.798122	declares	0.0002705909
-4.798122	decompress	0.02959722
-4.798122	decontamination	-8.560219e-05
-4.798122	decorating	-9.942905e-05
-4.497092	deep	0.05442093
-4.798122	default	-0.0001028857
-4.798122	defeat	0.008601137
-4.798122	defecating	-0.000116712
-4.798122	defected	0.0003121081
-4.497092	defence	0.05442093
-4.798122	defend	0.02318602
-4.798122	defends	0.0006513144
-4.321001	definitely	0.03146777
-4.798122	definition	0.002716486
-4.798122	definitively	-0.0001063423
-4.798122	degree	0.001406826
-4.798122	degrees	0.02318602
-4.622031	deliberately	-0.0001539154
-4.798122	delicate	-0.000116712
-4.497092	delicious	0.05442093
-4.622031	delightful	0.02958835
-4.798122	delineating	-0.000116712
-4.622031	deliver	0.001522605
-4.622031	delivered	0.008699744
-4.798122	delivery	-7.177491e-05
-4.798122	demand	0.001233427
-4.798122	demonstrate	0.0003363283
-4.798122	demonstrates	-0.0001132555
-4.798122	demonstration	0.006086905
-4.798122	den	0.02959722
-4.798122	denial	-0.000116712
-4.798122	denigrated	0.005767952
-4.622031	density	0.02347106
-4.254054	dentist	0.06409013
-4.321001	department	0.03234976
-4.798122	departments	0.02959722
-4.798122	depends	0.001833682
-4.798122	deploy	0.004277945
-4.798122	deported	0.008601137
-4.798122	depressing	0.02959722
-4.798122	der	-0.000116712
-4.798122	deranged	0.0001598977
-4.798122	derided	0.003008833
-4.798122	derivative	-0.000116712
-4.798122	dermatologist	0.02318602
-4.798122	descendents	0.002716486
-4.798122	describe	0.004277945
-4.321001	deserve	0.02173704
-4.622031	deserves	0.03635297
-4.497092	design	0.05442093
-4.798122	designing	0.0004609108
-4.798122	desires	0.02959722
-4.497092	desk	0.02539653
-4.798122	desperate	0.02959722
-4.798122	dessert	0.008601137
-4.254054	destroy	0.01167693
-4.798122	destroyed	0.001639289
-4.798122	detachment	0.003008833
-4.400182	details	0.03239201
-4.798122	detaining	-1.300404e-05
-4.622031	detect	-0.0002195974
-4.798122	detection	0.02959722
-4.798122	detector	0.0009110895
-4.798122	determine	0.00317946
-4.798122	determined	9.418692e-05
-4.798122	detoxing	0.0007655963
-4.798122	devastated	0.02959722
-4.798122	develop	0.00317946
-4.622031	developed	0.005865115
-4.497092	development	0.02759909
-4.798122	deviated	-0.000116712
-4.798122	device	0.0006617024
-4.798122	devote	-0.0001063423
-4.798122	diabetes	0.02959722
-4.798122	dial	0.004277945
-4.798122	dials	0.001441515
-4.622031	dibs	0.03156988
-4.798122	dice	0.02959722
-2.571522	did	0.1574807
-4.196062	die	0.06477767
-4.196062	died	0.04084707
-4.798122	dies	0.02959722
-4.321001	difference	0.04113135
-3.54285	different	0.06357618
-4.798122	differential	-0.0001028857
-4.622031	difficult	0.024714
-4.798122	diffraction	-8.214542e-05
-4.622031	dig	0.000569243
-4.798122	diggers	0.008601137
-4.622031	digging	0.007991111
-4.497092	digital	-0.0003259385
-4.798122	digits	0.02318602
-4.798122	dilate	0.001264634
-4.798122	dim	0.005767952
-4.798122	dimension	0.00317946
-4.622031	dimensions	0.001522605
-4.798122	diminish	0.001292375
-4.798122	dining	-1.300404e-05
-3.60779	dinner	0.09203845
-4.798122	dinosaur	0.008601137
-4.798122	dipped	0.02318602
-4.622031	direction	0.02953542
-4.798122	directly	0.003008833
-4.144909	dirty	0.05412446
-4.497092	disagree	0.04065524
-4.798122	disappear	0.02318602
-4.622031	disappointed	0.03195312
-4.798122	disaster	0.02318602
-4.798122	discarded	-0.0001097989
-4.798122	discernible	-0.0001097989
-4.798122	disclose	0.0002429149
-4.798122	disconfirmed	9.418692e-05
-4.798122	discount	0.0006582394
-4.622031	discouraged	0.0037425
-4.622031	discover	0.005493695
-4.622031	discovered	0.007269565
-4.497092	discoveries	0.03107449
-4.798122	discovering	0.0003363283
-4.622031	discovers	0.008830315
-4.497092	discovery	0.05758207
-4.798122	discriminated	-9.251566e-05
-4.798122	discuss	0.005767952
-4.798122	discussed	0.004277945
-4.497092	disease	0.03629119
-4.497092	disgusting	0.02539287
-4.798122	display	-7.523178e-05
-4.798122	displeases	0.001823266
-4.798122	dispute	-5.103313e-05
-4.798122	disrespectful	0.02959722
-4.798122	dissertation	0.008601137
-4.400182	distance	0.05619238
-4.798122	distinguished	-8.560219e-05
-4.497092	distracted	0.03049518
-4.798122	distractions	0.02959722
-4.798122	distress	0.008601137
-4.798122	disturbed	0.02959722
-4.622031	ditch	-6.401868e-05
-4.798122	ditched	0.0006513144
-4.798122	divide	-0.0001132555
-4.798122	divider	0.02959722
-4.798122	divorce	0.008601137
-2.083792	do	0.109514
-4.099152	doctor	0.04379268
-4.798122	doctorate	0.0006582394
-4.798122	doctors	0.02959722
-4.497092	documentary	0.0029035
-4.798122	documented	-0.000116712
-2.968818	does	0.08814014
-4.019971	dog	0.06361191
-4.144909	dogs	0.04599755
-4.622031	doin	0.0003679625
-2.972047	doing	0.1171987
-4.798122	doll	0.008601137
-3.868703	dollars	0.07508852
-4.798122	dolls	0.008601137
-4.798122	dolphin	0.0001253118
-4.798122	domain	-0.0001097989
-4.798122	domestic	0.02318602
-4.798122	dominance	-4.411902e-05
-4.798122	don't	0.02729005
-4.798122	don't'	0.02729005
-4.798122	donating	2.157084e-05
-3.555084	done	0.08004554
-4.798122	donut	0.02959722
-4.798122	doodles	0.008601137
-3.798122	door	0.07483754
-4.798122	doorbell	0.0001495217
-4.798122	doorknob	0.0001322288
-4.798122	doorman	0.02959722
-4.798122	doormat	0.02959722
-4.798122	doors	0.02318602
-4.622031	dork	0.02994762
-4.798122	dorky	-9.942905e-05
-4.798122	dosage	0.02959722
-4.400182	double	0.02938553
-4.798122	double-check	0.005767952
-4.196062	doubt	0.07087669
-4.798122	dowels	0.02959722
-3.254054	down	0.1192507
-4.622031	down-low	0.03882304
-4.798122	downside	0.00629733
-4.798122	downtown	0.02318602
-4.798122	dozens	0.002716486
-4.622031	draft	0.0294847
-4.798122	drag	0.009338823
-4.798122	dragged	0.009338823
-4.798122	draw	0.001264634
-4.622031	drawbridge	0.002133129
-4.798122	drawer	0.02959722
-4.798122	drawers	0.02959722
-4.798122	drawn	0.00629733
-4.196062	dream	0.04636712
-4.497092	dreams	0.02350443
-4.798122	dreamy	0.02959722
-4.798122	dredge	5.269051e-05
-4.497092	dress	0.02940179
-4.144909	dressed	0.00230041
-4.622031	dresses	0.0002018724
-4.798122	dressing	0.0007829146
-4.798122	dressmaker	0.006086905
-4.798122	drew	0.001639289
-4.798122	drift	-0.0001097989
-4.144909	drink	0.06668986
-4.321001	drinking	0.007814026
-4.622031	drinks	0.029481
-4.798122	drip	-0.0001097989
-3.718941	drive	0.09056259
-4.798122	driven	0.00629733
-4.019971	driving	0.04659
-4.798122	drone	0.02959722
-4.400182	drop	0.0442558
-4.798122	drop-off	-1.991867e-05
-4.622031	dropped	0.001977489
-4.497092	dropping	0.03183695
-4.622031	drove	0.02333966
-4.196062	drug	0.02913469
-4.798122	drugged	0.0006513144
-4.622031	drugs	0.03882304
-4.019971	drunk	0.06997797
-4.798122	dry	-0.000116712
-4.798122	dryer	-0.0001132555
-4.622031	duct	-0.0001577717
-4.798122	dude	0.02959722
-4.798122	dudes	0.0003190281
-4.622031	due	0.006235531
-4.798122	dug	0.002191453
-4.798122	duh	0.02318602
-4.321001	dumb	0.03029989
-4.798122	dumbbell	0.02959722
-4.321001	dump	0.01101973
-4.798122	dumpling	0.008601137
-4.497092	dumplings	0.02306243
-4.622031	dumps	0.02511689
-4.400182	dungeon	0.02941405
-4.144909	during	0.03877395
-4.622031	dust	-0.0001331717
-4.622031	duvet	0.02550915
-4.798122	dwarf	0.02318602
-4.798122	dwelling	0.001833682
-4.497092	dying	0.0331866
-4.798122	dysfunctional	4.283094e-06
-4.798122	e	0.02959722
-4.144909	e-mail	0.06348602
-4.798122	eBay	0.02959722
-3.651994	each	0.001488414
-4.798122	ear	-0.0001132555
-4.798122	earlier	0.004277945
-4.099152	early	0.06313398
-4.798122	earn	0.004277945
-4.798122	earned	0.001639289
-4.622031	ears	0.03282879
-4.622031	earth	0.0009809694
-4.798122	ease	0.0001426043
-4.497092	easier	0.03150809
-4.622031	easily	0.03478771
-3.923061	easy	0.0682133
-4.798122	easygoing	-0.0001063423
-3.636754	eat	0.08457129
-4.622031	eaten	-2.252164e-05
-4.144909	eating	0.06556048
-4.622031	eats	0.0004515177
-4.798122	eccentric	0.02959722
-4.798122	edge	0.002716486
-4.622031	edition	0.002892171
-4.400182	effect	0.05628179
-4.798122	effects	0.02959722
-4.497092	effort	0.02566436
-4.321001	egg	0.02924601
-4.798122	eggnog	0.008601137
-4.400182	eggs	0.0378706
-4.798122	ego	0.002191453
-4.798122	eh	0.02318602
-4.144909	eight	0.05415495
-4.622031	eighteen	0.006212295
-4.622031	eighth	-0.000212684
-3.868703	either	0.05888642
-4.798122	el	-0.000116712
-4.321001	electric	0.0292201
-4.622031	electricity	0.05448272
-4.798122	electrodes	0.00629733
-4.798122	electromagnets	0.00629733
-4.798122	electron	-0.000116712
-4.798122	electrons	0.02959722
-4.798122	elegant	-8.560219e-05
-4.497092	element	0.01228617
-4.798122	elephant	-0.0001132555
-4.321001	elevator	0.06123311
-4.497092	eleven	0.000726209
-4.622031	elf	0.02308428
-4.622031	elite	-0.0002023136
-3.555084	else	0.1271172
-4.798122	elsewhere	0.02318602
-4.622031	elves	0.001227706
-4.622031	email	0.02345646
-4.798122	emailing	0.008601137
-4.798122	emasculation	0.02318602
-4.622031	embarrass	0.00055489
-4.622031	embarrassed	0.006235531
-4.798122	embrace	-9.942905e-05
-4.798122	emerge	0.0001633565
-4.321001	emergency	0.008295464
-4.321001	emotional	-0.0005766453
-4.622031	emotionally	0.0294847
-4.798122	emotionless	-9.597238e-05
-4.798122	empire	0.000637464
-4.321001	empty	0.05423643
-4.798122	enable	-0.0001063423
-4.798122	enchanted	-0.0001132555
-4.622031	encouraging	0.02961057
-3.737424	end	0.06124794
-4.321001	ended	0.0005357701
-4.497092	ending	0.001555185
-4.497092	ends	0.001641989
-4.400182	energy	0.0543326
-4.798122	enforce	0.001639289
-4.798122	engage	0.002191453
-4.321001	engaged	0.06414555
-4.798122	engagement	-7.523178e-05
-4.798122	engine	0.008601137
-4.400182	engineer	0.01167883
-4.798122	engineering	0.02959722
-4.798122	enigma	0.02318602
-4.099152	enjoy	0.07338557
-4.622031	enjoyed	0.01010633
-4.400182	enjoying	0.007222821
-4.798122	enjoys	-6.089263e-06
-4.798122	enlighten	0.001823266
-3.701212	enough	0.08174709
-4.798122	enraged	0.02959722
-4.798122	enrages	0.0001598977
-4.497092	enter	0.01517566
-4.798122	entering	0.005767952
-4.798122	enterprise	0.0001391459
-4.798122	entertaining	0.005767952
-4.798122	enthusiast	0.02959722
-3.985209	entire	-0.001041209
-4.622031	entirely	9.853407e-05
-4.798122	entitled	0.00629733
-4.798122	entrees	0.02959722
-4.798122	environmental	-0.000116712
-4.798122	epilepsy	0.02318602
-4.798122	episode	-2.683315e-05
-4.798122	episodes	-2.683315e-05
-4.798122	equal	0.00629733
-4.622031	equation	0.03227337
-4.321001	equations	0.02908685
-4.798122	equatorial	-0.000116712
-4.321001	equipment	0.03966143
-4.798122	equivalency	0.008601137
-4.798122	equivalent	0.002716486
-4.798122	ergonomic	-0.000116712
-4.798122	error	-5.449018e-05
-4.798122	escaped	0.003008833
-4.798122	escorting	0.0003778518
-4.798122	essay	0.001441515
-4.798122	essentials	0.001292375
-4.798122	establish	0.005606813
-4.798122	esteem	0.02318602
-4.798122	esteemed	0.02959722
-4.798122	estimate	0.02959722
-4.798122	etc	0.02318602
-4.798122	eucalyptus	0.02318602
-4.798122	euphemism	0.001441515
-4.798122	evaluate	0.005767952
-3.260303	even	0.04754378
-4.321001	evening	0.03947188
-4.798122	events	0.02959722
-4.497092	eventually	0.02366514
-3.408956	ever	0.04381659
-3.737424	every	-0.0004877775
-4.400182	everybody	0.03223478
-3.737424	everyone	0.07737188
-3.594002	everything	0.1050553
-4.497092	everywhere	0.05470818
-4.400182	evil	0.02932259
-4.798122	evolution	0.00629733
-4.798122	evolutionary	-9.251566e-05
-4.622031	evolve	0.005752955
-4.798122	ex	-6.831802e-05
-4.057759	ex-boyfriend	0.06773955
-4.622031	ex-girlfriend	0.01247741
-4.622031	exact	-0.0001850291
-3.776933	exactly	0.08140338
-4.622031	exam	0.03882304
-4.798122	examines	0.005767952
-4.400182	example	0.05704785
-4.798122	excellent	-6.831802e-05
-4.497092	except	0.01673589
-4.622031	exception	0.004168288
-4.019971	excited	0.07923066
-4.196062	exciting	0.05416299
-4.798122	exclusive	0.000637464
-4.254054	excuse	0.01098691
-4.798122	excuses	0.001441515
-4.798122	execution	0.008601137
-4.400182	exercise	0.03239201
-4.798122	exhaust	-0.000116712
-4.622031	exhausted	0.05448272
-4.798122	exhausting	0.02959722
-4.798122	exhibits	0.001292375
-4.798122	exist	0.0002636717
-4.798122	existed	-5.449018e-05
-4.798122	existence	0.002194928
-4.798122	exists	0.02318602
-4.798122	exiting	0.0004609108
-4.798122	exoskeleton	0.02959722
-4.798122	expander	0.02959722
-4.798122	expands	0.02959722
-4.798122	expansion	-0.0001132555
-4.400182	expect	0.01703379
-4.321001	expecting	0.01108624
-4.622031	expedition	0.02953542
-4.798122	expelled	0.0002498337
-4.798122	expensive	0.02959722
-4.400182	experience	0.0543875
-4.798122	experiencing	0.005767952
-4.019971	experiment	0.04722334
-4.254054	experimental	0.02921386
-4.798122	experimenting	0.001663583
-4.497092	experiments	0.05698604
-4.400182	expert	0.02538191
-4.798122	expertise	0.02959722
-4.798122	expiration	-0.0001132555
-4.057759	explain	0.05739776
-4.622031	explaining	0.0089927
-4.798122	explains	0.0004782169
-4.622031	explanation	0.02347106
-4.798122	explode	0.02959722
-4.798122	exploded	0.003008833
-4.798122	explodes	0.02959722
-4.798122	exploration	0.001663583
-4.798122	explore	6.306426e-05
-4.798122	exposed	0.0002498337
-4.622031	express	-5.710282e-05
-4.798122	expressing	0.0006166893
-4.622031	expression	0.002654687
-4.798122	extended	-0.0001097989
-4.798122	extending	0.005767952
-4.798122	extension	-0.000116712
-4.798122	extenuating	-0.000116712
-4.254054	extra	0.02282327
-4.798122	extras	0.008601137
-4.622031	extremely	-0.0002334239
-4.622031	exude	0.029481
-4.798122	exuding	0.02959722
-4.144909	eye	0.03105231
-4.798122	eyeball	0.0009110895
-4.798122	eyebrows	0.001292375
-4.400182	eyes	0.03462291
-4.798122	fabric	-0.000116712
-3.737424	face	0.08651459
-4.622031	facebook	-0.0002092272
-4.798122	facilitate	-0.000116712
-4.798122	facilities	0.002191453
-3.718941	fact	0.06755395
-4.798122	facts	0.003008833
-4.798122	fail	0.02959722
-4.798122	failing	-0.0001097989
-4.798122	failure	0.02318602
-4.144909	fair	0.05410215
