
\data\
ngram 1=6258

\1-grams:
-2.669401	!
-4.108734	%
-4.409764	&
-3.710794	'
-4.409764	'Cause
-4.409764	'Penny
-4.409764	'Shamy
-4.409764	'Sup
-4.409764	'Very
-3.932643	'cause
-4.409764	'check
-2.829981	'd
-3.932643	'em
-4.409764	'er
-2.771275	'll
-2.26519	'm
-2.352859	're
-4.409764	'round
-1.888626	's
-4.409764	'there
-2.697957	've
-4.233673	(
-4.233673	)
-1.296824	,
-1.172975	.
-3.865696	1
-4.409764	1-2-3-4
-4.409764	10
-4.409764	10,000
-4.409764	10-year-old
-4.233673	100
-4.233673	101
-4.409764	104
-4.011824	12
-4.409764	120
-4.409764	12th
-4.233673	15
-4.409764	16
-4.409764	16th
-4.409764	17
-4.409764	17th
-4.409764	18
-4.409764	1863
-4.409764	1908
-4.409764	1917
-4.409764	1936
-4.108734	1955
-4.409764	1970s
-4.409764	1975
-4.409764	1982
-4.409764	1993
-4.409764	1995
-4.409764	1998
-3.932643	2
-4.233673	20
-4.409764	200
-4.409764	2001
-4.409764	2003
-4.409764	2004
-4.233673	2015
-4.409764	209
-4.409764	23rd
-4.409764	27
-4.233673	28
-4.409764	29
-4.409764	294
-4.108734	3
-4.409764	3,000
-4.409764	30s
-4.409764	30th
-4.409764	31
-4.409764	33-day
-4.409764	35
-4.233673	360
-4.409764	364
-4.409764	4
-4.409764	40
-4.409764	45
-4.409764	4K
-4.233673	5
-4.409764	50
-4.409764	5027.3
-4.409764	52
-4.409764	600
-4.409764	61
-4.108734	72
-4.409764	8.2
-4.409764	82
-4.409764	9
-4.233673	9.8
-4.409764	93
-4.409764	95
-3.179315	:
-4.108734	;
-1.354577	</s>
-99	<s>
-1.88149	?
-3.038696	A
-4.409764	A-flat
-4.409764	AMC
-4.409764	Aaargh
-4.409764	Aah
-4.233673	About
-4.409764	Absolutely
-4.409764	Academy
-4.011824	According
-4.409764	Acting
-4.409764	Action
-4.409764	Actor
-3.807704	Actually
-4.409764	Adam
-4.409764	Additionally
-4.409764	Adler's
-4.108734	After
-4.409764	Again
-4.409764	Age
-4.409764	Agreed
-4.233673	Agreement
-3.631613	Ah
-4.108734	Aha
-4.409764	Air
-4.409764	Airborne
-4.233673	Al-Ghazali
-4.409764	Alan
-4.233673	Albert
-4.409764	Alcohol
-4.108734	Alex
-4.409764	Alfred
-4.409764	Algorithm
-4.409764	Alka-Seltzer
-3.048036	All
-4.409764	Allow
-4.409764	Alpha-Bits
-3.807704	Alright
-4.233673	Also
-4.409764	AltaVista
-3.669401	Although
-4.409764	Always
-4.233673	Am
-4.409764	America
-3.932643	American
-4.233673	Americans
-4.409764	Amtrak
-2.904614	Amy
-3.932643	An
-2.600204	And
-4.409764	Angeles
-4.409764	Angry
-4.409764	Animal
-4.409764	Anime
-4.409764	Another
-4.409764	Ants
-4.233673	Any
-4.409764	Anyhow
-3.756552	Anyway
-4.409764	Anyway'
-4.409764	Apologize
-4.108734	Apparently
-4.409764	Appendicitis
-4.409764	Apple
-4.409764	Aquaman
-4.233673	Archimedes
-4.409764	Arctic
-3.388575	Are
-4.409764	Aristotle
-4.409764	Armenia
-4.409764	Army
-4.011824	Arthur
-4.409764	Article
-3.480345	As
-4.409764	Ask
-4.409764	Assuming
-4.409764	Astro
-3.756552	At
-4.409764	Attaboy
-4.409764	Attacks
-4.409764	Attar
-4.409764	Attention
-4.409764	Attitude
-4.409764	August
-4.409764	Austria
-4.409764	Avengers
-4.409764	Avenue
-4.409764	Awful
-4.409764	Azeroth
-4.409764	B
-4.409764	B-minus
-4.409764	BC
-4.409764	Ba-da-bum
-4.409764	Babbling
-4.409764	Babinski
-4.409764	Baby
-4.233673	Back
-4.233673	Band
-4.233673	Band-Aid
-4.409764	Band-Aids
-4.409764	Bar
-4.233673	Barn
-4.409764	Barnett
-4.108734	Barry
-4.233673	Batman
-4.409764	Batmobile
-4.233673	Bazinga
-4.409764	Be
-4.233673	Beach
-4.409764	Beautiful
-4.409764	Beavers
-3.480345	Because
-4.409764	Bedtime
-4.108734	Before
-4.409764	Being
-3.865696	Bernadette
-4.233673	Bert
-4.409764	Besides
-4.409764	Best
-4.409764	Bet
-4.108734	Better
-4.409764	Between
-4.409764	Beverley
-4.409764	Beverly
-4.409764	Bible
-4.011824	Biff
-4.409764	Bikaner
-4.409764	Bilurrrbe
-4.409764	Bin
-4.409764	Biologically
-4.409764	Biology
-4.409764	Birds
-4.409764	Blonde
-4.409764	Blossom
-4.409764	Blue
-4.409764	Bluetooth
-4.409764	Board
-4.233673	Bob
-4.409764	Bobby
-4.409764	Boca
-4.409764	Boggle
-4.409764	Bond
-4.409764	Boo-boos
-4.409764	Borg
-4.409764	Bose
-4.409764	Both
-3.807704	Boy
-4.409764	Boys
-4.409764	Bozeman
-4.409764	Bozite
-4.409764	Brachistochrone
-4.409764	Bran
-4.409764	Brann
-4.409764	Brian
-4.409764	Bridge
-4.233673	Brilliant
-4.409764	Bring
-4.409764	British
-4.409764	Brobdingna
-4.409764	Brobdingnagian
-4.409764	Brothers
-4.409764	Bruce
-4.409764	Building
-4.409764	Bull
-4.409764	Burning
-4.233673	Burton
-4.409764	Bus
-2.925464	But
-4.409764	But'
-4.409764	Buzz
-4.409764	Bwch-wch-wch-wch-wch-wch
-4.108734	By
-4.233673	Bye
-4.409764	Bye-bye
-4.409764	C
-4.409764	C-3P-wee
-4.409764	C-3PO
-4.409764	C-minus
-4.409764	C.
-4.409764	CERN
-4.409764	CSI
-3.932643	Ca
-4.409764	California
-4.011824	Call
-4.409764	Calm
-3.710794	Can
-4.011824	Captain
-4.233673	Careful
-4.409764	Caribbean
-4.233673	Carl
-4.409764	Cat
-4.409764	Catalina
-4.409764	Cathedra
-4.409764	Century
-4.409764	Certainly
-4.409764	Chair
-4.409764	Chairman
-4.409764	Chan
-4.409764	Change
-4.409764	Channel
-4.409764	Chardonnay
-4.409764	Chat
-4.409764	Chattahoochee
-4.409764	Chaucer
-4.409764	Check
-4.108734	Cheesecake
-4.233673	Chicago
-4.409764	Chicken
-4.409764	Chief
-4.409764	China
-4.108734	Chinese
-4.409764	Christian
-3.807704	Christmas
-4.409764	Christmassy
-4.409764	Circle
-4.409764	Clarke-Maxwell
-4.409764	Clause
-4.409764	Click
-4.409764	Cloud
-4.409764	Cocoa
-4.409764	Colleagues
-4.409764	Collective
-4.409764	Collider
-4.409764	Colorado
-4.409764	Comanches
-3.756552	Come
-4.108734	Comic-Con
-4.409764	Coming
-4.233673	Committee
-4.233673	Communist
-4.409764	Congratulations
-4.409764	Connelly
-4.409764	Consider
-4.409764	Contribute
-4.409764	Cookie
-4.409764	Coop
-3.534703	Cooper
-4.409764	Cooper'
-4.409764	Coping
-4.409764	Cornish
-4.409764	Cornwall
-4.409764	Cosmopolitan
-4.233673	Could
-4.409764	Couples
-4.409764	Course
-4.409764	Cousteau
-4.409764	Cozy
-4.409764	Craigslist
-4.409764	Crashing
-4.409764	Crawley
-4.409764	Crazy
-4.409764	Crisis
-4.409764	Crowe
-4.409764	Crusher
-4.409764	Curiouser
-4.409764	Custer
-4.409764	Cylon
-4.233673	D
-4.409764	D'Onofrio
-4.409764	DC
-4.108734	DNA
-4.409764	DVD
-4.409764	Damn
-4.409764	Dancing
-4.233673	Darth
-3.865696	Day
-4.409764	Dead
-4.233673	Dear
-4.409764	Death
-4.409764	Deep
-4.409764	Dengue
-4.409764	Dent
-4.409764	Depending
-4.409764	Depot
-4.409764	Des
-4.409764	Despite
-4.409764	Detailed
-4.409764	Details
-4.409764	Diamonds
-4.409764	Dibs
-4.409764	Dickens
-3.349066	Did
-4.409764	Dinner
-4.409764	Dirac
-4.233673	Disneyland
-4.108734	Ditko
-4.409764	Dits
-4.409764	Dixie-Trek
-3.029553	Do
-4.233673	Doc
-4.011824	Doctor
-4.409764	Dodson
-3.710794	Does
-4.409764	Dolphins
-4.409764	Doodle
-4.409764	Doom
-4.409764	Doppler
-4.409764	Downey
-4.233673	Dr
-3.368371	Dr.
-4.409764	Drat
-4.409764	Droll
-4.409764	Drop
-4.409764	Dud
-4.409764	Duly
-4.409764	Dumbledore
-4.108734	Duty
-4.409764	E.M.
-4.409764	Earl
-4.108734	Earlier
-3.865696	Earth
-4.108734	East
-4.409764	Edward
-4.409764	Eee
-4.409764	Effect
-4.409764	Eggs
-4.409764	Eh
-4.108734	Einstein
-4.409764	Either
-4.409764	Ekairidium
-4.409764	Elf
-4.409764	Elizabeth
-4.409764	Emily
-4.409764	Energy
-4.233673	England
-4.409764	English
-4.233673	Enid
-4.409764	Enjoyed
-4.409764	Enrico
-4.233673	Enterprise
-4.409764	Equally
-4.409764	Especially
-4.409764	Essentially
-4.409764	Esteemed
-4.409764	Ethyl
-4.409764	Eubanks
-4.233673	Euclid
-4.409764	Europium
-3.596851	Even
-4.233673	Every
-4.233673	Everybody
-4.233673	Everyone
-4.233673	Everything
-4.409764	Evidently
-4.409764	Evolution
-4.409764	Exactly
-4.409764	Excalibur
-3.932643	Excellent
-4.108734	Except
-3.388575	Excuse
-4.409764	Explorer
-4.409764	Express
-4.409764	Extra
-4.233673	FBI
-4.233673	FYI
-4.108734	Factory
-4.409764	Fair
-4.233673	Fantastic
-4.409764	Fantasy
-3.807704	Farrah
-4.233673	Fascinating
-4.409764	Fascism
-4.409764	Fermi
-4.409764	Ferris
-3.710794	Feynman
-4.409764	Fibonacci
-4.409764	Fiendishly
-4.409764	Final
-4.409764	Finally
-4.409764	Financial
-3.669401	Fine
-4.409764	Fire
-4.409764	Firefly
-4.409764	Firefox
-4.409764	First
-4.409764	Fischer
-3.932643	Fish
-3.756552	Flags
-4.409764	Flash
-4.409764	Flash-frozen
-4.409764	Flatow
-4.409764	Folger
-4.409764	Follow
-4.409764	Follows
-4.409764	Fonda
-3.388575	For
-4.108734	Ford
-4.409764	Forest
-4.409764	Forever
-4.409764	Forget
-4.409764	Forgive
-3.932643	Fort
-4.409764	Fortress
-4.409764	Fortunately
-4.233673	Four
-3.756552	Fowler
-4.409764	Francisco
-4.409764	Freemont
-4.108734	French
-4.409764	Frenzy
-4.409764	Frequent
-4.233673	Friday
-4.409764	Frisbee
-4.409764	Frisbee-sized
-4.409764	Frisch
-4.233673	Frodo
-3.932643	From
-4.409764	Fruit
-4.409764	Fuddruckers
-3.807704	Fun
-4.233673	Funyuns
-4.409764	Furnishing
-4.108734	Future
-4.409764	GPS
-4.409764	Gabby
-4.409764	Gablehauser
-4.409764	Gablehouser
-4.409764	Gadget.
-3.932643	Galaxy
-4.409764	Galileo
-4.409764	Games
-4.409764	Ganesh
-4.409764	Garfield
-4.409764	Gary
-4.409764	Gate
-4.409764	Gee
-4.233673	Gei
-4.011824	General
-4.409764	Generation
-4.409764	Genius
-3.865696	Gentlemen
-4.233673	George
-4.409764	Georgia
-4.409764	German
-4.409764	Gertie
-3.865696	Get
-4.233673	Getting
-4.409764	Giuseppe
-4.108734	Given
-4.409764	Glad
-4.409764	Gladly
-4.409764	Glutamine
-3.932643	Go
-4.409764	Goblin
-3.807704	God
-4.233673	Gods
-4.409764	Gods'
-4.409764	Godzilla-like
-4.409764	Gogh
-4.409764	Golden
-4.409764	Goldfarb
-4.409764	Gomorrah
-3.295821	Good
-4.409764	Good-bye
-4.409764	Goodbye
-4.409764	Goodnight
-4.409764	Goody
-4.409764	Google
-4.409764	Gorilla
-4.409764	Gorn
-4.108734	Got
-4.409764	Gotten
-4.409764	Grant
-4.409764	Granted
-4.409764	Grape
-4.409764	Gravity
-3.807704	Great
-4.409764	Greece
-4.409764	Greek
-4.108734	Green
-4.233673	Greene
-4.409764	Grinch
-4.409764	Grumpy
-4.011824	Guide
-4.409764	Guilty
-4.409764	Gustaf
-4.409764	H
-4.409764	H-O
-4.409764	Ha
-4.233673	Had
-4.409764	Hadron
-4.409764	Hah-hah
-4.409764	Haiti
-4.409764	Half
-4.409764	Halloween
-4.409764	Halloweenie
-4.011824	Halo
-4.409764	Hamburgers
-4.409764	Hand
-3.932643	Hang
-4.409764	Happy
-4.409764	Haradwaith
-4.409764	Hard
-4.409764	Harsh
-4.233673	Harvey
-4.409764	Hatter
-4.108734	Have
-4.233673	Having
-3.807704	Hawking
-3.077326	He
-4.409764	Head
-4.409764	Hearthstone
-4.409764	Heaven
-4.409764	Helen
-4.409764	Helium
-4.233673	Hell
-3.263636	Hello
-4.409764	Helping
-4.233673	Henry
-4.108734	Her
-3.631613	Here
-4.233673	Herman
-3.756552	Hey
-4.233673	Hi
-4.409764	Hide
-4.409764	Higgs
-4.409764	High
-4.409764	Highly
-4.409764	Him
-4.409764	Hinduism
-4.011824	His
-4.011824	Hitchhiker
-4.409764	Hm
-3.506674	Hmm
-4.409764	Hmmm
-3.865696	Hofstadter
-4.108734	Hold
-4.409764	Hollywood
-4.409764	Holy
-4.409764	Home
-4.409764	Homo
-4.409764	Honey
-4.409764	Hot-darn
-4.409764	Hoth
-3.057582	How
-3.295821	Howard
-4.409764	However
-4.409764	Hubba
-4.409764	Hubba-hubba
-4.108734	Huh
-4.233673	Hulk
-4.233673	Hunger
-4.233673	Hush
-4.409764	Hysterical
-1.54555	I
-4.409764	I'
-4.409764	II
-4.409764	III
-4.108734	IQ
-4.011824	Icee
-3.087545	If
-4.409764	Illogical
-4.409764	Imperial
-4.409764	Implementing
-3.312854	In
-4.409764	Inconsiderate
-4.409764	Incredible
-4.409764	Indeed
-3.756552	Indian
-4.409764	Indigestion
-4.409764	Indonesia
-4.233673	Infinite
-4.409764	Initial
-4.409764	Initiating
-4.409764	Inspector
-4.409764	Instead
-3.807704	Interesting
-4.409764	Interior
-3.865696	Internet
-4.409764	Iowa
-4.233673	Ira
-4.409764	Irony
-4.409764	Irrelevant
-3.233673	Is
-4.233673	Isaac
-4.409764	Island
-4.409764	Isle
-2.467756	It
-4.233673	Italian
-4.409764	Its
-4.409764	Jack
-4.409764	Jackie
-4.409764	Jackson
-4.409764	Jacques
-4.233673	James
-4.409764	Jane
-4.409764	January
-4.409764	Japanese
-4.233673	Jealousy
-4.409764	Jean-Luc
-4.233673	Jedi
-4.409764	Jeeves
-4.409764	Jenga
-4.233673	Jennifer
-4.409764	Jenson
-4.409764	Jeopardy
-4.409764	Jesus
-4.233673	Jewish
-4.409764	Joel
-4.409764	Jones
-4.409764	Joss
-4.409764	Journal
-4.409764	Juice
-4.409764	Jump
-4.409764	Junction
-4.409764	June
-3.669401	Just
-4.409764	Justice
-4.108734	Keep
-4.409764	Keeping
-4.409764	Kenobi
-4.108734	Keys
-4.409764	Kids
-4.409764	King
-4.011824	Kirk
-4.108734	Klingon
-4.409764	Klingons
-4.409764	Knight
-4.233673	Knox
-4.233673	Kobayashi
-4.409764	Koo
-4.409764	Koothrapali
-4.108734	Koothrappali
-4.108734	Korean
-4.409764	Kringle
-3.865696	Kripke
-4.409764	Ladies
-4.409764	Lantern
-4.409764	Large
-4.409764	Larry
-4.233673	Las
-4.233673	Last
-4.409764	Lately
-4.409764	Later
-4.108734	Latin
-4.409764	Lawlessness
-4.409764	Lawrence
-4.233673	LeVar
-4.409764	League
-4.409764	Leap
-4.409764	Lebanon
-3.669401	Lee
-4.108734	Legend
-4.233673	Lego
-4.233673	Leo
-4.409764	Leon
-2.549426	Leonard
-4.409764	Leopold
-4.409764	Lesley
-4.233673	Leslie
-3.349066	Let
-4.409764	Lett
-4.409764	Liechtenstein
-4.409764	Lift
-3.669401	Like
-4.108734	Lincoln
-4.108734	Listen
-4.233673	Literally
-4.233673	Little
-4.409764	Localized
-4.233673	Logs
-4.409764	Longclaw
-3.43204	Look
-4.409764	Loony
-3.710794	Lord
-4.409764	Lori
-4.409764	Los
-4.409764	Lots
-4.409764	Love
-4.233673	Lovey-Dovey
-4.409764	Low
-4.409764	Luckily
-4.233673	Lucky
-4.409764	Luigi
-4.409764	M
-4.409764	M-theory
-4.409764	M.
-4.233673	MA
-4.233673	MG
-4.409764	MIT
-4.409764	MP3
-4.409764	MSN
-4.409764	Macy
-4.409764	Mad
-4.409764	Magnesium
-4.409764	Maharashtra
-4.409764	Mai
-4.233673	Make
-4.108734	Man
-4.409764	Mandelbrot
-4.409764	Manga
-4.409764	Manganese
-4.233673	Manhattan
-4.108734	Mario
-4.409764	Mark
-3.756552	Mars
-4.409764	Martha
-3.932643	Martian
-4.409764	Martin
-4.233673	Marty
-4.233673	Maru
-4.233673	Marvel
-4.233673	Marvin
-4.409764	Mary
-4.233673	May
-3.807704	Maybe
-4.409764	McBlanket
-4.409764	McDonald
-4.233673	Me
-4.409764	Meaningless
-4.409764	Medical
-4.409764	Mee
-4.409764	Meemaw
-4.409764	Mego
-4.409764	Meitnerium
-4.409764	Melted
-4.409764	Memorial
-4.409764	Menace
-4.409764	Mendelevium
-4.409764	Menelaus
-4.409764	Mercury
-4.409764	Mesopotamia
-4.233673	Mexican
-4.233673	Middle
-4.409764	Midol
-4.409764	Midwestern
-4.409764	Migraines
-4.409764	Milk
-4.409764	Mind
-4.409764	Minds
-4.409764	Mississippi
-4.233673	Missy
-3.932643	Mm
-4.108734	Mm-hmm
-4.233673	Mmhmm
-3.865696	Mmm
-4.409764	Mock
-4.409764	Modesto
-4.409764	Mohammed
-4.409764	Moines
-4.409764	Molybdenum
-4.011824	Mom
-4.409764	Mom.You
-4.409764	Mommy
-4.233673	Monday
-4.409764	Mondays
-4.409764	Monogrammed
-4.409764	Monrovia
-4.409764	Monte
-4.233673	More
-4.409764	Morse
-4.409764	Most
-4.409764	Mostly
-4.108734	Mother
-4.409764	Mount
-4.409764	Mountain
-4.409764	Moving
-4.011824	Mr
-3.756552	Mr.
-4.409764	Mrs
-4.409764	Mrs.
-4.233673	Ms.
-4.409764	Mufasa
-4.409764	Muppet
-4.409764	Mutant
-3.142592	My
-4.409764	NIMH
-4.409764	Nailed
-4.409764	Name
-4.409764	National
-4.409764	Nebraska
-4.409764	Need
-4.409764	Needed
-4.409764	Nelly
-4.409764	Neosporin
-4.409764	Neurobiology
-3.932643	Never
-4.409764	Nevis
-4.409764	New
-4.011824	Newton
-4.011824	Next
-4.233673	Nice
-4.409764	Nimoy
-4.409764	Nine
-4.409764	Ninja
-4.409764	Nintendo
-4.409764	Nishapur
-2.715159	No
-4.233673	No-one
-4.409764	Noah
-3.865696	Nobel
-4.409764	Nobody
-4.409764	Nodlehs
-4.409764	Norse
-4.011824	North
-4.409764	Nose
-3.248396	Not
-4.108734	Nothing
-4.409764	November
-4.409764	Novus
-3.003224	Now
-4.409764	Nowitzki
-4.409764	O
-4.409764	O-gauge
-4.409764	Oaks
-4.409764	Obi-Wan
-4.409764	Obviously
-4.409764	Ocarina
-4.409764	Occasionally
-4.409764	Octopus
-4.409764	Odd
-4.409764	Odyssey
-4.409764	Oecanthus
-3.43204	Of
-4.233673	Officer
-2.414129	Oh
-4.409764	Oh-ho-ho
-3.11973	Okay
-4.233673	Oklahoma
-4.233673	Olympics
-4.409764	Olympus
-3.807704	On
-4.409764	Once
-3.596851	One
-4.409764	Onion
-4.233673	Only
-4.409764	Oobius
-3.756552	Ooh
-4.409764	Ooo-ooo
-4.409764	Open
-4.409764	Opening
-4.409764	Oppenheimer
-3.631613	Or
-4.233673	Order
-4.409764	Osiris
-4.409764	Otto
-4.409764	Ouchies
-3.932643	Our
-4.233673	Over
-4.409764	Overall
-4.108734	Ow
-4.409764	Oxford
-4.409764	PBS
-4.409764	PS1
-4.409764	PS2
-4.409764	PS3
-4.233673	PS4
-4.409764	Pacman
-4.409764	Paint
-4.409764	Painters
-4.108734	Palace
-4.409764	Parliamentary
-4.409764	Part
-4.011824	Pasadena
-4.409764	Patch
-4.409764	Patrick
-4.409764	Paul
-4.409764	Pay
-4.011824	Pchew
-4.409764	Peas
-4.409764	Pee-wee
-2.835733	Penny
-4.233673	Penrose
-3.932643	People
-4.409764	Perfect
-4.409764	Perform
-3.596851	Perhaps
-4.233673	Perlmutter
-4.409764	Persian
-4.409764	Pervert
-4.409764	Peter
-4.409764	PhD
-4.409764	Phantom
-4.409764	Photographic
-4.409764	Physically
-4.108734	Physics
-4.233673	Picard
-4.233673	Picasso
-4.409764	Pictionary
-4.409764	Pirates
-4.409764	Pizza
-4.409764	Plane
-3.596851	Play
-4.409764	PlayStation
-4.409764	Playing
-3.865696	Please
-4.233673	Plenty
-4.409764	Pneumococcus
-4.409764	Poindexter
-4.409764	Pointing
-4.233673	Pole
-4.409764	Pollock
-4.409764	Polynesian
-4.409764	Poor
-4.233673	Pop-Pop
-4.409764	Pope
-4.409764	Portland
-4.233673	Pottery
-4.409764	Pouting
-4.233673	Power
-4.409764	Prawn
-4.409764	Prefect
-4.409764	Prepare
-4.409764	Prepares
-4.409764	Presents
-4.108734	President
-4.409764	Pretty
-4.233673	Princess
-4.409764	Principia
-4.409764	Pringles
-4.108734	Priya
-4.409764	Prize
-4.409764	Prize-winning
-4.233673	Probably
-4.409764	Probe
-4.409764	Proceed
-3.865696	Professor
-4.011824	Project
-3.932643	Proton
-4.409764	Providing
-4.233673	Puffs
-4.409764	Punchali
-4.409764	Pursuant
-4.233673	Q
-4.409764	QaQqu
-4.409764	Quantentheorie
-4.409764	Quantum
-4.409764	Queen
-4.409764	Quinto
-4.409764	Quonko
-4.409764	REM
-4.409764	Ra
-4.409764	Radiation
-4.409764	Radiohead
-4.409764	Railways
-4.409764	Raisin
-4.409764	Raisinets
-3.43204	Raj
-3.932643	Rajesh
-4.409764	Ralph
-4.409764	Ranakpur
-4.409764	Ranch
-4.409764	Rangers
-4.409764	Raton
-4.233673	Rats
-4.409764	Readiness
-3.710794	Really
-4.409764	Rebecca
-4.233673	Red
-4.409764	Regarding
-4.233673	Relationship
-4.233673	Remarkable
-3.865696	Remember
-4.409764	Reseda
-4.011824	Richard
-4.409764	Ricky
-4.409764	Ride
-3.807704	Right
-4.409764	Riley
-4.409764	Rings
-4.409764	Road
-4.409764	Rob
-4.409764	Robert
-4.409764	Robin
-4.233673	Rock
-4.409764	Rocket
-4.409764	Rolling
-4.409764	Roman
-4.409764	Romans
-4.409764	Romantic
-4.409764	Romulans
-4.409764	Roommate
-4.409764	Roommates
-4.409764	Rosewater
-4.409764	Rostenkowski
-4.233673	Rothman
-4.233673	Rover
-4.409764	Roy
-4.409764	Ruffalo
-4.409764	Russell
-4.409764	Rut
-4.409764	S'the
-4.409764	STDs
-4.409764	Sad
-4.409764	Sadly
-4.409764	Sagan
-4.409764	Said
-4.409764	San
-4.409764	Sanctum
-4.233673	Santa
-4.108734	Sarcasm
-4.409764	Saturday
-4.409764	Saturdays
-4.409764	Saul
-4.409764	Sawyer
-4.011824	Say
-4.409764	Scholls
-4.011824	Schrodinger
-4.409764	Science
-4.108734	Scientific
-4.409764	Scissors
-4.409764	Scotch
-4.409764	Search
-4.233673	Secret
-4.011824	Section
-3.710794	See
-4.409764	Seems
-4.409764	Seibert
-4.409764	Seriously
-4.409764	Seth
-4.409764	Seuss
-4.409764	Sex
-4.409764	Sexual
-4.409764	Shakespeare
-4.409764	Shame
-4.233673	Shatner
-3.09801	She
-4.409764	Shel-Mart
-3.312854	Sheldon
-4.409764	Sheldonopolis
-4.108734	Sheldor
-4.233673	Shelly
-4.409764	Sherman
-4.409764	Shhhhh
-4.409764	Shining
-4.409764	Shopworn
-4.409764	Shoulda
-3.932643	Show
-4.409764	Siam
-4.409764	Siebert
-4.409764	Sign
-4.409764	Silence
-4.409764	Silk
-4.409764	Silver
-4.233673	Since
-4.409764	Sir
-4.409764	Sit
-4.409764	Sitting
-4.409764	Sivana
-4.409764	Size
-4.233673	Skype
-4.409764	Skywalker
-4.409764	Slaves
-4.409764	Sleepy
-4.409764	Slide
-4.409764	Slip
-4.409764	Slipper
-4.409764	Smeldor
-4.409764	Smoot
-4.409764	Snickering
-3.003224	So
-4.409764	SoccerMom09
-4.409764	Social
-4.409764	Sodom
-4.409764	Somebody
-4.409764	Someone
-4.409764	Something
-4.233673	Sometimes
-4.409764	Somewhere
-4.409764	Son
-4.409764	Sonic
-3.756552	Sorry
-4.409764	Souls
-4.409764	Sound
-4.409764	Sour
-4.409764	Soviet
-4.409764	Soviet-style
-4.409764	Soy
-4.233673	Space
-4.409764	Sparkletts
-4.233673	Speaking
-4.409764	Spending
-4.409764	Spicy
-3.865696	Spider-Man
-4.409764	Spider-man
-4.409764	Spiderman
-3.669401	Spock
-4.409764	Spoiler
-4.409764	SpongeBob
-4.233673	Spy
-4.409764	Squeaky
-3.932643	Stan
-4.409764	Stanford
-4.409764	Stanislavski
-3.43204	Star
-4.409764	Starch
-4.409764	Stardate
-4.108734	Starfleet
-4.409764	State
-4.409764	Stella
-4.409764	Stems
-4.108734	Step
-4.233673	Stephanie
-3.807704	Stephen
-4.108734	Steve
-4.409764	Stewart
-4.409764	Stone
-3.932643	Stop
-4.409764	Stormtroopers
-4.409764	Strahlung
-4.409764	Straightening
-4.233673	String
-4.409764	Stripe
-3.756552	Stuart
-4.409764	Subject
-4.409764	Substance
-4.409764	Subtextually
-4.409764	Suicide
-4.409764	Sumter
-4.409764	Sunday
-4.233673	Super
-4.409764	Superb
-4.108734	Sure
-4.409764	Surely
-4.409764	Surfer
-4.409764	Sweatpants
-4.409764	Swedish
-4.409764	Sweet
-4.409764	SyFy
-4.409764	Szechuan
-4.108734	TV
-4.233673	Ta-da
-4.409764	Tacs
-4.409764	Tahecin
-4.233673	Take
-4.409764	Tall
-4.409764	Tamagotchi
-4.409764	Tandoori
-4.409764	Taser
-4.409764	Tatooine
-4.409764	Tea
-4.409764	Teenage
-3.932643	Tell
-4.409764	Teller
-4.233673	Ten
-4.409764	Terran
-4.233673	Terrific
-4.409764	Territories
-4.409764	Tetris
-3.756552	Texas
-4.233673	Thai
-3.205644	Thank
-4.011824	Thanks
-4.011824	Thanksgiving
-2.747006	That
-2.824303	The
-3.506674	Then
-4.409764	Theoretical
-3.27943	There
-4.233673	Therefore
-4.233673	These
-3.312854	They
-4.409764	Thing
-4.409764	Things
-4.233673	Think
-4.409764	Thinking
-2.970431	This
-4.108734	Those
-4.233673	Three
-4.409764	Three-headed
-4.409764	Thunder
-4.233673	Thursday
-4.409764	Thursdays
-4.409764	Tiberius
-4.409764	Tic
-4.409764	Ticket
-4.409764	Ticonderoga
-4.409764	Tijuana
-4.108734	Time
-4.409764	Tin
-3.865696	To
-4.409764	Tobacco
-4.409764	Toblerone
-4.233673	Tom
-4.409764	Too
-4.409764	Tough
-4.409764	Trebek
-3.596851	Trek
-4.409764	Tribble
-4.409764	Trick
-4.409764	Trip
-4.233673	Trouble
-4.409764	Troy
-4.409764	Truthfully
-4.108734	Try
-4.409764	Trying
-4.233673	Tso
-4.233673	Tuesday
-4.409764	Turing
-4.409764	Turtles
-4.409764	Twilight
-4.409764	Twitter
-4.233673	Two
-4.409764	Typically
-4.409764	Uber
-4.108734	Ugh
-3.233673	Uh
-4.409764	Uh-huh
-4.011824	Uh-oh
-3.596851	Um
-4.233673	Um'
-4.409764	Un-unravelable
-4.233673	Uncle
-4.409764	Under
-4.409764	Unfortunately
-4.409764	Uni
-4.409764	Union
-4.409764	Unit
-4.233673	University
-4.409764	Unless
-4.409764	Unlikely
-4.233673	Until
-4.233673	Up
-4.409764	Uranium-235
-4.233673	Using
-4.409764	Usually
-4.233673	V
-4.233673	VHS
-4.233673	Vader
-4.011824	Valentine
-4.409764	Van
-4.233673	VapoRub
-4.108734	Vegas
-3.807704	Very
-4.409764	Virgin
-4.409764	Vitamin
-4.409764	Voil
-4.409764	Voyager
-4.409764	W
-3.596851	Wait
-4.409764	Walked
-4.409764	Walking
-4.409764	Wallbanger
-4.233673	Warcraft
-3.932643	Wars
-3.932643	Was
-4.233673	Watch
-4.409764	Water
-4.233673	Waterfalls
-2.871945	We
-4.409764	Webster
-4.233673	Welcome
-2.610424	Well
-4.233673	Well'
-4.409764	Wesley
-4.409764	West
-4.233673	Wh
-2.710794	What
-3.807704	Wheaton
-4.409764	Whedon
-4.409764	Wheel
-4.409764	Wheels
-3.506674	When
-4.233673	Whenever
-3.756552	Where
-4.409764	Whereas
-4.409764	Whether
-3.534703	Which
-4.011824	While
-4.409764	Whispering
-3.631613	Who
-4.409764	Whoa
-3.233673	Why
-4.409764	Wi-Fi
-4.409764	Wichita
-4.409764	Wii
-4.409764	Wikipedia
-3.710794	Wil
-4.011824	Will
-4.233673	William
-4.409764	Willis
-4.409764	Wilson
-4.409764	Windows
-4.409764	Wine
-4.233673	Winkle
-4.409764	Winter
-4.409764	Wishing
-4.011824	With
-4.409764	Without
-4.409764	Wizard
-4.233673	Wo
-3.534703	Wolowitz
-4.233673	Wolverine
-4.409764	Wonder
-4.233673	Wonderful
-4.409764	Woo-woo
-4.409764	Words
-4.233673	World
-3.534703	Would
-4.233673	Wow
-4.409764	Wrong
-4.233673	X-Men
-3.807704	Xbox
-4.409764	Y.
-4.409764	Yay
-4.409764	Ye
-2.954919	Yeah
-4.409764	Years
-4.233673	Yep
-4.409764	Yerkes
-2.859536	Yes
-4.409764	Yoda
-4.409764	Yoo-hoo
-2.337882	You
-3.564666	Your
-4.409764	Ytterbium
-4.409764	Z
-4.233673	Zack
-4.409764	Zandor
-4.409764	Zazzles
-4.108734	Zelda
-4.409764	Zur
-4.409764	``
-1.785482	a
-4.233673	abandon
-4.409764	abandoning
-4.409764	abdomen
-4.409764	ability'
-3.932643	able
-4.409764	ablutions
-4.409764	aboard
-2.669401	about
-4.108734	above
-4.409764	abrupt
-4.409764	abruptly
-4.409764	absence
-4.011824	absolutely
-4.409764	absorb
-4.409764	absorbs
-4.233673	absurd
-4.409764	abuse
-4.409764	academic
-4.011824	accept
-4.233673	acceptable
-4.233673	acceptance
-4.409764	accepted
-4.108734	access
-4.108734	accident
-4.409764	accidents
-4.409764	acclimate
-4.409764	accommodate
-4.409764	accomplished
-4.233673	accomplishment
-4.108734	according
-4.233673	account
-4.409764	accurate
-4.409764	accurately
-4.409764	accused
-4.409764	achieve
-4.409764	achievement
-4.409764	achieving
-4.409764	aching
-4.409764	acid
-4.409764	acknowledging
-4.409764	across
-4.108734	act
-4.233673	acting
-3.631613	action
-4.409764	actions
-4.409764	actively
-4.409764	activities
-4.108734	activity
-4.233673	acts
-3.865696	actual
-3.865696	actually
-4.409764	acuity
-4.409764	ad
-4.409764	adaptable
-4.409764	adapting
-4.108734	add
-4.409764	addict
-4.011824	addiction
-4.409764	addictive
-4.409764	addition
-4.409764	additional
-4.108734	address
-4.409764	adhere
-4.409764	adherence
-4.409764	adjective
-4.409764	administration
-4.409764	admirable
-4.409764	admiration
-4.108734	admire
-4.409764	admission
-4.011824	admit
-4.409764	admittedly
-4.233673	adorable
-4.108734	advance
-4.409764	advanced
-4.409764	advancements
-4.409764	advancing
-4.233673	advantage
-4.409764	advice
-4.409764	aerial
-4.409764	aesthetically
-4.233673	affect
-4.409764	affirmative
-4.409764	afford
-4.409764	affront
-3.807704	afraid
-3.455522	after
-4.108734	afternoon
-4.409764	afterward
-3.43204	again
-3.710794	against
-4.409764	age
-4.409764	agenda
-4.409764	agent
-4.409764	aggressive
-3.631613	ago
-4.409764	agora
-4.011824	agree
-4.108734	agreed
-3.807704	agreement
-4.108734	ahead
-4.409764	ai
-4.011824	air
-4.233673	airport
-4.409764	airports
-4.233673	aka
-4.409764	alarmed
-4.409764	albeit
-4.011824	alcohol
-4.409764	alcoholics
-4.409764	alert
-4.409764	algorithm
-4.409764	algorithm'
-4.409764	alibi
-4.409764	alien
-4.409764	aliens
-4.409764	alive
-2.737666	all
-4.409764	all-time
-4.409764	allergic
-4.011824	allow
-4.233673	allowed
-4.233673	allowing
-4.409764	alma
-4.108734	almanac
-4.233673	almost
-3.807704	alone
-4.108734	along
-4.409764	alongside
-4.409764	alpha
-4.409764	alphabetized
-3.756552	already
-3.388575	also
-4.233673	alternate
-4.233673	although
-3.43204	always
-2.994791	am
-4.409764	amalgamation
-4.108734	amazing
-4.409764	ambivalence
-4.409764	amino
-4.409764	ammonia
-4.409764	amniotic
-4.108734	among
-4.409764	amorous
-4.233673	amount
-4.409764	amounts
-4.409764	amusing
-2.60699	an
-4.409764	anal
-4.409764	analysing
-4.409764	analysis
-4.233673	anarchy
-4.409764	ancient
-1.990635	and
-4.409764	and/or
-4.409764	anecdote
-4.409764	anger
-4.011824	angle
-3.932643	angry
-4.409764	anguish
-4.233673	animal
-4.409764	animals
-4.409764	ankles
-4.409764	annihilation
-4.409764	annihilations
-3.932643	annoying
-4.108734	annual
-3.534703	another
-3.480345	answer
-4.409764	answering
-4.409764	answers
-4.409764	ante
-4.409764	anteater
-4.409764	anthropic
-4.409764	anthropology
-4.409764	anti-Aristotelian
-4.409764	anticipate
-4.409764	anticipation
-4.409764	antisocial
-4.409764	anxiety
-3.154492	any
-4.233673	anymore
-3.807704	anyone
-3.534703	anything
-4.409764	anyway
-4.108734	apart
-3.480345	apartment
-4.409764	apiece
-4.011824	apologies
-3.807704	apologize
-4.409764	apologized
-4.011824	apology
-4.108734	app
-4.409764	apparent
-4.011824	apparently
-4.409764	appealing
-4.409764	appeals
-4.108734	appear
-4.409764	appearance
-3.932643	appears
-4.409764	appetites
-4.409764	applause
-4.108734	apple
-4.409764	apples
-4.409764	applicable
-4.409764	application
-4.409764	applications
-4.233673	applied
-4.233673	apply
-4.409764	appointment
-4.409764	appreciably
-3.932643	appreciate
-4.233673	appreciated
-4.409764	approach
-4.409764	approaches
-4.108734	approaching
-3.932643	appropriate
-4.409764	approved
-4.409764	apropos
-4.409764	aquarium
-4.409764	archduchy
-2.60699	are
-4.233673	area
-4.233673	areas
-4.108734	argue
-4.409764	argument
-4.409764	argumentum
-4.409764	arise
-4.409764	arm
-4.409764	armadillo
-4.409764	armour
-4.409764	arms
-4.409764	army
-3.564666	around
-4.409764	arranged
-4.409764	arrangement
-4.409764	arrival
-4.233673	arrive
-4.108734	arrived
-4.409764	art
-4.409764	artery
-4.409764	artichoke
-4.233673	article
-4.409764	artifact
-4.233673	artistic
-4.409764	artwork
-2.68141	as
-4.409764	ascend
-4.409764	aside
-3.368371	ask
-3.669401	asked
-3.807704	asking
-4.409764	asparagus
-4.409764	aspect
-4.233673	aspects
-4.409764	assaults
-4.409764	assembled
-4.233673	assembly
-4.409764	assign
-4.409764	assorted
-3.807704	assume
-4.011824	assumed
-4.409764	assuming
-4.233673	assumption
-4.409764	assure
-4.409764	assured
-4.233673	asteroid
-4.409764	asthma
-4.409764	astonishes
-4.409764	astronaut
-4.409764	astrophysical
-4.409764	asymptote
-2.596851	at
-4.409764	ate
-4.409764	athletes
-4.409764	athletic
-4.233673	atom
-4.233673	atomic
-4.011824	atoms
-4.233673	attached
-4.409764	attachment
-3.932643	attack
-4.233673	attacked
-4.409764	attempt
-4.409764	attempted
-4.011824	attempting
-4.233673	attend
-4.409764	attendance
-3.807704	attention
-4.011824	attitude
-4.108734	attract
-4.409764	attractive
-4.409764	audacity
-4.233673	audience
-4.409764	auditory
-4.233673	aunt
-4.409764	authorities
-4.409764	avail
-4.108734	available
-4.409764	average
-4.409764	aversions
-4.233673	avocado
-4.108734	avoid
-4.409764	awake
-3.932643	aware
-3.480345	away
-4.011824	awful
-4.409764	awkward
-4.409764	awkwardly
-4.233673	axe
-4.409764	azure
-4.409764	bIr
-4.409764	ba-ack
-4.409764	babble
-4.409764	babies
-4.233673	baby
-4.409764	baby-proof
-4.409764	bachelor
-3.067341	back
-4.409764	back-scratching
-4.233673	back-up
-4.409764	backed
-4.409764	backfire
-4.409764	background
-4.409764	backs
-4.409764	backseat
-4.409764	backstroke
-4.409764	backup
-4.409764	backwoods
-3.710794	bad
-4.409764	badger
-4.409764	badgering
-4.409764	badly
-4.233673	baffling
-4.108734	bag
-4.409764	bagged
-4.233673	balance
-4.409764	balances
-4.409764	bald
-4.108734	ball
-4.409764	ball-and-socket
-4.409764	balloon
-4.409764	balloons
-4.409764	balls
-4.409764	banal
-4.409764	banality
-4.409764	banana
-4.409764	band
-4.233673	banging
-4.409764	bank
-4.409764	banner-related
-4.011824	bar
-4.409764	barbeques
-4.409764	barber
-4.409764	bare
-4.409764	barely
-4.409764	bark
-4.409764	barn
-4.409764	barrel
-3.865696	bars
-4.409764	bartender
-3.807704	based
-4.409764	basement
-4.233673	basic
-4.409764	basis
-4.409764	bath
-4.409764	bathing
-4.409764	bathrobe
-3.710794	bathroom
-4.409764	baths
-4.409764	bathtub
-4.409764	battery-operated
-4.108734	battle
-2.388575	be
-4.409764	beach
-4.409764	beam
-4.409764	bears
-4.409764	beat
-4.409764	beating
-4.409764	beautiful
-4.409764	beauty
-4.233673	became
-2.986518	because
-4.011824	become
-4.409764	becoming
-3.756552	bed
-3.865696	bedroom
-4.409764	beef
-4.409764	beehives
-2.932643	been
-4.409764	beep
-4.409764	bees
-3.368371	before
-4.233673	befriend
-4.409764	befriends
-4.108734	began
-4.409764	begging
-3.756552	begin
-4.409764	beginning
-4.409764	begun
-4.409764	behalf
-4.011824	behaviour
-4.409764	behavioural
-4.409764	beheaded
-3.865696	behind
-3.312854	being
-4.409764	believable
-3.205644	believe
-4.409764	believed
-4.409764	believes
-4.409764	believing
-4.409764	belly
-4.409764	bellyaching
-4.409764	belong
-4.409764	belongings
-4.011824	beloved
-4.108734	below
-4.409764	belt
-4.233673	beneath
-4.409764	benefit'
-4.108734	benefits
-4.409764	bengay
-4.409764	bent
-4.409764	berate
-3.312854	best
-4.409764	bested
-4.233673	bet
-4.233673	beta
-4.409764	betrayal
-4.233673	betrayed
-3.330583	better
-3.669401	between
-4.011824	beverage
-4.233673	beyond
-4.409764	bi
-4.409764	bidding
-4.409764	biddy
-3.710794	big
-4.108734	bigger
-4.409764	bill
-4.409764	binding
-4.409764	bingo
-4.233673	biochemical
-4.409764	biologists
-4.108734	biology
-4.409764	bioorganic
-4.108734	bird
-4.409764	bird-trapping
-4.233673	birds
-4.409764	birth
-3.932643	birthday
-4.409764	biscuit
-4.409764	bishop
-3.710794	bit
-4.409764	bitchin
-4.409764	bite
-4.409764	biting
-4.409764	bitten
-4.409764	blackmailed
-4.409764	bladder
-4.409764	blades
-4.409764	blame
-4.409764	blankets
-4.409764	blast
-4.409764	blast-off
-4.409764	bleed
-4.409764	blend
-4.409764	bless
-4.409764	blessing
-4.409764	bleugh
-4.409764	blew
-4.233673	blind
-4.409764	blink
-4.409764	blinked
-4.409764	blinking
-4.409764	blister
-4.233673	block
-4.108734	blood
-3.932643	blow
-3.932643	blue
-4.409764	blues
-4.409764	blunder
-4.409764	blurry
-4.108734	board
-4.409764	boats
-4.409764	bobcat
-4.409764	bodies
-4.409764	bodily
-3.756552	body
-4.409764	bologna
-4.409764	bomb
-4.409764	bones
-4.409764	bongo
-4.108734	bongos
-4.409764	boo-boo
-3.710794	book
-4.108734	books
-4.233673	bored
-4.011824	boring
-4.409764	born
-4.409764	borrow
-4.409764	bortaS
-3.506674	both
-4.409764	bothering
-4.409764	bottle
-4.409764	bottle-blonde'
-4.108734	bottom
-3.865696	bought
-4.409764	bowel
-4.409764	bowels
-4.409764	bowing
-3.932643	bowl
-4.409764	bowling
-3.710794	box
-4.409764	boxers
-3.807704	boy
-4.108734	boyfriend
-4.409764	boyfriend-girlfriend
-4.409764	boys
-3.564666	brain
-4.409764	brain'
-4.409764	brains
-4.409764	brake
-4.409764	brandy
-4.409764	brass
-4.409764	breach
-4.233673	bread
-4.011824	break
-4.108734	breakfast
-4.409764	breaking
-4.108734	breaks
-4.409764	breakup
-4.409764	breasts
-4.409764	breathing
-4.108734	breeze
-4.409764	brides
-4.409764	bridge-of-nose
-4.409764	briefing
-4.409764	briefs
-4.233673	bright
-4.233673	brightest
-4.233673	brilliance
-4.011824	brilliant
-4.409764	brimstone
-3.710794	bring
-4.233673	brings
-4.409764	briquettes
-4.409764	brittle
-4.409764	broach
-4.233673	broke
-3.865696	broken
-4.409764	brooks
-3.932643	brother
-4.409764	brothers
-3.669401	brought
-4.409764	brown
-4.409764	browser
-4.409764	brushes
-4.409764	bubble
-4.409764	bubbly
-4.409764	buckets
-4.108734	buddy
-4.409764	budge
-4.409764	budget
-4.409764	buffer
-4.409764	buffet
-4.409764	bugs
-4.409764	buh
-4.011824	build
-4.409764	build-your-own
-3.807704	building
-4.233673	built
-4.409764	built-in
-4.409764	bulldozers
-4.409764	bullies
-4.409764	bump
-4.233673	bumps
-4.409764	bungee
-4.409764	bunny
-4.409764	buoyed
-4.108734	burn
-4.233673	burns
-4.409764	bury
-4.409764	burying
-4.108734	bus
-4.409764	buses
-4.108734	business
-4.108734	busy
-2.534703	but
-4.409764	but'
-4.108734	butter
-4.409764	buttered
-4.409764	button
-3.865696	buy
-4.108734	buying
-4.409764	bwch-wch-wch-wch-wch-wch
-2.859536	by
-2.939942	ca
-4.409764	cabbage
-4.233673	cafeteria
-4.233673	caffeine
-4.409764	calcium
-4.409764	calculations
-4.233673	calculus
-4.108734	calendar
-3.409764	call
-3.631613	called
-3.932643	calling
-4.409764	callous
-4.409764	calls
-4.409764	calm
-3.710794	came
-4.409764	camera
-4.409764	campaign
-4.409764	campus
-2.685488	can
-4.409764	can't-miss
-4.409764	can-do
-4.409764	cancer
-4.409764	candid
-4.233673	candidates
-4.409764	candy
-4.409764	canned
-4.409764	cans
-4.108734	capable
-4.409764	capacity
-4.409764	caps
-4.409764	captain
-4.409764	captioning
-4.409764	captive
-4.409764	capture
-3.756552	car
-4.409764	carbohydrates
-3.932643	carbon
-4.409764	carcinogenic
-3.932643	card
-4.409764	cardamom
-4.409764	cardinal
-3.807704	cards
-3.596851	care
-4.409764	cared
-3.932643	career
-4.409764	carefully
-4.409764	cares
-4.409764	carotid
-4.409764	carpal
-4.409764	carrier
-4.409764	carriers
-4.409764	carries
-4.409764	carrot
-4.409764	carrots
-4.108734	carry
-4.409764	carry-on
-4.409764	carrying
-4.409764	cars
-4.233673	carving
-3.756552	case
-4.409764	castanets
-4.233673	casual
-4.011824	cat
-4.409764	catapult
-4.409764	catch
-4.409764	cater
-4.409764	caterpillars
-4.409764	cats
-4.409764	cattle
-4.409764	cattywampus
-4.409764	catwomen
-4.409764	caught
-4.108734	cause
-4.409764	caused
-4.233673	causes
-4.233673	cave
-4.233673	celebrate
-4.409764	celebrated
-4.409764	celebrity
-4.409764	cell
-4.409764	cello
-4.409764	cells
-4.409764	cellular
-4.409764	centre
-4.409764	centrifugal
-4.108734	century
-4.409764	cereal
-4.233673	ceremony
-4.011824	certain
-3.932643	certainly
-4.409764	certainty
-4.409764	chai
-4.409764	chains
-4.011824	chair
-3.932643	challenge
-4.409764	challenging
-4.409764	chamomile
-4.409764	champion
-4.233673	chance
-3.669401	change
-4.108734	changed
-4.409764	changes
-4.233673	chaos
-4.409764	chaps
-4.233673	character
-4.409764	characteristic
-4.409764	characterized
-4.409764	characters
-4.409764	charcoal
-4.108734	charge
-4.233673	charged
-4.409764	charges
-4.409764	charm
-4.409764	charming
-4.409764	chart
-4.409764	chased
-4.409764	chasm
-4.233673	chat
-4.409764	chatter
-4.409764	cheating
-3.807704	check
-4.409764	checked
-4.233673	checking
-4.233673	cheer
-4.409764	cheerier
-4.409764	cheers
-4.233673	cheese
-4.409764	cheeseburger
-4.409764	cheeseless
-4.233673	chemical
-4.233673	chemistry
-4.409764	cherries
-4.409764	cherry
-4.409764	chess
-4.233673	chest
-4.409764	chew
-4.409764	chews
-3.710794	chicken
-3.865696	child
-4.233673	childhood
-4.233673	childish
-3.756552	children
-4.409764	chimney
-4.409764	chin
-4.409764	chips
-4.409764	chit-chat
-4.409764	chocolate
-3.669401	choice
-4.409764	choke
-4.011824	choose
-4.409764	choosing
-4.409764	chopped-up
-4.108734	chose
-4.409764	chosen
-4.409764	chunk
-4.409764	chunks
-4.409764	church
-4.409764	churn
-4.409764	cider
-4.409764	cigarette
-4.409764	cinnamon
-4.409764	circa
-4.409764	circadian
-4.233673	circle
-4.409764	circus
-4.233673	citrus
-4.108734	city
-4.409764	clad
-4.409764	claim
-4.409764	claimed
-4.409764	claiming
-4.409764	claims
-4.409764	clairvoyance
-4.409764	clam
-4.409764	clap
-4.409764	clapped
-4.409764	clarified
-4.233673	class
-4.233673	classic
-4.409764	clean
-4.409764	cleaned
-4.233673	cleaning
-4.011824	clear
-4.233673	clearance
-4.409764	cleared
-4.011824	clearly
-4.409764	clenching
-3.932643	clever
-4.108734	click
-4.409764	cliffhanger
-4.409764	climb
-4.409764	cloaking
-4.409764	clock
-3.932643	close
-4.409764	closed
-3.932643	closer
-4.108734	closet
-4.409764	closing
-4.409764	closure
-4.409764	clot
-4.108734	clothes
-4.409764	clown
-4.233673	club
-4.233673	clue
-4.409764	cluster
-4.409764	co-conspirators
-4.409764	co-host
-4.409764	coal
-4.409764	coat
-4.409764	cocaine
-4.409764	coccuses
-4.409764	cockamamie
-4.108734	cocktail
-4.409764	cocoa
-4.409764	coconut
-4.011824	code
-4.409764	codifies
-4.108734	coeruleus
-3.932643	coffee
-4.409764	coincidence
-3.710794	coitus
-4.409764	colada
-3.932643	cold
-4.409764	collaborate
-4.409764	collaboration
-4.409764	collar
-4.409764	colleagues
-4.409764	collect
-4.409764	collecting
-4.011824	collection
-4.409764	collector
-4.409764	college
-4.409764	collisions
-4.233673	colonoscopy
-4.409764	colony
-4.233673	colour
-4.409764	colours
-4.409764	comb
-4.233673	combination
-4.233673	combined
-3.43204	come
-4.233673	comedy
-3.807704	comes
-4.108734	comfort
-3.756552	comfortable
-3.865696	comic
-3.807704	coming
-4.233673	command
-4.409764	commands
-3.932643	comment
-4.409764	commentary
-4.108734	comments
-4.409764	commitment
-4.233673	committee
-4.409764	committing
-3.932643	common
-4.409764	commoner
-4.409764	communicate
-4.409764	community
-4.409764	compact
-4.409764	compactification
-4.233673	companies
-4.409764	companionship
-3.932643	company
-4.409764	comparatively
-4.409764	comparison
-4.409764	compartments
-4.409764	compassion
-4.409764	compatible
-4.409764	compensation
-4.409764	competed
-4.233673	competition
-4.233673	complacent
-4.409764	complained
-4.409764	complaining
-4.409764	complaint
-3.865696	complete
-4.409764	completed
-3.710794	completely
-4.409764	completion
-4.409764	complex
-4.233673	compliment
-4.233673	component
-4.409764	composing
-4.409764	compounds
-4.409764	comprehensive
-4.409764	compromise
-4.409764	compromising
-4.409764	compulsion
-4.409764	computations
-4.108734	computer
-4.409764	computer-savvy
-4.409764	concavity
-4.409764	conceal
-4.409764	concede
-4.409764	concentrated
-4.233673	concept
-4.011824	concern
-4.409764	conclusions
-4.409764	conclusive
-4.409764	condemnation
-4.409764	condensate
-4.409764	condensation
-4.409764	condition
-4.409764	condolences
-4.409764	condoms
-4.409764	conduct
-4.233673	conductor
-4.409764	conference
-4.409764	confidence
-4.409764	confident
-4.409764	confirm
-4.409764	conflict
-4.409764	confront
-4.409764	confrontation
-4.409764	confuse
-4.409764	confused
-4.409764	confusing
-4.233673	confusion
-4.409764	congenital
-4.409764	congratulations
-4.233673	conjecture
-4.233673	conn.
-4.409764	connected
-4.409764	connection
-4.409764	connectivity
-4.409764	connects
-4.409764	consciousness
-4.409764	consent
-4.409764	consider
-4.409764	considerable
-4.409764	considerate
-4.409764	consideration
-4.409764	considerations
-4.108734	considered
-4.409764	consistency
-4.233673	consolation
-4.108734	constant
-4.233673	constantly
-4.409764	constitute
-4.409764	construction
-4.409764	consumer
-4.108734	contact
-4.409764	contacted
-4.233673	contagious
-4.409764	container
-4.108734	contains
-4.409764	content
-4.409764	contentious
-4.011824	contest
-4.409764	continuation
-4.011824	continue
-4.409764	contra-indicated
-4.108734	contract
-4.409764	contracts
-4.409764	contractual
-4.409764	contractually
-4.409764	contrary
-4.409764	contribute
-4.409764	contribution
-4.409764	contributions
-4.011824	control
-4.409764	controlled
-4.409764	controlling
-4.409764	controls
-4.409764	controversial
-4.409764	conundrum
-4.409764	convenience
-4.233673	convention
-3.710794	conversation
-4.409764	conversational
-4.409764	conversations
-4.409764	converting
-4.108734	convinced
-4.409764	convincing
-4.409764	cooking
-4.011824	cool
-4.409764	coordinates
-4.409764	copious
-4.108734	copy
-4.409764	cords
-4.409764	core
-4.409764	corn
-4.011824	corner
-4.409764	corps
-4.233673	correct
-4.409764	correctly
-4.409764	corresponded
-4.409764	cortex
-4.409764	cosies
-4.409764	cosmology
-4.409764	cost
-4.233673	costume
-4.011824	costumes
-4.409764	costuming
-3.865696	couch
-4.409764	cough
-2.835733	could
-4.409764	coulda
-4.108734	count
-4.409764	counting
-4.409764	countless
-4.233673	country
-4.233673	counts
-3.932643	couple
-4.409764	couples
-4.409764	coupling
-4.409764	coupons
-4.409764	courage
-3.205644	course
-4.233673	court
-4.233673	cousin
-4.233673	covenant
-4.409764	cover
-4.409764	covers
-4.233673	cow
-4.409764	coziest
-4.409764	crack
-4.409764	cracking
-4.108734	craving
-4.409764	crawl
-4.011824	crazy
-4.233673	cream
-4.011824	create
-4.233673	created
-4.409764	creative
-4.409764	creature
-4.409764	creatures
-3.865696	credit
-4.409764	crescent-shaped
-4.409764	crewman
-4.233673	cricket
-4.409764	cried
-4.233673	cries
-4.108734	crime
-4.233673	criminal
-4.409764	crimson
-4.409764	critical
-4.233673	cross
-4.409764	crossing
-4.409764	croutons
-4.409764	crow
-4.409764	crowd
-4.108734	crown
-4.409764	crucial
-4.409764	crud
-4.233673	crush
-4.233673	crushes
-3.807704	cry
-4.409764	crying
-4.409764	cryogenic
-4.409764	crystallized
-4.409764	crystals
-4.409764	cuba
-4.409764	cuddly
-4.409764	cues
-4.409764	cul-de-sac
-4.409764	cultural
-4.409764	culture
-4.233673	cultures
-4.409764	cum
-4.409764	cunning
-4.409764	cup
-4.409764	curiouser
-4.409764	curl
-4.233673	current
-4.233673	currently
-4.409764	curriculum
-4.409764	customary
-4.409764	customs
-3.807704	cut
-4.409764	cut-up
-4.011824	cute
-4.233673	cuts
-4.409764	cutting
-4.233673	cycle
-4.409764	cycles
-4.409764	cyclotron
-4.409764	da-da-da-da
-4.409764	dad
-4.409764	dad-gum
-4.233673	daddy
-4.409764	dagger
-4.409764	dalliance
-4.409764	damn
-4.409764	dampness
-4.233673	dance
-4.233673	dancing
-4.409764	danger
-4.409764	dangers
-3.756552	dark
-4.409764	darkened
-4.409764	darkness
-4.409764	darn
-4.409764	darnedest
-4.409764	dashing
-4.409764	dastardly
-4.409764	data
-3.669401	date
-4.409764	dates
-4.409764	dating
-4.233673	daughter
-4.409764	dawn
-3.368371	day
-4.409764	day-walkers
-3.865696	days
-4.409764	de
-3.756552	dead
-4.108734	deal
-3.710794	dear
-3.756552	death
-4.409764	debate
-4.409764	debt
-4.409764	decapitates
-4.011824	decay
-4.233673	deceit
-4.409764	deceitful
-4.409764	decency
-4.233673	deception
-4.233673	decide
-3.932643	decided
-3.807704	decision
-4.233673	decline
-4.409764	declined
-4.409764	decorating
-4.409764	deduct
-4.409764	deemed
-4.409764	deep
-4.233673	deeply
-4.409764	defacing
-4.409764	defeat
-4.233673	defeated
-4.409764	defeats
-4.409764	defence
-4.409764	defence'
-4.409764	defends
-4.409764	defensive
-4.409764	defied
-4.409764	defined
-4.233673	definitely
-4.409764	definition
-4.233673	degrees
-4.409764	deity
-4.409764	deli
-4.409764	deliberation
-4.233673	delicious
-4.409764	delighted
-4.108734	delightful
-4.409764	delights
-4.409764	delivering
-4.233673	delivery
-4.409764	delusional
-4.409764	demeaning
-4.409764	demolish
-4.409764	demon
-4.409764	demonstrate
-4.409764	denied
-4.233673	dent
-4.409764	dentist
-4.233673	department
-4.409764	departure
-4.409764	dependency
-4.409764	dependent
-4.011824	depends
-4.409764	depictions
-4.409764	deployability
-4.233673	depressed
-4.409764	depressus
-4.409764	depth
-4.409764	der
-4.409764	derisively
-4.233673	derivative
-4.233673	dermatitis
-4.409764	descend
-4.409764	descended
-4.409764	described
-4.233673	describes
-4.233673	deserve
-4.233673	design
-4.233673	designated
-3.865696	designed
-4.409764	designing
-4.409764	desire
-4.108734	desk
-4.409764	desks
-4.233673	dessert
-4.409764	destination
-4.409764	destined
-4.233673	details
-4.409764	detective
-4.409764	detector
-4.409764	detergent
-4.108734	determine
-4.409764	determined
-4.409764	detour
-4.409764	devastates
-4.409764	devastating
-3.932643	device
-4.409764	devices
-4.409764	devise
-4.409764	devoted
-4.409764	dewlap
-4.233673	di
-4.233673	diagram
-4.409764	dials
-4.409764	diamond
-4.409764	diary
-4.409764	dibs
-4.409764	dictate
-4.409764	dictates
-2.756552	did
-4.108734	die
-4.233673	died
-4.233673	dies
-4.409764	diet
-4.409764	dietary
-4.409764	dietician
-4.409764	difference
-3.669401	different
-4.108734	difficult
-4.409764	difficult-to-evict
-4.108734	difficulty
-4.409764	dig
-4.409764	digestive
-4.409764	dignify
-4.233673	dilemma
-4.409764	dim
-4.233673	dimensions
-4.233673	dine
-4.233673	dinfast
-4.409764	dining
-3.669401	dinner
-4.409764	dipoles
-4.233673	direct
-4.011824	direction
-4.233673	directly
-4.409764	dirt
-4.108734	dirty
-4.409764	disagree
-4.409764	disappears
-4.233673	disappointed
-4.233673	disappointing
-4.108734	disaster
-4.233673	discount
-4.409764	discounts
-4.409764	discouraged
-4.409764	discouraging
-4.409764	discourteous
-4.108734	discovered
-4.409764	discoveries
-4.233673	discs
-4.011824	discuss
-4.233673	discussed
-4.108734	discussing
-4.108734	discussion
-4.409764	discussions
-4.409764	disembodied
-4.233673	disengaged
-4.011824	dishes
-4.409764	dishonest
-4.409764	displayed
-4.409764	disposable
-4.409764	disposal
-4.409764	disproved
-4.409764	disproves
-4.409764	disregard
-4.409764	distance
-4.409764	distended
-4.409764	distinguished
-4.409764	distortion
-4.233673	distract
-4.233673	distracted
-4.409764	distress
-4.233673	disturbing
-4.409764	diversity
-4.233673	divide
-4.409764	dividing
-4.409764	divorce
-4.409764	dizzy
-2.252912	do
-4.409764	do-do-do-do-do
-4.233673	doctor
-4.409764	doctoral
-4.233673	doctorates
-4.409764	documentary
-2.947366	does
-4.108734	dog
-4.233673	dogapus
-4.011824	dogs
-3.263636	doing
-4.409764	doll
-3.932643	dollar
-4.108734	dollars
-4.409764	domination
-4.409764	domino
-3.409764	done
-4.011824	doomed
-3.631613	door
-4.409764	door-dings
-4.409764	double
-4.409764	double-meaning
-4.409764	double-sixes
-4.409764	doubt
-4.409764	doughnuts
-4.409764	dove
-3.349066	down
-4.409764	downs
-4.233673	downstairs
-4.409764	draft
-4.409764	dragon
-4.409764	drama
-4.409764	dramas
-4.409764	dramatically
-4.233673	drank
-4.233673	draw
-4.409764	drawer
-4.409764	drawing
-4.233673	drawn
-4.233673	dream
-4.409764	dress
-4.233673	dressed
-4.233673	dresses
-4.409764	drew
-4.409764	drill
-3.865696	drink
-4.409764	drinkin
-4.108734	drinking
-4.409764	drinks
-4.409764	drip
-3.596851	drive
-4.108734	driver
-4.409764	drives
-4.108734	driving
-4.409764	drool
-4.233673	drop
-4.409764	drove
-4.409764	drowning
-4.233673	drug
-4.108734	drunk
-4.233673	dry
-4.409764	dryad
-4.409764	dryer
-4.409764	du
-4.409764	duchy
-4.409764	duck
-4.233673	due
-4.409764	duel
-4.108734	dumb
-4.409764	dumber
-4.409764	dumped
-4.409764	dumpling
-4.409764	durable
-3.807704	during
-4.409764	dust
-4.409764	duties
-4.409764	duty-free
-4.409764	dye
-4.233673	dying
-4.409764	e-commerce
-4.409764	e-mail
-4.409764	e-mailed
-4.409764	e-mailing
-4.409764	e-mails
-3.669401	each
-4.409764	ear
-4.233673	earlier
-4.409764	early
-4.409764	earnest
-4.409764	ears
-4.233673	earth
-4.409764	earthbound
-4.233673	earthquake
-4.233673	easily
-4.233673	easy
-3.596851	eat
-4.011824	eating
-4.233673	eats
-4.409764	echo
-4.409764	echoes
-4.409764	economy
-4.409764	ecstatic
-4.409764	ectoplasmic
-4.108734	edge
-4.409764	edges
-4.409764	edifices
-4.409764	editing
-4.108734	edition
-4.409764	educated
-4.011824	eee
-4.233673	effective
-4.409764	effects
-4.108734	efficient
-4.011824	effort
-4.409764	effortless
-4.233673	efforts
-4.409764	effusive
-4.409764	egg
-4.409764	eggnog
-4.409764	eggplants
-4.108734	eggs
-4.409764	egomaniac
-4.108734	eidetic
-4.233673	eight
-4.409764	eighth
-3.631613	either
-4.409764	elaborate
-4.409764	elderly
-4.233673	elected
-4.233673	electric
-4.233673	electron
-4.233673	electrons
-4.233673	elegant
-3.932643	element
-4.409764	elements
-4.409764	elephant
-4.409764	elevated
-4.233673	eliminate
-4.409764	eliminated
-4.409764	eliminating
-4.409764	eloquently
-3.506674	else
-4.409764	emasculate
-4.011824	embarrassing
-4.409764	embarrassment
-4.409764	emblazoned
-4.409764	embrace
-4.409764	emerged
-3.807704	emergency
-4.409764	emo
-4.011824	emotion
-4.108734	emotional
-4.108734	emotions
-4.409764	employee
-4.409764	employees
-4.409764	employing
-4.409764	empty
-4.233673	emulating
-4.409764	enabling
-4.233673	enchanted
-4.409764	encompasses
-4.233673	encounter
-4.233673	encounters
-4.233673	encouraged
-4.409764	encourages
-3.596851	end
-4.409764	ending
-4.409764	endless
-4.409764	enemies
-4.011824	enemy
-3.932643	engage
-3.932643	engine
-4.233673	engineer
-4.409764	engineering
-4.409764	engulfing
-4.409764	enhancement
-3.710794	enjoy
-4.233673	enjoyable
-4.409764	enjoyed
-4.409764	enjoying
-4.409764	enjoys
-4.409764	enlargement
-3.506674	enough
-4.409764	ensconced
-4.409764	ensign
-4.233673	entered
-4.409764	entering
-4.233673	enterprise
-4.409764	entertained
-4.108734	entertainment
-3.807704	entire
-4.108734	entirely
-4.409764	entities
-4.409764	entitled
-4.233673	entrance
-4.409764	entrepreneurial
-4.409764	entry
-4.409764	enumerates
-4.233673	environment
-4.108734	envy
-4.409764	epiphany
-3.865696	episode
-4.409764	epistemic
-4.233673	equal
-4.409764	equally
-4.108734	equals
-4.409764	equation
-4.409764	equilibrium
-4.409764	equipment
-4.409764	eraser
-4.409764	erogenous
-4.409764	escape
-4.409764	especially
-4.409764	esprit
-4.409764	essence
-4.409764	essentially
-4.409764	essentials
-4.108734	establish
-4.233673	established
-4.409764	establishment
-4.409764	esteem
-4.409764	estrogen-mimicking
-4.409764	eternal
-4.409764	euphemisms
-4.409764	evacuate
-3.388575	even
-3.564666	evening
-4.409764	event
-4.409764	events
-4.409764	eventually
-3.312854	ever
-3.631613	every
-3.756552	everybody
-3.506674	everyone
-3.710794	everything
-4.011824	evidence
-4.409764	evident
-4.233673	evil
-4.108734	evolved
-4.233673	exact
-3.756552	exactly
-4.409764	exam
-3.865696	example
-4.233673	examples
-4.409764	exams
-4.409764	exasperated
-4.409764	exceedingly
-4.409764	exceeds
-4.011824	excellent
-4.409764	except
-4.409764	exceptions
-4.409764	exchange
-4.233673	excited
-4.409764	excusable
-3.631613	excuse
-4.233673	execution
-4.409764	exercise
-4.409764	exercising
-4.409764	exhibition
-4.233673	exist
-4.233673	existed
-4.233673	existence
-4.409764	existing
-4.409764	exists
-4.409764	exit
-4.409764	expand
-4.409764	expanded
-4.233673	expect
-4.409764	expected
-4.108734	expecting
-4.409764	expedition
-4.409764	expel
-4.409764	expensive
-4.108734	experience
-3.865696	experiment
-4.409764	experimentation
-4.409764	experiments
-4.108734	expert
-4.409764	expiration
-3.710794	explain
-4.409764	explains
-4.409764	explode
-4.409764	exploded
-4.409764	exploit
-4.409764	exploration
-4.409764	explore
-4.409764	exploring
-4.409764	explosion
-4.409764	explosive
-4.233673	exposure
-4.233673	expressed
-4.233673	expression
-4.409764	expulsion
-4.409764	exsorbibo
-4.409764	extended
-4.409764	extends
-4.409764	extension
-4.409764	extinction
-4.409764	extorted
-3.756552	extra
-4.233673	extract
-4.409764	extras
-4.409764	extreme
-4.011824	extremely
-4.108734	eye
-4.409764	eyeball
-3.669401	eyes
-3.455522	face
-4.233673	faces
-4.233673	facial
-4.409764	facilities
-4.409764	facing
-4.409764	facsimile
-3.631613	fact
-4.409764	factor
-4.409764	factory
-4.233673	facts
-4.409764	faculty
-4.409764	faeces
-4.233673	fail
-4.409764	failed
-4.233673	fails
-4.011824	failure
-4.409764	failures
-4.011824	fair
-4.011824	fairly
-4.409764	faith
-4.233673	fallen
-4.233673	falling
-4.409764	fallopian
-3.807704	familiar
-3.932643	family
-4.409764	famous
-3.932643	fan
-4.233673	fancy
-4.409764	fandom
-4.409764	fans
-3.756552	far
-4.409764	farther
-4.409764	fast
-4.409764	fastened
-4.409764	faster
-4.233673	fat
-3.865696	father
-3.865696	fault
-4.409764	favorite
-4.233673	favour
-3.932643	favourite
-4.233673	favourites
-4.233673	fear
-4.409764	feast
-4.409764	feed
-3.368371	feel
-4.409764	feel-good
-3.807704	feeling
-3.865696	feelings
-4.409764	feels
-4.011824	feet
-4.409764	feldspar
-4.409764	fell
-4.409764	fella
-4.409764	fellow
-4.108734	felt
-4.108734	female
-4.409764	feminine
-4.409764	fences
-4.409764	fertiliziation
-4.233673	fetch
-4.409764	fever
-3.807704	few
-4.409764	fibre
-4.233673	fiction
-4.409764	fictional
-4.409764	fidelity
-3.865696	field
-4.409764	fiery
-4.233673	fifth
-4.409764	fifty
-4.011824	fight
-4.011824	fighting
-4.409764	figuratively
-3.710794	figure
-4.108734	figured
-4.409764	figurine
-4.409764	file
-4.108734	filled
-4.409764	filling
-4.409764	film
-4.108734	final
-4.409764	finale
-4.409764	finalize
-4.011824	finally
-4.409764	finances
-3.233673	find
-4.108734	finding
-3.564666	fine
-4.233673	finger
-3.807704	fingers
-4.108734	finish
-4.011824	finished
-4.409764	fins
-4.011824	fire
-4.409764	fired
-4.409764	firm
-3.142592	first
-4.409764	fish
-4.409764	fits
-3.807704	five
-4.409764	five-week
-4.409764	fix
-4.409764	fixate
-4.409764	fixated
-4.233673	fixing
-4.233673	fizz
-3.710794	flag
-4.409764	flag-keteers
-4.409764	flag-related
-4.409764	flagpole
-3.932643	flags
-4.409764	flames
-4.409764	flaming
-4.409764	flash
-4.409764	flashback
-4.409764	flashlight
-4.409764	flat
-4.409764	flatulent
-4.409764	flatware
-4.409764	flavour
-4.409764	flavourless
-4.409764	flermin
-4.233673	flies
-4.409764	flings
-4.409764	flip
-4.409764	flippin
-4.409764	flirting
-4.409764	floated
-4.409764	floating
-4.011824	floor
-4.409764	floor-level
-4.409764	flossing
-4.409764	flow
-4.409764	flower
-4.409764	flowers
-4.409764	fluctuation
-4.409764	fluid
-4.233673	flush
-4.233673	fly
-4.409764	flying
-4.233673	focus
-4.409764	fodder
-4.409764	fold
-4.409764	folk
-4.409764	follicle-stimulating
-4.108734	follow
-4.011824	followed
-4.409764	following
-4.409764	fondest
-3.631613	food
-4.233673	foods
-4.233673	fool
-4.409764	fooling
-4.233673	foolish
-4.409764	foot
-4.108734	football
-4.409764	footnote
-2.364441	for
-4.108734	force
-4.011824	forced
-4.233673	forces
-4.233673	forcing
-4.409764	forearm
-4.409764	forego
-4.409764	foreigners
-4.233673	foreseeable
-3.932643	forever
-4.409764	forfeit
-4.409764	forged
-4.409764	forget
-4.233673	forgive
-4.409764	forgiveness
-4.409764	forgotten
-4.011824	form
-4.409764	formally
-4.409764	former
-4.409764	forms
-4.409764	formula
-4.409764	fornicating
-4.108734	fort
-4.409764	forth
-4.409764	fortified
-4.409764	forts
-4.409764	fortuitous
-4.233673	forward
-3.932643	found
-4.409764	foundation
-4.409764	founder
-4.011824	fountain
-3.807704	four
-4.409764	four-eyes
-4.409764	four-letter
-4.409764	fourteen
-4.409764	fourth
-4.409764	foxy
-4.409764	franchise
-4.409764	frankfurter
-4.108734	frankly
-4.011824	fraud
-4.409764	freak
-4.011824	free
-4.409764	freed
-4.409764	freedom
-4.409764	freeze
-4.409764	freezer
-4.409764	frenzy
-4.409764	frequency
-4.409764	frequent
-3.455522	friend
-4.233673	friendly
-3.43204	friends
-4.108734	friendship
-4.409764	friggety-frak
-4.409764	fright
-4.233673	frightened
-4.409764	frightening
-2.897881	from
-3.932643	front
-4.233673	frozen
-4.233673	fruit
-4.409764	frustrated
-4.233673	fuel
-3.932643	full
-4.409764	full-time
-4.409764	fultoni
-3.506674	fun
-4.409764	fun-loving
-4.233673	function
-4.409764	functional
-4.409764	functions
-4.233673	funeral
-4.011824	funny
-4.233673	fur
-4.409764	furnishing
-4.409764	furniture
-4.409764	fusion
-3.932643	future
-4.409764	gag
-4.409764	gain
-4.409764	gal
-4.409764	galactic
-4.409764	galaxies
-4.409764	galaxy
-4.409764	gambol
-3.534703	game
-4.409764	games
-4.409764	gamma
-4.409764	gap
-4.233673	garage
-4.233673	garden
-4.409764	gargling
-3.865696	gas
-4.108734	gate
-4.409764	gathering
-4.233673	gauge
-3.865696	gave
-4.233673	gaze
-4.409764	gelato
-4.233673	general
-4.233673	generally
-4.409764	generate
-4.409764	generations
-4.409764	generic
-3.932643	genetic
-4.108734	genitals
-3.932643	genius
-4.409764	geniuses
-4.409764	genre
-4.108734	gentlemen
-4.409764	genuine
-4.409764	geode-loving
-4.409764	geographic
-4.409764	geologist
-4.409764	geology
-4.409764	geometric
-4.233673	geometry
-4.409764	geriatric
-4.409764	germ
-4.409764	gesture
-2.724022	get
-3.480345	gets
-3.43204	getting
-4.409764	giant
-3.669401	gift
-4.233673	girl
-3.455522	girlfriend
-4.409764	girlfriends
-4.108734	girls
-3.388575	give
-3.807704	given
-4.233673	gives
-4.011824	giving
-4.108734	glad
-4.409764	gladiator
-4.409764	glamorous
-4.409764	glancing
-4.108734	glass
-4.409764	glasses
-4.409764	glassware
-4.409764	global
-4.409764	glove
-4.409764	glove-slapping
-4.233673	gloves
-4.409764	glucosinolates
-2.761404	go
-4.409764	goal
-4.233673	goat
-4.409764	gobble
-4.409764	god
-4.409764	gods
-4.108734	goes
-2.693761	going
-4.011824	gold
-4.409764	goldfish
-4.233673	golf
-4.233673	golly
-3.409764	gon
-3.631613	gone
-2.939942	good
-4.409764	good-bye
-4.409764	good-natured
-4.409764	goodness
-4.233673	goods
-4.233673	goody
-4.409764	goofing
-4.409764	goofy
-4.409764	goose
-4.409764	gosh
-3.131011	got
-4.011824	gotten
-4.409764	gowns
-4.409764	grab
-4.233673	grade
-4.409764	graduate
-4.409764	graduating
-4.409764	grand
-4.409764	grant
-4.409764	grapefruit
-4.409764	grasp
-4.409764	grateful
-4.409764	gratify
-4.233673	gratitude
-4.108734	gravity
-4.409764	gray
-4.409764	grease
-3.506674	great
-4.409764	great-great-great-grandmother
-4.233673	greatest
-4.409764	green
-4.409764	green-eyed
-4.409764	greeting
-4.409764	grew
-4.409764	grey
-4.233673	grilled
-4.233673	grocery
-4.409764	ground
-3.932643	group
-4.409764	grovelling
-4.233673	grow
-4.233673	growing
-4.108734	grown
-4.409764	grows
-4.409764	grumpy
-4.409764	grunt
-4.233673	guarantee
-4.409764	guaranteed
-4.409764	guardians
-3.596851	guess
-4.233673	guessing
-4.233673	guest
-4.409764	guilty
-4.409764	guitars
-4.409764	gullibility
-4.409764	gullible
-4.409764	gum
-4.409764	gums
-4.233673	gun
-4.409764	gunny
-4.409764	guttural
-3.932643	guy
-4.409764	habilus
-4.409764	habits
-4.409764	hack
-2.897881	had
-4.409764	hagfish
-4.409764	haggis
-3.756552	hair
-4.233673	haircut
-4.409764	hairiest
-4.409764	hairs
-3.932643	half
-4.409764	half-shell
-4.233673	halfway
-4.233673	hall
-4.409764	hallucinogenics
-4.233673	hallway
-4.409764	hamburger
-4.108734	hand
-4.409764	hand-shaking
-4.409764	handful
-4.409764	handled
-3.807704	hands
-4.108734	hang
-4.233673	hanging
-3.756552	happen
-3.932643	happened
-4.409764	happening
-4.011824	happens
-4.409764	happier
-4.409764	happiest
-4.409764	happily
-4.233673	happiness
-3.506674	happy
-3.865696	hard
-4.409764	harder
-4.108734	hardly
-4.409764	hardware
-4.409764	harm
-4.108734	harp
-2.970431	has
-4.409764	has-been
-3.865696	hat
-4.409764	hatches
-4.409764	hatchet
-3.756552	hate
-2.257476	have
-3.480345	having
-4.409764	hazard
-2.733071	he
-3.669401	head
-4.409764	healer
-3.368371	hear
-3.932643	heard
-4.011824	hearing
-4.011824	heart
-4.409764	heart-shaped
-4.108734	heat
-4.409764	heavens
-4.233673	heavy
-4.409764	heebie-jeebies
-4.409764	heels
-4.108734	helium
-4.233673	hell
-3.865696	hello
-3.564666	help
-4.409764	helped
-4.233673	helpful
-4.233673	helping
-4.409764	helps
-4.409764	hen
-2.878285	her
-4.409764	herb
-4.409764	herbal
-2.733071	here
-4.409764	hereby
-4.409764	hero
-4.233673	heroes
-4.409764	herpes
-4.409764	hexagon
-4.108734	hey
-4.409764	hi
-4.409764	hi-lo
-4.108734	hidden
-4.409764	hide
-4.409764	hideous
-4.409764	hiding
-3.865696	high
-4.409764	high-energy
-4.409764	high-speed
-4.409764	high-tech
-4.409764	higher-spin
-4.409764	highest
-4.409764	highlights
-4.233673	highly
-4.409764	highness
-4.409764	hilarious
-4.409764	hill
-2.9784	him
-4.233673	himself
-4.409764	hint
-4.409764	hire
-4.233673	hired
-2.947366	his
-4.409764	historic
-4.108734	history
-4.108734	hit
-4.409764	hits
-4.108734	hitting
-4.409764	hive
-4.011824	hmm
-4.409764	hobbit
-4.409764	hobos
-4.409764	hockey
-4.409764	hog
-4.409764	hoi
-4.409764	hoist
-3.865696	hold
-4.108734	holding
-4.409764	hole
-4.409764	holes
-4.409764	holiday-themed
-4.409764	holidays
-4.409764	holy
-3.312854	home
-4.409764	homeless
-4.409764	homemade
-4.409764	homework
-4.409764	homo
-4.409764	homogenous
-4.409764	honest
-4.233673	honesty
-4.409764	honk
-4.409764	honour
-4.409764	honoured
-4.409764	honouring
-4.409764	hook
-4.409764	hop
-3.631613	hope
-4.233673	hopelessly
-4.233673	hoping
-4.108734	hormone
-4.409764	horn
-4.409764	horns
-4.409764	horny
-4.409764	horrible
-4.409764	horror
-4.233673	horse
-4.409764	hospitable
-4.409764	hosted
-4.409764	hostesses
-3.756552	hot
-4.108734	hotel
-4.233673	hour
-3.807704	hours
-3.756552	house
-4.409764	housed
-4.233673	household
-2.932643	how
-3.932643	however
-4.409764	hubba
-4.409764	hugging
-4.108734	huh
-3.710794	human
-4.233673	humanity
-4.108734	humans
-4.409764	humbling
-4.409764	humbly
-4.409764	humiliate
-4.233673	humiliating
-4.409764	hummus
-4.409764	humorous
-4.409764	humorously
-4.409764	humour
-4.011824	hundred
-4.409764	hungry
-4.409764	hunt
-3.932643	hurt
-4.409764	hurtful
-4.409764	hurts
-4.233673	husband
-4.011824	hush
-4.108734	hydrogen
-4.233673	hygiene
-4.409764	hygienic
-4.409764	hyperventilate
-4.233673	hypothesis
-4.409764	hysterical
-4.409764	i.e.
-4.409764	ice
-4.409764	icees
-4.409764	icosahedral
-3.631613	idea
-4.233673	ideal
-4.409764	ideally
-4.108734	ideas
-4.409764	identical
-4.233673	identify
-4.409764	identifying
-4.409764	identity
-4.409764	idol
-2.728523	if
-4.409764	ignite
-4.409764	ignorant
-4.409764	ignoring
-4.409764	iguana
-4.409764	ill
-4.409764	illness
-4.409764	illogical
-4.409764	illusion
-4.233673	imaginary
-4.409764	imagination
-4.011824	imagine
-4.409764	imagined
-4.409764	immaculate
-4.233673	immediately
-4.233673	immerse
-4.409764	impasse
-4.409764	implanted
-4.409764	implication
-4.409764	implications
-4.409764	imply
-4.409764	implying
-4.409764	importance
-3.710794	important
-4.011824	impossible
-4.409764	impressed
-4.409764	impression
-4.233673	impressive
-4.409764	improbable
-4.409764	impromptu
-4.409764	improvement
-4.409764	improvising
-2.143768	in
-4.409764	inaccurate
-4.233673	inappropriate
-4.409764	inattentive
-4.233673	incapable
-4.409764	incessant
-4.409764	incident
-4.409764	incisors
-4.409764	include
-4.409764	included
-4.409764	includes
-4.233673	including
-4.409764	inconsiderate
-4.108734	increase
-4.409764	increases
-4.108734	incredible
-4.108734	incredibly
-4.409764	incubator
-4.409764	incurring
-4.409764	indemnifying
-4.409764	independence
-4.409764	indeterminate
-4.409764	indicates
-4.409764	indicating
-4.409764	indicator
-4.409764	individuals
-4.409764	inevitable
-4.409764	inexact
-4.108734	infection
-4.409764	inferior
-4.409764	inferno
-4.409764	inferred
-4.409764	inferring
-4.409764	infidelity
-4.409764	influenza
-4.409764	info-tainment
-4.409764	inform
-4.409764	information
-4.409764	informed
-4.409764	ingested
-4.233673	ingredients
-4.409764	inhale
-4.409764	inhaler
-4.409764	initial
-4.409764	initiate
-4.233673	initiated
-4.409764	initiating
-4.409764	injury
-4.108734	innovation
-4.409764	input
-4.409764	insane
-4.409764	inscribed
-4.409764	insects
-4.409764	insecurity
-4.108734	insensitive
-4.409764	inside
-4.409764	insight
-4.233673	insightful
-4.409764	insinuate
-4.233673	insist
-4.409764	inspired
-4.409764	instance
-3.710794	instead
-4.409764	instrument
-4.409764	instruments
-4.409764	insulators
-4.409764	insult
-4.233673	insurance
-4.409764	intake
-4.108734	integrity
-4.409764	intellect
-4.011824	intellectual
-4.409764	intellectually
-4.409764	intellectuals
-4.108734	intelligence
-4.233673	intelligent
-4.233673	intend
-4.409764	intended
-4.409764	intention
-4.409764	interact
-4.011824	intercourse
-3.710794	interest
-4.409764	interested
-3.596851	interesting
-4.409764	interests
-4.409764	interject
-4.233673	internal
-4.409764	internet
-4.409764	interpret
-4.409764	interpretation
-4.409764	interrupt
-4.409764	interrupting
-4.409764	interruptions
-4.409764	interspecies
-4.409764	intervention
-4.409764	interview
-4.409764	intimacy
-4.233673	intimate
-4.409764	intimidating
-3.179315	into
-4.409764	intolerance
-4.409764	intolerant
-4.409764	intrigue
-4.409764	intrigued
-4.409764	intriguing
-4.409764	introduce
-4.409764	introduced
-4.409764	introducing
-4.409764	introduction
-4.409764	intruder
-4.409764	invasive
-4.409764	invent
-4.409764	inventor
-4.409764	inverse
-4.409764	investigated
-4.108734	invitation
-4.409764	invitations
-4.233673	invite
-4.233673	invited
-4.409764	involve
-4.233673	involved
-4.409764	involves
-4.409764	involving
-4.409764	iron
-4.409764	ironic
-4.409764	irregularly
-4.409764	irresistible
-4.409764	irritable
-4.409764	irritating
-2.110911	is
-4.409764	isolated
-4.108734	issue
-4.108734	issues
-2.026847	it
-4.409764	itch
-4.233673	items
-4.409764	iterates
-4.409764	iteration
-3.756552	its
-4.409764	itself
-4.409764	jablu'DI
-4.409764	jacket
-4.108734	jar
-4.409764	jay
-4.108734	jealous
-4.409764	jelly
-4.233673	jerks
-4.409764	jewel
-4.011824	job
-4.409764	jock
-4.409764	jockeys
-4.233673	join
-4.233673	joining
-4.409764	joint
-4.409764	joints
-3.756552	joke
-4.011824	jokes
-4.011824	joking
-4.409764	journals
-4.233673	journey
-4.233673	jud
-4.233673	judgment
-4.409764	juggling
-4.233673	juice
-4.233673	jumping
-4.409764	jungles
-4.409764	junior
-2.697957	just
-4.233673	justice
-4.409764	justified
-4.409764	jut
-4.409764	juvenile
-4.409764	juxtaposition
-4.233673	kan
-3.534703	keep
-4.108734	keeping
-4.409764	keister
-4.409764	kettle
-3.865696	key
-4.409764	keys
-4.409764	khoo-vakh
-4.409764	kick
-4.409764	kicks
-4.233673	kid
-4.233673	kidding
-4.409764	kidnaps
-4.409764	kids
-3.932643	kill
-4.409764	killed
-4.409764	kilometer
-3.409764	kind
-4.409764	kindness
-3.807704	king
-4.409764	kings
-4.409764	kiss
-4.409764	kissed
-4.233673	kite
-4.409764	kites
-4.409764	knees
-3.932643	knew
-4.409764	knife
-4.409764	knock
-2.470245	know
-4.409764	know-it-all
-4.233673	knowing
-3.865696	known
-3.865696	knows
-4.233673	koala
-4.409764	kraken
-4.233673	krob
-4.409764	kung
-3.932643	lab
-4.409764	laboured
-4.409764	labs
-4.108734	lack
-4.409764	lacks
-4.233673	lactose
-4.409764	ladders
-4.409764	ladies
-4.011824	lady
-4.409764	lamb
-4.409764	laminated
-4.409764	land
-4.233673	language
-4.409764	lantern
-4.409764	lapel
-4.233673	large
-4.409764	lasagna
-4.108734	laser
-4.409764	lash
-3.368371	last
-3.865696	late
-4.409764	lateral
-4.409764	latest
-4.409764	latex
-4.409764	laudatory
-4.409764	laude
-4.108734	laugh
-4.233673	laughing
-4.409764	laughter
-4.108734	laundry
-4.011824	law
-4.233673	lay
-4.409764	lazy
-3.409764	ldon
-4.409764	lead
-4.409764	leader
-4.409764	leadership
-4.409764	leads
-4.409764	leaf
-4.409764	leap
-3.710794	learn
-4.011824	learned
-4.409764	learner
-4.409764	learning
-4.409764	lease
-4.409764	leash
-3.710794	least
-3.807704	leave
-3.807704	leaving
-4.233673	lecture
-4.409764	lecturer
-3.669401	left
-4.409764	left-hand
-4.409764	leg
-4.409764	legal
-4.409764	legitimate
-4.409764	legs
-4.233673	lemon
-4.108734	lemonade
-4.409764	lemons
-4.233673	lending
-4.011824	less
-4.233673	lesson
-4.409764	lessons
-3.003224	let
-4.409764	lets
-3.932643	letter
-4.409764	letter-writing
-4.409764	letters
-4.409764	lettuce
-4.011824	level
-4.409764	level-80
-4.011824	levels
-4.409764	liar
-4.409764	liberty
-4.409764	library
-4.409764	libre
-4.233673	license
-3.865696	lie
-4.409764	lied
-4.409764	lies
-3.349066	life
-4.409764	lifelong
-4.233673	lifetime
-4.409764	lifted
-4.011824	light
-4.409764	lighting
-4.233673	lightly
-4.409764	lights
-2.583689	like
-4.233673	likely
-4.108734	likes
-4.409764	lime
-4.409764	limited
-4.409764	limp
-3.631613	line
-4.409764	lines
-4.233673	lion
-4.409764	lions
-4.409764	lip
-4.409764	lips
-4.233673	liquid
-4.409764	liquids
-3.865696	list
-4.233673	listed
-3.807704	listen
-4.011824	listening
-4.409764	literal
-4.233673	literally
-4.409764	literature
-4.409764	litigious
-3.233673	little
-3.596851	live
-4.409764	livelihood
-3.409764	living
-4.011824	lizard
-4.409764	lizard-Spock
-4.409764	lizards
-4.409764	load
-4.409764	loading
-4.409764	loathe
-4.409764	lobby
-4.409764	lobe
-4.409764	local
-4.108734	locate
-4.409764	located
-4.233673	location
-4.409764	locket
-4.409764	locks
-4.409764	locksmith
-4.233673	locomotive
-4.108734	locus
-4.409764	lodge
-4.233673	log
-4.409764	logged
-4.409764	logic
-4.409764	logical
-4.409764	lollipop
-4.233673	lonely
-3.534703	long
-4.409764	long-lost
-3.865696	longer
-3.108734	look
-4.011824	looked
-3.932643	looking
-3.807704	looks
-4.409764	loose
-4.409764	lord
-4.409764	loser
-4.233673	loses
-4.233673	losing
-4.233673	loss
-4.233673	lost
-3.455522	lot
-4.409764	lotion
-4.011824	loud
-4.409764	lousy
-4.409764	lovable
-3.263636	love
-4.233673	loved
-4.233673	loves
-4.409764	loving
-4.233673	low
-4.409764	low-hanging
-4.409764	low-pulp
-4.409764	low-unit
-4.409764	lower
-4.409764	loyalty
-4.409764	luckily
-4.108734	lucky
-4.409764	lui
-4.409764	lumberjack
-4.409764	luminous
-4.233673	lump
-4.409764	lumps
-3.865696	lunch
-4.409764	lunges
-4.011824	lying
-4.233673	lyrics
-4.409764	m
-4.409764	ma'am
-3.807704	machine
-4.409764	machinery
-4.409764	machines
-4.409764	mackerel
-3.756552	mad
-3.142592	made
-4.409764	magazine
-4.108734	magic
-4.108734	magnificent
-4.409764	magnitude
-4.011824	mail
-4.409764	mail-order
-4.108734	maintain
-4.409764	majesty
-4.233673	major
-4.409764	majority
-3.003224	make
-3.564666	makes
-3.534703	making
-3.932643	male
-4.409764	malfunctioning
-4.409764	mall
-4.233673	mammal
-4.409764	mammals
-3.349066	man
-4.409764	manage
-4.409764	manager
-4.409764	manipulate
-4.409764	manipulates
-4.409764	manipulating
-4.409764	manufacture
-4.409764	manufactured
-4.409764	manufacturer
-3.480345	many
-4.108734	map
-4.409764	marathon
-4.409764	marijuana
-4.233673	marital
-4.409764	market
-4.409764	marketable
-4.409764	marriage
-4.233673	marriages
-4.011824	married
-4.409764	mascot
-4.409764	masculinity
-4.409764	mashed
-4.409764	mass
-4.409764	massages
-4.409764	masses
-4.409764	massively
-4.409764	master
-4.409764	mastering
-4.409764	mastery
-4.233673	match
-3.932643	mate
-4.409764	mater
-4.233673	material
-4.409764	mates
-4.108734	math
-4.409764	mathematical
-4.409764	mathematically
-4.409764	mathematics
-3.506674	matter
-4.233673	matters
-4.409764	mattress
-4.409764	maximize
-4.409764	maximum
-3.219432	may
-4.011824	maybe
-4.409764	mayor
-2.218034	me
-4.409764	me.
-4.409764	mea
-4.409764	meae
-4.108734	meal
-3.295821	mean
-4.011824	meaning
-4.409764	meaningful
-3.710794	means
-4.011824	meant
-4.409764	meantime
-4.409764	measurable
-4.409764	measure
-4.409764	measuring
-4.409764	mechanics
-4.409764	medical
-4.409764	medication
-4.409764	medieval
-4.409764	mediocre
-4.409764	mee
-3.932643	meet
-4.108734	meeting
-4.409764	meets
-4.409764	melodramatic
-4.233673	member
-4.409764	memoirs
-4.108734	memory
-3.756552	men
-4.409764	mend
-4.409764	menstrual
-4.409764	mental
-4.011824	mention
-4.233673	mentioned
-4.233673	menu
-4.409764	mercury
-4.233673	mere
-4.409764	mermaids
-3.932643	message
-4.108734	messages
-4.409764	messaging
-4.108734	messy
-4.108734	met
-4.011824	metaphor
-4.233673	meters
-4.409764	methane
-4.409764	method
-4.409764	methods
-4.409764	metric
-4.409764	mice
-4.409764	microphone
-4.409764	microscopic
-3.865696	middle
-3.219432	might
-4.233673	mighty
-4.409764	mildly
-4.409764	mile
-4.409764	miles
-3.932643	milk
-4.409764	millilitres
-4.409764	millimetre
-4.409764	millimetres
-4.233673	million
-4.409764	mimesis
-3.27943	mind
-4.409764	mind-boosting
-4.409764	mindless
-4.233673	mine
-4.409764	mingled
-4.409764	minimizing
-4.233673	minor
-4.409764	mint
-4.108734	minute
-4.011824	minutes
-4.409764	mirror
-4.409764	misappropriating
-4.409764	miscellany
-4.409764	miserable
-4.409764	mishap
-4.409764	misinterpret
-4.409764	misnomer
-4.011824	miss
-4.108734	missed
-4.409764	missile
-4.108734	missing
-4.108734	mission
-4.409764	misspeak
-4.233673	mistake
-4.409764	mistletoe
-4.233673	mix
-4.409764	mixed
-4.233673	mm
-4.233673	mmm
-4.409764	mo
-4.409764	mock
-4.409764	mocked
-4.108734	mocking
-4.233673	model
-4.409764	moderate
-4.233673	modern
-4.409764	mole
-4.409764	molecules
-4.409764	mollified
-4.409764	molten
-3.932643	mom
-3.710794	moment
-4.108734	moments
-3.756552	money
-4.409764	monitoring
-4.108734	monkey
-3.631613	monkeys
-3.932643	monster
-4.233673	month
-3.807704	months
-4.108734	mood
-4.409764	moot
-4.409764	moping
-3.029553	more
-3.480345	morning
-4.409764	mosquitoes
-3.368371	most
-3.295821	mother
-4.108734	motion
-4.409764	motivational
-4.409764	motorcycle
-4.409764	motto
-4.409764	mount
-4.409764	mourning
-4.233673	mouse
-4.409764	mousse
-4.108734	mouth
-3.669401	move
-4.011824	moved
-4.233673	moves
-3.756552	movie
-3.756552	movies
-3.756552	moving
-3.11973	much
-4.409764	mucus-powered
-4.409764	mug
-4.409764	multi-player
-4.409764	multi-threaded
-4.233673	multidimensional
-4.409764	multiple
-4.409764	multitasking
-4.409764	multiverse
-4.409764	multivitamin
-4.409764	murderers
-4.409764	muscle
-4.409764	muscles
-4.409764	mushroom
-4.108734	music
-4.409764	musical
-3.349066	must
-4.011824	mustard
-4.409764	mutant
-4.409764	mutation
-4.409764	mute
-4.409764	mutually
-2.211107	my
-4.409764	my'
-3.534703	myself
-4.409764	mysterious
-4.409764	mystery
-4.409764	n
-2.108734	n't
-3.388575	na
-4.409764	naively
-4.409764	naked
-3.506674	name
-4.108734	named
-4.409764	named'
-4.233673	names
-4.409764	naming
-4.409764	nap
-4.409764	napkin
-4.233673	nation
-4.409764	national
-4.409764	nattering
-4.233673	natural
-3.932643	nature
-4.409764	nay'
-4.409764	near
-4.409764	nearby
-4.409764	nearly
-4.409764	neat
-4.409764	neatly
-4.233673	necessarily
-4.233673	necessary
-4.108734	neck
-4.409764	necromancer
-3.154492	need
-4.011824	needs
-4.233673	negative
-4.409764	negotiating
-4.409764	neighbourhood
-4.233673	neither
-4.409764	nerve
-4.409764	nerve-wracking
-4.108734	nervous
-4.409764	neurobiologist
-4.409764	neutral
-4.409764	neutrino
-3.108734	never
-3.388575	new
-3.710794	news
-3.455522	next
-4.233673	ni
-3.807704	nice
-4.409764	nicely
-4.409764	nicer
-4.409764	niceties
-4.409764	nickname
-4.233673	nicotine
-3.205644	night
-4.233673	nightmare
-4.409764	nightmares
-4.108734	nights
-4.409764	nightshade
-4.409764	nihil
-4.409764	nine
-4.409764	nineteenth
-4.409764	nitpick
-2.628009	no
-4.409764	no'
-4.233673	noble
-4.108734	nobody
-4.233673	noise
-4.409764	nomenclature
-4.409764	non-existent
-4.409764	non-fiction
-4.409764	non-physicist
-4.409764	non-verbal
-4.233673	none
-4.409764	nonequilibrium
-4.108734	nonsense
-4.409764	noogies
-4.233673	nor
-4.409764	norm
-4.409764	normally
-3.932643	nose
-4.409764	noses
-4.233673	nostril
-2.374334	not
-4.409764	not-a-doctor
-4.409764	notarised
-4.108734	note
-4.409764	noted
-3.480345	nothing
-4.108734	notice
-4.409764	noticed
-4.233673	nourishment
-4.409764	novel
-4.409764	novella
-4.409764	novelty
-2.791716	now
-4.011824	nowhere
-4.409764	nudity
-3.710794	number
-4.108734	numbers
-4.409764	nurse
-4.409764	o'clock
-4.409764	oak
-4.409764	oatmeal
-4.409764	object
-4.233673	objection
-4.409764	obligated
-4.409764	obligation
-4.409764	obnoxious
-4.108734	observation
-4.409764	observe
-4.409764	observed
-4.011824	obvious
-4.409764	occasionally
-4.409764	occasions
-4.409764	occipital
-4.233673	occurred
-4.233673	occurs
-4.409764	octave
-4.233673	odd
-4.233673	odds
-1.968069	of
-4.409764	of'
-3.27943	off
-4.409764	off-putting
-4.233673	offence
-3.932643	offer
-4.409764	offering
-4.108734	offers
-3.932643	office
-4.233673	officer
-4.233673	officers
-4.409764	officially
-4.409764	offline
-4.409764	offspring
-4.108734	often
-4.233673	ogres
-3.596851	oh
-3.669401	okay
-3.710794	old
-4.409764	old-fashioned
-4.409764	older
-4.409764	oldest
-2.349066	on
-4.409764	onamona-poetry
-3.756552	once
-2.697957	one
-4.409764	one-act
-4.409764	one-in-700,000
-4.409764	ones
-4.409764	onion
-3.865696	online
-3.142592	only
-4.409764	onto
-3.43204	open
-4.233673	opening
-4.233673	operate
-4.409764	operating
-4.409764	opiates
-4.011824	opinion
-4.233673	opportunity
-4.233673	opposed
-4.233673	opposite
-4.409764	opt
-4.409764	optimal
-4.409764	optimum
-4.108734	option
-4.409764	optional
-2.986518	or
-4.409764	oral
-4.409764	orally
-4.409764	orange
-3.631613	order
-4.233673	ordered
-4.409764	ordinary
-4.409764	organically
-4.409764	organisational
-4.409764	organizational
-4.233673	originally
-3.368371	other
-3.932643	others
-4.409764	otherwise
-4.409764	otter
-4.233673	ought
-4.409764	ounce
-2.853462	our
-4.108734	ours
-4.011824	ourselves
-2.715159	out
-4.409764	outearn
-4.409764	outraged
-4.409764	outreach
-4.011824	outside
-4.409764	outsource
-4.409764	outstanding
-4.409764	ovaries
-4.409764	oven
-3.295821	over
-4.409764	overcome
-4.409764	overlapping
-4.409764	overlooked
-4.409764	overlord
-4.233673	overly
-4.409764	overrated
-4.409764	overreacting
-4.409764	overreaction
-4.409764	overseas
-4.409764	overshadowed
-4.409764	overweight
-3.865696	ow
-4.409764	ow'
-4.409764	owe
-3.295821	own
-4.409764	owned
-4.409764	owning
-4.409764	oxygen
-4.409764	oxytocin
-4.409764	oyster
-4.409764	pack
-4.409764	package
-4.233673	packed
-4.409764	packet
-4.409764	packing
-4.409764	pad
-4.409764	pages
-4.108734	paid
-4.233673	pain
-4.409764	pains
-4.108734	painting
-4.233673	pair
-4.409764	paired
-4.409764	pajamas
-4.409764	palatable
-4.409764	palindrome
-4.409764	pals
-4.409764	pancakes
-4.409764	pandering
-4.233673	panel
-4.409764	panels
-4.233673	panic
-4.409764	panicked
-3.865696	pants
-4.409764	pantsed
-4.409764	pantsing
-4.409764	pantyhose
-4.409764	pao
-3.596851	paper
-4.409764	papers
-4.233673	parade
-4.233673	paradigm
-4.409764	parallax
-4.233673	parallel
-4.409764	paraphrasing
-4.409764	parasitoid
-4.011824	parents
-4.233673	park
-3.932643	parking
-3.669401	part
-4.409764	participants
-4.409764	participate
-4.233673	particle
-4.233673	particles
-4.409764	particular
-4.409764	parties
-4.409764	partner
-4.233673	partners
-4.233673	parts
-3.631613	party
-3.865696	pass
-4.409764	passages
-4.108734	passing
-4.409764	password
-4.233673	past
-4.409764	pat
-4.409764	patch
-4.233673	patent
-4.409764	patently
-4.409764	path
-4.409764	pathetic
-4.409764	pathogens
-4.409764	patient
-4.409764	patootie
-4.409764	pattern
-4.409764	patterns
-4.233673	pay
-4.409764	pea
-4.233673	peace
-4.233673	peanut
-4.409764	pebble
-4.409764	pecking
-4.233673	pee
-4.233673	peels
-4.409764	peephole
-4.409764	peer
-4.409764	peer-based
-4.409764	peers
-4.233673	pei
-4.409764	pellet
-4.409764	penchant
-4.409764	pencils
-3.11973	people
-4.409764	pepper
-4.409764	pepperoni
-3.865696	per
-4.409764	perceived
-4.108734	percent
-4.409764	percussive
-3.865696	perfect
-4.233673	perfectly
-4.233673	perform
-4.409764	performance
-4.409764	performing
-4.233673	perfume
-4.409764	perfunctory
-3.710794	perhaps
-4.409764	period
-4.409764	periodic
-4.409764	periods
-4.409764	peripheral
-4.409764	permanent
-4.409764	permit
-4.409764	persistent
-3.564666	person
-4.233673	personal
-4.409764	personally
-4.409764	perspiration
-4.409764	perverts
-4.409764	pest
-4.108734	pet
-4.409764	petrie
-4.409764	pets
-4.409764	philosopher
-4.233673	phobia
-3.756552	phone
-4.409764	phones
-4.409764	photoionization
-4.409764	photos
-4.409764	phrase
-4.409764	phrased
-3.756552	physical
-4.108734	physicist
-4.108734	physicists
-3.756552	physics
-4.409764	physiological
-4.233673	pick
-3.932643	picked
-4.233673	picking
-4.409764	pickle
-4.409764	picks
-4.409764	picky
-4.409764	picnic
-3.807704	picture
-4.409764	pictures
-4.409764	pie
-4.409764	piece
-4.233673	pile
-4.409764	pilgrim
-4.409764	pillow
-4.409764	pilot
-4.409764	pina
-4.409764	pineapple
-4.409764	pinpoint
-4.409764	pistols
-4.233673	pitch
-4.409764	pixels
-4.011824	pizza
-3.756552	place
-4.409764	placed
-4.233673	places
-4.409764	plagued
-3.865696	plan
-4.233673	planet
-4.409764	planetarium
-4.409764	planetary
-4.409764	planetes
-4.233673	planned
-4.409764	planner
-4.108734	planning
-4.233673	plans
-4.409764	plant
-4.409764	plaque
-4.409764	plasma
-4.233673	plate
-4.409764	platypus
-4.409764	plausibly
-3.263636	play
-3.710794	played
-4.409764	player
-4.409764	playfulness
-3.865696	playing
-4.409764	pleasant
-4.409764	pleasantries
-3.368371	please
-4.233673	pleased
-4.409764	pleasing
-4.409764	pleasure
-4.108734	plenty
-4.409764	plethora
-4.409764	plight
-4.233673	plop
-4.409764	plucked
-4.409764	plug
-4.409764	plumbing
-4.409764	plummeting
-4.409764	plunk
-4.233673	plus
-4.233673	pocket
-4.409764	podium
-3.455522	point
-4.409764	point-to-point
-3.932643	pointed
-4.409764	pointer
-4.233673	pointless
-4.108734	points
-4.409764	pointy
-4.233673	poison
-4.409764	poisoned
-4.409764	poisons
-3.932643	police
-4.409764	policy
-4.409764	polish
-4.409764	polite
-4.409764	polloi
-4.409764	pondering
-4.409764	poolside
-4.233673	poor
-4.409764	poorly
-4.233673	pop
-4.409764	popcorn
-4.409764	poppycock
-4.409764	pops
-4.233673	popular
-4.409764	portion
-4.409764	posit
-4.409764	position
-4.409764	positrons
-4.409764	possessor
-4.108734	possibility
-4.011824	possible
-4.233673	possibly
-4.409764	possums
-4.233673	posted
-4.409764	posterior
-4.409764	postulating
-4.233673	potato
-4.409764	potatoes
-4.409764	potential
-4.409764	potions
-4.409764	pounding
-4.409764	powder
-3.932643	power
-4.409764	power-failure
-4.409764	powerful
-4.409764	powers
-4.409764	practice
-4.409764	pranks
-4.409764	prayers
-4.409764	precise
-4.409764	precocious
-4.409764	predicated
-4.409764	predisposition
-4.409764	preening
-4.011824	prefer
-4.409764	preferences
-4.409764	prefrontal
-4.409764	premiere
-4.108734	premise
-4.409764	premises
-4.409764	preparation
-4.108734	prepare
-3.932643	prepared
-4.409764	preparedness
-4.409764	preposterous
-4.409764	preschool
-4.108734	presence
-3.865696	present
-4.233673	presents
-4.409764	pressing
-4.108734	pressure
-4.409764	presumed
-4.409764	presumption
-4.233673	pretend
-4.409764	pretended
-3.865696	pretty
-4.409764	prevent
-4.409764	previous
-4.409764	prey
-4.233673	price
-4.409764	prime
-4.409764	primordial
-4.409764	princess
-4.409764	principle
-4.409764	printer
-4.233673	prints
-4.233673	prison
-4.409764	privacy
-4.409764	privilege
-4.409764	prize
-4.409764	pro
-3.865696	probably
-4.409764	probes
-3.455522	problem
-3.865696	problems
-4.409764	procedure
-4.409764	proceeding
-4.233673	process
-4.409764	proctologist
-4.409764	prodigy
-4.233673	produces
-4.409764	product
-4.409764	production
-4.409764	productive
-4.409764	productivity
-4.409764	products
-4.409764	profession
-4.233673	professional
-4.409764	professor
-4.409764	profit
-4.409764	profound
-4.409764	progeny
-4.409764	program
-4.409764	prolonged
-4.233673	prom
-4.011824	promise
-4.233673	promised
-4.233673	promising
-4.409764	proof
-4.233673	propagation
-4.409764	proper
-4.409764	property
-4.409764	proposal
-4.409764	propose
-4.409764	propositions
-4.409764	prospects
-4.108734	prostate
-4.409764	protagonist
-4.409764	protect
-4.233673	protective
-4.409764	protein
-4.409764	protest
-4.233673	protocol
-4.233673	proton
-4.233673	proud
-4.108734	provide
-4.011824	provided
-4.108734	provides
-4.409764	prowess
-4.409764	prowl
-4.409764	proximity
-4.409764	psychiatrist
-4.233673	psychic
-4.409764	psychological
-4.409764	psychotherapy
-4.409764	puberty
-4.409764	public
-4.409764	publication
-4.409764	published
-4.409764	pubococcygeus
-4.409764	puck
-4.233673	pudding
-4.409764	puffing
-4.409764	puffy
-3.807704	pull
-4.233673	pump
-4.233673	punch
-4.409764	puns
-4.409764	puppet
-4.233673	purchase
-4.409764	pure
-4.409764	purpose
-4.233673	pursue
-4.409764	pursuing
-4.409764	pussycat
-3.248396	put
-4.409764	puts
-4.409764	putting
-4.409764	puzzle
-4.409764	puzzled
-4.409764	puzzles
-4.108734	pyjamas
-4.409764	qochbe
-4.108734	qualities
-3.932643	quality
-4.108734	quantum
-4.409764	quarterly
-3.932643	queen
-4.409764	quench
-4.409764	query
-4.233673	quest
-3.43204	question
-4.409764	questionnaire
-3.756552	questions
-4.108734	quick
-4.409764	quid
-4.409764	quietly
-4.409764	quintessential
-4.409764	quit
-3.564666	quite
-4.409764	quiver
-4.409764	quo
-4.409764	quota
-4.233673	quote
-4.409764	rabbits
-4.409764	rabeliechtli
-4.409764	raccoon
-4.409764	radiator
-4.409764	radio
-4.409764	radioactive
-4.409764	radium
-4.409764	rager
-4.409764	railroading
-4.409764	railway
-4.409764	rain
-4.409764	rainbow
-4.233673	raise
-4.409764	raised
-4.409764	raisins
-4.409764	rampant
-4.409764	random
-4.409764	ranking
-4.409764	ransacking
-4.409764	rapidly
-4.409764	rare
-4.409764	rate
-4.108734	rather
-4.409764	ratio
-4.409764	ray
-4.409764	rays
-4.409764	re-enact
-4.409764	re-establishment
-4.409764	re-watch
-4.409764	re-zip
-4.409764	reH
-4.409764	reabsorb
-4.233673	reach
-4.409764	reached
-4.233673	reaction
-3.756552	read
-4.409764	readers
-4.108734	reading
-4.409764	reads
-3.865696	ready
-3.756552	real
-4.409764	realised
-4.409764	reality
-3.669401	realize
-3.807704	realized
-3.19228	really
-4.409764	reascended
-3.534703	reason
-4.108734	reasonable
-4.409764	reasoning
-4.108734	recall
-4.409764	receipt
-4.409764	receive
-4.409764	received
-4.108734	recent
-4.108734	recently
-4.409764	recognition
-4.409764	recognize
-4.409764	recognized
-4.409764	recollections
-4.409764	recommend
-4.409764	recommendation
-3.807704	record
-4.409764	recordings
-4.108734	records
-4.409764	recovering
-4.409764	recreate
-4.409764	rectum'
-3.710794	red
-4.409764	rediscovered
-4.409764	reduces
-4.409764	reducing
-4.409764	redundancy
-4.409764	reel
-4.409764	refer
-3.932643	reference
-4.409764	referred
-3.932643	referring
-4.409764	refreshing
-4.409764	refreshment
-4.233673	refrigerator
-4.409764	refusal
-4.108734	refuse
-4.409764	regard
-4.409764	region
-4.409764	register
-4.409764	regulae
-4.011824	regular
-4.409764	regulate
-4.409764	rehab
-4.409764	rehearsed
-4.409764	reign
-4.409764	reinforce
-4.409764	reinitialize
-4.409764	reinstall
-4.409764	reject
-4.409764	relate
-4.233673	related
-4.409764	relates
-4.409764	relation
-3.43204	relationship
-4.011824	relationships
-4.409764	relatives
-4.108734	relax
-4.409764	relaxer
-4.409764	relaxing
-4.409764	release
-4.409764	released
-4.409764	releasing
-4.409764	relentlessly
-4.233673	relieve
-4.409764	relieving
-4.409764	religion
-4.409764	relying
-4.233673	remain
-4.409764	remaining
-4.409764	remains
-4.011824	remarkable
-3.596851	remember
-4.409764	remind
-4.409764	reminders
-4.409764	remorse
-4.409764	remove
-4.409764	removed
-4.409764	rendered
-4.409764	rendering
-4.409764	renewed
-4.409764	renowned
-4.233673	rent
-4.409764	renting
-4.409764	reopen
-4.233673	repeat
-4.233673	repeated
-4.108734	replace
-4.409764	report
-4.409764	reported
-4.409764	reports
-4.409764	reproduce
-4.409764	reprogram
-4.409764	reprogramming
-4.108734	reputation
-4.011824	request
-4.409764	requested
-4.108734	required
-4.233673	requires
-4.409764	requiring
-3.807704	research
-4.409764	reservations
-4.409764	reserved
-4.233673	resident
-4.409764	resides
-4.108734	residual
-4.409764	resolution
-4.409764	resonance
-4.233673	respect
-4.233673	respond
-4.108734	response
-4.409764	responses
-4.233673	responsibilities
-4.108734	rest
-4.409764	restate
-4.409764	restatement
-4.409764	restore
-4.409764	restraining
-4.409764	restraint
-4.409764	restroom
-4.108734	result
-4.409764	resultant
-4.409764	resulting
-4.409764	retail
-4.409764	retaining
-4.409764	retired
-4.409764	retracted
-3.710794	return
-4.233673	returned
-4.233673	returning
-4.409764	revering
-4.409764	reverse
-4.409764	review
-4.233673	rhetorical
-4.409764	rhythmic
-4.409764	rhythms
-4.409764	ribs
-4.409764	rice
-4.409764	richer
-4.233673	rid
-4.233673	ride
-4.409764	rides
-3.932643	ridiculous
-4.409764	ridiculously
-2.724022	right
-4.409764	rights
-4.233673	righty
-3.932643	ring
-4.409764	ringer
-4.233673	rings
-4.108734	rise
-4.011824	risk
-4.409764	risking
-4.409764	river
-4.409764	riverboat
-4.409764	road
-4.409764	roast
-4.409764	robes
-4.108734	robot
-4.409764	robotic
-3.865696	rock
-4.409764	rock-paper-scissors-
-4.409764	rocked
-4.108734	rocket
-4.233673	rocks
-4.409764	role
-4.409764	role-playing
-4.108734	roll
-4.409764	rolls
-4.233673	romance
-4.011824	romantic
-4.409764	romp
-4.409764	roof
-3.27943	room
-3.807704	roommate
-4.233673	rose
-4.409764	roses
-4.409764	rot
-4.409764	rotation
-4.233673	rough
-4.409764	round
-4.409764	roundtable
-4.409764	route
-4.233673	rub
-4.409764	rubber
-4.409764	rubbing
-4.409764	rubes
-4.233673	rude
-4.409764	rugby
-4.233673	ruin
-4.011824	ruined
-4.409764	ruining
-4.011824	rule
-3.865696	rules
-4.409764	rum
-3.865696	run
-3.932643	running
-4.409764	runny
-4.409764	runs
-4.233673	ruse
-4.409764	rush
-4.233673	sacks
-4.409764	sacred
-4.409764	sacrificing
-4.011824	sad
-4.409764	sadness
-4.011824	safe
-4.409764	safely
-4.011824	safety
-3.11973	said
-4.409764	sake
-4.233673	salad
-4.409764	sale
-4.409764	saliva
-4.108734	salon
-4.409764	salt
-4.409764	salute
-3.409764	same
-4.409764	sanctuary
-4.409764	sandals
-4.108734	sandwich
-4.409764	sarca..
-4.108734	sarcasm
-4.409764	sarcastic
-4.108734	sat
-4.409764	satay
-4.409764	sate
-4.108734	sauce
-4.409764	saucy
-4.409764	savagery
-4.233673	save
-4.409764	saved
-4.409764	savings
-4.011824	saw
-2.89125	say
-3.534703	saying
-4.108734	says
-4.233673	scale
-4.233673	scales
-4.409764	scalpel
-4.409764	scamp
-4.409764	scanner
-4.409764	scare
-4.409764	scared
-4.409764	scavenger
-4.233673	scenario
-4.409764	scenes
-4.409764	scented
-4.409764	sceptical
-4.108734	schedule
-4.409764	schematic
-4.409764	scheme
-4.108734	school
-4.409764	schoolchildren
-4.409764	schoolyard
-3.409764	science
-4.108734	sciences
-4.011824	scientific
-4.233673	scientifically
-4.108734	scientist
-4.233673	scientists
-4.108734	scissors
-4.409764	scolding
-4.409764	scone
-4.409764	scoop
-4.409764	scoot
-4.409764	score
-4.409764	scourge
-4.409764	scratch
-4.409764	screen
-4.409764	screening
-4.233673	screw
-4.409764	scribbled
-4.233673	scrotum
-4.409764	sea
-4.409764	seal
-4.233673	season
-3.932643	seat
-4.409764	seatbelts
-4.108734	seats
-3.631613	second
-4.108734	seconds
-4.011824	secret
-4.409764	secretary
-4.409764	secrets
-4.409764	section
-4.409764	secure
-4.011824	security
-4.409764	seduced
-2.859536	see
-4.409764	seeds
-3.865696	seeing
-4.409764	seek
-4.409764	seeking
-3.756552	seem
-4.233673	seemed
-3.756552	seems
-3.932643	seen
-4.409764	self-employed
-4.409764	self-important
-4.409764	self-serving
-4.409764	sell
-4.409764	semblance
-4.108734	send
-4.409764	sending
-3.932643	sense
-4.409764	sensory
-4.011824	sent
-4.409764	sentiment
-4.409764	separating
-4.409764	sequels
-4.233673	sequence
-4.409764	sequins
-4.409764	series
-4.233673	serious
-4.409764	seriously
-4.409764	serpent
-4.409764	servants
-4.409764	serve
-4.233673	served
-4.409764	serves
-4.409764	service
-4.409764	services
-4.409764	session
-3.807704	set
-4.409764	sets
-4.409764	setting
-4.233673	settle
-4.233673	settled
-4.409764	seventh
-4.409764	sevenths
-4.409764	several
-3.865696	sex
-4.409764	sexist
-3.710794	sexual
-4.409764	sexy
-4.409764	shade
-4.409764	shadow
-4.409764	shake
-4.409764	shaking
-4.409764	shaky
-3.932643	shall
-4.409764	shanty
-4.409764	shape
-4.409764	shaped
-4.011824	share
-4.409764	shares
-4.409764	sharing
-4.409764	shark
-2.878285	she
-4.409764	shed
-4.409764	sheep
-4.011824	sheets
-4.233673	shelf
-4.409764	shepherds
-4.409764	shield
-4.409764	ship
-4.108734	shirt
-4.233673	shock
-4.233673	shoe
-4.233673	shoes
-4.409764	shoot
-4.409764	shootin
-4.108734	shopping
-4.409764	shops
-4.011824	short
-4.409764	shortened
-4.409764	shorter
-4.409764	shortly
-3.038696	should
-4.409764	shoulder
-4.409764	shoulders
-3.455522	show
-4.409764	shower
-4.409764	showmanship
-4.409764	shown
-4.409764	shows
-4.409764	shrimp
-4.409764	shut
-4.011824	sick
-3.865696	side
-4.409764	sigma
-3.932643	sign
-4.233673	signal
-4.108734	signed
-4.409764	significance
-4.108734	significant
-4.233673	significantly
-4.108734	silence
-4.011824	silly
-4.409764	silo
-4.233673	similar
-3.807704	simple
-4.409764	simpleton
-4.409764	simpletons
-4.233673	simply
-4.409764	simulated
-4.233673	simulator
-3.596851	since
-4.409764	sing
-4.409764	singing
-4.011824	single
-4.233673	sink
-4.409764	sip
-4.409764	sir
-3.865696	sister
-3.756552	sit
-4.011824	sits
-4.108734	sitting
-4.108734	situation
-3.865696	six
-4.409764	six-and-a-third
-4.409764	six-thirty
-4.409764	sixth
-3.865696	size
-4.409764	skeleton
-4.409764	sketchy
-4.233673	skilled
-4.011824	skills
-4.409764	skip
-4.409764	skirt
-4.409764	skulls
-4.409764	sky
-4.409764	skyrocketing
-4.409764	slam
-4.409764	slash
-4.409764	slave
-3.756552	sleep
-4.233673	sleepy
-4.409764	sleevis
-4.108734	slices
-4.233673	slide
-4.233673	slight
-4.409764	slightest
-4.233673	slightly
-4.409764	slip
-4.409764	slipped
-4.409764	slippery
-4.409764	slope
-4.409764	slow
-4.409764	slow-dancing
-4.409764	slow-walk
-4.409764	slump
-4.409764	smack
-3.756552	small
-4.108734	smaller
-4.108734	smart
-4.233673	smarter
-4.409764	smashes
-4.409764	smell
-4.409764	smelly
-4.409764	smile
-4.409764	smiley
-4.409764	smiling
-4.108734	smoke
-4.409764	smokes
-4.233673	smoking
-4.409764	smoothness
-4.011824	snake
-4.409764	snakes
-4.409764	sneaker
-4.409764	sneeze
-4.409764	snort
-4.409764	snowmen
-4.409764	snowy
-4.409764	snuck
-2.702194	so
-4.409764	so-called
-4.409764	soap
-4.409764	soaps
-3.932643	social
-4.233673	society
-4.409764	sociopath
-4.409764	sock
-4.409764	soft
-4.108734	soften
-4.409764	softened
-4.409764	softly
-4.409764	soiree
-4.409764	soldiers
-4.409764	solid
-4.409764	solids
-4.409764	solo
-3.932643	solution
-4.108734	solve
-4.011824	solved
-4.409764	solving
-3.077326	some
-4.409764	somebody
-4.409764	somehow
-3.455522	someone
-3.295821	something
-4.108734	somewhat
-4.108734	somewhere
-4.108734	son
-3.807704	song
-4.409764	songs
-4.233673	soon
-4.409764	soothing
-4.409764	sophomore
-3.131011	sorry
-4.108734	sort
-4.233673	soul
-4.409764	soulful
-3.807704	sound
-4.409764	sounded
-3.564666	sounds
-4.409764	source
-4.233673	soy
-4.409764	spa
-3.669401	space
-4.409764	space-time
-4.409764	spaces
-4.409764	spaceship
-4.409764	spades
-4.409764	spaghetti
-4.409764	span
-4.409764	spark
-4.409764	sparkle
-4.409764	sparkling
-3.865696	speak
-4.108734	speaking
-4.409764	speaking'
-4.108734	special
-4.409764	specialties
-4.108734	specific
-4.233673	specifically
-4.409764	specified
-4.409764	spectrum
-4.108734	speech
-4.409764	speechless
-4.108734	speed
-4.409764	spelled
-4.233673	spend
-4.409764	spending
-3.756552	spent
-4.233673	sperm
-4.409764	sphincter
-4.233673	spider
-4.409764	spider-infested
-4.409764	spin
-4.233673	spineless
-4.233673	spinning
-4.409764	spiny
-4.409764	spiral
-4.409764	spirit
-4.409764	splinter
-4.233673	split
-4.233673	spoil
-4.233673	spoiler
-4.233673	spoke
-4.409764	spoken
-4.409764	spooning
-4.409764	spork
-4.409764	sport
-4.409764	sporting
-3.480345	spot
-4.233673	spotted
-4.409764	spread
-4.233673	spring
-4.409764	spy
-4.409764	spying
-4.409764	square
-4.409764	squared
-4.409764	squirrel
-4.409764	squirrels
-4.409764	squirt
-4.409764	squirting
-4.409764	squishy
-4.409764	stabbed
-4.409764	stack
-4.409764	stacked
-4.233673	stage
-4.409764	stairs
-4.409764	stairwell
-4.409764	stakes
-4.409764	stance
-4.011824	stand
-4.409764	standard
-4.108734	standing
-4.409764	standoff
-4.409764	stands
-4.409764	staphylococcus
-4.409764	staple
-4.233673	star
-4.409764	starch
-4.409764	stare
-4.409764	stares
-4.233673	staring
-4.233673	stars
-3.506674	start
-3.807704	started
-4.409764	starters
-4.233673	starting
-4.409764	startled
-4.409764	startles
-4.108734	starts
-3.807704	state
-4.108734	statement
-4.108734	states
-4.233673	station
-4.409764	statistical
-4.233673	statistically
-4.409764	stay
-4.409764	stayed
-4.409764	staying
-4.409764	stays
-4.409764	steal
-4.409764	steamed
-4.409764	steel
-4.233673	step
-4.108734	steps
-4.233673	stereo
-4.409764	stern
-4.409764	steroid
-4.409764	stew
-4.409764	stick
-4.409764	sticker
-4.409764	sticking
-4.233673	sticks
-4.409764	sticky
-3.219432	still
-4.409764	stilts
-4.409764	stimulating
-4.409764	stinks
-4.409764	stipulated
-4.409764	stock
-4.409764	stocky
-4.233673	stole
-4.409764	stolen
-4.409764	stomach
-3.631613	stop
-4.409764	stopped
-3.865696	store
-4.409764	stores
-3.807704	story
-4.409764	straight
-4.409764	straitjacket
-4.409764	stranger
-4.409764	strangers
-4.409764	straw
-4.409764	stream
-4.409764	street
-4.233673	streets
-4.409764	streptococcus
-4.409764	stressed
-4.409764	stressful
-4.409764	stretched
-4.409764	strict
-3.756552	string
-4.409764	strings
-4.409764	striped
-4.409764	strips
-4.409764	strong
-4.409764	strong-armed
-4.233673	stronger
-4.108734	strongly
-4.409764	structural
-4.233673	struggle
-4.409764	struggling
-4.409764	stubborn
-4.409764	stuck
-4.409764	students
-4.409764	studies
-3.865696	study
-4.409764	studying
-4.108734	stuff
-4.409764	stuffed
-4.409764	stuffing
-4.409764	stump
-4.409764	stunned
-3.669401	stupid
-4.409764	sturdy
-4.409764	stylish
-4.233673	subatomic
-4.409764	subconscious
-4.108734	subject
-4.409764	subjected
-4.409764	subjects
-4.409764	submitted
-4.409764	subordinate
-4.409764	substance
-4.409764	substitute
-4.409764	succeed
-4.409764	success
-3.710794	such
-4.108734	suck
-4.409764	sucker
-4.409764	sucking
-4.409764	sudden
-4.409764	suddenly
-4.233673	suffer
-4.409764	suffered
-4.233673	suffering
-3.865696	suggest
-4.233673	suggesting
-4.233673	suggestion
-4.108734	suggestions
-4.011824	suggests
-4.409764	suit
-4.233673	suitable
-4.409764	sulphide
-4.409764	summa
-4.011824	summer
-4.409764	sun
-4.409764	sunblock
-4.409764	sundae
-4.409764	sunshine
-4.409764	super-fluid
-4.409764	supercooled
-4.409764	superior
-4.409764	supermarket
-4.409764	supernovas
-4.409764	supersolider
-4.409764	supply
-4.108734	support
-3.710794	suppose
-4.011824	supposed
-4.409764	suppository
-3.166726	sure
-4.233673	surface
-4.108734	surgeon
-4.233673	surgery
-4.409764	surgical
-4.409764	surname
-4.011824	surprise
-4.409764	surprised
-4.409764	surprises
-4.108734	surprising
-4.108734	surprisingly
-4.409764	survive
-4.233673	sushi
-4.409764	suspect
-4.409764	suspended
-4.409764	suspenders
-4.409764	suspends
-4.409764	suspicion
-4.409764	suspicious
-4.409764	suspiciously
-4.409764	swallowed
-4.409764	swamp
-4.409764	swan
-4.233673	swear
-4.409764	sweat
-4.409764	sweater
-4.409764	sweatshop
-4.011824	sweet
-4.409764	sweetie
-4.409764	swell
-4.409764	swift
-4.108734	swim
-4.409764	swimming
-4.409764	swims
-4.409764	swindle
-4.409764	swirlies
-4.409764	swiss
-4.011824	switch
-4.233673	switched
-3.932643	sword
-4.409764	swordfish
-4.409764	sworn
-4.409764	sympathies
-4.409764	symposium
-4.233673	symptoms
-4.409764	syphilis
-4.409764	syrupy
-3.865696	system
-4.409764	systems
-4.233673	ta
-3.932643	table
-4.409764	tacos
-4.409764	tad
-3.108734	take
-4.108734	taken
-4.409764	taker
-4.108734	takes
-3.807704	taking
-3.349066	talk
