
\data\
ngram 1=14196

\1-grams:
-2.769277	!
-4.41519	$
-4.142189	%
-4.204337	&
-3.554852	'
-5.017251	''
-5.017251	'06
-5.017251	'70s
-4.114161	'Cause
-5.017251	'Course
-4.71622	'Crushers
-5.017251	'D'nde
-5.017251	'Da-da-da-da
-5.017251	'Do
-5.017251	'Dude
-5.017251	'Em
-5.017251	'How
-4.841159	'It
-5.017251	'Jimmy
-4.841159	'Release
-5.017251	'Shamy
-4.841159	'Soft
-5.017251	'Sup
-5.017251	'Thanks
-5.017251	'Very
-5.017251	'Wesley
-4.841159	'arrah
-5.017251	'bazinga
-5.017251	'buy
-3.920341	'cause
-4.841159	'check
-5.017251	'cohabitation
-2.896677	'd
-4.41519	'em
-4.841159	'er
-5.017251	'grown
-5.017251	'has
-5.017251	'here
-5.017251	'huzzah
-2.760773	'll
-2.288897	'm
-5.017251	'need
-5.017251	'no
-5.017251	'playing
-5.017251	'problem
-2.379761	're
-5.017251	'round
-1.935004	's
-5.017251	'the
-5.017251	'there
-5.017251	'til
-5.017251	'tion
-2.760773	've
-5.017251	'with
-5.017251	'would
-4.172153	(
-4.204337	)
-1.309808	,
-1.191078	.
-1.356527	/s
-5.017251	0
-5.017251	0.18
-5.017251	01100111
-5.017251	0400
-5.017251	0700
-4.540129	1
-5.017251	1-1-A-2-B
-5.017251	1/160th
-5.017251	1/18
-5.017251	1/87th
-4.841159	10
-5.017251	10,000
-5.017251	10-year-old
-4.540129	100
-4.841159	101
-5.017251	102.2
-5.017251	104
-4.41519	11
-5.017251	114
-5.017251	11:30pm
-4.172153	12
-5.017251	12-year-old
-5.017251	12.5
-4.841159	120
-5.017251	123
-5.017251	125-page
-4.841159	12th
-4.841159	13
-4.71622	130
-4.473182	14
-5.017251	140
-5.017251	1487
-4.841159	15
-5.017251	15'
-4.71622	16
-5.017251	16-ounce
-5.017251	1642
-5.017251	165
-4.841159	16th
-4.61931	17
-5.017251	17,000
-5.017251	171
-5.017251	172
-5.017251	1778
-5.017251	17th
-4.61931	18
-5.017251	180
-5.017251	183
-5.017251	1859
-5.017251	1863
-5.017251	187
-5.017251	1880s
-5.017251	1890
-5.017251	1890s
-5.017251	18th
-5.017251	1908
-5.017251	1917
-4.841159	193
-5.017251	1930s
-5.017251	1935
-4.841159	1936
-5.017251	1940s
-5.017251	1948
-5.017251	1952
-4.61931	1955
-5.017251	1964
-5.017251	1970s
-5.017251	1976
-5.017251	1980
-5.017251	1980s
-4.841159	1989
-5.017251	1992
-5.017251	1993
-4.841159	1995
-5.017251	1998
-5.017251	1999
-5.017251	1:13
-4.61931	2
-4.841159	2,000
-5.017251	2.0
-4.364038	20
-5.017251	200
-4.71622	2003
-5.017251	2004
-4.841159	2008
-4.841159	2009
-5.017251	200million
-5.017251	2012
-4.71622	2015
-5.017251	204
-4.841159	209
-5.017251	2099
-5.017251	20th
-4.71622	21
-5.017251	211
-4.71622	21st
-4.71622	22
-5.017251	220
-5.017251	23
-4.71622	2311
-5.017251	233
-4.61931	24
-5.017251	24-hour
-5.017251	246
-4.61931	25
-5.017251	25-year-old
-5.017251	2530
-4.61931	27
-5.017251	28
-5.017251	288
-5.017251	289
-5.017251	28th
-5.017251	290
-5.017251	294
-5.017251	2:25
-5.017251	2am
-4.61931	3
-5.017251	3,000
-4.841159	3-D
-4.71622	30
-5.017251	30,000
-5.017251	30-foot
-5.017251	30.96
-5.017251	300
-5.017251	300th
-5.017251	30th
-4.841159	31
-5.017251	311
-5.017251	32
-5.017251	32-ounce
-5.017251	33-day
-5.017251	35
-5.017251	350
-4.71622	36
-4.841159	360
-5.017251	366
-5.017251	367'
-5.017251	37
-5.017251	37B
-5.017251	3D
-5.017251	4,000lb
-5.017251	4,400lb
-5.017251	4-1-1
-5.017251	4.6
-5.017251	4.9
-4.71622	40
-5.017251	41
-5.017251	43
-4.61931	45
-5.017251	46.9
-5.017251	47
-5.017251	4D
-4.841159	4K
-4.41519	5
-4.841159	5,000
-5.017251	5.19
-4.71622	50
-4.841159	500
-5.017251	5027.3
-5.017251	51
-4.71622	52
-5.017251	533
-4.71622	60
-4.841159	600
-4.71622	61
-5.017251	63
-5.017251	63345.3
-4.841159	64
-5.017251	640
-5.017251	67
-5.017251	68
-4.841159	6:15
-4.71622	7
-5.017251	70
-5.017251	700,000
-5.017251	7010
-5.017251	71
-4.540129	72
-4.71622	73
-5.017251	74
-5.017251	74.C
-4.841159	75
-5.017251	78
-5.017251	79
-5.017251	7:05
-5.017251	7:10
-5.017251	7:20
-5.017251	7th
-4.841159	8
-4.841159	8,000
-5.017251	8.2
-4.61931	80
-4.841159	800
-5.017251	82
-5.017251	840
-5.017251	87
-5.017251	8:06
-5.017251	8:08
-5.017251	8:13
-4.841159	9.8
-5.017251	90
-5.017251	93
-5.017251	93-year-old
-5.017251	95
-5.017251	97
-4.841159	98
-5.017251	99-cent
-5.017251	9am
-3.399202	:
-5.017251	:14:11,446
-4.61931	;
-5.017251	<
-1.356527	</s>
-99	<s>
-5.017251	>
-1.884831	?
-3.178401	A
-5.017251	A-S-S.
-5.017251	A-flat
-5.017251	A-game
-5.017251	AFK
-4.71622	AKA
-5.017251	AMC
-5.017251	AT
-5.017251	ATMs
-5.017251	Aaaaaaaaaaaaaa
-5.017251	Aaaaaaaaaaaaaaaaaa
-5.017251	Aaaaaaagh
-5.017251	Aaaaargh
-4.841159	Aaaah
-5.017251	Aaah
-5.017251	Aaargh
-5.017251	Abandon
-5.017251	Abbott
-4.841159	About
-5.017251	Abraham
-4.71622	Absolutely
-5.017251	Abu
-5.017251	Abundantly
-4.841159	Academy
-4.41519	According
-5.017251	Aced
-5.017251	Ach
-5.017251	Ackbar
-5.017251	Activate
-5.017251	Actor
-3.996061	Actually
-4.61931	Adam
-5.017251	Additionally
-5.017251	Address
-5.017251	Adler
-5.017251	Adler's
-5.017251	Admiral
-5.017251	Adventure
-5.017251	Adventures
-5.017251	Adversity
-5.017251	Affirmative
-5.017251	Affleck
-5.017251	Afraid
-4.71622	Africa
-4.71622	African
-4.841159	African-American
-4.239099	After
-4.540129	Again
-5.017251	Against
-4.540129	Age
-4.841159	Agent
-4.473182	Agreed
-4.61931	Agreement
-3.799767	Ah
-4.71622	Aha
-5.017251	Ahoy
-5.017251	Ai
-4.71622	Air
-5.017251	Airborne
-4.841159	Al-Ghazali
-5.017251	Alamo
-5.017251	Alanis
-5.017251	Alaska
-4.473182	Albert
-5.017251	Alcatraz
-5.017251	Alcohol
-4.31828	Alex
-4.841159	Alexander
-4.61931	Alfred
-5.017251	Alice
-4.540129	Alicia
-5.017251	Aligns
-4.841159	Alka-Seltzer
-3.012929	All
-5.017251	Allegiance
-5.017251	Allen
-5.017251	Allergist
-4.540129	Allow
-5.017251	Almost
-5.017251	Alone
-5.017251	Alpha
-5.017251	Alpha-Bits
-4.841159	Alphas
-5.017251	Alps
-5.017251	Already
-3.975858	Alright
-4.364038	Also
-5.017251	AltaVista
-5.017251	Altadena
-3.727216	Although
-4.841159	Always
-4.276888	Am
-4.841159	Amazing
-4.540129	Amazon
-5.017251	Amazons
-5.017251	Amen
-4.841159	Amendment
-4.276888	America
-4.063008	American
-5.017251	Americans
-4.841159	Amtrak
-2.934465	Amy
-5.017251	Amygdala
-5.017251	Amys
-4.142189	An
-5.017251	AnaMantle
-5.017251	Anaheim
-2.637039	And
-5.017251	And'
-5.017251	Andorra
-5.017251	Andy
-4.71622	Angel
-4.61931	Angeles
-5.017251	Angelina
-5.017251	Angie
-5.017251	Animal
-5.017251	Anime
-4.41519	Another
-4.841159	Answer
-5.017251	Answering
-5.017251	Antares
-5.017251	Antietam
-5.017251	Antoine
-4.31828	Any
-5.017251	Anybody
-5.017251	Anyone
-4.31828	Anything
-3.826919	Anyway
-5.017251	Apartment
-5.017251	Apeist
-5.017251	Apocalyptic
-5.017251	Apologise
-5.017251	Apologize
-5.017251	Apology
-4.087831	Apparently
-5.017251	Appendicitis
-5.017251	Appendix
-4.841159	Apple
-5.017251	Applied
-4.71622	April
-4.71622	Aquaman
-5.017251	Aramis
-4.71622	Archimedes
-4.364038	Arctic
-3.30968	Are
-5.017251	Aristotle
-5.017251	Arizona
-4.61931	Ark
-5.017251	Armadillo
-5.017251	Armageddon
-5.017251	Armenia
-5.017251	Armin
-4.841159	Armstrong
-5.017251	Arrah
-5.017251	Arroganto
-4.172153	Arthur
-5.017251	Article
-5.017251	Artificial
-3.525889	As
-4.71622	Asian
-5.017251	Asimov
-4.61931	Ask
-4.61931	Assuming
-3.826919	At
-5.017251	Atari
-5.017251	Atlantic
-5.017251	Attaboy
-5.017251	Attacks
-4.71622	Attention
-5.017251	Au
-5.017251	August
-5.017251	Aunt
-4.841159	Austria
-5.017251	Avatar
-5.017251	Avenger
-4.71622	Avengers
-4.473182	Avenue
-5.017251	Avoid
-4.172153	Aw
-5.017251	Aw-aw-aw
-5.017251	Away
-5.017251	Awful
-5.017251	Axel
-5.017251	Ay-yi-yi
-4.71622	Azeroth
-4.239099	B
-5.017251	B-minus
-5.017251	B.F.
-4.841159	BBC
-5.017251	BC
-5.017251	BRB
-5.017251	BS
-5.017251	Ba-da
-5.017251	Ba-da-bazinga
-5.017251	Ba-da-bum
-5.017251	Ba-dum-bump
-5.017251	Babies
-5.017251	Babinski
-4.71622	Baby
-4.61931	Babylon
-4.41519	Back
-4.71622	Bad
-5.017251	Baffling
-5.017251	Bag
-5.017251	Baggins
-4.841159	Bah
-5.017251	Bailey
-5.017251	Bailment
-5.017251	Baker
-5.017251	Bakersfield
-5.017251	Balderdash
-4.71622	Bam
-5.017251	Bamf
-4.71622	Band-Aid
-4.841159	Band-Aids
-5.017251	Bandstand
-5.017251	Bar
-5.017251	Barely
-4.61931	Barn
-5.017251	Barnett
-5.017251	Barnum
-4.142189	Barry
-4.841159	Bart
-5.017251	Bartenders
-4.540129	Based
-5.017251	Basically
-5.017251	Basket
-5.017251	Bath
-4.087831	Batman
-5.017251	Batmobile
-4.841159	Battle
-5.017251	Battlefield
-4.841159	Battlestar
-4.841159	Bavarian
-5.017251	Bawwy
-5.017251	Baybrook
-4.364038	Bazinga
-4.276888	Be
-4.841159	Beach
-5.017251	Bean
-5.017251	Beanie
-5.017251	Bear
-5.017251	Bears
-5.017251	Beast
-5.017251	Beautiful
-5.017251	Beavers
-3.525889	Because
-5.017251	Because'
-5.017251	Bedtime
-5.017251	Beelzebobcat
-5.017251	Been
-5.017251	Beer-battered
-5.017251	Beethoven
-4.172153	Before
-5.017251	Behind
-5.017251	Behold
-4.61931	Being
-4.71622	Believe
-5.017251	Belize
-4.841159	Bell
-5.017251	Ben
-5.017251	Bennigan
-3.81313	Bernadette
-5.017251	Bernatrix
-4.841159	Berry
-4.172153	Bert
-5.017251	Bertram
-4.61931	Besides
-5.017251	Besserwisser
-4.41519	Best
-5.017251	Bet
-4.61931	Better
-5.017251	Betty
-5.017251	Between
-4.61931	Beverley
-4.71622	Beverly
-5.017251	Beyonc
-5.017251	Beyonce
-5.017251	Bi-monthly
-4.41519	Bible
-4.540129	Biff
-4.087831	Big
-5.017251	Bilbo
-4.31828	Bill
-4.61931	Billy
-5.017251	Bilurrrbe
-5.017251	Bin
-5.017251	Binks
-5.017251	Biologically
-5.017251	Biologists
-4.841159	Biology
-5.017251	Bippity-boppity-boo
-5.017251	Birkenstocks
-5.017251	Bishop
-5.017251	Bitches
-4.61931	Black
-5.017251	Bladder
-5.017251	Blah
-4.841159	Blame
-5.017251	Blanc
-5.017251	Bleeding
-5.017251	Bleuch
-5.017251	Bleugh
-5.017251	Blonde
-5.017251	Blossom
-5.017251	Blossoms
-4.841159	Blu-ray
-4.841159	Blue
-5.017251	Blueberries
-4.841159	Bluetooth
-5.017251	Blunderberg
-5.017251	Board
-4.841159	Bob
-5.017251	Bobby
-5.017251	Boca
-4.841159	Body
-4.71622	Boggle
-4.841159	Bohemia
-4.841159	Bohr
-5.017251	Boilerplate
-5.017251	Boldly
-5.017251	Bon
-5.017251	Bond
-5.017251	Bongo
-5.017251	Boo
-5.017251	Book
-4.71622	Boone
-5.017251	Boop
-5.017251	Bootylicious
-5.017251	Bored
-5.017251	Bose-Einstein
-5.017251	Bosoms
-5.017251	Boson
-5.017251	Bosons
-5.017251	Both
-5.017251	Bother
-5.017251	Botox
-5.017251	Bottle
-5.017251	Boulder
-4.71622	Boulevard
-5.017251	Bourne-Oppenheimer
-5.017251	Bow
-5.017251	Bow-zone
-5.017251	Bowie
-5.017251	Bowling
-5.017251	Box
-5.017251	Box-Thinking
-3.786802	Boy
-4.841159	Boys
-4.841159	Bozeman
-5.017251	Bozite
-5.017251	Brachistochrone
-5.017251	Brad
-5.017251	Brainstorm
-4.71622	Bran
-5.017251	Brann
-5.017251	Brazil
-4.841159	Bread
-4.71622	Break
-5.017251	Breaking
-5.017251	Brenda
-4.841159	Brent
-5.017251	Brian
-5.017251	Brief
-5.017251	Brightly
-4.71622	Brilliant
-5.017251	Brimstone
-4.841159	Bring
-4.71622	British
-5.017251	Brobdingna
-4.61931	Brobdingnagian
-5.017251	Bros.
-4.473182	Brown
-4.61931	Bruce
-5.017251	Brussels
-5.017251	Buckland
-5.017251	Buckman
-5.017251	Buda
-5.017251	Budabest
-4.841159	Budapest
-5.017251	Buddy
-5.017251	Bueno
-5.017251	Buffet
-5.017251	Buffy
-5.017251	Buick
-5.017251	Building
-5.017251	Bull
-5.017251	Bullock
-5.017251	Bunsen
-4.841159	Buona
-5.017251	Bureau
-5.017251	Burning
-5.017251	Burrito
-4.71622	Burton
-5.017251	Bus
-2.934465	But
-5.017251	But'
-4.71622	Butter
-5.017251	Butters
-5.017251	Butterscotch
-4.473182	Buy
-5.017251	Buying
-5.017251	Bwch-wch-wch-wch-wch-wch
-3.938069	By
-4.276888	Bye
-4.71622	Bye-bye
-4.540129	C
-5.017251	C-3P-wee
-5.017251	C-3PO
-5.017251	C-Men
-4.71622	C.
-5.017251	C3PO
-5.017251	CAT
-5.017251	CD
-4.540129	CERN
-5.017251	CNN
-5.017251	CSI
-4.172153	Ca
-5.017251	Cabin
-5.017251	Caca
-5.017251	Cal
-5.017251	CalTech
-5.017251	Calculators
-4.41519	California
-5.017251	Caligula
-4.841159	Call
-5.017251	Calm
-4.61931	Caltech
-5.017251	Cambridge
-5.017251	Camptown
-3.577918	Can
-5.017251	Canada
-5.017251	Canadian
-5.017251	Candles
-5.017251	Canine
-5.017251	Canyon
-4.276888	Captain
-5.017251	Card
-5.017251	Care
-4.61931	Careful
-4.71622	Carl
-5.017251	Carlsbad
-4.841159	Carney
-5.017251	Carolina
-5.017251	Carrie
-5.017251	Carry
-5.017251	Carter
-5.017251	Cartesian
-5.017251	Carthage
-4.841159	Carver
-5.017251	Case
-4.841159	Castle
-4.71622	Cat
-5.017251	Catalina
-5.017251	Cathy
-4.841159	Cats
-5.017251	Cause
-5.017251	Cavanaugh
-5.017251	Cedric
-5.017251	Center
-5.017251	Central
-5.017251	Centres
-5.017251	Cersei
-4.71622	Certainly
-5.017251	Ceti
-5.017251	Chair
-5.017251	Chairman
-4.841159	Challenge
-5.017251	Chamber
-5.017251	Chan
-4.841159	Chancellor
-5.017251	Change
-5.017251	Changes
-4.71622	Channel
-5.017251	Chaos
-5.017251	Chardonnay
-5.017251	Charles
-5.017251	Charlie
-5.017251	Chat
-5.017251	Chattahoochee
-5.017251	Chaucer
-5.017251	Cheap
-4.31828	Check
-5.017251	Checkmate
-5.017251	Cheerios
-4.841159	Cheers
-4.41519	Cheesecake
-5.017251	Chemistry
-4.841159	Cher
-5.017251	Chevron
-4.71622	Chicago
-4.841159	Chicken
-5.017251	Chickens
-5.017251	Chief
-5.017251	Chihuahua
-4.540129	China
-4.172153	Chinese
-5.017251	Chipotle
-4.841159	Chocolate
-5.017251	Cholera
-5.017251	Cholermus
-5.017251	Choosing
-5.017251	Chop-chop
-4.841159	Chris
-5.017251	Christian
-5.017251	Christie
-3.975858	Christmas
-5.017251	Christmassy
-5.017251	Christopher
-4.841159	Chuck
-5.017251	Church
-5.017251	Chutes
-5.017251	Cinnamon
-4.61931	Circle
-4.31828	City
-5.017251	Clarify
-5.017251	Clarke
-5.017251	Clarke-Maxwell
-5.017251	Clash
-5.017251	Classic
-4.841159	Clause
-4.61931	Clearly
-5.017251	Clever
-4.71622	Click
-4.841159	Clone
-5.017251	Closest
-5.017251	Cloud
-5.017251	Cluck
-5.017251	Cluck-cluck-cluck
-5.017251	Co-discoverer
-5.017251	Coast
-5.017251	Cockatoo
-4.841159	Cocoa
-5.017251	Coconut
-4.71622	Code
-5.017251	Coffee
-5.017251	Cohabitation
-5.017251	Coincidentally
-5.017251	Coins
-5.017251	Coitus
-5.017251	ColecoVision
-4.841159	Colleagues
-4.61931	Collider
-4.473182	Colorado
-3.799767	Come
-5.017251	Comforting
-5.017251	Comic
-4.172153	Comic-Con
-4.841159	Comics
-4.41519	Coming
-4.71622	Commander
-5.017251	Comments
-5.017251	Commerce
-5.017251	Commitments
-4.841159	Committee
-4.841159	Communist
-5.017251	Complete
-4.841159	Computer
-4.61931	Con
-5.017251	Conclusive
-5.017251	Confidence
-5.017251	Confound
-5.017251	Congeniality
-4.364038	Congratulations
-5.017251	Connelly
-4.841159	Connor
-4.841159	Conqueror
-5.017251	Consequently
-4.841159	Consider
-4.841159	Considering
-5.017251	Constance
-5.017251	Constant
-4.841159	Container
-4.841159	Continue
-5.017251	Contribute
-4.71622	Control
-5.017251	Convention
-4.841159	Cookie
-5.017251	Cookies
-4.841159	Cool
-4.841159	Coop
-3.5121	Cooper
-5.017251	Cooper'
-5.017251	Cooper-Smoot
-5.017251	Copenhagen
-5.017251	Copernicus
-4.841159	Copy
-5.017251	Corleone
-4.841159	Corn
-5.017251	Corncob
-4.841159	Cornish
-4.841159	Cornwall
-4.841159	Corporation
-4.473182	Correct
-4.841159	Correction
-5.017251	Cosmo
-5.017251	CostCos
-5.017251	Costume
-4.473182	Could
-4.61931	Council
-4.841159	Count
-5.017251	Counter-proposal
-5.017251	Counterproposal
-5.017251	Country
-5.017251	Couple
-5.017251	Couples
-4.841159	Coupons
-4.841159	Course
-5.017251	Court
-5.017251	Cousteau
-5.017251	Cozy
-5.017251	Cracklin
-5.017251	Craigslist
-4.841159	Crawley
-5.017251	Cray
-4.841159	Crazy
-5.017251	Creepy
-5.017251	Crikey
-5.017251	Crime
-4.841159	Crisco
-5.017251	Crisis
-5.017251	Critical
-5.017251	Crockett
-5.017251	Crowe
-4.841159	Cruciferous
-5.017251	Cruel
-4.841159	Crunch
-4.473182	Crusher
-4.61931	Crushers
-5.017251	Cry
-5.017251	Cuddles
-4.61931	Curie
-4.841159	Curiouser
-5.017251	Curse
-5.017251	Curses
-5.017251	Custer
-4.71622	Cut
-4.71622	Cyclops
-4.841159	Cylon
-5.017251	Cylons
-5.017251	Czech
-5.017251	Czechoslovakia
-4.41519	D
-4.41519	D'Onofrio
-5.017251	D-d-d
-5.017251	D-dimensional
-5.017251	D.C.
-4.841159	DC
-5.017251	DDR3
-4.172153	DNA
-4.540129	DVD
-5.017251	DVR
-5.017251	Da-da-da-da
-5.017251	DaH
-4.841159	Dad
-4.71622	Daddy
-5.017251	Dagobah
-5.017251	Daleks
-5.017251	Dammit
-4.71622	Damn
-5.017251	Dan
-5.017251	Dance
-4.841159	Dancing
-5.017251	Danger
-4.841159	Daq
-5.017251	Dare
-4.841159	Daredevil
-4.71622	Dark
-4.71622	Darn
-4.31828	Darth
-4.841159	Data
-4.841159	Davis
-5.017251	Davy
-4.039527	Day
-5.017251	Dayaj
-5.017251	Daylight
-4.841159	Dazzle
-5.017251	DeBakey
-4.841159	Dead
-4.473182	Dear
-5.017251	Death
-5.017251	Deborah
-5.017251	December
-4.61931	Deep
-4.841159	Defcon
-5.017251	Defend
-5.017251	Delighted
-5.017251	Deluxe
-5.017251	Democracy
-5.017251	Dengue
-5.017251	Dennis
-5.017251	Denny
-5.017251	Dent
-5.017251	Denver
-4.31828	Department
-5.017251	Depending
-5.017251	Depends
-5.017251	Depot
-4.841159	Des
-4.841159	Describe
-5.017251	Desert
-4.41519	Despite
-5.017251	Details
-5.017251	Detroit
-5.017251	Devine
-4.841159	Dew
-4.71622	Dibs
-5.017251	Dickens
-5.017251	Dickinson
-5.017251	Dictionary
-3.394001	Did
-5.017251	Diego
-5.017251	Differential
-5.017251	Dill
-4.841159	Dinfast
-5.017251	Dining
-4.841159	Dinner
-5.017251	Dip
-5.017251	Dirac
-5.017251	Director
-4.841159	Disagree
-4.841159	Disease
-4.71622	Disney
-4.71622	Disneyland
-4.71622	Ditko
-5.017251	Dits
-5.017251	Dividing
-5.017251	Dixie-Trek
-5.017251	Dixit
-3.048768	Do
-5.017251	Dobby
-4.61931	Doc
-4.204337	Doctor
-5.017251	Dodson
-3.975858	Does
-4.841159	Doing
-5.017251	Dolbear
-5.017251	Dolphins
-5.017251	Don
-5.017251	Done
-5.017251	Donner
-5.017251	Donny
-5.017251	Doo
-5.017251	Doodle
-4.841159	Doom
-4.71622	Doppler
-5.017251	Doubleazinga
-4.841159	Downey
-4.41519	Dr
-3.437467	Dr.
-5.017251	Draft
-5.017251	Drag
-4.473182	Dragons
-4.473182	Drat
-5.017251	Dried
-5.017251	Dripping
-5.017251	Drive
-5.017251	Drop
-5.017251	Du
-5.017251	Duchess
-4.841159	Dud
-5.017251	Duds
-5.017251	Duke
-5.017251	Duly
-5.017251	Dumb
-4.71622	Dumbledore
-5.017251	Dumplings
-4.473182	Dungeons
-4.841159	During
-4.841159	Dutch
-5.017251	Dwarf
-5.017251	E
-5.017251	E.M.
-5.017251	EEG
-5.017251	ESRAM
-4.841159	Each
-4.71622	Earl
-4.540129	Earlier
-5.017251	Ears
-4.087831	Earth
-4.841159	Eartha
-5.017251	Ease
-5.017251	Easement
-5.017251	Easily
-4.239099	East
-5.017251	Easter
-5.017251	Eastern
-4.61931	Eat
-5.017251	Ebbinghaus
-5.017251	Edisons
-4.841159	Edward
-5.017251	Edwin
-5.017251	Eee
-4.71622	Effect
-5.017251	Eggs
-4.41519	Eh
-5.017251	Eight
-4.172153	Einstein
-5.017251	Either
-5.017251	Ekairidium
-5.017251	Elbow
-5.017251	Elder
-5.017251	Electric
-5.017251	Electromagnetism
-5.017251	Electrons
-4.841159	Element
-5.017251	Elementary
-5.017251	Eliot
-4.61931	Elizabeth
-5.017251	Elon
-5.017251	Eloy
-5.017251	Elven
-4.841159	Elvish
-5.017251	Embarrassed
-5.017251	Embarrassment
-4.841159	Emergency
-4.841159	Emile
-4.71622	Emily
-5.017251	Empedocles
-5.017251	Empire
-5.017251	Empress
-4.841159	En
-5.017251	Enchanted
-5.017251	Energise
-5.017251	Energy
-4.841159	Engineering
-5.017251	Engineers
-4.61931	England
-4.473182	English
-4.41519	Enjoy
-5.017251	Enjoyed
-5.017251	Enlargement
-5.017251	Enough
-5.017251	Enrico
-4.61931	Enterprise
-5.017251	Entertainer
-4.841159	Epcot
-5.017251	Episodes
-5.017251	Equally
-5.017251	Equation-Linked
-5.017251	Equations
-5.017251	Erectus
-5.017251	Ergo
-5.017251	Erno
-4.841159	Erwin
-5.017251	Eskimo
-4.841159	Especially
-4.841159	Essentially
-5.017251	Esteemed
-5.017251	Ethan
-5.017251	Ethernet
-5.017251	Eubanks
-4.61931	Euclid
-5.017251	Euler-Lagrange
-5.017251	Europe
-5.017251	Europeans
-5.017251	Europium
-5.017251	Eurydice
-3.920341	Even
-4.841159	Event
-4.841159	Eventually
-4.087831	Every
-4.41519	Everybody
-4.540129	Everyone
-4.239099	Everything
-4.841159	Evolution
-5.017251	Ewok
-4.239099	Exactly
-5.017251	Examining
-5.017251	Excalibur
-4.142189	Excellent
-4.41519	Except
-5.017251	Excited
-3.479431	Excuse
-5.017251	Expedition
-4.71622	Explain
-5.017251	Explorer
-4.841159	Express
-4.841159	Extra
-4.841159	Eye-talian
-5.017251	FAA
-5.017251	FAQ
-4.61931	FBI
-5.017251	FC
-5.017251	FI
-5.017251	FL
-5.017251	FP
-5.017251	FTP
-4.114161	FYI
-5.017251	Faberge
-5.017251	Face
-4.841159	Facebook
-4.364038	Factory
-5.017251	Faculty
-4.540129	Fair
-4.841159	Fairy
-5.017251	Fake
-5.017251	Falling
-5.017251	Fallujah
-5.017251	Family
-4.841159	Fancy
-4.71622	Fantastic
-5.017251	Farminfarmian
-5.017251	Farr
-3.903307	Farrah
-4.41519	Fascinating
-5.017251	Fascism
-5.017251	Faster-than-light
-4.841159	Father
-4.841159	Fear
-4.841159	Feast
-5.017251	Fed
-5.017251	Federation
-4.71622	Feel
-5.017251	Feelings
-5.017251	Feinman
-5.017251	Fellow
-5.017251	Fellowship
-5.017251	Fence
-5.017251	Fermi
-5.017251	Fester
-4.841159	Festival
-4.063008	Feynman
-5.017251	Fibonacci
-5.017251	Fiddle-Faddle
-5.017251	Fiendishly
-5.017251	Fiesta
-5.017251	Fig
-5.017251	Fight
-4.841159	Fighting
-5.017251	Figure
-5.017251	Fillion
-4.841159	Finally
-3.505367	Fine
-4.841159	Fink
-5.017251	Finnish
-4.71622	Fire
-4.71622	Firefly
-5.017251	Firefox
-4.31828	First
-5.017251	Fischer
-5.017251	Fish
-5.017251	Fisher
-5.017251	Fisherman
-4.473182	Five
-5.017251	Fix
-4.841159	Flag
-3.956553	Flags
-5.017251	Flakey
-5.017251	Flaming
-4.204337	Flash
-5.017251	Flash-frozen
-4.71622	Flatland
-5.017251	Flatow
-5.017251	Flattering
-5.017251	Flattery
-5.017251	Fleet
-5.017251	Fleming
-5.017251	Florida
-5.017251	Flower
-4.71622	Focus
-5.017251	Folger
-4.841159	Follow
-5.017251	Following
-5.017251	Fonda
-5.017251	Fontana
-5.017251	Food
-5.017251	Foot
-5.017251	Football
-3.562406	For
-4.841159	Force
-4.841159	Ford
-5.017251	Forer
-4.841159	Forest
-4.841159	Forget
-4.540129	Forgive
-5.017251	Forks
-4.71622	Formal
-5.017251	Formula
-4.41519	Fort
-4.841159	Fortress
-5.017251	Fortune
-5.017251	Found
-4.841159	Foundation
-4.61931	Four
-5.017251	Fourteen
-4.71622	Fourth
-3.871122	Fowler
-4.841159	Francisco
-5.017251	Franconi
-4.841159	Frank
-4.841159	Frankenstein
-5.017251	Franklin
-4.71622	Frankly
-5.017251	Fraudville
-5.017251	Fred
-5.017251	Freemont
-5.017251	Freeway
-5.017251	Freeze-dried
-5.017251	Frege
-4.172153	French
-5.017251	French-educated
-5.017251	Frenzy
-5.017251	Frequent
-4.364038	Friday
-5.017251	Friedrich
-4.71622	Friend
-4.61931	Friends
-4.841159	Friendship
-5.017251	Frisbee
-4.841159	Frisbee-sized
-4.841159	Frisch
-4.841159	Frodo
-4.142189	From
-5.017251	Fruit
-5.017251	Fry
-5.017251	Fuddruckers
-4.841159	Fudgsicle
-5.017251	Full
-3.956553	Fun
-5.017251	Fun'
-4.841159	Funyuns
-5.017251	Furnishing
-4.41519	Future
-4.841159	G-rated
-5.017251	GDDR5
-5.017251	GEV
-4.61931	GPS
-4.71622	Gablehauser
-4.841159	Gablehouser
-5.017251	Gadget.
-4.71622	Galactica
-4.61931	Galaxy
-4.71622	Galileo
-5.017251	Gallant
-4.841159	Galleria
-5.017251	Galveston
-4.473182	Game
-5.017251	Games
-5.017251	GameyGamer75
-5.017251	Gandalf
-5.017251	Gandhi
-5.017251	Ganesh
-5.017251	Gang
-5.017251	Garden
-4.841159	Garfield
-5.017251	Gargamel
-5.017251	Garlic
-4.61931	Gary
-5.017251	Gasses
-4.841159	Gates
-4.841159	Gee
-4.841159	Gei
-5.017251	Gen
-5.017251	Gen.
-4.41519	General
-4.61931	Generation
-4.841159	Geneva
-4.71622	Genius
-3.975858	Gentlemen
-5.017251	Geologists
-5.017251	Geology
-4.204337	George
-4.841159	Georgia
-5.017251	Geppetto
-4.473182	German
-4.841159	Germanic
-4.71622	Germans
-5.017251	Germany
-3.956553	Get
-4.841159	Getting
-4.841159	Gettysburg
-5.017251	Ghostbusters
-5.017251	Giacomo
-5.017251	Giant
-5.017251	Gifted
-5.017251	Gino
-4.841159	Girl
-5.017251	Girls
-5.017251	Giuseppe
-4.204337	Give
-4.31828	Given
-5.017251	Giving
-5.017251	Glad
-4.841159	Gladly
-4.841159	Glenn
-5.017251	Gloria
-5.017251	Glory
-5.017251	Glutamine
-5.017251	Gmail
-3.761978	Go
-5.017251	Goblin
-4.017251	God
-4.71622	Gods
-5.017251	Gods'
-4.61931	Godzilla
-5.017251	Godzilla-like
-5.017251	Gogh
-5.017251	Goldberg
-5.017251	Goldfarb
-5.017251	Goldfinch
-5.017251	Gollum
-5.017251	Golly
-5.017251	Gomorrah
-5.017251	Gondor
-3.340557	Good
-5.017251	Good'
-4.71622	Good-bye
-5.017251	Goodall
-4.540129	Goodbye
-4.71622	Goodness
-4.71622	Goodnight
-5.017251	Goofus
-4.473182	Google
-5.017251	Googling
-5.017251	Goonies
-4.841159	Gorilla
-5.017251	Gorn-infested
-5.017251	Gorshin
-4.841159	Gosh
-5.017251	Gossip
-4.017251	Got
-5.017251	Gotcha
-5.017251	Gotten
-4.841159	Gottfried
-5.017251	Gottlob
-4.71622	Government
-5.017251	Graduate
-5.017251	Graham
-5.017251	Gram
-4.841159	Grand
-5.017251	Grande
-4.71622	Grandma
-4.841159	Granny
-4.841159	Grant
-4.71622	Granted
-5.017251	Grass
-5.017251	Grateful
-5.017251	Gravity
-5.017251	Graziano
-4.114161	Great
-4.841159	Greece
-4.841159	Greece'
-5.017251	Greedy
-4.540129	Greek
-4.841159	Greeks
-4.473182	Green
-4.841159	Greene
-5.017251	Greetings
-5.017251	Greyjoy
-4.71622	Griffith
-4.841159	Grinch
-5.017251	Groove
-5.017251	Grossinger
-5.017251	Group
-5.017251	Grow
-5.017251	Growing
-5.017251	Grumpy
-5.017251	Gryffindor
-5.017251	Guatemala
-4.841159	Guess
-4.61931	Guide
-5.017251	Guilty
-5.017251	Guinan
-5.017251	Guinea
-5.017251	Gulf
-4.841159	Gunderson
-5.017251	Guten
-4.61931	Guy
-5.017251	Gygax
-4.71622	H
-4.61931	H-O
-5.017251	HC
-5.017251	HD
-4.71622	Ha
-4.71622	Ha-ha
-4.841159	Had
-4.61931	Hadron
-4.841159	Hah
-4.841159	Hah-hah
-5.017251	Hair
-5.017251	Hairy
-4.841159	Haiti
-5.017251	Halbert
-4.61931	Half
-4.841159	Halle
-4.473182	Halloween
-4.31828	Halo
-5.017251	Ham-Fisted
-5.017251	Hammerhead
-5.017251	Hammurabic
-5.017251	Han
-5.017251	Hand
-5.017251	Hand-holding
-5.017251	Handbook
-4.087831	Hang
-5.017251	Hankius
-5.017251	Hannah
-5.017251	Hannibal
-4.540129	Happen
-5.017251	Happy
-5.017251	Haradwaith
-5.017251	Hard
-4.71622	Hardly
-5.017251	Harness
-4.841159	Harry
-5.017251	Harsh
-5.017251	Harvey
-4.841159	Has
-5.017251	Hate
-5.017251	Hatter
-5.017251	Haughty
-3.855882	Have
-5.017251	Having
-4.71622	Hawaii
-5.017251	Hawaiian
-4.841159	Hawkeye
-3.826919	Hawking
-5.017251	Hayn
-3.133589	He
-5.017251	Head
-5.017251	Headset
-5.017251	Hearing
-4.841159	Heated
-5.017251	Heaven
-5.017251	Heck
-5.017251	Heimlich
-4.841159	Heinz
-4.71622	Heisenberg
-5.017251	Helen
-5.017251	Heliosheath
-4.841159	Helium
-4.61931	Hell
-3.261376	Hello
-5.017251	Helmholtz
-4.61931	Help
-5.017251	Helpful
-5.017251	Helping
-4.841159	Henry
-4.31828	Her
-5.017251	Herculean
-3.738497	Here
-4.71622	Herman
-5.017251	Heroes
-4.71622	Hewlett
-5.017251	Hewlett-Packard
-3.525889	Hey
-4.039527	Hi
-5.017251	Hide
-4.364038	Higgs
-4.841159	High
-4.841159	Highly
-5.017251	Hillbilly
-5.017251	Him
-5.017251	Hinckley
-4.841159	Hindu
-4.841159	Hinduism
-4.841159	Hint
-5.017251	Hippos
-5.017251	Hirsch
-5.017251	Hirschsprung
-4.087831	His
-5.017251	Historically
-4.71622	History
-5.017251	Hit
-4.61931	Hitchhiker
-5.017251	Hither
-5.017251	Hm
-3.684812	Hmm
-5.017251	Hmmm
-5.017251	Hmmph
-5.017251	Hobbit
-4.841159	Hoberman
-5.017251	Hoedown
-3.975858	Hofstadter
-5.017251	Hoisted
-4.063008	Hold
-4.31828	Hollywood
-5.017251	Holmes
-5.017251	Holocaust
-4.841159	Holy
-4.841159	Home
-5.017251	HomeTown
-5.017251	Homeland
-5.017251	Homeostasis
-5.017251	Homesick
-4.841159	Hominids
-4.841159	Homo
-5.017251	Honduras
-4.61931	Honestly
-5.017251	Honesty
-4.71622	Honey
-5.017251	Honor
-5.017251	Honour
-5.017251	Hoo
-4.71622	Hook
-5.017251	Hope
-5.017251	Horatio
-4.61931	Hot
-5.017251	Hotay
-4.841159	Hoth
-4.71622	House
-4.71622	Houston
-3.133589	How
-3.276888	Howard
-5.017251	Howdy
-4.540129	However
-5.017251	Hu-u-urgh
-5.017251	Hubba
-5.017251	Hubba-hubba
-5.017251	Hubble
-5.017251	Hubei
-4.841159	Hufflepuff
-5.017251	Hugh
-4.276888	Huh
-4.473182	Hulk
-4.41519	Human
-5.017251	Hummingbirds
-5.017251	Humorous
-5.017251	Humorously
-5.017251	Humvee
-5.017251	Hungarians
-5.017251	Hunger
-4.841159	Hungry
-5.017251	Hunt
-4.841159	Hurry
-5.017251	Hurts
-4.841159	Hush
-5.017251	Hydrogen
-1.550605	I
-4.841159	I'
-4.71622	I-I
-5.017251	I.
-4.841159	I.D
-5.017251	I.D.
-5.017251	I.e
-4.71622	ID
-4.71622	II
-4.841159	III
-4.841159	IKEA
-4.540129	IQ
-5.017251	IRS
-5.017251	IS
-5.017251	Ice-skating
-4.540129	Icee
-4.841159	Icees
-4.841159	Iceman
-5.017251	Ich
-3.019427	If
-5.017251	Illogical
-4.61931	Imagine
-4.841159	Imodium
-5.017251	Impact
-5.017251	Impaired
-5.017251	Imperial
-5.017251	Implacable
-5.017251	Implementing
-4.71622	Impressive
-3.297091	In
-5.017251	Include
-4.841159	Including
-5.017251	Inconsiderate
-5.017251	Incredibles
-4.473182	Indeed
-4.61931	India
-4.172153	Indian
-4.540129	Indiana
-5.017251	Indianapolis
-5.017251	Indians
-5.017251	Individual
-5.017251	Indonesia
-5.017251	Industrial
-4.841159	Infinite
-5.017251	Informal
-4.71622	Initial
-4.841159	Initiate
-4.841159	Initiating
-5.017251	Insightful
-5.017251	Inspector
-5.017251	Instagram
-4.364038	Instead
-5.017251	Institute
-3.920341	Interesting
-5.017251	Interestingly
-5.017251	Interior
-5.017251	Internal
-5.017251	International
-4.114161	Internet
-5.017251	Interpretation
-5.017251	Interrupting
-5.017251	Intimacy
-4.841159	Intriguing
-5.017251	Introduction
-5.017251	Invasion
-5.017251	Inventory
-5.017251	Invisible
-5.017251	Invitational
-5.017251	Ionised
-5.017251	Iowa
-4.71622	Ira
-4.841159	Irish
-4.71622	Iron
-5.017251	Irony
-4.841159	Irrelevant
-3.242733	Is
-4.364038	Isaac
-5.017251	Island
-5.017251	Isle
-5.017251	Isosceles
-5.017251	Israelites
-2.543034	It
-5.017251	Italia
-4.473182	Italian
-5.017251	Itchy
-4.841159	Its
-5.017251	J.K.
-5.017251	Jab
-5.017251	Jabba
-5.017251	Jabir
-4.71622	Jack
-5.017251	Jackie
-5.017251	Jacks
-4.71622	Jackson
-5.017251	Jacques
-4.841159	Jacuzzi
-4.841159	Jacuzzis
-5.017251	Jamba
-5.017251	Jamboree
-4.473182	James
-5.017251	Jan
-4.841159	Jane
-5.017251	Janine
-4.841159	January
-4.540129	Japanese
-4.841159	Jar
-5.017251	Jaws
-4.841159	Jealousy
-5.017251	Jean-Luc
-4.61931	Jedi
-5.017251	Jeepers
-5.017251	Jeeves
-4.841159	Jeffries
-4.841159	Jell-O
-4.61931	Jenga
-4.71622	Jennifer
-4.71622	Jenson
-5.017251	Jeopardy
-4.71622	Jersey
-5.017251	Jerusalem
-4.276888	Jesus
-5.017251	Jew
-4.31828	Jewish
-5.017251	Jibber-jabber
-5.017251	Jiffy
-4.841159	Jim
-4.841159	Jiminy
-5.017251	Jimmy
-5.017251	Jobs
-4.841159	Joe
-4.71622	Joel
-5.017251	Joes
-5.017251	Joey
-4.71622	Johnson
-5.017251	Join
-5.017251	Joke
-5.017251	Joker
-4.364038	Jones
-5.017251	Joplin
-5.017251	Joseph
-4.841159	Joss
-4.841159	Journal
-5.017251	Joyce
-5.017251	Jr
-4.841159	Judas
-4.841159	Juice
-4.841159	Juicy
-5.017251	Julian
-4.841159	Julie
-4.61931	July
-5.017251	Jump
-5.017251	June
-5.017251	Jungian
-5.017251	Jurassic
-3.554852	Just
-4.841159	Justice
-5.017251	Justin
-5.017251	KMN
-5.017251	Ka
-5.017251	Kadhai
-5.017251	Kandorian
-4.841159	Kangaroo
-5.017251	Kansas
-5.017251	Kardashian
-4.841159	Kardashians
-5.017251	Kart
-4.841159	Kass
-5.017251	Kcuhc
-4.364038	Keep
-5.017251	Keepers
-5.017251	Kenobi
-4.841159	Kenya
-4.71622	Keys
-4.841159	Khan
-4.841159	Khloe
-4.841159	Kick
-5.017251	Kidney
-5.017251	Kids
-5.017251	Killed
-5.017251	Killing
-4.473182	Kim
-4.61931	Kind
-4.841159	King
-5.017251	Kingman
-4.31828	Kirk
-4.841159	Kitt
-4.71622	Kitty
-4.41519	Klingon
-5.017251	Klingon-Sanskrit
-5.017251	Klingons
-5.017251	Kmart
-4.71622	Knight
-4.540129	Knock
-5.017251	Knock-knock
-4.841159	Knox
-4.841159	KoKo
-4.841159	Kobayashi
-4.841159	Kolinar
-5.017251	Koo
-5.017251	Kool-Aid
-5.017251	Koothranardowitz
-4.841159	Koothrapali
-3.826919	Koothrappali
-4.841159	Koothrappalis
-4.841159	Korea
-4.61931	Korean
-5.017251	Kourtney
-4.71622	Kraken
-5.017251	Kringle
-3.841159	Kripke
-4.841159	Krypton
-4.71622	Kryptonian
-4.841159	Kudos
-5.017251	Kung-Fu
-5.017251	Kup-fun-tor
-5.017251	Kurt
-5.017251	L
-5.017251	L-L-see
-5.017251	L.A
-5.017251	L.A.
-5.017251	L.H
-4.841159	L.H.
-4.71622	LEGO
-5.017251	LSD
-5.017251	Lab
-5.017251	Lactose
-4.841159	Lad
-5.017251	Ladders
-4.473182	Ladies
-5.017251	Lady
-5.017251	Ladybugs
-4.61931	Lake
-5.017251	Lambda-CDM
-5.017251	Lamda
-5.017251	Laminate
-5.017251	Land
-5.017251	Lanka
-4.61931	Lantern
-5.017251	Lap
-4.61931	Large
-4.841159	Larry
-4.61931	Las
-5.017251	Lascaux
-4.41519	Last
-5.017251	Lately
-5.017251	Latham
-4.61931	Latin
-5.017251	Lauderdale
-5.017251	Lawlessness
-4.841159	Lawrence
-5.017251	Lay
-4.71622	LeVar
-4.841159	Leader
-5.017251	Leaf
-4.61931	League
-5.017251	Leakey
-5.017251	Leaky
-5.017251	Leap
-5.017251	Learn
-5.017251	Lebanon
-3.855882	Lee
-5.017251	Legion
-5.017251	Lego
-5.017251	Legoland
-5.017251	Legos
-4.841159	Leibniz
-4.61931	Leo
-5.017251	Leon
-2.60901	Leonard
-5.017251	Leonid
-5.017251	Leopold
-5.017251	Lesley
-4.473182	Leslie
-5.017251	Less
-3.443219	Let
-5.017251	Lett
-5.017251	Level
-5.017251	Lewis
-5.017251	Libido
-5.017251	Lichtenstein
-5.017251	Liechtenstein
-5.017251	Life
-5.017251	Light
-5.017251	Lighten
-3.750079	Like
-5.017251	Liked-Our-Paper
-4.473182	Lincoln
-5.017251	Linux
-5.017251	Lion
-5.017251	Lipid
-5.017251	Lisa
-4.31828	Listen
-4.841159	Literally
-5.017251	Literature
-4.276888	Little
-5.017251	Living
-4.841159	Lizard
-5.017251	Localized
-5.017251	Lock
-4.841159	Locus
-5.017251	Log
-4.841159	Logs
-5.017251	Lone
-5.017251	Long
-4.71622	Longclaw
-5.017251	Longest
-5.017251	Loobenfeld
-3.570092	Look
-4.841159	Looking
-4.71622	Looks
-5.017251	Loomis
-5.017251	Loony
-3.684812	Lord
-5.017251	Lorvis
-4.31828	Los
-5.017251	Lose
-4.540129	Lost
-4.841159	Lot
-5.017251	Lots
-5.017251	Louis-slash-Louise
-4.71622	Love
-5.017251	Lovers
-5.017251	Lubes
-4.61931	Lucas
-5.017251	Luckily
-4.473182	Lucky
-5.017251	Luigi
-5.017251	Luis
-4.540129	Luke
-5.017251	Luminescence
-5.017251	Luna
-4.473182	M
-4.841159	M-theory
-4.841159	M.
-5.017251	M.A.
-4.61931	MA
-4.71622	MG
-4.473182	MIT
-4.841159	MP3
-4.841159	MRI
-5.017251	MS
-5.017251	MSN
-5.017251	MUON
-5.017251	MacArthur
-5.017251	MacNeil/Lehrer
-5.017251	Machine
-5.017251	Mack
-5.017251	Macy
-4.841159	Mad
-4.61931	Madame
-4.841159	Made
-5.017251	Madhuri
-5.017251	Madonna
-5.017251	Magdalene
-4.841159	Maggie
-4.71622	Magic
-5.017251	Magnesium
-4.841159	Mahalo
-5.017251	Mahatma
-5.017251	Maintaining
-5.017251	Major
-4.540129	Make
-4.71622	Making
-5.017251	Mall
-5.017251	Mama
-4.276888	Man
-4.71622	Man-Bat
-5.017251	Man-Bat-Man-Bat-Batman
-5.017251	Man-Bat-Man-Bat-Man
-5.017251	Man-Batman
-5.017251	Man-Man
-5.017251	Man-bat
-5.017251	Mandarin
-5.017251	Mandelbrot
-4.841159	Mandy
-5.017251	Manga
-5.017251	Manganese
-5.017251	Mango
-4.841159	Manhattan
-5.017251	Mankind
-5.017251	Manu
-5.017251	Many
-5.017251	Maple
-5.017251	Maps
-4.841159	March
-4.71622	Marco
-5.017251	Marie
-4.61931	Mario
-5.017251	Marion
-4.841159	Mark
-5.017251	Marker
-5.017251	Marmaduke
-4.31828	Mars
-4.841159	Martin
-4.473182	Marty
-4.841159	Maru
-4.71622	Marvel
-5.017251	Marvelous
-4.473182	Mary
-5.017251	Massachusetts
-5.017251	MasterCard
-5.017251	Mathematical
-4.841159	Matrix
-5.017251	Matter
-5.017251	Maxwell
-4.087831	May
-3.727216	Maybe
-5.017251	McBlanket
-5.017251	McCoy
-4.841159	McDonald
-5.017251	McFly
-5.017251	McGeary
-5.017251	McRib
-4.204337	Me
-5.017251	Mean
-5.017251	Meaningless
-5.017251	Measures
-5.017251	Mecca
-5.017251	Medical
-5.017251	Medusa
-5.017251	Mee
-4.540129	Mee-Maw
-4.142189	Meemaw
-5.017251	Meemaws
-4.71622	Meeting
-4.841159	Meh
-5.017251	Meitnerium
-5.017251	Melba
-5.017251	Melted
-4.841159	Memorial
-5.017251	Men
-5.017251	Menace
-5.017251	Mendelevium
-5.017251	Menelaus
-5.017251	Menushya
-5.017251	Mercury
-5.017251	Meriwether
-5.017251	Meriwether'
-5.017251	Mesozoic
-5.017251	Message
-5.017251	Met
-4.540129	Mexican
-4.71622	Mexico
-4.841159	Michael
-4.841159	Michelle
-4.841159	Michigan
-5.017251	Mickey
-5.017251	Microsoft
-4.71622	Middle
-5.017251	Middle-Eastern
-5.017251	Midol
-5.017251	Midwest
-5.017251	Midwestern
-5.017251	Might
-5.017251	Migraines
-4.841159	Mike
-4.71622	Milk
-5.017251	Milky
-4.61931	Miller
-5.017251	Mimeaux
-4.841159	Mimesis
-5.017251	Minamoto
-4.841159	Mind
-5.017251	Minds
-5.017251	Mine
-5.017251	Miners
-5.017251	Miniseries
-5.017251	Minstrels
-5.017251	Mint
-5.017251	Mirjam
-4.540129	Miss
-4.841159	Mississippi
-4.540129	Missy
-5.017251	Mithra
-5.017251	Mix
-4.276888	Mm
-4.540129	Mm-hmm
-4.276888	Mmm
-5.017251	Mmmmm
-5.017251	Mobius
-5.017251	Mock
-5.017251	Mockery
-5.017251	Mockingbirds
-4.841159	Mohammed
-4.841159	Moines
-5.017251	Moldova
-5.017251	Molybdenum
-4.087831	Mom
-5.017251	Mom.You
-5.017251	Moments
-4.71622	Mommy
-4.71622	Monday
-4.71622	Mondays
-5.017251	Monkey
-5.017251	Monkeys
-5.017251	Monogrammed
-5.017251	Monopoly
-5.017251	Monrovia
-4.71622	Monster
-4.841159	Montana
-4.540129	Monte
-5.017251	Montgomery-Ward
-4.841159	Month
-5.017251	Moon
-5.017251	Moot
-5.017251	Mordor
-4.473182	More
-4.841159	Morlocks
-4.41519	Morning
-5.017251	Morrisette
-4.841159	Morse
-5.017251	Morton
-5.017251	Moses
-4.71622	Most
-5.017251	Mostly
-4.239099	Mother
-5.017251	Motion
-5.017251	Motorola
-4.841159	Mount
-4.61931	Mountain
-4.61931	Move
-5.017251	Movies
-5.017251	Moving
-5.017251	Mozart
-4.841159	Mr
-3.841159	Mr.
-5.017251	Mrs
-4.239099	Mrs.
-4.540129	Ms.
-5.017251	Much
-5.017251	Mud
-5.017251	Mufasa
-5.017251	Muggles
-5.017251	Mumbai
-5.017251	Munch
-5.017251	Munching
-4.841159	Muppet
-5.017251	Murdoch
-5.017251	Murray
-5.017251	Musa
-5.017251	Musk
-4.61931	Must
-5.017251	Mutant
-5.017251	Mwah
-5.017251	Mwah-ha-ha
-5.017251	Mxyzptlk
-3.22137	My
-4.61931	N
-5.017251	N-gauge
-5.017251	NASA
-5.017251	NE
-5.017251	NPR
-5.017251	NQ
-5.017251	NSF
-5.017251	Na-oh
-5.017251	Nadoolman
-4.71622	Nah
-4.841159	Nailed
-5.017251	Namaste
-4.61931	Name
-5.017251	Nana
-5.017251	Nancy
-5.017251	Napoleon
-5.017251	Nathan
-4.61931	National
-5.017251	Navajo
-5.017251	Navy
-5.017251	Nazis
-5.017251	Neat
-4.473182	Nebraska
-5.017251	Neck
-4.71622	Need
-5.017251	Needed
-5.017251	Needy
-5.017251	Neeeeeooooowwwwww
-5.017251	Neeeeooooowwwww
-5.017251	Neeeeoooowwwww
-5.017251	Negative
-4.841159	Neil
-4.61931	Neither
-5.017251	Nelly
-5.017251	Nemesis
-5.017251	Neocortex
-4.841159	Neosporin
-4.841159	Netflix
-5.017251	Network
-5.017251	Neuroscience
-5.017251	Neutrino
-4.841159	Nevada
-4.142189	Never
-4.71622	Nevertheless
-5.017251	Nevis
-4.31828	New
-5.017251	Newcomb
-4.841159	Newmar
-4.204337	Newton
-5.017251	Newtons
-3.996061	Next
-5.017251	Nibia
-4.31828	Nice
-5.017251	Nick
-5.017251	Nicolaus
-4.841159	Niels
-5.017251	Nietzsche
-4.473182	Night
-4.841159	Nightcrawler
-5.017251	Nightmare
-5.017251	Nighty-night
-5.017251	Nikola
-4.364038	Nimoy
-4.540129	Nine
-5.017251	Nine/Star
-5.017251	Ninja
-4.61931	Nintendo
-2.695031	No
-5.017251	No-Funderson
-4.841159	No-one
-4.841159	Noah
-4.039527	Nobel
-4.71622	Nobody
-5.017251	Nodlehs
-4.841159	None
-5.017251	Nonsense
-5.017251	Noonien
-4.473182	Nope
-5.017251	Nordic
-4.841159	Norris
-5.017251	Norse
-4.204337	North
-4.841159	Northern
-5.017251	Northwest
-4.841159	Norton
-5.017251	Nose
-3.331509	Not
-4.172153	Nothing
-5.017251	Notice
-5.017251	Notify
-4.841159	November
-5.017251	Novus
-3.039527	Now
-4.540129	Nowitzki
-5.017251	Nuclear
-5.017251	Nudge
-4.841159	Number
-5.017251	Numerator
-5.017251	Nut
-4.841159	Nuts
-4.71622	Nutter
-4.473182	Nye
-4.71622	O
-4.841159	O-gauge
-5.017251	OMG
-5.017251	Oa
-5.017251	Oat
-5.017251	Oatmeal
-5.017251	Obesity
-4.61931	Obi-Wan
-5.017251	Obispo
-4.71622	Observe
-4.41519	Obviously
-5.017251	Occam
-5.017251	Octopus
-4.841159	Odd
-5.017251	Oddly
-5.017251	Oecanthus
-5.017251	Oedipal
-3.485771	Of
-5.017251	Off
-4.71622	Officer
-4.841159	Offices
-2.419555	Oh
-5.017251	Oh-ho
-5.017251	Oh-ho-ho
-3.169061	Okay
-4.841159	Oklahoma
-4.61931	Old
-4.841159	Olive
-4.71622	Olympic
-4.841159	Olympics
-5.017251	Olympus
-5.017251	Om
-5.017251	Omaha
-5.017251	Omar
-3.886917	On
-4.364038	Once
-3.61071	One
-5.017251	One'
-5.017251	One-Eyed
-4.41519	Only
-5.017251	Oobius
-3.920341	Ooh
-5.017251	Ooo-ooo
-5.017251	Oop
-5.017251	Oops
-4.71622	Open
-5.017251	Opening
-4.61931	Oppenheimer
-5.017251	Optimized
-3.637039	Or
-5.017251	Orcs
-4.841159	Order
-5.017251	Oregon
-5.017251	Oreo
-5.017251	Orient
-5.017251	Origami
-5.017251	Origin
-4.71622	Original
-5.017251	Orpheus
-4.473182	Other
-5.017251	Otherwise
-5.017251	Otto
-5.017251	Ouch
-4.276888	Our
-5.017251	Ours
-4.841159	Out
-5.017251	Outdoor
-5.017251	Outside
-4.473182	Over
-4.41519	Ow
-4.71622	Oxford
-5.017251	Oxnard
-5.017251	Oyl
-4.841159	P.E
-5.017251	PBS
-5.017251	PDFs
-5.017251	PMS
-5.017251	PMS'ing
-5.017251	PRK
-5.017251	PS1
-5.017251	PS2
-4.71622	PS3
-4.540129	PS4
-5.017251	PVC
-5.017251	Pacific
-5.017251	Packard
-5.017251	Pad
-4.71622	Page
-5.017251	Paint
-5.017251	Painters
-5.017251	Pair
-5.017251	Pakistan
-4.71622	Palace
-5.017251	Palpatine
-4.841159	Paneer
-5.017251	Panofsky
-4.71622	Paper
-5.017251	Papua
-5.017251	Parade
-5.017251	Paradox
-5.017251	Paraffin
-5.017251	Parcel
-4.71622	Pardon
-4.61931	Park
-5.017251	Parks
-5.017251	Parliamentary
-5.017251	Parmesan
-4.841159	Particle
-4.276888	Pasadena
-5.017251	Pastries
-5.017251	Patang
-5.017251	Patch
-5.017251	Patience
-4.841159	Patrick
-5.017251	Pattern
-5.017251	Patties
-5.017251	Paul
-5.017251	Pay
-4.540129	Pchew
-5.017251	Peace
-5.017251	Peach
-5.017251	Pear
-5.017251	Pear-tickle
-5.017251	Pearson
-5.017251	Pee-wee
-5.017251	Peeing
-5.017251	Peg-Leg
-2.908347	Penny
-4.841159	Penrose
-4.114161	People
-5.017251	Pep
-5.017251	Pepper
-5.017251	Peppermint
-5.017251	Peppers
-5.017251	Pepsi
-5.017251	Per
-5.017251	Perfect
-5.017251	Perform
-3.71622	Perhaps
-4.841159	Perlmutter
-5.017251	Permission
-5.017251	Perseus
-5.017251	Persian
-5.017251	Personal
-4.841159	Personally
-5.017251	Pest
-5.017251	Pete
-4.841159	Peter
-5.017251	Pets
-4.841159	Pfieffer
-4.540129	PhD
-5.017251	PhDs
-4.841159	Phantom
-5.017251	Pharoah
-4.841159	Philharmonic
-5.017251	Physically
-4.239099	Physics
-5.017251	Physika
-5.017251	Physiologically
-5.017251	Pi
-4.841159	Picard
-4.841159	Picasso
-4.61931	Pick
-4.71622	Pictionary
-5.017251	Picture
-5.017251	Pie
-5.017251	Pilates
-5.017251	Pinocchio
-5.017251	Pixie
-5.017251	Pizza
-5.017251	Plan
-5.017251	Planck
-5.017251	Plane
-5.017251	Planets
-4.71622	Plantation
-5.017251	Plateful
-4.841159	Platform
-4.204337	Play
-5.017251	PlayStation
-4.61931	Playing
-3.774212	Please
-5.017251	Pleased
-5.017251	Pledge
-4.841159	Plenty
-4.71622	Plimpton
-4.364038	Plus
-4.841159	Pluto
-5.017251	Pneumococcus
-5.017251	Podiatrist
-5.017251	Poindexter
-4.41519	Point
-5.017251	Pointing
-5.017251	Poison
-5.017251	Pok'mon
-4.61931	Pole
-4.61931	Polish
-5.017251	Polish-born
-5.017251	Pollock
-4.71622	Polo
-5.017251	Pon
-5.017251	Ponies
-5.017251	Pool
-5.017251	Poor
-5.017251	Poorly
-5.017251	Pop
-4.61931	Pop-Pop
-4.841159	Pope
-5.017251	Portland
-4.841159	Possible
-4.841159	Possibly
-5.017251	Postal
-5.017251	Poster
-4.841159	Potter
-4.61931	Pottery
-5.017251	Pouting
-4.71622	Power
-5.017251	PowerPoint
-5.017251	Prairie
-4.71622	Pratt
-5.017251	Prawn
-5.017251	Precisely
-5.017251	Prefect
-5.017251	Prejudice
-4.71622	Prepare
-5.017251	Prepares
-5.017251	Preposterous
-5.017251	Prescription
-4.41519	Presents
-4.41519	President
-4.841159	Pretty
-5.017251	Previously
-5.017251	Pride
-5.017251	Primates
-5.017251	Prince
-4.41519	Princess
-4.61931	Princeton
-5.017251	Principia
-5.017251	Pringles
-4.31828	Priya
-4.276888	Prize
-4.71622	Prize-winning
-4.71622	Probably
-5.017251	Probe
-5.017251	Proceed
-3.761978	Professor
-5.017251	Proficient
-4.540129	Project
-5.017251	Proof
-5.017251	Property
-4.172153	Proton
-5.017251	Providing
-5.017251	Psychologically
-4.841159	Puffs
-5.017251	Pullman-built
-5.017251	Pun
-5.017251	Punch
-4.61931	Punchali
-5.017251	Pursuant
-4.540129	Put
-5.017251	Pythagoras
-5.017251	Pythagorean
-4.61931	Q
-5.017251	QaQqu
-5.017251	Qu'vatlh
-5.017251	Quantentheorie
-4.841159	Quantum
-5.017251	Quarterly
-4.61931	Queen
-5.017251	Query
-4.61931	Question
-4.61931	Quick
-5.017251	Quidditch
-4.364038	Quinto
-5.017251	Quite
-5.017251	Quixote
-5.017251	Quiznos
-4.71622	R
-4.841159	R.
-5.017251	R.R
-5.017251	R2-D2
-5.017251	RAM
-4.841159	REM
-5.017251	RSVP
-5.017251	Rabeliechtli
-5.017251	Races
-5.017251	Radiation
-4.61931	Radio
-5.017251	Radiohead
-5.017251	Rag
-4.540129	Raiders
-5.017251	Railway
-5.017251	Rain
-5.017251	Raisin
-4.841159	Raisinets
-3.479431	Raj
-4.473182	Rajesh
-4.71622	Ralph
-4.71622	Ramona
-4.841159	Ranch
-5.017251	Randall
-4.841159	Rangers
-5.017251	Rar
-5.017251	Raton
-4.841159	Rats
-5.017251	Ravage
-5.017251	Razor
-5.017251	Re-initiating
-5.017251	Read
-5.017251	Ready
-5.017251	Real
-3.646183	Really
-4.841159	Rebecca
-5.017251	Recommended
-4.276888	Red
-5.017251	Rederivation
-5.017251	Redwood
-4.841159	Regarding
-5.017251	Regardless
-4.841159	Relationship
-5.017251	Relativity
-5.017251	Relax
-4.841159	Remarkable
-4.239099	Remember
-5.017251	Reminds
-4.841159	Renaissance
-5.017251	Rendered
-5.017251	Rent
-5.017251	Report
-4.841159	Republic
-5.017251	Rescue
-4.540129	Resources
-5.017251	Restraining
-5.017251	Restricting
-5.017251	Retractable
-5.017251	Return
-5.017251	Revenue
-5.017251	Reverend
-5.017251	Rex
-5.017251	Reynolds
-5.017251	Rhineheitsgebot
-4.841159	Ricardo
-5.017251	Rich
-4.31828	Richard
-5.017251	Richie
-5.017251	Rick
-5.017251	Rider
-5.017251	Riemann
-4.017251	Right
-4.841159	Riley
-5.017251	Ring
-4.473182	Rings
-5.017251	Riposte
-5.017251	Risk
-5.017251	Ritalin
-5.017251	Ritz
-5.017251	Road
-4.61931	Robert
-4.841159	Robin
-4.540129	Robles
-5.017251	Robot
-5.017251	Robots
-4.71622	Rock
-5.017251	Rock'em
-5.017251	Rock-Paper-Scissors
-5.017251	Rock-Paper-Scissors-Lizard-Spock
-5.017251	Rocks
-4.841159	Rod
-5.017251	Roger
-5.017251	Roll
-4.841159	Roller
-5.017251	Rolling
-4.841159	Roman
-4.71622	Romania
-4.841159	Romans
-5.017251	Romantic
-5.017251	Rome
-5.017251	Romulans
-5.017251	Roofing
-4.540129	Roommate
-4.841159	Roommates
-5.017251	Rosa
-4.71622	Rostenkowski
-4.71622	Rothman
-5.017251	Roughing
-4.841159	Round
-4.61931	Rover
-5.017251	Rowling
-5.017251	Rubik
-4.841159	Ruffalo
-4.841159	Run
-5.017251	Rupert
-4.841159	Russell
-5.017251	Russia
-5.017251	Russian
-5.017251	Ruth
-5.017251	Ryan
-4.71622	S
-5.017251	SHIELD
-5.017251	SS
-5.017251	STDs
-4.71622	Sad
-4.71622	Sadly
-5.017251	Sagan
-4.71622	Said
-4.841159	Saint
-4.841159	Salt
-4.61931	Sam
-4.841159	Same
-4.61931	San
-5.017251	Sanctum
-5.017251	Sandra
-4.473182	Santa
-4.841159	Sarah
-4.540129	Sarcasm
-5.017251	Satanimals
-4.41519	Saturday
-5.017251	Saturdays
-4.841159	Saturn
-5.017251	Saturnalia
-4.71622	Saul
-5.017251	Sauron
-5.017251	Sausage
-5.017251	Sawyer
-4.039527	Say
-5.017251	Says
-5.017251	ScD
-5.017251	Scandinavian
-5.017251	Scholls
-4.71622	School
-4.364038	Schrodinger
-5.017251	Schrodinger'
-5.017251	Schumacher
-4.239099	Science
-4.71622	Scientific
-5.017251	Scientists
-4.71622	Scissors
-5.017251	Scissors'
-4.841159	Scooby
-5.017251	Scooby-Doo
-5.017251	Score
-5.017251	Scotch
-5.017251	Scott
-4.841159	Scotty
-5.017251	Scout
-4.841159	Scrabble
-5.017251	Scrambled
-5.017251	Screw
-5.017251	Screwed
-5.017251	Search
-5.017251	Season
-4.61931	Second
-4.841159	Secondly
-4.841159	Secret
-4.61931	Section
-5.017251	Security
-3.665068	See
-5.017251	Seems
-4.841159	Seibert
-5.017251	Semiotics
-5.017251	Senate
-5.017251	Senior
-5.017251	Senoran
-5.017251	Sensational
-5.017251	Serial
-4.71622	Series
-4.841159	Seriously
-4.841159	Service
-4.841159	Set
-5.017251	Seth
-4.841159	Seuss
-4.71622	Seven
-5.017251	Seventeen
-5.017251	Sezchuan
-4.71622	Shack
-5.017251	Shaggy
-5.017251	Shakespeare
-4.71622	Shall
-4.71622	Shame
-4.61931	Shatner
-3.22137	She
-5.017251	She-Hulk
-5.017251	Shedding
-4.841159	Sheep
-4.841159	Shel-Mart
-5.017251	Sheld-on
-3.284857	Sheldon
-5.017251	Sheldon-face
-5.017251	Sheldonopolis
-4.71622	Sheldons
-4.61931	Sheldor
-4.364038	Shelly
-5.017251	Shelly-bean
-5.017251	Shelvetica
-5.017251	Sherlock
-5.017251	Shh
-5.017251	Shhh
-4.61931	Shhhhh
-4.71622	Shilly-Shally
-5.017251	Shining
-5.017251	Ship
-5.017251	Shire
-5.017251	Shirley
-5.017251	Shoe
-5.017251	Shoo
-5.017251	Shopworn
-5.017251	Shore
-4.61931	Should
-5.017251	Shoulda
-4.473182	Show
-5.017251	Shrewd
-5.017251	Shut
-5.017251	Shyamalan
-5.017251	Siam
-5.017251	Sick
-5.017251	Sides
-4.71622	Siebert
-4.841159	Sign
-4.841159	Silence
-5.017251	Silver
-4.71622	Simple
-4.71622	Simpson
-5.017251	Simulation
-5.017251	Simultaneously
-5.017251	Sin
-4.204337	Since
-5.017251	Sincere
-4.841159	Sing
-5.017251	Singh
-5.017251	Sinking
-4.71622	Sir
-4.841159	Siri
-5.017251	Sirron
-5.017251	Sit
-5.017251	Sith
-5.017251	Sitter
-5.017251	Sitting
-5.017251	Sivana
-4.841159	Sixth
-5.017251	Size
-5.017251	Skee-Ball
-5.017251	Skinner
-4.841159	Skippy
-5.017251	Skynet
-4.841159	Skype
-5.017251	Skypes
-4.61931	Skywalker
-5.017251	Slaves
-5.017251	Slayer
-4.841159	Sleep
-4.841159	Sleepy
-5.017251	Slick
-5.017251	Slide
-5.017251	Slip
-5.017251	Sloppy
-4.841159	Slow
-5.017251	Slurpies
-4.841159	Small
-4.71622	Smart
-5.017251	Smeldor
-4.841159	Smell
-5.017251	Smelly
-4.71622	Smoot
-5.017251	Smoot-Cooper
-5.017251	Smurf
-5.017251	Snatchers
-5.017251	Snickering
-5.017251	Snikt
-5.017251	Snowball
-3.103436	So
-4.841159	SoccerMom09
-4.61931	Social
-5.017251	Society
-5.017251	Sock'em
-4.841159	Socks
-5.017251	Sodom
-5.017251	Soft
-5.017251	Sold
-5.017251	Solids
-5.017251	Solitude
-5.017251	Solo
-5.017251	Solutions
-4.473182	Some
-4.71622	Somebody
-4.841159	Someday
-4.540129	Someone
-4.71622	Something
-4.364038	Sometimes
-5.017251	Somewhat
-4.841159	Somewhere
-5.017251	Son
-4.841159	Sonny
-5.017251	Soon
-5.017251	Sorcerer
-3.886917	Sorry
-5.017251	Souls
-5.017251	Sound
-4.71622	Sounds
-5.017251	Soundsational
-4.61931	Soup
-5.017251	Sour
-4.71622	South
-4.841159	Southern
-5.017251	Soviet
-5.017251	Soviet-style
-4.540129	Space
-5.017251	Space-time
-5.017251	Spaghetti
-4.71622	Spanish
-4.71622	Sparkletts
-4.71622	Sparks
-5.017251	Speak
-4.41519	Speaking
-4.841159	Special
-4.841159	Specifically
-5.017251	Spectacular
-5.017251	Spell
-5.017251	Spending
-5.017251	Sphere
-5.017251	Spicy
-4.017251	Spider-Man
-5.017251	Spider-man
-5.017251	Spiderman
-5.017251	Spielberg
-4.841159	Spiner
-5.017251	Spitball
-5.017251	Spittoon
-3.841159	Spock
-5.017251	Spoiler
-4.71622	SpongeBob
-5.017251	Sporting
-5.017251	Spread
-4.61931	Spy
-5.017251	Squares
-5.017251	Squeaky
-5.017251	Sri
-5.017251	Sssshhhh
-5.017251	Stale
-5.017251	Staleness
-5.017251	Stalin
-4.039527	Stan
-4.71622	Stand
-5.017251	Stanford
-5.017251	Stanislavski
-5.017251	Staples
-3.562406	Star
-5.017251	Starch
-5.017251	Stardate
-4.61931	Starfleet
-5.017251	Starlight
-5.017251	Stars
-5.017251	Start
-5.017251	Starting
-5.017251	State
-4.841159	States
-4.841159	Station
-5.017251	Statistically
-5.017251	Stay
-5.017251	Stealing
-5.017251	Steinem
-4.841159	Stella
-5.017251	Stems
-4.364038	Step
-4.276888	Stephanie
-4.063008	Stephen
-5.017251	Stephen-Hawking
-4.61931	Steve
-5.017251	Steven
-5.017251	Stevens
-5.017251	Stewards
-4.841159	Stewart
-5.017251	Stick
-4.473182	Still
-5.017251	Stomp
-4.841159	Stone
-4.063008	Stop
-4.71622	Store
-4.841159	Storm
-5.017251	Stormtroopers
-4.841159	Story
-5.017251	Strahlung
-5.017251	Straightening
-5.017251	Strap
-5.017251	Strike
-4.841159	String
-5.017251	Stripe
-4.841159	Strongly
-5.017251	Struck
-5.017251	Structure
-5.017251	Stu
-3.826919	Stuart
-5.017251	Studio
-5.017251	Stuff
-5.017251	Stupid
-5.017251	Subject
-5.017251	Subliminal
-5.017251	Substance
-5.017251	Subtlety
-5.017251	Sucker
-5.017251	Sudan
-5.017251	Sudoku
-5.017251	Sugar
-5.017251	Suicide
-5.017251	Summer
-4.841159	Sumter
-5.017251	Sun
-4.473182	Sunday
-4.841159	Super
-5.017251	Superb
-5.017251	Supercomputer
-5.017251	Supercuts
-4.841159	Superheroes
-5.017251	Superliner
-4.473182	Superman
-5.017251	Superstitious
-5.017251	Suppose
-5.017251	Sur
-4.41519	Sure
-5.017251	Surely
-5.017251	Surfer
-4.841159	Surprise
-4.71622	Surprisingly
-4.841159	Svaty
-5.017251	Sweat
-4.841159	Sweatpants
-5.017251	Sweaty
-5.017251	Sweden
-5.017251	Swedes
-4.61931	Swedish
-4.841159	Sweet
-4.841159	Swift
-5.017251	Swish
-4.61931	Swiss
-4.540129	Switzerland
-4.841159	Sword
-5.017251	Swordfish
-5.017251	Swordmaster
-5.017251	SyFy
-5.017251	Szechuan
-4.71622	T
-4.41519	T-shirt
-4.61931	T-shirts
-5.017251	T.
-5.017251	T.S
-4.063008	TV
-4.841159	Ta-da
-5.017251	Tag
-5.017251	Tahecin
-4.239099	Take
-4.540129	Talk
-5.017251	Tall
-5.017251	Tamagotchi
-5.017251	Tandoori
-5.017251	Tangential
-4.841159	Tardis
-5.017251	Taser
-5.017251	Tasers
-5.017251	Tasing
-5.017251	Tatooine
-5.017251	Taurus
-4.540129	Taylor
-5.017251	Tea
-5.017251	Team
-5.017251	Teams
-5.017251	Tears
-5.017251	Tech
-5.017251	Technetium
-4.841159	Technically
-5.017251	Teenage
-5.017251	Teens
-5.017251	Telepathically
-5.017251	Telescope
-5.017251	Television
-4.114161	Tell
-5.017251	Teller
-5.017251	Temple
-4.61931	Ten
-5.017251	Tennessee
-5.017251	Terran
-5.017251	Terrific
-5.017251	Territories
-4.61931	Tesla
-5.017251	Testament
-5.017251	Tests
-5.017251	Tetris
-5.017251	Tex-Mex
-4.841159	Texan
-3.841159	Texas
-4.31828	Thai
-5.017251	Thailand
-3.269063	Thank
-4.063008	Thanks
-4.61931	Thanksgiving
-5.017251	Thanksgivings
-2.753614	That
-2.844064	The
-5.017251	Their
-5.017251	Them
-3.646183	Then
-5.017251	Theon
-5.017251	Theoretical
-3.228375	There
-4.71622	Therefore
-4.31828	These
-3.297091	They
-5.017251	Thing
-4.71622	Things
-4.61931	Think
-5.017251	Thinking
-5.017251	Third
-5.017251	Third-graders
-5.017251	Thirsty
-5.017251	Thirty
-3.019427	This
-4.841159	Thor
-5.017251	Thorndike
-4.276888	Those
-5.017251	Thought
-4.276888	Three
-5.017251	Three-headed
-5.017251	Thriller
-4.61931	Thrones
-5.017251	Thunder
-5.017251	Thunderbolt
-4.841159	Thunderdome
-4.087831	Thursday
-5.017251	Thursdays
-5.017251	Tiberius
-5.017251	Tibetan
-5.017251	Tic-tac-toe
-5.017251	Tickle
-5.017251	Ticonderoga
-4.41519	Time
-5.017251	Tire
-5.017251	Titans
-3.855882	To
-4.841159	Toast
-5.017251	Tobacco
-5.017251	Toblerone
-4.71622	Toby
-4.841159	Today
-5.017251	Todd
-4.71622	Told
-4.473182	Tom
-4.71622	Tomorrow
-4.841159	Tondelaya
-4.31828	Tonight
-4.71622	Too
-4.841159	Top
-5.017251	Topic
-5.017251	Torch
-5.017251	Toronto
-5.017251	Toto
-5.017251	Touching
-5.017251	Tough
-5.017251	Tour
-5.017251	Tourette
-5.017251	Towards
-5.017251	Town
-5.017251	Toy
-5.017251	Toys
-5.017251	Trains
-4.61931	Transformers
-5.017251	Trapper
-5.017251	Travel
-5.017251	Travers
-5.017251	Trebek
-3.674828	Trek
-5.017251	Trek'
-5.017251	Tribble
-5.017251	Tribbles
-5.017251	Trick
-5.017251	Trip
-4.841159	Triple
-5.017251	Trouble
-5.017251	Troy
-4.540129	True
-4.71622	Trust
-5.017251	Truthfully
-4.71622	Try
-4.841159	Trying
-4.841159	Tso
-5.017251	Tub
-5.017251	Tubs
-4.31828	Tuesday
-5.017251	Tuk
-5.017251	Tupperman
-5.017251	Tupperware
-5.017251	Turkey
-5.017251	Turn
-4.841159	Turns
-5.017251	Turtle
-5.017251	Turtles
-5.017251	Twelfth
-5.017251	Twelve
-5.017251	Twenty
-4.540129	Twitter
-5.017251	Twizzlers
-4.142189	Two
-4.841159	Typhoid
-5.017251	Typically
-4.841159	Tyson
-5.017251	U
-4.71622	U.S.
-5.017251	Uber
-4.841159	Uganda
-4.239099	Ugh
-3.305443	Uh
-5.017251	Uh-duh
-4.61931	Uh-huh
-4.41519	Uh-oh
-5.017251	Uhura
-5.017251	Ultimate
-3.799767	Um
-4.61931	Um'
-5.017251	Umfrumf
-5.017251	Umm
-5.017251	Un
-5.017251	Un-unravelable
-4.841159	Unacceptable
-4.473182	Uncle
-5.017251	Und
-4.41519	Under
-5.017251	Understand
-5.017251	Understandable
-5.017251	Underworld
-5.017251	Undoubtedly
-4.61931	Unfortunately
-5.017251	Unhygienic
-5.017251	Uni
-4.841159	Union
-5.017251	Unit
-4.61931	United
-5.017251	Universe
-4.61931	University
-4.142189	Unless
-4.473182	Unlike
-5.017251	Unlikely
-4.71622	Until
-4.540129	Up
-5.017251	Uranium-235
-4.61931	Use
-4.71622	Using
-5.017251	Usually
-4.841159	V
-5.017251	V.
-4.61931	VHS
-4.841159	Vaclav
-4.31828	Vader
-5.017251	Valentimes
-4.276888	Valentine
-5.017251	Valorum
-5.017251	Vampire
-5.017251	Van
-5.017251	Vanderplatt
-5.017251	VapoRub
-5.017251	Vartabedian
-4.540129	Vegas
-4.841159	Vegetable
-5.017251	Velikovsky
-5.017251	Velma
-5.017251	Venetian
-5.017251	Ventimiglia
-5.017251	Verbatim
-5.017251	Veronica
-3.684812	Very
-4.841159	Vexillology
-4.841159	Viagra
-4.841159	Victorian
-5.017251	Victory
-5.017251	Video
-5.017251	Vienna
-5.017251	Vietnamese
-5.017251	Vine
-5.017251	Vines
-4.841159	Vintage
-5.017251	Violation
-5.017251	Virgin
-5.017251	Vista
-5.017251	Vitamin
-5.017251	Vocal
-5.017251	Vociferously
-5.017251	Voice
-5.017251	Voil
-5.017251	Volunteers
-5.017251	Von
-4.61931	Voyager
-4.71622	Vulcan
-4.841159	Vulcans
-5.017251	W
-5.017251	W-W-Wait
-5.017251	Wah
-3.547428	Wait
-5.017251	Waitresses
-5.017251	Walgreens
-5.017251	Walked
-5.017251	Walken
-4.841159	Walking
-5.017251	Waltz
-5.017251	Want
-5.017251	War
-4.841159	Warcraft
-5.017251	Warlords
-5.017251	Warm
-4.204337	Wars
-4.142189	Was
-4.61931	Washington
-4.540129	Watch
-4.841159	Water
-5.017251	Waterfalls
-5.017251	Wavin
-5.017251	Wax
-4.540129	Way
-5.017251	Wayne
-2.977836	We
-5.017251	Wear
-4.71622	Web
-5.017251	Webster
-4.71622	Wednesday
-5.017251	Weights
-5.017251	Weisskopf'
-4.276888	Welcome
-2.576341	Well
-4.841159	Well'
-5.017251	Well-groomed
-5.017251	Weltschmerz
-5.017251	Wenceslas
-4.473182	Were
-5.017251	Werner
-4.142189	Wesley
-4.61931	West
-5.017251	Western
-5.017251	Westward
-4.841159	Wh
-5.017251	Wh-Where
-5.017251	Wha
-5.017251	Wharf
-2.759572	What
-5.017251	What.
-4.841159	Whatever
-3.761978	Wheaton
-5.017251	Wheaton'
-4.841159	Whedon
-4.841159	Whee
-4.841159	Wheel
-4.841159	Wheels
-3.505367	When
-4.841159	Whenever
-3.577918	Where
-5.017251	Whereas
-5.017251	Wherever
-5.017251	Whether
-5.017251	Whew
-3.655523	Which
-4.063008	While
-5.017251	White
-3.5121	Who
-4.540129	Whoa
-5.017251	Whoo-whoo
-5.017251	Whoopi
-5.017251	Whos
-5.017251	Whuh
-3.139303	Why
-5.017251	Wi-Fi
-5.017251	Wichita
-4.71622	Wii
-5.017251	Wikipedia
-3.655523	Wil
-5.017251	Wild
-4.142189	Will
-4.61931	William
-5.017251	Willis
-5.017251	Willy
-5.017251	Wilson
-4.540129	Windows
-4.841159	Wine
-4.473182	Winkle
-4.841159	Wisconsin
-5.017251	Wise
-5.017251	Wishing
-5.017251	Witches
-3.826919	With
-4.841159	Without
-4.71622	Wizarding
-4.41519	Wo
-3.547428	Wolowitz
-4.41519	Wolverine
-4.71622	Woman
-4.71622	Women
-4.61931	Wonder
-5.017251	WonderCon
-4.31828	Wonderful
-5.017251	Woo-woo
-5.017251	Woods
-4.841159	Wooh
-5.017251	Wookie
-5.017251	Wookiee
-4.841159	Wool
-5.017251	Woot
-4.61931	Words
-5.017251	Worked
-5.017251	Works
-4.473182	World
-5.017251	Worst
-3.655523	Would
-4.039527	Wow
-5.017251	Wowza
-4.364038	Wrong
-5.017251	Wu
-5.017251	Wuh
-5.017251	Wunch
-4.31828	X
-4.61931	X-Men
-5.017251	X.
-5.017251	XXXXL
-4.841159	Xavier
-4.239099	Xbox
-5.017251	Y
-5.017251	Y-you
-5.017251	Y.
-5.017251	Yajna
-4.473182	Yay
-5.017251	Ye
-5.017251	Yea
-2.941704	Yeah
-5.017251	Year
-5.017251	Years
-5.017251	Yeh
-5.017251	Yellow
-4.841159	Yelp
-4.71622	Yep
-5.017251	Yerkes
-2.925583	Yes
-5.017251	Yesterday
-4.841159	Yet
-5.017251	Yiddish
-4.71622	Yoda
-5.017251	Yonder
-5.017251	Yoo-hoo
-4.841159	York
-4.841159	Yorkshire
-5.017251	Yosemite
-2.350733	You
-4.71622	YouTube
-5.017251	Young
-5.017251	Youngest
-5.017251	Youngsters
-3.562406	Your
-5.017251	Yours
-5.017251	Youth
-5.017251	Ytterbium
-5.017251	Yuh-uh
-5.017251	Yup
-5.017251	Yvette
-4.841159	Z
-4.41519	Zachary
-4.31828	Zack
-5.017251	Zamboni
-5.017251	Zancor
-5.017251	Zarnecki
-4.841159	Zazzles
-5.017251	Ziggy
-5.017251	Zingers
-5.017251	Zip
-4.841159	Ziploc
-5.017251	Zod
-4.841159	Zone
-5.017251	Zoo
-4.841159	Zoom
-4.841159	Zork
-5.017251	Zur
-5.017251	Zzzzzzzzz
-5.017251	``
-1.806531	a
-5.017251	a-a
-5.017251	a-knocking
-5.017251	a-twitter
-4.71622	a.m.
-5.017251	aardvark
-5.017251	aat
-5.017251	aback
-4.71622	abandon
-5.017251	abandoned
-4.71622	abandoning
-5.017251	abate
-5.017251	abbreviation
-5.017251	abdomen
-5.017251	aberration
-5.017251	abide
-4.276888	ability
-5.017251	ability'
-3.886917	able
-4.841159	ablutions
-4.473182	aboard
-5.017251	abort
-2.712975	about
-4.41519	above
-5.017251	above-ground
-5.017251	abrupt
-4.841159	absence
-5.017251	absolute
-4.364038	absolutely
-5.017251	absorb
-5.017251	absorbs
-4.61931	absurd
-4.71622	abuse
-5.017251	abysmal
-4.473182	academic
-5.017251	academy
-5.017251	accelerate
-4.71622	accelerator
-5.017251	accent
-4.063008	accept
-4.473182	acceptable
-4.71622	acceptance
-4.41519	accepted
-5.017251	accepted'
-5.017251	accepting
-4.204337	access
-5.017251	accessories
-4.31828	accident
-5.017251	accidental
-4.41519	accidentally
-5.017251	accidents
-5.017251	acclimate
-4.841159	accolades
-4.71622	accommodate
-4.71622	accompany
-5.017251	accompanying
-4.71622	accomplished
-5.017251	accomplishing
-4.71622	accomplishment
-5.017251	accomplishments
-4.364038	according
-5.017251	accordingly
-4.364038	account
-5.017251	accumulation
-5.017251	accumulator
-4.364038	accurate
-4.841159	accurately
-5.017251	accusations
-5.017251	accuse
-4.71622	accused
-5.017251	accuser
-5.017251	accusing
-4.841159	ache
-4.61931	achieve
-4.841159	achieved
-4.61931	achievement
-5.017251	aching
-5.017251	acid
-4.540129	acknowledge
-5.017251	acknowledgement
-5.017251	acknowledging
-4.841159	acquaintance
-5.017251	acquaintances
-4.841159	acquire
-5.017251	acquired
-5.017251	acronym
-4.114161	across
-4.31828	act
-5.017251	acted
-4.41519	acting
-3.975858	action
-5.017251	action-packed
-4.71622	actions
-4.841159	activated
-5.017251	active
-4.841159	actively
-5.017251	activites
-5.017251	activities
-4.364038	activity
-4.71622	actor
-4.61931	actress
-4.841159	acts
-4.172153	actual
-3.705497	actually
-5.017251	acutely
-5.017251	ad
-5.017251	adaptable
-5.017251	adapted
-5.017251	adapting
-4.364038	add
-4.540129	added
-5.017251	addendum
-5.017251	addict
-5.017251	addicted
-4.41519	addiction
-5.017251	addictive
-5.017251	adding
-4.71622	addition
-4.41519	additional
-5.017251	additionally
-5.017251	addled
-4.364038	address
-5.017251	addressed
-5.017251	addressing
-4.841159	adequate
-5.017251	adhere
-5.017251	adheres
-5.017251	adhering
-4.71622	adhesive
-5.017251	adjacent
-5.017251	adjective
-5.017251	adjourned
-5.017251	adjust
-5.017251	administer
-5.017251	administration
-5.017251	admirable
-4.71622	admiration
-4.841159	admire
-5.017251	admired
-5.017251	admission
-4.204337	admit
-5.017251	admits
-5.017251	admittedly
-5.017251	admitting
-5.017251	admonish
-5.017251	admonishing
-4.841159	adness
-5.017251	ado
-5.017251	adopted
-5.017251	adorable
-5.017251	adoseconds
-5.017251	adulation
-5.017251	adult
-4.841159	adults
-4.61931	advance
-4.364038	advanced
-4.841159	advancement
-4.841159	advancements
-5.017251	advancing
-4.540129	advantage
-5.017251	advantages
-4.71622	adventure
-4.142189	advice
-5.017251	advise
-5.017251	advised
-5.017251	aerial
-5.017251	aerosol
-5.017251	aesthetically
-5.017251	affair
-4.841159	affairs
-4.841159	affect
-5.017251	affected
-4.540129	affection
-4.841159	affectionate
-5.017251	affirmative
-5.017251	afflicted
-5.017251	affluence
-4.61931	afford
-5.017251	affording
-5.017251	affront
-5.017251	afghan
-5.017251	aficionado
-5.017251	aficionados
-5.017251	afoot
-5.017251	aforementioned
-5.017251	aforethought
-3.975858	afraid
-3.547428	after
-5.017251	after-dinner
-5.017251	after-tax
-4.276888	afternoon
-5.017251	afterward
-3.322645	again
-3.826919	against
-4.473182	age
-5.017251	aged
-4.841159	agent
-4.71622	ages
-5.017251	aggravated
-5.017251	aggravating
-5.017251	aggregation
-5.017251	aggression
-5.017251	aggressive
-5.017251	aggressive-looking
-5.017251	aging
-3.761978	ago
-5.017251	agonizing
-5.017251	agora
-4.017251	agree
-4.364038	agreed
-5.017251	agreeing
-3.684812	agreement
-5.017251	agreements
-5.017251	agrees
-5.017251	agricultural
-3.841159	ahead
-5.017251	ahoy
-4.841159	ai
-5.017251	aided
-5.017251	aids
-5.017251	ails
-5.017251	aiming
-5.017251	aimlessly
-4.063008	air
-5.017251	airplane
-4.473182	airport
-5.017251	airports
-4.841159	aka
-4.71622	alarm
-5.017251	alarming
-4.841159	albeit
-5.017251	alchemy
-3.996061	alcohol
-5.017251	alcoholism
-5.017251	ale
-4.61931	alert
-4.841159	algae
-4.841159	algebraic
-5.017251	algorithm
-4.841159	algorithms
-4.841159	alibi
-4.204337	alien
-4.71622	aliens
-5.017251	aligned
-5.017251	alike
-4.41519	alive
-2.739641	all
-5.017251	all-expense-paid
-5.017251	all-male
-4.841159	all-time
-5.017251	allegiance
-4.540129	allergic
-5.017251	alleviate
-4.841159	alley
-5.017251	alligator
-4.841159	allotted
-4.364038	allow
-4.204337	allowed
-4.71622	allowing
-5.017251	allows
-5.017251	alma
-4.61931	almanac
-4.31828	almost
-5.017251	aloe
-4.063008	alone
-4.087831	along
-5.017251	alongside
-4.71622	alpha
-5.017251	alpha-wave
-5.017251	alphabetical
-4.841159	alphabetically
-5.017251	alphabetized
-3.774212	already
-4.473182	alright
-3.394001	also
-4.841159	alter
-5.017251	altered
-4.473182	alternate
-4.71622	alternative
-4.41519	although
-5.017251	altitude
-4.71622	aluminium
-3.547428	always
-3.111454	am
-5.017251	amalgamation
-5.017251	amaze
-5.017251	amazes
-4.087831	amazing
-5.017251	ambiance
-4.841159	ambient
-4.841159	ambiguous
-5.017251	ambition
-5.017251	ambivalence
-4.841159	ambulance
-5.017251	amend
-5.017251	amigo
-5.017251	amino
-4.841159	ammonia
-4.841159	amniotic
-4.473182	among
-4.71622	amongst
-4.71622	amorous
-4.31828	amount
-5.017251	amounts
-5.017251	amphitheater
-5.017251	amplitudes
-5.017251	amputated
-5.017251	amuse
-5.017251	amused
-4.71622	amusement
-4.71622	amusing
-2.631644	an
-5.017251	anaemia
-4.841159	anaesthesia
-5.017251	anal
-5.017251	analog
-4.841159	analyse
-4.841159	analysing
-4.841159	analysis
-4.841159	analytical
-5.017251	analyze
-4.841159	anarchy
-5.017251	anchovy
-4.364038	ancient
-2.058209	and
-4.61931	and'
-5.017251	and-and
-5.017251	and/or
-5.017251	androgynous
-5.017251	anecdotal
-5.017251	anecdote
-5.017251	anecdotes
-5.017251	anesthesia
-5.017251	aneurysm
-4.841159	anger
-4.61931	angle
-5.017251	angrier
-5.017251	angrily
-3.975858	angry
-4.841159	anguish
-5.017251	angular
-4.473182	animal
-5.017251	animalistic
-4.41519	animals
-5.017251	animatronics
-5.017251	anime
-5.017251	anisotropy
-5.017251	ankles
-5.017251	annihilated
-5.017251	annihilation
-5.017251	annihilations
-4.841159	anniversary
-5.017251	announce
-4.841159	announced
-5.017251	annoy
-5.017251	annoyed
-3.975858	annoying
-4.540129	annual
-5.017251	anodised
-5.017251	anomalies
-5.017251	anomaly
-5.017251	anonymity
-3.562406	another
-3.637039	answer
-4.841159	answered
-4.841159	answering
-4.364038	answers
-4.61931	ant
-4.841159	ante
-4.841159	anteater
-4.71622	anthropic
-5.017251	anthropologist
-5.017251	anthropology
-4.841159	anthropomorphized
-5.017251	anti-Aristotelian
-5.017251	antibiotic-resistant
-5.017251	antibiotics
-5.017251	antibodies
-5.017251	anticipate
-5.017251	anticipated
-5.017251	antihistamine
-4.841159	antioxidants
-5.017251	antiproton
-5.017251	antisocial
-5.017251	ants
-4.41519	anxiety
-3.211071	any
-4.31828	anybody
-4.31828	anymore
-3.761978	anyone
-3.485771	anything
-5.017251	anytime
-4.61931	anyway
-4.71622	anywhere
-4.276888	apart
-3.577918	apartment
-5.017251	apathetic
-4.71622	ape
-4.540129	apes
-4.841159	apocalypse
-5.017251	apocalyptic
-5.017251	apologetic
-4.31828	apologies
-4.841159	apologise
-3.938069	apologize
-4.841159	apologized
-4.204337	apology
-4.540129	app
-5.017251	app'tit
-5.017251	apparel
-4.71622	apparent
-4.142189	apparently
-4.71622	appeal
-4.71622	appealing
-5.017251	appeals
-4.142189	appear
-4.71622	appearance
-5.017251	appearing
-4.276888	appears
-4.71622	appendix
-5.017251	appetite
-5.017251	appetites
-5.017251	appetizer
-5.017251	applaud
-5.017251	applause
-4.41519	apple
-4.71622	apples
-4.473182	application
-5.017251	applicator
-4.71622	applied
-5.017251	applies
-4.540129	apply
-5.017251	applying
-4.841159	appointment
-5.017251	appreciably
-4.017251	appreciate
-5.017251	appreciated
-4.71622	approach
-5.017251	approached
-5.017251	approaches
-5.017251	approaching
-4.063008	appropriate
-5.017251	appropriated
-5.017251	appropriating
-5.017251	approve
-4.841159	approved
-5.017251	approving
-4.841159	approximately
-5.017251	approximation
-5.017251	apr
-5.017251	apsparagus
-5.017251	apt
-5.017251	aptitude
-4.841159	aquarium
-5.017251	aquatic
-5.017251	arachnids
-4.71622	arbitrary
-5.017251	arch
-5.017251	archaeological
-5.017251	archaic
-5.017251	archduchy
-5.017251	archery
-2.576341	are
-4.540129	area
-4.71622	areas
-5.017251	areas'
-5.017251	argon
-4.473182	argue
-5.017251	argues
-4.364038	argument
-5.017251	arguments
-5.017251	argumentum
-4.841159	argyle
-5.017251	arise
-4.841159	arises
-5.017251	arithmetic
-5.017251	ark
-4.540129	arm
-5.017251	armadillo
-5.017251	armies
-4.841159	armour
-5.017251	armpit
-4.61931	arms
-4.61931	army
-5.017251	aroma
-3.570092	around
-5.017251	arousal
-5.017251	aroused
-4.540129	arranged
-4.841159	arrangement
-4.841159	arrangements
-4.841159	array
-5.017251	arrest
-5.017251	arrested
-4.841159	arrival
-4.540129	arrive
-4.41519	arrived
-5.017251	arrogance
-5.017251	arrogant
-5.017251	arrows
-4.71622	art
-5.017251	artichoke
-4.31828	article
-5.017251	articles
-5.017251	artifact
-4.841159	artificial
-5.017251	artificially
-5.017251	artisanal
-4.841159	artistic
-5.017251	artwork
-2.689892	as
-5.017251	ascend
-4.841159	ashamed
-5.017251	ashes
-4.71622	aside
-3.437467	ask
-3.855882	asked
-3.920341	asking
-4.473182	asks
-4.841159	asleep
-5.017251	asparagus
-4.71622	aspect
-4.61931	aspects
-5.017251	aspersions
-5.017251	aspiration
-4.71622	ass
-5.017251	assault
-5.017251	assaults
-5.017251	assemble
-4.540129	assembly
-5.017251	assertion
-5.017251	assess
-5.017251	assessment
-4.841159	assign
-4.71622	assigned
-4.61931	assistance
-4.61931	assistant
-5.017251	associated
-5.017251	assorted
-4.039527	assume
-4.473182	assumed
-4.41519	assuming
-4.540129	assumption
-4.41519	assure
-4.841159	assured
-5.017251	assuring
-5.017251	asterisk
-4.61931	asteroid
-5.017251	asthma
-5.017251	astonishes
-4.841159	astonishing
-4.841159	astrology
-5.017251	astronaut
-5.017251	astronauts
-4.841159	astronomer
-5.017251	astrophysical
-5.017251	astrophysicist
-2.632539	at
-5.017251	at'
-4.71622	ate
-5.017251	athletic
-5.017251	athleticism
-5.017251	atmosphere
-4.71622	atom
-5.017251	atom'
-4.364038	atomic
-4.61931	atoms
-5.017251	atop
-5.017251	attach
-4.71622	attached
-4.841159	attachment
-4.204337	attack
-4.841159	attacked
-4.841159	attacking
-5.017251	attacks
-4.276888	attempt
-5.017251	attempted
-4.239099	attempting
-4.841159	attempts
-4.540129	attend
-5.017251	attendance
-4.841159	attending
-3.996061	attention
-5.017251	attire
-4.61931	attitude
-5.017251	attorney
-5.017251	attorneys
-4.61931	attract
-5.017251	attracted
-4.364038	attractive
-5.017251	attractiveness
-5.017251	attribute
-4.841159	attributes
-5.017251	atypical
-5.017251	auburn
-5.017251	auction
-5.017251	audacity
-5.017251	audible
-4.473182	audience
-5.017251	audiences
-5.017251	audition
-4.841159	auditory
-5.017251	augmented
-4.71622	aunt
-5.017251	auspicious
-4.841159	authentic
-5.017251	authenticity
-5.017251	author
-5.017251	authorities
-4.61931	authority
-4.841159	authorize
-5.017251	authors
-5.017251	autobiography
-4.841159	autograph
-4.61931	autographed
-5.017251	autonomic
-5.017251	autopsy
-5.017251	avail
-5.017251	availability
-4.172153	available
-4.540129	average
-4.540129	avocado
-5.017251	avocation
-4.31828	avoid
-5.017251	avoided
-5.017251	avoiding
-5.017251	aw
-5.017251	awake
-4.841159	awakened
-4.540129	award
-5.017251	awarded
-4.204337	aware
-5.017251	aware'
-5.017251	awareness
-3.594005	away
-4.276888	awful
-4.71622	awfully
-5.017251	awhoopee
-4.41519	awkward
-4.61931	awkwardness
-4.71622	axe
-4.841159	axiomatic
-4.841159	axiomatically
-4.841159	axis
-5.017251	azure
-5.017251	bIr
-5.017251	ba-ack
-5.017251	babble
-5.017251	babe
-4.473182	babies
-3.996061	baby
-5.017251	baby-proof
-5.017251	babysitting
-4.71622	bachelor
-3.098172	back
-5.017251	back-scratching
-5.017251	back-story
-4.841159	back-up
-5.017251	backed
-4.473182	background
-5.017251	backgrounds
-5.017251	backpacks
-4.61931	backs
-5.017251	backseat
-5.017251	backsies
-5.017251	backstroke
-4.71622	backup
-4.61931	backwards
-5.017251	backwash
-5.017251	backwoods
-4.540129	bacon
-5.017251	bacteria
-3.665068	bad
-4.841159	badge
-4.841159	badger
-4.841159	badgering
-5.017251	badly
-4.841159	baffles
-4.71622	baffling
-4.276888	bag
-5.017251	baggy
-4.61931	bags
-4.841159	baguettes
-5.017251	bah
-5.017251	bailee
-5.017251	bailment
-5.017251	bailor
-5.017251	bait
-4.71622	balance
-4.841159	balances
-4.841159	balancing
-5.017251	bald
-4.114161	ball
-5.017251	ball-and-socket
-4.71622	balloon
-5.017251	balloons
-5.017251	ballroom
-4.841159	balls
-5.017251	baloney
-5.017251	bam
-5.017251	banal
-4.71622	banality
-4.71622	banana
-5.017251	banana-fana
-4.71622	band
-5.017251	banditos
-4.841159	bands
-5.017251	bang
-5.017251	banging
-5.017251	banished
-4.71622	banjo
-4.540129	bank
-5.017251	banking
-5.017251	banks
-4.71622	banned
-5.017251	banner-related
-5.017251	banquet
-5.017251	banter
-4.276888	bar
-4.841159	barbecue
-4.61931	barber
-5.017251	barber-themed
-5.017251	barbering
-5.017251	barbershop
-5.017251	bare
-4.841159	barely
-5.017251	bark
-5.017251	barkeep
-4.841159	barn
-5.017251	barrel
-5.017251	barrelling
-5.017251	barren
-4.71622	barrier
-5.017251	barriers
-4.364038	bars
-4.61931	bartender
-5.017251	basal
-4.841159	base
-4.71622	baseball
-3.920341	based
-5.017251	bases
-5.017251	bashed
-4.31828	basic
-4.61931	basically
-5.017251	basics
-4.41519	basis
-4.841159	basket
-5.017251	baskets
-5.017251	bastards
-5.017251	baster
-4.61931	bat
-5.017251	bat'leth
-5.017251	bat-crap
-4.473182	bath
-4.71622	bathing
-5.017251	bathrobe
-3.738497	bathroom
-5.017251	baths
-4.61931	bathtub
-5.017251	battalion
-5.017251	batteries
-4.71622	battery
-5.017251	battery-operated
-4.239099	battle
-5.017251	battlefield
-4.71622	battles
-5.017251	battlestar
-5.017251	bay
-4.61931	bazinga
-2.430663	be
-5.017251	be'
-4.540129	beach
-5.017251	bead
-4.71622	beam
-4.841159	bean
-4.41519	beans
-5.017251	beanstalk
-4.540129	bear
-5.017251	bear-y
-5.017251	bearclaws
-5.017251	beard
-5.017251	beards
-5.017251	bearer
-5.017251	bearing
-4.71622	bears
-4.276888	beat
-5.017251	beaten
-5.017251	beater
-5.017251	beating
-4.841159	beats
-4.364038	beautiful
-4.71622	beauty
-5.017251	beaver
-4.31828	became
-3.111454	because
-4.841159	because'
-5.017251	beckons
-3.996061	become
-4.41519	becomes
-4.61931	becoming
-3.956553	bed
-5.017251	bed-wetting
-5.017251	bedpost
-4.063008	bedroom
-5.017251	bedrooms
-5.017251	beds
-5.017251	bedtime
-4.71622	bee
-4.540129	beef
-5.017251	beefy
-5.017251	beehive
-3.010784	been
-5.017251	beep
-5.017251	beer
-5.017251	beet
-4.841159	beetle
-5.017251	beets
-5.017251	befallen
-3.404467	before
-5.017251	befoulment
-4.61931	befriend
-5.017251	befriends
-5.017251	beg
-4.473182	began
-5.017251	begged
-4.841159	begging
-3.903307	begin
-4.71622	beginning
-4.540129	begins
-5.017251	beguiling
-5.017251	begun
-5.017251	behalf
-5.017251	behave
-4.841159	behavior
-4.039527	behaviour
-4.841159	behavioural
-5.017251	beheaded
-3.871122	behind
-4.841159	behold
-3.345153	being
-4.61931	beings
-5.017251	bejeezus
-5.017251	believable
-3.284857	believe
-4.841159	believed
-4.841159	believes
-5.017251	believing
-5.017251	belittles
-4.841159	bell
-5.017251	bells
-4.71622	belly
-5.017251	bellyaching
-5.017251	belong
-4.841159	belongings
-5.017251	belongs
-4.142189	beloved
-4.540129	below
-4.61931	belt
-5.017251	belts
-5.017251	bench
-5.017251	bend
-4.841159	bending
-5.017251	bendy
-4.61931	beneath
-4.71622	benefit
-5.017251	benefit'
-4.276888	benefits
-5.017251	bengal
-5.017251	bengay
-5.017251	benign
-5.017251	berate
-5.017251	bereft
-4.841159	beret
-5.017251	berserk
-5.017251	beside
-4.841159	bespectacled
-3.479431	best
-5.017251	bested
-4.239099	bet
-4.71622	beta
-5.017251	beta-function
-4.61931	betrayal
-4.473182	betrayed
-5.017251	bets
-3.359239	better
-5.017251	betters
-5.017251	betting
-3.684812	between
-4.087831	beverage
-4.61931	beverages
-4.41519	beyond
-5.017251	bi
-5.017251	bias
-5.017251	bible
-5.017251	biblical
-4.841159	bickering
-4.841159	bicycle
-4.71622	bid
-5.017251	bidder
-3.585887	big
-5.017251	big-boobed
-5.017251	big-boy
-5.017251	big-time
-4.41519	bigger
-4.841159	biggest
-4.61931	bike
-4.71622	bill
-5.017251	billed
-4.841159	billion
-5.017251	billions
-5.017251	bin
-5.017251	binary
-5.017251	bind
-5.017251	binding
-5.017251	bingo
-5.017251	bins
-5.017251	bio
-5.017251	bio-feedback
-4.841159	biochemical
-5.017251	biodome
-5.017251	biographer
-4.71622	biological
-5.017251	biologist
-4.841159	biologists
-4.473182	biology
-5.017251	biomechanics
-5.017251	bioorganic
-4.540129	bird
-4.41519	birds
-4.71622	birth
-3.841159	birthday
-5.017251	birthdays
-5.017251	birthright
-5.017251	biscuit
-5.017251	bishop
-3.996061	bit
-5.017251	bitch
-5.017251	bitchin
-4.61931	bite
-5.017251	bite-sized
-4.71622	bites
-5.017251	bits
-5.017251	bitsy
-4.71622	bitten
-5.017251	bitter
-4.841159	biz
-5.017251	blabbed
-4.364038	black
-5.017251	blacken
-5.017251	blackmailed
-5.017251	blackout
-4.364038	bladder
-5.017251	bladders
-5.017251	blade
-5.017251	blades
-4.61931	blah
-4.364038	blame
-5.017251	blank
-4.71622	blanket
-4.841159	blankets
-5.017251	blaring
-4.71622	blast
-5.017251	blast-off
-5.017251	blaster
-5.017251	blatant
-5.017251	blazer
-5.017251	blazing
-5.017251	bleachers
-5.017251	bleak
-5.017251	bleed
-5.017251	bleeding
-4.841159	blend
-4.841159	bless
-4.841159	blessing
-5.017251	bleugh
-4.841159	blew
-4.71622	blind
-5.017251	blinded
-5.017251	blindfold
-5.017251	blindfolded
-5.017251	blindingly
-4.841159	blink
-5.017251	blinking
-5.017251	blissful
-5.017251	blister
-5.017251	blitz
-5.017251	blitzkrieg
-5.017251	bloated
-4.61931	block
-5.017251	blocked
-5.017251	blockheads
-4.841159	blocks
-4.841159	blog
-5.017251	blogs
-4.540129	blonde
-4.172153	blood
-5.017251	blood-thirsty
-5.017251	blooded
-5.017251	bloom
-4.841159	blossoms
-4.276888	blow
-5.017251	blowers
-5.017251	bloweth
-5.017251	blowfly
-4.71622	blowing
-5.017251	blown
-5.017251	blowout
-5.017251	blu-ray
-5.017251	bludgeon
-5.017251	bludgeons
-4.276888	blue
-5.017251	blueberries
-4.841159	blueberry
-4.841159	blues
-5.017251	bluff
-5.017251	bluffing
-4.841159	blunder
-5.017251	blurry
-5.017251	bo-beeting
-5.017251	boa
-4.172153	board
-4.61931	boat
-5.017251	boats
-5.017251	bobble
-5.017251	bobblehead
-4.841159	bobcat
-5.017251	bobsled
-4.71622	bodies
-4.841159	bodily
-3.81313	body
-5.017251	boggle
-5.017251	boiled
-5.017251	boiling
-5.017251	bologna
-4.841159	bomb
-5.017251	bona
-5.017251	bond
-4.841159	bonding
-4.71622	bonds
-4.61931	bone
-4.841159	bones
-5.017251	bongo
-4.473182	bongos
-5.017251	bonobo
-4.841159	bonus
-5.017251	boo-boo
-3.695031	book
-4.063008	books
-4.841159	bookstore
-5.017251	boon
-5.017251	boot
-5.017251	bootblack
-5.017251	booth
-5.017251	booties
-4.71622	boots
-5.017251	bootyto
-5.017251	booze
-5.017251	border
-5.017251	borders
-4.540129	bored
-4.61931	boring
-4.473182	born
-4.71622	borrow
-4.61931	borrowed
-5.017251	bortaS
-4.71622	bosom
-4.540129	boson
-5.017251	bosonic
-4.540129	boss
-3.577918	both
-4.41519	bother
-4.540129	bothered
-4.841159	bothering
-5.017251	bothers
-5.017251	bottle
-5.017251	bottle-blonde
-5.017251	bottle-blonde'
-5.017251	bottles
-4.41519	bottom
-5.017251	bottoms
-5.017251	botulism
-5.017251	bouffant
-5.017251	boughs
-4.087831	bought
-4.841159	bouillon
-4.841159	bounced
-4.841159	bouncy
-4.841159	bound
-4.841159	boundaries
-5.017251	bounds
-4.841159	bourbon
-5.017251	bow
-4.31828	bowel
-5.017251	bowel-regulating
-5.017251	bowels
-4.039527	bowl
-5.017251	bowler
-5.017251	bowlers
-4.41519	bowling
-5.017251	bowls
-3.871122	box
-5.017251	boxed
-5.017251	boxer
-5.017251	boxers
-3.750079	boy
-5.017251	boy-girl
-5.017251	boy-sized
-4.31828	boyfriend
-4.540129	boys
-5.017251	brace
-5.017251	bracelets
-5.017251	bracing
-5.017251	brag
-4.841159	bragging
-5.017251	braille
-3.81313	brain
-5.017251	brain'
-5.017251	brain-wave
-4.841159	brains
-4.841159	brake
-4.841159	brakes
-4.841159	branch
-4.841159	brand
-5.017251	brand-new
-5.017251	brandy
-5.017251	brass
-5.017251	brassiere
-4.71622	brave
-5.017251	bravest
-5.017251	bravo
-5.017251	brawny
-4.71622	breach
-4.364038	bread
-5.017251	breading
-3.886917	break
-5.017251	break-dancer
-5.017251	breaker
-4.172153	breakfast
-4.540129	breaking
-4.473182	breaks
-4.540129	breakthrough
-4.540129	breakup
-5.017251	breasts
-5.017251	breath
-4.540129	breathe
-5.017251	breathes
-4.71622	breathing
-5.017251	breed
-5.017251	breeders
-4.71622	breeze
-5.017251	brew
-5.017251	brewed
-4.841159	bride
-5.017251	brides
-4.841159	bridge
-5.017251	bridge-of-nose
-5.017251	bridle
-5.017251	brief
-5.017251	briefing
-4.71622	briefly
-5.017251	briefs
-4.841159	bright
-5.017251	brighter
-4.841159	brightest
-4.172153	brilliant
-5.017251	brimstone
-4.841159	brine
-3.786802	bring
-4.540129	bringing
-4.31828	brings
-4.841159	britches
-4.841159	brittle
-5.017251	broach
-5.017251	broad
-5.017251	broaden
-4.841159	broccoli
-4.276888	broke
-4.204337	broken
-5.017251	bronze
-5.017251	broth
-4.063008	brother
-5.017251	brothers
-3.920341	brought
-4.540129	brown
-5.017251	browser
-5.017251	browsing
-5.017251	brunch
-5.017251	brushing
-5.017251	brussels
-5.017251	brutal
-4.841159	bubble
-5.017251	bubbles
-5.017251	bubbling
-5.017251	bubbly
-5.017251	bubbula
-4.841159	buck
-4.841159	bucket
-5.017251	buckle
-5.017251	buckled
-4.71622	buckles
-5.017251	bucks
-4.41519	buddy
-5.017251	budge
-4.841159	budget
-5.017251	buenas
-5.017251	buff
-5.017251	buffed
-4.841159	buffer
-4.841159	buffet
-5.017251	buggy
-5.017251	bugs
-5.017251	buh
-4.172153	build
-5.017251	build-your-own
-3.920341	building
-5.017251	buildings
-5.017251	buildup
-4.61931	built
-5.017251	built-in
-5.017251	bulb
-5.017251	bulk
-5.017251	bull
-5.017251	bulldozers
-5.017251	bulletproof
-4.61931	bullies
-4.841159	bully
-4.841159	bum
-5.017251	bum-bum
-5.017251	bummer
-5.017251	bump
-5.017251	bumper
-4.61931	bumps
-5.017251	bun
-4.61931	bunch
-4.841159	bunk
-4.841159	bunkhouse
-4.61931	bunny
-5.017251	buoy
-5.017251	buoyed
-4.71622	burden
-5.017251	burger
-5.017251	buried
-4.41519	burn
-4.61931	burned
-4.71622	burner
-5.017251	burners
-4.841159	burning
-4.841159	burns
-5.017251	burrito
-4.841159	burst
-5.017251	bursting
-5.017251	bury
-4.114161	bus
-5.017251	buses
-4.71622	bush
-3.975858	business
-5.017251	bust
-5.017251	buster
-4.114161	busy
-2.577918	but
-5.017251	but'
-5.017251	butch
-5.017251	butcher
-5.017251	butchered
-4.841159	buts
-4.841159	butt
-4.31828	butter
-5.017251	buttered
-4.841159	butterfly
-5.017251	buttermilks
-4.841159	buttock
-4.473182	buttocks
-4.473182	button
-4.71622	buttons
-3.938069	buy
-4.31828	buying
-4.841159	buys
-4.841159	buzz
-5.017251	buzzkill
-5.017251	bwch-wch-wch-wch-wch-wch
-2.875801	by
-5.017251	by-products
-2.977836	ca
-4.841159	cab
-5.017251	cabbage
-5.017251	cabin
-4.61931	cable
-4.71622	caboose
-5.017251	cadet
-4.473182	cafeteria
-4.61931	caffeine
-5.017251	cage
-4.540129	cake
-5.017251	calcium
-5.017251	calculable
-5.017251	calculate
-4.841159	calculating
-4.71622	calculations
-4.540129	calculus
-4.61931	calendar
-5.017251	calf
-4.841159	calibration
-3.547428	call
-3.585887	called
-4.71622	caller
-5.017251	callers
-4.239099	calling
-5.017251	calling'
-5.017251	callipers
-5.017251	callosum
-5.017251	callous
-5.017251	calloused
-4.364038	calls
-4.41519	calm
-5.017251	calories
-5.017251	calzones
-3.705497	came
-5.017251	camel
-5.017251	camels
-4.61931	camera
-5.017251	cameraperson
-5.017251	camomile
-5.017251	camouflage
-4.841159	campaign
-5.017251	camped
-4.841159	campus
-2.714054	can
-5.017251	can't-miss
-5.017251	can'tmake
-4.841159	canal
-4.71622	cancel
-4.71622	cancelled
-5.017251	cancelling
-4.71622	cancer
-5.017251	candid
-5.017251	candidate
-4.841159	candidates
-5.017251	candies
-5.017251	candle
-4.71622	candles
-4.841159	candour
-4.41519	candy
-5.017251	candyland
-5.017251	canned
-5.017251	cannon
-4.841159	cans
-4.61931	cap
-4.276888	capable
-4.71622	capacity
-5.017251	cape
-5.017251	caped
-5.017251	capital
-4.841159	caps
-4.61931	captain
-5.017251	captains'
-5.017251	caption
-5.017251	captive
-5.017251	capture
-4.71622	capybara
-3.637039	car
-5.017251	caramelizing
-5.017251	carbohydrates
-4.540129	carbon
-5.017251	carbonate
-5.017251	carcinogenic
-5.017251	carcinogens
-3.938069	card
-4.841159	cardboard
-5.017251	cardigan
-5.017251	cardinal
-5.017251	cardiomyopathy
-5.017251	cardiovascular
-4.276888	cards
-3.665068	care
-4.841159	cared
-4.114161	career
-5.017251	careers
-4.473182	careful
-4.540129	carefully
-4.540129	cares
-5.017251	caress
-5.017251	cargo
-4.841159	caring
-4.71622	carnal
-5.017251	carol
-5.017251	carols
-4.841159	carpal
-5.017251	carpentry
-5.017251	carpool
-4.841159	carried
-4.841159	carrier
-5.017251	carriers
-5.017251	carries
-5.017251	carrot
-5.017251	carrots
-4.239099	carry
-5.017251	carry-on
-4.841159	carrying
-4.540129	cars
-5.017251	cart
-5.017251	cartoon
-5.017251	cartoons
-5.017251	carving
-5.017251	cascading
-3.705497	case
-5.017251	cases
-5.017251	cash
-5.017251	cashew
-4.540129	cast
-5.017251	castanets
-5.017251	castle
-5.017251	castles
-4.71622	casual
-4.841159	casually
-3.996061	cat
-5.017251	cat-like
-5.017251	cataclysmic
-5.017251	catapult
-4.841159	catastrophe
-5.017251	catatonic
-4.276888	catch
-4.841159	catching
-5.017251	categorize
-5.017251	category
-5.017251	cater
-4.841159	caterpillar
-5.017251	caterpillars
-5.017251	caters
-5.017251	caterwauling
-4.41519	cats
-4.841159	cattle
-5.017251	cattywampus
-4.841159	catwoman
-5.017251	catwomen
-4.31828	caught
-4.841159	causality
-4.473182	cause
-4.540129	caused
-4.71622	causes
-4.41519	causing
-5.017251	cautious
-4.71622	cave
-5.017251	caves
-5.017251	cavorting
-5.017251	ceases
-5.017251	ceiling
-5.017251	ceilings
-4.364038	celebrate
-4.71622	celebrated
-4.540129	celebrating
-4.71622	celebration
-5.017251	celebratory
-5.017251	celebrities
-4.61931	celebrity
-4.473182	cell
-5.017251	cello
-4.473182	cells
-5.017251	cellular
-5.017251	cement
-5.017251	cemented
-5.017251	center
-5.017251	centimetres
-5.017251	central
-4.41519	centre
-5.017251	centred
-5.017251	centres
-5.017251	centrifugal
-4.71622	centrifuge
-5.017251	cents
-4.142189	century
-5.017251	ceramic
-4.41519	cereal
-4.841159	cerebral
-4.61931	ceremony
-4.063008	certain
-4.114161	certainly
-4.841159	certainty
-5.017251	certificate
-5.017251	cetera
-5.017251	ch
-5.017251	cha
-5.017251	cha-cha
-5.017251	chai
-4.841159	chain
-5.017251	chains
-4.841159	chainsaw
-4.204337	chair
-5.017251	chairs
-5.017251	chalk
-4.364038	challenge
-5.017251	challenged
-4.41519	challenging
-5.017251	champagne
-4.841159	champion
-5.017251	championship
-4.063008	chance
-5.017251	chances
-3.826919	change
-4.063008	changed
-4.31828	changes
-4.41519	changing
-5.017251	channel
-5.017251	chanting
-4.540129	chaos
-5.017251	chaotic
-5.017251	chap
-5.017251	chaps
-5.017251	chapter
-4.087831	character
-4.841159	characteristic
-5.017251	characteristics
-4.841159	characterization
-5.017251	characterized
-4.841159	characterizing
-4.841159	characters
-5.017251	charade
-5.017251	charcoal
-5.017251	chard
-4.204337	charge
-4.71622	charged
-5.017251	charges
-5.017251	charging
-4.71622	charm
-4.841159	charming
-5.017251	charms
-5.017251	charred
-4.841159	chart
-4.71622	charts
-5.017251	chase
-4.540129	chased
-5.017251	chaser
-5.017251	chases
-4.841159	chasing
-5.017251	chasm
-4.31828	chat
-5.017251	chatroom
-5.017251	chattels
-4.71622	chatter
-5.017251	chatting
-5.017251	chauffeured
-5.017251	cheap
-5.017251	cheaper
-4.841159	cheating
-3.826919	check
-5.017251	check-engine
-4.61931	checked
-4.71622	checking
-5.017251	checks
-5.017251	cheek
-4.540129	cheer
-5.017251	cheerier
-5.017251	cheers
-4.087831	cheese
-4.71622	cheeseburger
-5.017251	cheeseless
-5.017251	cheezburger
-5.017251	chef
-4.61931	chemical
-4.61931	chemicals
-5.017251	chemist
-4.71622	chemistry
-4.841159	cheque
-5.017251	cherries
-5.017251	cherrrkh
-5.017251	cherry
-4.142189	chess
-4.473182	chest
-4.841159	chew
-5.017251	chewing
-5.017251	chews
-3.841159	chicken
-5.017251	chicken-fried
-5.017251	chickens
-5.017251	chief
-3.886917	child
-4.473182	childhood
-4.841159	childish
-5.017251	childless
-5.017251	childlike
-3.938069	children
-5.017251	chillies
-5.017251	chills
-5.017251	chimes
-5.017251	chimney
-5.017251	chimp
-4.841159	chimpanzees
-4.841159	chimps
-4.841159	chin
-5.017251	chin-up
-5.017251	chintzy
-4.841159	chip
-4.71622	chips
-4.71622	chirps
-5.017251	chit
-4.71622	chitchat
-5.017251	chivalry
-4.31828	chocolate
-3.738497	choice
-4.841159	choices
-5.017251	choir
-4.71622	choke
-5.017251	choking
-5.017251	cholera
-5.017251	cholermus
-4.204337	choose
-4.841159	chooses
-4.841159	choosing
-5.017251	chop
-5.017251	chopped-up
-4.841159	choreographed
-5.017251	chorus
-4.364038	chose
-4.31828	chosen
-5.017251	chromosome
-5.017251	chrono-dynamics
-5.017251	chronologically
-5.017251	chrysanthemum
-5.017251	chuckle
-4.841159	chum
-5.017251	chunk
-4.71622	chunks
-5.017251	chuppah
-4.473182	church
-5.017251	churn
-5.017251	churro
-5.017251	chutes
-5.017251	cicadas
-5.017251	cider
-5.017251	cigar
-5.017251	cigarette
-5.017251	cigars
-5.017251	cinderblock
-5.017251	cinderblocks
-5.017251	cinema
-5.017251	cinnamon
-5.017251	circa
-4.31828	circle
-4.841159	circles
-5.017251	circuit
-4.841159	circuits
-4.841159	circular
-5.017251	circulatory
-5.017251	circumstance
-4.540129	circumstances
-5.017251	circumvent
-4.841159	circus
-5.017251	cite
-5.017251	cited
-4.841159	cities
-4.841159	citizen
-5.017251	citizens
-4.841159	citrus
-4.276888	city
-4.841159	civet
-5.017251	civil
-5.017251	civilians
-5.017251	civility
-4.71622	civilization
-4.841159	clacked
-5.017251	clad
-4.71622	claim
-4.71622	claimed
-5.017251	claims
-5.017251	clairvoyance
-5.017251	clam
-5.017251	clan
-5.017251	clapped
-4.841159	clarification
-5.017251	clarified
-4.71622	clarify
-4.364038	class
-4.841159	classes
-4.087831	classic
-5.017251	classics
-4.41519	classified
-4.841159	classroom
-4.540129	clause
-5.017251	claustrophobia
-5.017251	claustrophobic
-5.017251	claw-foot
-5.017251	claws
-5.017251	clay
-4.41519	clean
-5.017251	cleaned
-4.540129	cleaner
-4.540129	cleaning
-5.017251	cleans
-4.017251	clear
-4.71622	clearance
-5.017251	cleared
-5.017251	clearer
-5.017251	clearing
-3.975858	clearly
-5.017251	clenched
-5.017251	clenching
-4.239099	clever
-5.017251	clich
-4.473182	click
-5.017251	click-clack
-4.71622	clicked
-4.841159	clickety-clack
-5.017251	clickety-clacking
-5.017251	clicking
-4.71622	cliffhanger
-5.017251	climactic
-5.017251	climb
-5.017251	climbing
-5.017251	clincher
-5.017251	clinical
-5.017251	clinically
-5.017251	clinking
-5.017251	clip-on
-5.017251	clippers
-4.71622	cloaking
-4.540129	clock
-5.017251	clocks
-5.017251	clockwise
-5.017251	clone
-4.114161	close
-4.61931	closed
-5.017251	closely
-4.473182	closer
-4.841159	closest
-4.41519	closet
-5.017251	closing
-4.841159	closure
-5.017251	clot
-4.276888	clothes
-5.017251	clothespin
-4.71622	clothing
-5.017251	cloud
-5.017251	clowder
-4.473182	clown
-4.841159	clowns
-4.841159	cloying
-4.61931	club
-4.841159	cluck
-4.841159	clue
-5.017251	clumsy
-5.017251	cluster
-5.017251	clutching
-5.017251	co-captain
-5.017251	co-conspirators
-5.017251	co-creator
-4.841159	co-host
-5.017251	coach
-4.841159	coal
-5.017251	coalesce
-5.017251	coast
-5.017251	coasters
-4.841159	coat
-5.017251	cobbler
-4.61931	cocaine
-5.017251	coccuses
-5.017251	coccyges
-4.841159	coccyx
-5.017251	cockamamie
-4.841159	cocktail
-4.841159	cocky
-4.540129	cocoa
-4.540129	coconut
-5.017251	coconuts
-4.276888	code
-5.017251	coded
-5.017251	codifies
-5.017251	codpiece
-4.841159	coefficient
-4.540129	coeruleus
-4.142189	coffee
-5.017251	coffin
-4.61931	cogent
-5.017251	cognition
-4.540129	cognitive
-5.017251	cogs
-5.017251	cohort
-5.017251	cohorts
-5.017251	coin
-4.841159	coincide
-4.61931	coincidence
-5.017251	coined
-3.799767	coitus
-5.017251	colada
-4.063008	cold
-5.017251	coldest
-5.017251	collaborate
-5.017251	collaborating
-5.017251	collaboration
-5.017251	collapses
-5.017251	collapsible
-5.017251	collar
-5.017251	collarbone
-4.41519	colleague
-4.364038	colleagues
-5.017251	collect
-5.017251	collected
-4.841159	collectible
-4.841159	collecting
-4.540129	collection
-4.841159	collective
-4.841159	collector
-4.540129	college
-5.017251	college-ruled
-5.017251	colliculus
-5.017251	collider
-5.017251	collision
-5.017251	collisions
-5.017251	colloidal
-4.841159	colloquial
-4.71622	cologne
-4.71622	colon
-5.017251	colonel
-5.017251	colonize
-5.017251	colonizing
-4.71622	colonoscopy
-4.841159	colony
-5.017251	color
-4.276888	colour
-5.017251	colourless
-4.841159	colours
-4.841159	com
-5.017251	comas
-5.017251	comatose
-4.841159	comb
-4.473182	combination
-4.841159	combine
-4.71622	combined
-5.017251	combining
-4.841159	combustion
-3.23192	come
-4.841159	comeback
-5.017251	comedic
-4.540129	comedy
-3.750079	comes
-4.172153	comfort
-4.172153	comfortable
-5.017251	comfortably
-4.71622	comforting
-3.761978	comic
-5.017251	comic-con
-4.71622	comics
-3.674828	coming
-5.017251	comma
-4.540129	command
-5.017251	commands
-5.017251	commemorating
-4.71622	commemorative
-4.473182	comment
-5.017251	commentary
-5.017251	commenting
-4.473182	comments
-4.71622	commercial
-4.71622	commitment
-4.71622	committed
-4.61931	committee
-5.017251	committing
-4.017251	common
-5.017251	commoner
-4.841159	commonly
-4.71622	communal
-4.71622	communicate
-4.841159	communication
-4.473182	community
-5.017251	compact
-5.017251	compactification
-5.017251	companies
-4.540129	companion
-4.841159	companions
-4.71622	companionship
-4.364038	company
-5.017251	comparable
-5.017251	comparatively
-4.61931	compare
-4.841159	compared
-5.017251	comparing
-4.71622	comparison
-5.017251	compartments
-5.017251	compassion
-5.017251	compatible
-5.017251	compatriots
-5.017251	compel
-4.71622	compelling
-5.017251	compensate
-5.017251	compensation
-5.017251	compete
-5.017251	competed
-5.017251	competent
-4.473182	competition
-5.017251	competitions
-5.017251	compiling
-4.841159	complacent
-4.364038	complain
-4.841159	complaining
-4.71622	complaint
-5.017251	complaints
-4.039527	complete
-5.017251	completed
-4.087831	completely
-5.017251	completes
-5.017251	completing
-5.017251	completion
-4.41519	complex
-4.61931	complicated
-4.841159	compliment
-5.017251	complimentary
-5.017251	compliments
-4.841159	component
-5.017251	composed
-5.017251	composing
-4.841159	comprehend
-5.017251	comprehensive
-4.473182	compromise
-5.017251	compromised
-4.71622	compromising
-5.017251	compulsion
-5.017251	compulsive
-4.204337	computer
-5.017251	comrades
-5.017251	con
-5.017251	concavity
-5.017251	conceal
-5.017251	concealer
-4.841159	concede
-5.017251	conceded
-5.017251	concentrated
-4.841159	concentrating
-4.841159	concentration
-4.71622	concept
-5.017251	conception
-5.017251	concepts
-5.017251	conceptualize
-4.31828	concern
-4.172153	concerned
-4.61931	concerns
-5.017251	concert
-5.017251	concession
-5.017251	concessions
-4.841159	concise
-4.841159	conclude
-4.841159	concludes
-4.31828	conclusion
-4.71622	conclusive
-4.841159	conclusively
-5.017251	concussion
-4.841159	condemn
-5.017251	condemnation
-5.017251	condemned
-5.017251	condensate
-5.017251	condensates
-4.71622	condescending
-5.017251	condescension
-5.017251	condiment
-5.017251	condiments
-4.540129	condition
-5.017251	conditional
-5.017251	conditioner
-4.841159	conditioning
-4.61931	conditions
-4.841159	condoms
-4.540129	conduct
-4.841159	conducted
-5.017251	conducting
-4.540129	conductor
-5.017251	conduit
-4.540129	conference
-4.841159	confetti
-4.841159	confetto
-4.841159	confidence
-4.71622	confident
-4.841159	confidential
-5.017251	confidentiality
-4.71622	confirm
-5.017251	confirmation
-5.017251	confirmed
-4.71622	conflict
-4.841159	confounded
-4.71622	confront
-5.017251	confrontation
-5.017251	confrontational
-4.841159	confronting
-4.841159	confuse
-4.239099	confused
-5.017251	confuses
-4.61931	confusing
-4.61931	confusion
-5.017251	congealed
-5.017251	congestive
-5.017251	congratulated
-5.017251	congratulating
-4.61931	congratulations
-5.017251	conical
-4.841159	conjecture
-5.017251	conjunctivitis
-4.841159	conn.
-4.71622	connect
-4.71622	connected
-4.71622	connection
-5.017251	cons
-5.017251	conscience
-5.017251	conscious
-4.71622	consciousness
-5.017251	consecutive
-5.017251	consensus
-5.017251	consent
-5.017251	consequences
-4.142189	consider
-5.017251	considerate
-4.61931	consideration
-4.087831	considered
-4.841159	considering
-4.61931	consistency
-5.017251	consistent
-5.017251	consists
-5.017251	consolation
-4.276888	constant
-4.71622	constantly
-5.017251	constitutionally
-5.017251	constrictor
-4.841159	construct
-4.71622	construction
-4.841159	consume
-5.017251	consumed
-5.017251	consumer
-5.017251	consumerism
-4.364038	contact
-5.017251	contacted
-4.841159	contagious
-4.540129	contain
-4.71622	contained
-4.841159	container
-4.841159	containers
-5.017251	containing
-5.017251	containment
-4.364038	contains
-5.017251	contaminate
-5.017251	contempt
-4.841159	content
-5.017251	content'
-4.841159	contents
-4.540129	contest
-5.017251	contests
-4.540129	context
-5.017251	continental
-5.017251	continually
-5.017251	continuation
-4.364038	continue
-4.841159	continued
-4.841159	continuing
-5.017251	continuum
-5.017251	contra-indicated
-4.473182	contract
-5.017251	contractor
-5.017251	contracts
-5.017251	contractual
-5.017251	contractually
-4.841159	contradict
-5.017251	contradictory
-5.017251	contraire
-4.71622	contrary
-5.017251	contribute
-4.41519	contribution
-4.61931	contributions
-4.204337	control
-4.71622	controlled
-5.017251	controllers
-4.841159	controlling
-4.71622	controls
-5.017251	controversial
-5.017251	controversy
-4.841159	conundrum
-4.841159	convenience
-5.017251	convenient
-5.017251	convening
-4.087831	convention
-5.017251	conventional
-5.017251	conventions
-3.786802	conversation
-4.61931	conversational
-5.017251	conversationalists
-4.841159	conversations
-5.017251	converse
-5.017251	conversing
-4.841159	converted
-5.017251	converting
-4.61931	convince
-4.71622	convinced
-4.71622	convincing
-5.017251	convincingly
-5.017251	convoluted
-4.841159	cook
-5.017251	cooked
-4.41519	cookie
-4.540129	cookies
-4.841159	cooking
-5.017251	cooks
-4.087831	cool
-4.841159	cooler
-5.017251	cooped
-5.017251	coordinate
-5.017251	cootie
-5.017251	cope
-5.017251	coping
-5.017251	copious
-5.017251	coplete
-4.71622	copulate
-4.473182	copy
-5.017251	copying
-5.017251	copyright
-4.71622	core
-4.71622	corn
-5.017251	corn-fed
-5.017251	corncob
-4.473182	corner
-4.841159	cornered
-5.017251	corners
-5.017251	cornfield
-5.017251	cornhusking
-5.017251	cornucopia
-5.017251	coronary
-4.841159	corporate
-5.017251	corporation
-5.017251	corps
-5.017251	corpse
-5.017251	corpus
-3.996061	correct
-5.017251	corrected
-5.017251	correcting
-4.71622	correctly
-5.017251	corresponded
-5.017251	correspondence
-4.841159	corresponding
-5.017251	corroborated
-4.71622	cortex
-5.017251	cosies
-5.017251	cosmetics
-5.017251	cosmic
-4.841159	cosmological
-4.71622	cosmology
-4.71622	cost
-4.239099	costume
-4.473182	costumes
-4.841159	costuming
-5.017251	cosy
-5.017251	cotillion
-4.71622	cotton
-4.039527	couch
-5.017251	cough
-2.91004	could
-5.017251	coulda
-5.017251	counsellor
-4.41519	count
-5.017251	counted
-4.841159	counter
-5.017251	counter-clockwise
-5.017251	counterproductive
-4.71622	counting
-4.841159	countless
-5.017251	countries
-4.239099	country
-4.71622	counts
-4.142189	couple
-4.841159	coupler
-4.61931	couples
-5.017251	coupling
-5.017251	coupons
-5.017251	courage
-3.201009	course
-4.61931	court
-4.841159	court-martial
-5.017251	courted
-5.017251	courtesy
-4.841159	courthouse
-5.017251	courtship
-4.540129	cousin
-4.61931	covenant
-4.61931	cover
-4.41519	covered
-4.841159	covering
-4.71622	covers
-4.540129	cow
-5.017251	cowboys
-5.017251	cowcatcher
-5.017251	cowl
-5.017251	coworkers
-5.017251	cowpokes
-4.71622	cows
-5.017251	coy
-5.017251	coyote
-5.017251	coziest
-4.841159	cozy
-5.017251	crabby
-4.71622	crack
-5.017251	cracked
-4.841159	cracker
-5.017251	crackers
-4.841159	cracking
-5.017251	crackpot
-5.017251	crackpots
-5.017251	cradles
-5.017251	craft
-5.017251	crammed
-5.017251	cramps
-5.017251	crampy
-4.841159	cranberry
-5.017251	crankiness
-4.61931	cranky
-5.017251	cranny
-5.017251	crap
-5.017251	craps
-4.71622	crash
-4.841159	crashed
-5.017251	crass
-4.841159	craving
-5.017251	craw
-4.71622	crawl
-5.017251	crawling
-4.063008	crazy
-4.239099	cream
-5.017251	creamy
-4.087831	create
-4.41519	created
-5.017251	creates
-4.841159	creating
-5.017251	creation
-5.017251	creations
-4.841159	creative
-4.61931	creature
-4.71622	creatures
-5.017251	credence
-5.017251	credential
-5.017251	credentials
-5.017251	credibility
-4.142189	credit
-5.017251	creeds
-5.017251	creep
-5.017251	creepers
-4.841159	creepy
-5.017251	crescent-shaped
-5.017251	crewman
-4.364038	cricket
-5.017251	crickets
-4.540129	cried
-4.841159	cries
-4.364038	crime
-5.017251	crime-fighting
-4.841159	criminal
-5.017251	criminals
-5.017251	crimson
-5.017251	crises
-4.71622	crisis
-5.017251	crispiness
-5.017251	criteria
-4.841159	critical
-5.017251	criticise
-5.017251	criticising
-4.71622	criticism
-4.71622	criticize
-5.017251	critters
-5.017251	crocodile
-5.017251	croissants
-5.017251	crops
-4.41519	cross
-5.017251	cross-support
-5.017251	crossbow
-4.540129	crossed
-5.017251	crosses
-5.017251	crossover
-5.017251	crossroads
-5.017251	crosswalk
-5.017251	crotch
-5.017251	crouch
